%YAML:1.0
---
_100-200-test2: !!opencv-object-detector-hog
   winSize: [ 64, 128 ]
   blockSize: [ 16, 16 ]
   blockStride: [ 8, 8 ]
   cellSize: [ 8, 8 ]
   nbins: 9
   derivAperture: 1
   winSigma: 4.
   histogramNormType: 0
   L2HysThreshold: 2.0000000000000001e-01
   gammaCorrection: 1
   nlevels: 64
   signedGradient: 0
   SVMDetector: [ 1.94509630e-03, 3.73152457e-03, 1.23166973e-02,
       2.14465186e-02, 2.25650184e-02, 1.28267119e-02, 1.16948253e-02,
       8.92309658e-03, 6.45282725e-03, 5.22872526e-03, 7.87693914e-03,
       8.72578938e-03, 6.01751450e-03, 1.32959033e-03, 1.12242601e-03,
       7.20859680e-04, -7.06050731e-03, 4.02413658e-04, -6.92195958e-03,
       4.72092489e-03, 1.58838369e-02, 2.43760813e-02, 1.77949469e-03,
       7.59822363e-03, 1.73440296e-03, -2.80700345e-03, -1.13748293e-02,
       -1.04314508e-02, -4.60036192e-03, 1.00752227e-02, 4.74421773e-03,
       -2.29363646e-02, 4.55559278e-03, -6.17661746e-03, -2.60450039e-03,
       -6.04190864e-03, -2.11417023e-03, 5.65697951e-03, 8.26621894e-03,
       3.12752812e-03, 1.46164801e-02, 5.98850707e-03, -6.27398910e-03,
       -6.49695052e-03, -6.45615952e-03, 1.03803016e-02, 9.72951669e-03,
       1.61047541e-02, 1.07608633e-02, 1.79474503e-02, 9.91577189e-03,
       1.62897108e-03, -6.05591619e-03, 2.05239019e-04, -1.49753271e-02,
       -3.04087205e-03, 5.70557360e-03, 2.81638280e-03, 4.41681035e-03,
       4.98352107e-03, -7.75310770e-03, -2.61563994e-03, -1.26535976e-02,
       1.67859357e-03, 1.46676898e-02, 2.01677158e-02, 1.93764251e-02,
       1.81870647e-02, 5.23428340e-03, 1.40611334e-02, 8.01145192e-03,
       -4.60790237e-03, -8.22100136e-03, 8.92031565e-03, 1.52280135e-02,
       9.38454550e-03, 5.90828666e-03, 7.94955902e-03, 6.61133183e-03,
       -2.48630211e-04, -8.47545639e-03, -2.57406048e-02, 3.89809138e-03,
       2.10164767e-02, 1.68833807e-02, 3.25778918e-03, 7.67271616e-04,
       -1.09892441e-02, 1.24934025e-03, -1.75076295e-02, -1.59041174e-02,
       2.87936185e-03, 1.21302828e-02, 1.04775196e-02, 4.37481469e-03,
       4.25028207e-04, 1.19580235e-02, 7.85634574e-03, -1.36126569e-02,
       -1.18473303e-02, 5.95075265e-03, 2.25061383e-02, 1.73221063e-02,
       1.47049334e-02, 2.02501658e-02, 9.65236500e-03, 9.72537696e-03,
       -3.39166890e-03, -1.59967914e-02, 5.97468764e-03, 2.07303669e-02,
       1.03377262e-02, -8.92348960e-03, 1.64679612e-03, -5.01373829e-03,
       -7.27077480e-03, -1.90121531e-02, -6.51175110e-03, 9.91907530e-03,
       9.63452365e-03, -2.99219566e-04, -1.01404367e-02, 1.51323632e-03,
       4.09813737e-03, -1.03661949e-02, -1.13176815e-02, -9.85879451e-04,
       2.10088305e-02, 3.02718300e-02, 1.60635170e-02, -2.51320959e-03,
       7.64853274e-03, -2.82337540e-03, -2.34073261e-03, -1.00981840e-03,
       1.13669811e-02, 3.45349908e-02, 3.67476232e-02, 1.10921646e-02,
       -1.86245535e-02, 1.06703432e-03, -1.38993673e-02, -4.14315471e-03,
       -1.95928570e-03, -8.91697127e-03, 7.63735874e-03, 9.96562466e-03,
       3.25897802e-03, -5.25254197e-03, 9.90629487e-05, 3.48301325e-03,
       8.88912752e-03, 5.17580751e-03, -5.82029577e-03, 3.25961178e-03,
       1.23194633e-02, -5.62056387e-03, -1.03822304e-02, -2.00330671e-02,
       -6.74173702e-03, 1.68245146e-03, 7.13010086e-03, 1.64541248e-02,
       3.50682437e-02, 2.53196880e-02, 1.07463785e-02, -1.42625142e-02,
       3.09129083e-03, -5.67341864e-04, 7.58494437e-03, 7.22713722e-03,
       9.19231214e-03, 3.09908837e-02, 2.03481764e-02, -1.96897797e-03,
       -8.69653281e-03, -1.79475043e-02, -6.17167680e-03, 1.04174260e-02,
       1.23299509e-02, -1.65906886e-03, 9.55335889e-03, 9.64868069e-03,
       -3.52629926e-03, -1.47916917e-02, -1.48555143e-02,
       -7.77247502e-03, 3.48777068e-03, 8.61188862e-03, 1.31717753e-02,
       9.37741343e-03, 8.23157188e-03, -2.57948996e-03, -2.12828498e-02,
       -6.76374417e-03, -6.60538301e-03, 4.84543089e-05, 2.45893584e-03,
       1.82754807e-02, 3.06220856e-02, 2.40176525e-02, -2.84378254e-03,
       -1.03693791e-02, -5.75987855e-03, -8.49322230e-03, 9.10401251e-03,
       6.09285804e-03, 2.81731542e-02, 3.84141766e-02, 2.66198721e-02,
       7.13052868e-04, -9.69745312e-03, -9.01274476e-03, -1.94851891e-03,
       8.68917443e-03, 1.72703173e-02, 7.07010087e-03, 1.01004979e-02,
       5.27878199e-03, 4.49328078e-03, -8.89394246e-03, -3.39345774e-03,
       -1.01101156e-02, 2.43012654e-03, 2.43026530e-03, -3.24581913e-03,
       -6.13953406e-03, 8.28522071e-03, 2.45618075e-02, 1.12664595e-03,
       -2.88383890e-04, -3.29684489e-03, -4.49933781e-04,
       -6.53377362e-03, 1.66791193e-02, 2.04269812e-02, 2.17315517e-02,
       2.55419686e-03, -2.15004086e-02, -1.08565176e-02, -8.39053374e-03,
       6.71610143e-03, 2.08640955e-02, 3.78987775e-03, -2.74646492e-03,
       2.09670630e-03, 6.65453449e-03, -1.50722067e-03, -1.95260451e-03,
       -6.25056494e-03, 2.09081802e-03, 1.45066930e-02, -4.25979262e-03,
       4.39114682e-03, 1.44001562e-02, 3.26194204e-02, 1.93871614e-02,
       1.96362869e-03, 3.64209380e-04, 1.06629236e-02, 3.08823423e-03,
       -1.37458909e-02, 1.45139592e-03, 1.11875841e-02, 6.73563546e-03,
       2.29775091e-04, -1.72697213e-02, -6.31506322e-03, 4.80002584e-03,
       -4.65662079e-03, -6.17208425e-03, -1.22755887e-02,
       -4.67806152e-04, 1.46256601e-02, 1.38190072e-02, 7.96847139e-03,
       9.56288818e-03, 1.81186236e-02, 1.42716654e-02, -1.40253520e-02,
       -1.69758592e-02, -5.50789933e-04, 1.13373781e-02, 1.28504690e-02,
       8.71389452e-03, 3.16021685e-03, 1.36401914e-02, 3.75136943e-03,
       -1.68193914e-02, -4.17102035e-03, 1.27503322e-02, 1.10784331e-02,
       4.85861179e-04, -9.43015702e-03, -3.32364533e-03, 2.03942088e-03,
       -4.88339132e-03, -2.59092227e-02, -1.05799548e-02, 5.85267274e-03,
       1.90163963e-02, 1.56287625e-02, 1.17881652e-02, 5.80008654e-03,
       1.30819688e-02, -3.29832576e-04, -1.95545405e-02, -1.87396556e-02,
       4.63799341e-03, 1.67340618e-02, 1.43603031e-02, 9.33897961e-03,
       5.89261181e-04, 4.64669708e-03, 3.39580397e-03, -1.75847728e-02,
       -1.84642915e-02, 8.59267078e-03, 1.53938364e-02, 2.12152842e-02,
       8.89375992e-03, -1.38746400e-03, 4.21908498e-03, 5.21209370e-03,
       -2.32549347e-02, -1.67928450e-02, -1.36453775e-03, 1.35155935e-02,
       1.79387000e-03, 9.61158145e-03, 4.04514140e-03, 4.85798391e-03,
       8.26725853e-04, 1.15655479e-03, -1.14050880e-02, -2.80553196e-03,
       7.66237080e-03, 2.74535688e-03, -1.28362095e-03, 9.68130713e-04,
       4.05832008e-03, -5.59777347e-03, -7.67653482e-03, -1.09060425e-02,
       3.32754920e-03, 1.90597381e-02, 1.98104326e-02, 1.11497724e-02,
       1.22140790e-03, 1.26532828e-02, 6.98605692e-03, 8.08608159e-03,
       1.26521394e-03, 3.58693826e-04, 9.48101655e-03, 3.34132067e-03,
       6.58063334e-04, 4.66111436e-04, 9.03696008e-03, 1.80388696e-03,
       -9.32369381e-03, -9.79158282e-03, 5.31281577e-04, 1.06977616e-02,
       -7.81640783e-03, -1.74781040e-03, 6.64295303e-03, 1.34785858e-03,
       -1.21423705e-02, -1.21377790e-02, -2.05307477e-03, 5.94428461e-03,
       1.24271065e-02, -8.87811743e-03, -6.80670841e-03, -5.11884503e-03,
       1.19180093e-03, -1.25021106e-02, 1.03180762e-02, 7.57695828e-03,
       7.91216269e-03, 9.59825143e-03, -3.89870512e-03, -4.35106456e-03,
       3.33157368e-03, 1.74412690e-02, 1.18165147e-02, 1.41801476e-03,
       1.04716476e-02, -9.16471647e-04, 1.14827743e-02, -4.09980491e-03,
       -1.05820165e-03, 1.63916382e-03, 3.52018839e-03, 1.96071598e-03,
       -1.77822858e-02, -5.45454537e-03, 2.60685477e-03, -1.10738107e-03,
       -5.13616810e-03, -1.35738053e-03, -8.45496822e-03,
       -2.80676107e-03, -1.65858958e-02, -1.83809400e-02, 1.23219229e-02,
       4.94648889e-03, 6.76825689e-03, -1.16726467e-02, -9.54190269e-03,
       -7.70066213e-03, -2.26928014e-03, -2.44672894e-02,
       -4.16043773e-03, 6.45835279e-03, -4.77225892e-03, 3.47934756e-03,
       6.52254000e-03, -3.14437738e-03, -6.88893581e-03, -7.51518831e-03,
       -9.79527924e-03, -1.44352228e-03, 1.87093653e-02, 1.76953729e-02,
       2.18081921e-02, -7.48688937e-04, -4.43637045e-03, -2.75801122e-03,
       -9.03509557e-04, -2.23251735e-03, -9.02838819e-03, 1.01695349e-02,
       6.76683197e-03, -1.86453603e-04, -1.61623880e-02, -1.19087994e-02,
       2.40193494e-03, 1.53392422e-04, -1.99349970e-02, -4.27608931e-04,
       -2.53046839e-03, 9.74450819e-03, 4.59565548e-03, -7.49445148e-03,
       -5.08835213e-03, 4.65254951e-03, 1.59662310e-02, -7.45542638e-04,
       -3.46244284e-04, 6.37758849e-03, 1.03653250e-02, 7.40776025e-03,
       -1.33807855e-02, 4.85198223e-04, 8.23060144e-03, 1.03004798e-02,
       -5.80835436e-03, -5.09523274e-03, 5.74538903e-03, 2.13550534e-02,
       2.14687623e-02, 7.32384715e-03, 1.00098597e-02, 1.73411071e-02,
       1.89720169e-02, -9.12808906e-03, 1.38740921e-02, 1.48095784e-03,
       2.12476011e-02, 2.44522970e-02, -2.63694325e-03, -9.29555111e-03,
       -9.59831348e-04, 1.03183929e-02, 1.13509558e-02, 3.38465045e-03,
       -2.01119278e-02, 8.41699820e-03, 1.86363272e-02, -2.71181911e-02,
       -1.55562600e-02, -2.34191753e-02, -2.42565796e-02, 9.36584722e-04,
       5.88503759e-03, 4.52107890e-03, 3.33616249e-02, 3.70118953e-02,
       7.88215548e-03, 1.23687405e-02, 1.15605826e-02, 1.36298770e-02,
       1.38357654e-03, -9.96186165e-04, -1.44455824e-02, 2.04095617e-03,
       1.24860043e-02, -1.15756281e-02, -1.02183223e-02, -2.00630948e-02,
       -2.19718833e-02, -1.04346266e-02, 1.15979677e-02, -2.26316024e-02,
       -5.41583588e-03, 1.02016041e-02, -8.89798068e-03, -5.48248459e-03,
       -1.75077673e-02, -2.11542007e-02, 1.29156588e-02, 1.77278416e-03,
       -2.38336436e-02, -2.51969676e-02, -1.51981721e-02,
       -2.14108303e-02, -7.51817739e-03, -1.91677958e-02,
       -1.42327305e-02, 1.26914093e-02, 1.35409851e-02, -2.28995439e-02,
       -1.11134518e-02, 1.22355185e-02, -5.33202989e-03, 9.64512117e-04,
       -9.34050977e-03, -1.86875276e-02, 1.11217918e-02, -2.89818132e-03,
       -4.28384468e-02, -2.69869976e-02, -3.13429628e-03,
       -8.43289588e-03, 5.63380402e-03, -8.82335752e-03, -2.21845955e-02,
       2.74321693e-03, -4.37661866e-03, 1.71765666e-02, 2.41235103e-02,
       1.89746022e-02, 6.69851480e-03, 8.30682460e-03, -1.18727761e-03,
       -8.40505585e-03, -1.21620353e-02, -1.63753110e-03, 6.60010101e-03,
       1.25911077e-02, 7.30835833e-04, -1.06008109e-02, 4.19134228e-03,
       -3.23489914e-03, -3.47873336e-03, 3.07123875e-03, 4.48585115e-03,
       1.52839674e-02, 2.37991102e-02, 1.58374812e-02, 1.19905416e-02,
       6.03520265e-03, -9.71780252e-03, -2.24768538e-02, -9.82981455e-03,
       1.94157043e-03, 8.04402586e-03, 1.53548429e-02, -1.00196870e-02,
       -6.02588756e-03, -1.17633799e-02, -1.50335170e-02,
       -3.40732746e-02, -1.37537625e-02, -1.26475263e-02,
       -2.62342580e-03, -1.78364955e-03, -9.00977850e-03,
       -9.36242286e-03, 2.82050041e-03, -8.49536713e-03, -5.13875252e-03,
       -9.44483001e-03, -8.76943395e-03, 1.43093243e-02, 1.45652122e-03,
       -8.40397668e-04, -3.99443507e-03, 1.88024400e-03, 6.92984741e-03,
       -3.42479162e-03, -1.45149520e-02, -1.17113981e-02, 5.11507597e-03,
       6.30180165e-03, -1.19613216e-03, -7.05734943e-04, -5.90897771e-03,
       -1.47217456e-02, -2.69471072e-02, -2.56847311e-02, 3.48351226e-04,
       1.04306405e-02, 9.93984379e-03, 1.35855738e-03, 1.73610430e-02,
       -3.02793016e-03, -8.25681072e-03, -1.24249905e-02,
       -1.49608804e-02, -1.35173369e-02, 7.21910596e-03, 9.90431383e-03,
       6.82031363e-03, 8.87583662e-03, -1.44779147e-03, 2.81204027e-03,
       -5.80290798e-03, -1.13371583e-02, -6.35294663e-03, 6.57079415e-03,
       1.27009619e-02, 8.34948383e-03, 2.25947071e-02, 5.96387405e-03,
       5.58245694e-03, -3.10848560e-03, -1.42272489e-04, -1.62775461e-02,
       4.25909972e-03, 4.03597532e-03, -2.44924217e-03, 5.65513456e-03,
       -1.12864459e-02, -7.56063731e-03, -7.04250531e-03,
       -2.14955863e-02, -1.98419597e-02, 4.88131354e-03, 1.19644860e-02,
       1.15032280e-02, 1.75911933e-03, -4.59881208e-04, 2.13698973e-03,
       -5.63018210e-03, -2.87628546e-02, -1.19452532e-02, 1.20292818e-02,
       2.48314049e-02, 1.21910346e-03, -7.42404396e-03, -4.77330759e-03,
       -1.75657012e-02, -1.75819062e-02, -6.27967808e-03,
       -2.23334107e-04, 4.63266410e-02, 4.04731408e-02, 2.90243328e-03,
       -7.47090322e-04, -8.87339469e-03, -2.82538999e-02,
       -1.28069688e-02, -1.90775562e-02, -1.65285207e-02, 2.94715576e-02,
       3.93984988e-02, 1.25827650e-02, -1.65274832e-03, -1.21455221e-02,
       -1.49895065e-02, -9.09445155e-03, -4.71886061e-02,
       -2.77122855e-03, 5.40399253e-02, 4.77535389e-02, 1.11429929e-03,
       -1.60183932e-03, -1.07306382e-02, -1.91479120e-02,
       -8.53200071e-03, -4.01803441e-02, 1.27961589e-02, 5.31655364e-02,
       3.04368418e-02, 2.75354786e-03, -1.20168151e-02, -8.58107489e-03,
       -1.30042937e-02, -8.02768511e-04, -9.64566134e-03, 1.84300598e-02,
       3.10867354e-02, 7.28936587e-03, -1.94052979e-02, -1.84718780e-02,
       -3.66614573e-02, -1.41142253e-02, -1.80803705e-03, 1.08307013e-02,
       1.71324015e-02, 6.39204383e-02, 4.27800603e-02, -9.67529230e-03,
       -1.84350014e-02, -8.53591785e-03, 3.20273248e-04, -2.94236094e-03,
       -1.47094186e-02, -1.91463495e-03, 3.30662876e-02, 1.02667632e-02,
       -1.75656714e-02, -3.03271078e-02, -3.39928679e-02,
       -5.06403716e-03, -9.47092194e-03, -1.44960433e-02, 2.04851702e-02,
       2.98038833e-02, 1.51304677e-02, -1.22792907e-02, -2.38398500e-02,
       -1.38227455e-02, -5.32059371e-03, 4.87055397e-03, 1.09863523e-02,
       1.69576742e-02, 3.08297109e-02, 2.34133005e-02, -5.12824021e-03,
       -2.26859357e-02, -2.35089939e-03, -2.68059957e-04, 1.03957830e-02,
       8.20695423e-03, -8.14395607e-04, 2.70812586e-02, 1.59410201e-02,
       -5.53483376e-03, -2.90495865e-02, -1.63645297e-02, 2.46630819e-03,
       1.01858610e-02, -3.70832765e-03, 2.39549681e-05, 1.93590075e-02,
       1.80760343e-02, -3.68206273e-03, -2.61725988e-02, -1.54093979e-02,
       -8.09423532e-03, 7.24483980e-03, -4.41109389e-03, 1.40481489e-02,
       9.38286725e-03, 8.22563190e-03, -5.77993179e-03, -1.61561202e-02,
       -5.99485543e-03, -5.66470297e-03, 9.85254347e-03, 2.14170590e-02,
       2.72425055e-03, -7.37375347e-03, -1.30619621e-02, -6.31561084e-03,
       4.01285198e-03, -3.04659712e-03, 2.04465282e-03, 1.04863932e-02,
       1.97385326e-02, 1.51146846e-02, 1.13031538e-02, -1.37564889e-03,
       -1.22473147e-02, -2.53254753e-02, -1.20316101e-02,
       -5.96921286e-03, 6.09160727e-03, 1.05469171e-02, 1.01216342e-02,
       5.84869366e-03, -8.14490113e-03, -7.25400820e-03, -1.05751492e-02,
       -4.06079367e-03, 1.27381068e-02, 2.23573837e-02, 1.56352818e-02,
       -4.63638594e-03, -3.63805611e-03, -4.38397704e-03, 6.50697574e-03,
       4.88642044e-03, 6.97224867e-03, 6.09185826e-03, 1.18569732e-02,
       1.83691904e-02, -1.40315769e-02, -1.45664280e-02, -8.19688383e-03,
       1.47416897e-03, 6.63912995e-03, 1.35281701e-02, 1.99602172e-03,
       6.33103959e-03, 1.05217081e-02, 4.06786241e-03, 9.47746076e-03,
       1.34325319e-03, 3.03181987e-05, -4.73810174e-03, -7.72678643e-04,
       3.92094115e-03, 1.62069462e-02, 5.96334087e-03, -2.32781895e-04,
       2.96704425e-03, -7.90351629e-03, -1.72049068e-02, 1.31341710e-03,
       -8.96940101e-03, -1.20092963e-03, 9.66992322e-03, 1.14923539e-02,
       -1.66161191e-02, -1.57878567e-02, -3.59183527e-03, 5.45978686e-03,
       7.24413618e-03, 7.39183743e-03, -7.84848258e-03, 4.51310159e-04,
       6.93308888e-03, -1.15826940e-02, -6.78236457e-03, 2.83064786e-03,
       1.54294223e-02, 1.71540268e-02, -9.02906805e-03, -2.36041136e-02,
       -1.09853912e-02, 1.29361870e-02, 6.71733962e-03, 7.34559353e-03,
       -1.16628339e-03, -1.34112211e-02, -9.59538389e-03,
       -5.00930799e-03, -3.52416094e-03, 1.07510127e-02, 1.31655289e-02,
       3.85517895e-04, 1.82635020e-02, 1.22425491e-02, -3.65728419e-03,
       2.26125750e-03, -4.37396858e-03, -8.94942600e-03, 2.32238998e-03,
       1.09083708e-02, -4.40626638e-03, -8.38336814e-03, -6.03863038e-03,
       8.09502602e-03, 2.04089992e-02, -8.24845105e-04, -2.38231998e-02,
       3.20001645e-03, 1.25739351e-02, 8.39356985e-03, 9.99462139e-03,
       -3.28515976e-04, -3.20629403e-03, 1.95374363e-03, -3.58020142e-03,
       -1.23570552e-02, 8.34835321e-03, 1.70476642e-02, -6.08896837e-03,
       1.99508630e-02, 7.60828098e-03, -7.21831527e-03, -6.27794629e-03,
       -1.09455250e-02, -3.06598339e-02, -2.40271585e-03, 8.28852877e-03,
       4.92777582e-03, 3.00094653e-02, 1.70571133e-02, 1.89925649e-03,
       -8.35672952e-04, -1.00353984e-02, -1.33479936e-02,
       -9.72359092e-04, -4.70755622e-04, 7.98970275e-03, 1.24700796e-02,
       -2.85645481e-03, -4.56990255e-03, -1.38158109e-02,
       -1.16445590e-02, -9.77929309e-03, 1.24690486e-02, 2.70182509e-02,
       7.04350555e-03, 1.31985708e-03, -1.59850884e-02, -5.62625425e-03,
       -1.79149322e-02, -1.13375904e-02, -1.37414159e-02,
       -1.10080512e-03, 1.65722277e-02, 2.19447725e-03, 2.03043614e-02,
       5.11514070e-03, -4.51860251e-03, -6.66395156e-03, -1.42951850e-02,
       -4.60181292e-03, 9.26059671e-03, 1.33356862e-02, 1.33645383e-03,
       -5.60339831e-04, -6.58805808e-03, -2.91669392e-03,
       -1.12585472e-02, -1.67629626e-02, -1.31820487e-02, 1.02999229e-02,
       1.73455272e-02, 4.71819332e-03, 1.02698733e-03, -4.59349155e-03,
       -2.03354124e-04, -6.00729370e-03, -1.22820903e-02,
       -1.76149793e-02, -6.38185674e-03, -1.14165072e-03,
       -3.39869154e-03, 5.57651091e-03, 1.65904704e-02, 6.11423608e-03,
       1.81699847e-03, -1.31679289e-02, -1.64737180e-02, -4.39121248e-03,
       -1.46514745e-02, 3.26011865e-03, -5.30805963e-04, 1.95779279e-03,
       4.73476434e-03, -7.29282107e-03, -1.89722981e-02, -1.91979557e-02,
       3.80697730e-03, 1.32334875e-02, -7.87287299e-03, 7.17296917e-03,
       1.52820256e-02, 6.73185382e-03, -3.18816653e-03, -1.25087826e-02,
       -4.99980059e-03, 1.46189593e-02, 1.54454436e-03, -8.96957237e-03,
       3.54229589e-03, 1.51069872e-02, 7.06169987e-03, -1.11140469e-02,
       -8.81540496e-03, -2.07002391e-03, 6.37928071e-03, -1.19914049e-02,
       -9.60833952e-03, -3.13825876e-04, 1.87938306e-02, 2.18926780e-02,
       7.99797941e-03, 2.09792284e-03, 1.03333825e-02, 9.25624929e-03,
       -7.41787429e-04, -1.43413767e-02, 8.37084930e-03, 1.90613754e-02,
       1.21262548e-02, -1.56732672e-03, -4.19120304e-03, 8.16454180e-03,
       1.52691025e-02, -5.56051685e-03, -1.71715952e-02, 8.62345973e-04,
       1.23738553e-02, 9.29742120e-03, 6.11361582e-03, -2.24526017e-03,
       1.26712779e-02, 9.19631030e-03, 1.77433586e-03, 8.80070438e-04,
       1.23709682e-02, 3.39828804e-02, 3.81305777e-02, 1.52454376e-02,
       1.60452146e-02, 1.00822169e-02, 4.82400367e-03, 2.97942990e-03,
       9.49140452e-03, 4.25887713e-03, 9.15711559e-03, 1.01567125e-02,
       -9.16276593e-03, -1.20765315e-02, -1.54443951e-02,
       -1.37457540e-02, 5.71529567e-03, -1.02056591e-02, 3.04314075e-03,
       1.46460114e-02, 2.89118160e-02, 4.66966350e-03, 1.56642385e-02,
       1.57568567e-02, 2.97815399e-03, -2.91827106e-04, -2.03689430e-02,
       -1.96992327e-02, -9.14630294e-03, -2.51083449e-03,
       -2.19316483e-02, -2.09537502e-02, -1.73419025e-02,
       -2.76297443e-02, -1.50228525e-02, 1.88061390e-02, -5.02592511e-03,
       -1.23353361e-03, 7.31541682e-03, 4.13133483e-03, 7.66135694e-04,
       -9.75772087e-03, -9.11303237e-03, 1.19713647e-02, 5.57410112e-03,
       -3.24732065e-02, -2.35878751e-02, 1.11199461e-03, 9.14796162e-03,
       1.12807155e-02, -5.81651367e-03, -1.81521643e-02, 4.18413663e-03,
       -4.64380253e-03, -2.46343594e-02, -1.48087451e-02,
       -5.23215951e-03, -1.24481265e-02, -1.06103467e-02,
       -9.01155733e-03, -2.20934283e-02, -8.72956682e-03,
       -4.23067296e-03, -3.87959443e-02, -3.50004882e-02,
       -7.67972274e-03, -7.31223170e-03, 3.53264599e-03, -3.67348385e-03,
       -2.58172043e-02, -6.57973858e-03, 7.63224717e-03, 1.50919072e-02,
       1.90233365e-02, 1.56597234e-02, 7.04292394e-03, 1.27209704e-02,
       -2.15083011e-03, -1.18432315e-02, -4.20321990e-03,
       -3.93429771e-03, 9.88821499e-03, 2.60793585e-02, 8.88560340e-03,
       -7.51742115e-03, -7.39406794e-03, -7.45591335e-03,
       -1.73786413e-02, -1.41862901e-02, 8.30660632e-04, 7.87835009e-03,
       6.63675368e-03, 1.20957438e-02, 4.18966217e-03, 1.10673280e-02,
       1.02487160e-03, -1.57336723e-02, -8.29215907e-03, -1.12323547e-02,
       -2.61002081e-03, 2.13116407e-02, 2.74923928e-02, -1.72916744e-02,
       6.64167525e-03, -5.79282176e-03, -9.21890140e-03, -4.70531266e-03,
       -1.60499923e-02, 3.22164060e-03, 9.91393439e-03, -3.74317542e-03,
       -1.38250198e-02, -1.22763319e-02, -2.11276393e-02,
       -2.43301503e-02, -2.70718876e-02, 5.77031169e-03, 2.10297387e-02,
       1.51913799e-02, -1.56080711e-03, -1.32432450e-02, -1.64211486e-02,
       -2.26604342e-02, -2.74225064e-02, -1.24571482e-02,
       -2.04021316e-02, 1.08668897e-02, 2.60987002e-02, 1.67266689e-02,
       -2.99398298e-03, 5.23121050e-03, -1.57606360e-02, -2.69711856e-02,
       -2.80167013e-02, 1.60017293e-02, 4.60486077e-02, 4.16690409e-02,
       2.85142846e-02, 2.77188607e-02, 6.65089022e-03, 4.03053081e-03,
       -1.17821917e-02, -2.95504811e-04, -4.50440450e-03, 1.24628488e-02,
       6.47881208e-03, -7.85979256e-03, -1.35907857e-02, -1.64563842e-02,
       -1.28743937e-02, -1.18507976e-02, -4.68686037e-03,
       -1.45701654e-02, 1.35968300e-02, 2.18516160e-02, 4.37316578e-03,
       -1.84641089e-02, -1.81209277e-02, -1.18038738e-02,
       -6.82508247e-03, -1.98102687e-02, -7.01090612e-04, 2.80826837e-02,
       2.92805061e-02, 1.32989399e-02, 1.12619027e-02, -7.75448338e-04,
       1.45196905e-02, 9.73313302e-03, 2.26300443e-03, -1.41166234e-02,
       1.74896587e-02, 3.90406214e-02, 2.04548799e-02, -4.79266932e-03,
       -8.93922336e-03, 1.85093544e-02, 1.26729039e-02, -4.89322515e-03,
       -4.69221408e-03, 3.95250991e-02, 5.52933738e-02, 1.80198755e-02,
       -1.09080384e-02, -2.45514996e-02, -1.84331723e-02,
       -5.70638478e-03, -2.37014424e-02, 5.19178249e-03, 5.28230704e-02,
       4.96614613e-02, -1.72532455e-03, -9.96863190e-03, -2.24399436e-02,
       -1.69956628e-02, -8.19748547e-03, -2.35946961e-02,
       -8.44166148e-03, 2.94008907e-02, 5.26780635e-02, 1.46947298e-02,
       -2.54133660e-02, -2.09713448e-02, 7.84424413e-03, 2.83651124e-03,
       -1.05898660e-02, -1.23899160e-02, 1.76666956e-02, 2.90937088e-02,
       -6.35819696e-03, -2.78481077e-02, -2.68882010e-02,
       -1.25066750e-02, -1.48744499e-02, -1.86659470e-02, 1.83009002e-02,
       5.26261181e-02, 3.60814370e-02, -9.25739203e-03, -2.01181136e-02,
       -1.24485753e-02, -2.68829730e-03, 5.56156691e-03, 6.65001164e-04,
       1.58142485e-02, 2.86065228e-02, 8.00074637e-03, -2.58659348e-02,
       -3.18914875e-02, -2.62756739e-02, -8.35742150e-03, 1.06400177e-02,
       3.16415844e-03, -2.51185312e-03, 2.37534363e-02, 1.63830984e-02,
       -1.66625790e-02, -1.83744282e-02, -8.42908397e-03,
       -3.03136068e-03, 5.67273097e-03, -1.44615342e-05, -1.74683961e-03,
       9.79225617e-03, -6.99465396e-03, -3.84037122e-02, -2.63711344e-02,
       -1.45898806e-02, -1.12052914e-03, 1.12443212e-02, 9.48940869e-03,
       1.80230234e-02, 2.48057079e-02, 3.80535261e-03, -1.48335723e-02,
       -3.82804610e-02, -1.72205754e-02, -3.47000570e-03, 1.68654267e-02,
       1.02745313e-02, 2.18912084e-02, 2.48742998e-02, 1.47285184e-03,
       -1.10270455e-02, -2.00382676e-02, -9.57124121e-03,
       -9.51143634e-03, 1.20595293e-02, 1.27181923e-02, 1.74195610e-03,
       6.03768043e-03, -1.60693936e-02, -2.23793834e-02, -3.91466953e-02,
       -1.00893723e-02, 1.02563705e-02, 1.61567722e-02, 5.11292974e-03,
       8.47562961e-03, 4.53303423e-04, -1.40222982e-02, -1.53849004e-02,
       -2.01470200e-02, 6.58196583e-03, 1.36662424e-02, 2.04826277e-02,
       1.31567614e-02, 1.98141914e-02, 2.07201857e-02, 6.17962331e-03,
       -1.00952247e-02, -1.81798413e-02, -4.97714337e-03, 3.85470164e-04,
       4.50887997e-03, 2.47319657e-02, 1.34914154e-02, 1.56109910e-02,
       -2.90766562e-04, -6.42301608e-03, -2.15066839e-02,
       -1.26728835e-02, 1.15750236e-02, 9.12028458e-03, 1.51992664e-02,
       -7.09567079e-03, -1.30327046e-03, -3.97476647e-03,
       -3.66628170e-03, -5.64292632e-03, 1.11650322e-02, 1.40860528e-02,
       3.00846016e-03, 5.80750406e-04, -3.14844362e-02, -2.74185948e-02,
       -1.20976390e-02, -4.85738681e-04, 2.95909529e-04, 8.48051161e-03,
       5.37560042e-03, -1.20403133e-02, -3.18364166e-02, 1.62516590e-02,
       1.44755477e-02, 3.52058723e-03, 1.02083432e-02, -4.46987292e-03,
       6.91283145e-04, 1.20467385e-02, 1.86035428e-02, 1.87017825e-02,
       1.20445415e-02, 1.36389723e-02, -5.83514664e-03, -8.86142347e-03,
       -7.66545301e-03, -1.36593599e-02, 6.51864248e-05, 7.97575992e-03,
       1.89831518e-02, -2.66255885e-02, -2.28598695e-02, -1.50246341e-02,
       9.37905163e-03, 5.46988426e-03, 6.80985348e-03, 5.68016525e-03,
       -9.65432543e-03, -3.32782567e-02, -9.72453132e-03,
       -1.02252038e-02, -1.44630447e-02, -9.72821563e-03,
       -6.10647583e-03, -4.05819435e-03, -9.19509213e-03, 2.98292702e-03,
       -1.16880406e-02, 1.32460855e-02, 8.35159142e-03, -2.84787267e-03,
       -1.68163124e-02, -1.89459641e-02, -1.06262667e-02, 2.76603736e-04,
       8.77117738e-03, 2.40551662e-02, 1.01207169e-02, 2.04938613e-02,
       2.74856662e-04, -1.21252704e-02, -1.46326693e-02, -1.17301326e-02,
       2.55086902e-03, 1.52933653e-02, 2.08193809e-02, -9.05699283e-03,
       5.91693213e-03, -1.64880175e-02, -1.89905483e-02, -2.75418684e-02,
       -1.69063732e-02, -1.51255010e-02, 8.20688251e-03, -5.39208623e-03,
       -3.26263090e-03, 2.43066344e-02, -3.75849125e-03, -1.26849581e-03,
       -1.68110561e-02, -2.48330794e-02, -1.76944006e-02,
       -2.83945323e-04, -8.37868731e-03, 3.85455717e-03, 1.94653738e-02,
       2.80642009e-04, -1.44547196e-02, -2.49002781e-02, -2.04836950e-02,
       -1.16253057e-02, 8.47986434e-03, 1.43581294e-02, 1.14016505e-02,
       3.40482891e-02, 1.07299434e-02, -9.94892139e-03, -2.36389600e-02,
       -2.43381895e-02, -8.83958768e-03, 1.66113081e-03, 1.39692528e-02,
       -2.46268325e-03, 3.66632566e-02, -1.95440045e-03, -1.44879250e-02,
       -1.95634551e-02, -3.40041853e-02, -1.60327144e-02,
       -4.19272017e-03, -8.08014721e-03, 1.74907371e-02, 4.96679433e-02,
       9.42557119e-03, -2.56611761e-02, -2.93700472e-02, -2.81437431e-02,
       -7.08431890e-03, 1.92879140e-02, 1.93390753e-02, -5.97353792e-04,
       1.64114870e-02, -4.97145113e-03, -9.62921791e-03, -1.02693085e-02,
       -2.47997772e-02, -1.25164827e-02, 2.77507189e-03, 1.19392611e-02,
       -1.80641931e-04, -4.80295066e-03, -9.98128764e-03,
       -5.69440238e-03, -1.11541841e-02, -2.60019302e-02,
       -1.06923198e-02, 4.59824875e-03, 1.68593936e-02, 1.22530377e-02,
       2.41097156e-02, -5.27951214e-03, -2.52325237e-02, -2.12248843e-02,
       -2.71844827e-02, -1.29031772e-02, 1.63938124e-02, 2.31332798e-02,
       4.45142714e-03, 6.71513844e-03, -8.69219657e-03, -1.34132365e-02,
       -8.00008327e-03, -1.52660757e-02, -8.69206898e-03, 1.39202205e-02,
       1.56471990e-02, -1.23089496e-02, -4.79392381e-03, -5.18504530e-03,
       -3.13655427e-03, -9.50681604e-03, -2.79773846e-02,
       -1.71062127e-02, -3.60330404e-03, -1.56843942e-03,
       -9.65736434e-03, 5.21138078e-03, 5.82689699e-03, 8.08388460e-03,
       3.00641335e-03, -1.42440349e-02, -1.76084554e-03, 1.13624400e-02,
       2.19143345e-03, -1.39042092e-02, 3.21737025e-03, -1.45513052e-03,
       -3.50020942e-03, -9.40490063e-05, -1.05995433e-02,
       -2.79913540e-03, 1.21239796e-02, 1.66170485e-03, -1.22302352e-02,
       1.11724911e-02, 1.12034502e-02, 6.37511397e-03, 5.85972006e-03,
       -1.93086243e-03, 3.85820656e-03, 2.11210381e-02, 3.24577210e-04,
       -7.71693839e-03, 9.44480393e-03, 9.18445457e-03, 7.33629754e-03,
       -7.30458228e-03, 5.82484761e-03, 9.97685455e-03, 1.28883999e-02,
       3.35365930e-03, -3.02004572e-02, -4.53591114e-03, 8.37233942e-03,
       7.73709407e-03, -8.47147126e-03, 8.34153499e-04, 1.57291852e-02,
       -2.81147379e-03, -1.43319014e-02, -2.41926522e-03, 1.20035168e-02,
       4.06757183e-03, -2.14771251e-03, 1.32501445e-04, 6.16869051e-03,
       1.98342334e-02, 2.85633877e-02, 1.29859922e-02, -2.60727908e-02,
       5.87843079e-03, 1.04938075e-02, 1.19687589e-02, 7.25223124e-03,
       1.23172607e-02, 1.48280449e-02, 2.10073069e-02, -1.20281316e-02,
       -1.75588615e-02, 9.76266223e-04, 1.42080123e-02, 3.73435654e-02,
       1.85664874e-02, 3.20588648e-02, 2.80749984e-02, 7.75289256e-03,
       -4.35212906e-03, -2.95913164e-02, -2.52486821e-02,
       -1.49984378e-02, -7.49366684e-03, -1.06531698e-02,
       -1.55549217e-02, -1.14214327e-02, -2.15337239e-02,
       -2.59290263e-02, -1.49943251e-02, 2.27311179e-02, 3.64615060e-02,
       5.12718596e-02, 4.50329743e-02, 5.78845590e-02, 3.44882980e-02,
       2.65129078e-02, -1.23233823e-02, -4.17090245e-02, -1.69749726e-02,
       -7.23478850e-03, 1.16464519e-03, 3.16545647e-03, 1.06980400e-02,
       -5.29575767e-03, -1.66236199e-02, -3.35195437e-02,
       -4.58264491e-03, -2.02900358e-02, -1.08829699e-02, 5.66897495e-03,
       4.99439938e-03, -1.07877711e-02, 2.56957574e-04, -7.51101878e-03,
       -8.02031532e-03, 2.64892518e-03, -2.36839317e-02, -9.14845802e-03,
       1.24768279e-02, -4.35863389e-03, -3.06276930e-03, 3.48991156e-03,
       -1.20845372e-02, 7.79083371e-03, -2.33030487e-02, -1.80109851e-02,
       -6.90443162e-03, 7.54540693e-03, 1.19003293e-03, 1.52415433e-03,
       -2.18732937e-04, -9.38473456e-03, -7.96306878e-03,
       -2.23146640e-02, -2.17874218e-02, 8.83186993e-04, 1.18977716e-02,
       -2.46129977e-03, -8.08524713e-03, 4.73585242e-04, -1.82713401e-02,
       -1.02721732e-02, -9.04089399e-03, 1.13133225e-03, 1.70090552e-02,
       1.87109243e-02, 2.31201649e-02, 4.22201399e-03, -3.44859320e-04,
       -1.93690769e-02, -1.24814501e-02, -1.93988644e-02,
       -6.93094311e-03, 1.90052837e-02, 2.78369114e-02, 2.56745629e-02,
       1.63485967e-02, -2.45525152e-03, -1.60806254e-02, -1.06204180e-02,
       -1.94863547e-02, 1.44309434e-03, 2.37812009e-02, 2.18795594e-02,
       2.28601266e-02, 7.16893235e-03, 3.45151144e-04, -1.35592716e-02,
       -5.83096920e-03, -2.13710126e-02, -4.36864235e-03, 1.92669816e-02,
       2.09907573e-02, 2.58842744e-02, 2.24339478e-02, -8.90514173e-04,
       -1.60144269e-02, -2.34011598e-02, -3.34090777e-02,
       -7.00805848e-03, 1.46981589e-02, 2.11267788e-02, 1.18304137e-02,
       1.43192075e-02, -1.74761266e-02, -3.21147814e-02, -3.33446562e-02,
       2.56662164e-03, 1.77320447e-02, 3.14552784e-02, 3.48733328e-02,
       3.53486799e-02, 2.14861576e-02, 3.34015419e-03, -3.76827316e-03,
       -9.26428591e-04, -3.73105630e-02, -1.43636856e-02, 4.35390417e-03,
       9.52568091e-03, 1.12517783e-02, 1.60997063e-02, -4.62154811e-03,
       -2.43737623e-02, -3.38426568e-02, -1.02813132e-02, 1.12787616e-02,
       2.52936762e-02, 2.05311291e-02, 1.72487218e-02, 2.43146885e-02,
       5.13557578e-03, -3.26573476e-03, 3.02494154e-03, -9.56879871e-04,
       7.65473628e-03, 2.01179534e-02, 1.20238084e-02, 1.08341491e-02,
       1.03887962e-02, 9.28315800e-03, 1.17843943e-02, 2.22714199e-03,
       -1.03144441e-02, 1.32547310e-02, 3.12662087e-02, 6.26197411e-03,
       -5.56092896e-03, -1.07236924e-02, 2.10082978e-02, 2.16990244e-02,
       -4.93832817e-03, -8.83813668e-03, 1.54332994e-02, 2.69871764e-02,
       1.36831552e-02, -1.01343461e-03, -5.42751001e-03, -6.80590374e-03,
       -9.36654396e-03, -1.09120933e-02, -3.40054138e-03, 2.10691132e-02,
       2.84255687e-02, -3.53763648e-03, 2.16209935e-03, -1.02340439e-02,
       9.79942363e-03, 5.73427835e-03, -1.12988558e-02, -1.14248227e-02,
       1.95565149e-02, 4.31947596e-02, 1.26516437e-02, -1.03223929e-02,
       -3.30498116e-03, 2.67560091e-02, 1.70228835e-02, -5.83501486e-03,
       -1.65008996e-02, -3.89033067e-03, 1.74920093e-02, 5.72387245e-04,
       -4.46247141e-04, 8.10502213e-04, 3.29007232e-03, -2.32263585e-03,
       -1.30793415e-02, -7.07874028e-03, 1.76133960e-02, 3.15715894e-02,
       1.49202568e-03, 3.86962574e-03, 4.66966582e-03, 2.31044739e-02,
       1.45046525e-02, -8.72993283e-03, -9.78360977e-03, -1.04366140e-02,
       4.27049957e-03, -5.01501327e-03, 7.38207158e-03, 5.33183385e-03,
       9.72109195e-03, -4.99582198e-03, -8.98813177e-03, -5.87445917e-03,
       6.66561397e-03, 9.12792888e-03, 5.67734567e-03, 1.56669808e-03,
       1.61526538e-02, 6.06343150e-03, 5.82471723e-03, -1.24918774e-03,
       -1.22133140e-02, -4.13475884e-03, -3.14946426e-03,
       -6.73116045e-03, -8.38975050e-03, 5.11391973e-03, 6.57597820e-06,
       -7.83938274e-04, -6.64475374e-03, -9.12810094e-04, 4.02180478e-04,
       6.79098628e-03, 4.95994091e-03, -9.23894066e-03, 5.27179940e-03,
       9.03622434e-03, 6.39184657e-03, -1.03394012e-03, -1.63213466e-03,
       3.80552490e-04, 5.00780204e-03, 1.86133257e-03, -4.75732435e-04,
       -1.07873175e-02, -1.52481031e-02, -5.07439487e-03,
       -1.47811295e-02, -1.16870608e-02, 2.06116936e-03, -4.58686292e-04,
       2.31420947e-03, -2.56790710e-03, 4.07881569e-03, -1.37875322e-03,
       2.60505686e-03, -6.79414545e-04, -2.42361166e-02, 3.96455405e-03,
       -1.37938815e-03, 1.24884173e-02, -7.56979862e-05, 1.21196033e-02,
       3.81624559e-03, 7.80718029e-03, -1.56876780e-02, -1.29339402e-03,
       9.23923030e-03, 1.42081622e-02, 7.96118472e-03, 1.10504376e-02,
       -3.67399049e-03, -2.25426462e-02, -3.07771284e-03,
       -6.97676931e-03, -1.93227623e-02, 1.25954691e-02, 1.25947604e-02,
       1.34770768e-02, 8.29221308e-03, 4.11392096e-03, -1.27780801e-02,
       -4.01066104e-03, -2.55165212e-02, -3.25059444e-02,
       -6.44501997e-03, 4.63123340e-03, 1.63029060e-02, 4.08116914e-03,
       1.75811127e-02, 1.01235490e-02, 1.49533385e-03, -2.38431282e-02,
       -4.45776097e-02, -1.55614549e-02, 6.49393210e-03, 2.27559153e-02,
       2.63802521e-02, 2.50707995e-02, 1.45585332e-02, -7.74225919e-03,
       -4.15861867e-02, -3.27473432e-02, 5.96950483e-03, 2.42058653e-02,
       2.31042374e-02, -9.78345517e-04, 2.27921945e-03, -5.91184571e-03,
       -6.49971116e-05, -3.19717601e-02, -3.67648266e-02, 4.84872516e-03,
       2.16353387e-02, 3.41916233e-02, 2.08910406e-02, 8.62726104e-03,
       -5.42660477e-03, -1.32712936e-02, -4.53390330e-02,
       -4.07487638e-02, -1.38611030e-02, -3.12528486e-04, 2.31750999e-02,
       2.70247888e-02, 2.00105626e-02, 3.56813986e-03, -1.20784314e-02,
       -4.13610525e-02, -6.34669047e-03, -7.69611099e-04,
       -2.74747727e-03, 2.77818157e-03, 1.07568065e-02, -2.24334630e-03,
       -4.23834240e-03, 9.04879905e-03, -6.74540037e-03, -3.22343968e-02,
       -4.26541036e-03, 5.78360353e-03, 3.06093637e-02, 1.88615397e-02,
       1.21875079e-02, -5.54614002e-03, -1.49699822e-02, -4.04529162e-02,
       -1.47425355e-02, 9.84937046e-03, 1.27198326e-03, 7.34774722e-03,
       2.11084634e-02, -5.70826558e-03, -4.18495067e-04, 4.93166642e-03,
       -3.71765578e-03, -1.28436356e-03, 1.99536402e-02, -4.80362633e-03,
       -1.13857901e-02, -1.17097022e-02, -1.52531629e-02,
       -9.29992367e-03, 2.12740246e-02, 8.95560253e-03, 2.72146263e-03,
       3.83733772e-02, 4.62902337e-03, -7.98341469e-04, -1.06999530e-02,
       -2.27035303e-02, -1.13378624e-02, 2.06766855e-02, 9.35538905e-04,
       -3.04916338e-03, 2.29385830e-02, -3.75429937e-03, -7.85295386e-03,
       -1.55035201e-02, -2.55117454e-02, -1.10289548e-02, 2.37879306e-02,
       6.16761763e-03, -1.48644978e-02, 1.39820147e-02, -2.55729351e-03,
       -2.90007587e-03, 7.19415909e-03, -2.73310039e-02, -8.77345353e-03,
       3.33818942e-02, 2.57654395e-03, 2.97321775e-03, 3.65497880e-02,
       1.38563209e-03, -1.20128389e-03, -5.10836719e-03, -1.84606984e-02,
       -1.39598101e-02, 9.34993755e-03, 2.58469419e-03, 2.46707816e-02,
       4.10016291e-02, -6.28325914e-04, -1.88689604e-02, -1.44092878e-02,
       -1.63123421e-02, -4.22637910e-03, 3.10825501e-02, 2.79970616e-02,
       -1.51471887e-02, -5.35023073e-03, -1.47965280e-02,
       -5.16576972e-03, -3.23190587e-03, -2.38640439e-02,
       -1.08635435e-02, 2.69556921e-02, 1.25216611e-03, 1.01642581e-02,
       6.19429583e-03, -1.77078955e-02, -2.06945166e-02, -1.61470566e-02,
       -2.56832987e-02, -2.39543035e-03, 3.43932621e-02, 4.02192678e-03,
       2.18396615e-02, 2.13039462e-02, -3.63331940e-03, -2.27738358e-02,
       -1.33752413e-02, -2.17609443e-02, -1.11029074e-02, 1.97923016e-02,
       3.41692753e-02, 9.75195132e-03, 6.44774549e-03, -1.13856290e-02,
       -2.06979886e-02, -7.02915667e-03, -1.44602619e-02,
       -8.31992924e-03, 2.06640139e-02, 1.90962758e-02, 1.38791278e-02,
       2.73400638e-03, -2.77590360e-02, -3.30031514e-02, -2.04830822e-02,
       -3.45967188e-02, -1.87607594e-02, 1.75361745e-02, 1.10025713e-02,
       8.81954748e-03, -1.76596199e-03, -2.31334101e-02, -1.84484795e-02,
       -1.25652291e-02, -3.43611799e-02, -2.03160122e-02, 4.85065626e-03,
       6.69848267e-03, -1.11204376e-02, 7.09619280e-03, -2.47544551e-04,
       -5.13241114e-03, 8.63597076e-03, -1.14674401e-02, -6.51566451e-03,
       9.20830481e-03, 4.66095144e-03, -2.61513540e-03, 7.04687275e-03,
       2.11208803e-03, 8.82376276e-04, -3.63540137e-03, -8.57512280e-03,
       -4.96026501e-03, 1.62965935e-02, 5.31734386e-03, 8.29327852e-04,
       9.18941689e-04, -1.53979668e-02, -3.26826191e-03, -4.01710533e-03,
       -2.42234394e-02, -1.65553223e-02, 5.16863447e-03, -8.41291156e-03,
       -1.90731429e-04, -3.04413214e-03, -7.44710490e-03, 2.92272214e-03,
       -6.34494750e-03, -1.82233341e-02, -1.13116745e-02, 2.08417345e-02,
       4.38092742e-03, 3.19950120e-03, 1.17593003e-03, -6.80172059e-04,
       4.47650615e-04, -6.73514744e-03, -3.94874346e-03, 6.16042549e-03,
       2.00765282e-02, 9.60495044e-03, -9.20627359e-03, 5.02244988e-03,
       1.07276430e-02, 1.32223880e-02, 2.24593878e-02, 6.72925217e-03,
       5.00055589e-03, 1.47800837e-02, -4.18776833e-03, 2.25456385e-03,
       4.97188373e-03, 2.06720888e-05, 6.33712532e-03, -1.22297527e-02,
       -1.50263142e-02, 3.12060025e-03, 2.37074066e-02, 7.69115984e-03,
       -8.76342226e-03, 5.59165236e-03, 1.06703565e-02, 2.03436539e-02,
       2.32821219e-02, -6.03967858e-03, -5.20920334e-03, 2.34308233e-03,
       -1.52336378e-02, -1.26714455e-02, 8.76905676e-03, 1.95433199e-02,
       4.13265377e-02, 5.01681753e-02, 4.61470708e-02, 1.66386589e-02,
       5.26576582e-03, -8.33575055e-03, -3.47368866e-02, -2.66438704e-02,
       -1.90193243e-02, -6.41199620e-03, -7.46641681e-03, 6.60122186e-03,
       -1.27748717e-02, -2.43059844e-02, -2.45473366e-02,
       -1.37956273e-02, -1.27146428e-03, 1.84340291e-02, 5.21388985e-02,
       4.69595902e-02, 3.23735848e-02, 3.08941584e-03, 2.48292112e-03,
       -8.54607765e-03, -3.34290639e-02, -3.24068852e-02,
       -1.46285472e-02, 4.91261669e-03, 1.34206377e-03, -4.70743189e-03,
       -2.35141050e-02, -3.98774967e-02, -3.10090408e-02,
       -9.79606435e-03, -1.66308545e-02, -1.74757070e-03, 4.02762322e-03,
       3.18650994e-03, 3.64564010e-03, -6.81046722e-03, -1.25624351e-02,
       3.29573662e-03, -4.06663073e-03, -2.30086409e-02, -1.14295743e-02,
       4.83940681e-03, -5.66425221e-03, -1.27976080e-02, -7.86744896e-03,
       -1.89359114e-02, 2.20055575e-04, -8.63431953e-03, -9.59661044e-03,
       5.48890745e-03, 6.97679957e-03, 1.04515534e-02, 3.94475553e-03,
       -9.95433331e-03, -2.98195556e-02, -1.39817912e-02,
       -2.34929449e-03, -2.51381677e-02, -7.14797527e-03,
       -4.99650650e-03, -9.40054748e-03, -1.49510577e-02,
       -2.02940330e-02, -3.48481089e-02, -1.45281646e-02,
       -9.41648846e-04, 1.04726683e-02, 1.76298823e-02, 1.89846307e-02,
       1.03336964e-02, 6.79007871e-03, -2.03836965e-03, -8.85841623e-03,
       7.71825761e-03, -7.81373680e-03, 1.59410830e-03, 4.07488551e-03,
       1.28811477e-02, -2.11317255e-03, 1.40829505e-02, -8.36470537e-03,
       -1.88812409e-02, -1.17489463e-02, 7.65713025e-03, 8.26300401e-03,
       1.33843729e-02, 1.11419978e-02, 3.09645711e-03, 9.45273228e-03,
       -4.39565536e-03, -5.18007902e-03, 6.82325987e-03, -9.26235865e-04,
       -1.13263959e-02, -1.32406270e-03, -5.02582267e-03, 4.44449810e-03,
       1.39321256e-02, 2.13944190e-03, -5.11694932e-03, 4.36494313e-03,
       -4.81398916e-03, -1.03001501e-02, -2.67060776e-03, 7.55468383e-03,
       1.05490871e-02, 2.02482101e-02, 2.54334440e-03, -5.37266163e-03,
       -6.46157097e-03, 1.09831411e-02, 9.90890618e-03, 2.09762286e-02,
       1.46076260e-02, 1.86487921e-02, 2.04096716e-02, 8.64513032e-03,
       6.48244563e-03, 1.52790034e-02, -7.20936246e-03, -1.69548746e-02,
       -1.37951830e-02, -7.91211892e-03, -7.52089254e-04, 6.06045779e-03,
       -6.24282658e-03, -1.39097944e-02, -3.80115910e-03, 2.68192519e-03,
       -7.14484043e-03, -6.04563672e-03, 1.13884185e-03, 8.04577768e-03,
       -1.97204575e-03, -3.28187994e-03, -4.49339254e-03, 8.13174713e-03,
       5.70017146e-03, 1.85020119e-02, 1.94793250e-02, 8.83049518e-03,
       5.83972363e-03, -5.74718276e-03, -1.57887284e-02, -1.71145983e-02,
       -1.05924599e-04, 1.48006873e-02, 2.31178422e-02, 2.02870481e-02,
       -4.67764155e-04, 1.53590534e-02, 1.09831039e-02, 1.58791225e-02,
       1.04529914e-02, 4.01786203e-03, 6.43542828e-03, -2.09634556e-04,
       -7.92115461e-03, -4.91298328e-04, 1.05495211e-02, -1.38673028e-02,
       -1.68614965e-02, -1.82144996e-02, -5.51723735e-03, 4.14238348e-05,
       -5.49517456e-04, -6.31420081e-03, -8.14325921e-03, 1.97256655e-02,
       4.36112937e-03, -8.12742583e-05, -1.07103894e-02, 3.17635317e-03,
       2.92516476e-03, 4.63940902e-03, 6.70189410e-03, -1.57907009e-02,
       -6.07342832e-03, 2.30339691e-02, 3.25315222e-02, 2.85500325e-02,
       8.30547325e-03, -5.64140454e-03, -1.19348997e-02, -7.80590344e-03,
       -2.63625178e-02, -1.88327227e-02, 5.42426435e-03, 1.92279071e-02,
       2.20636111e-02, 6.52778102e-03, -1.84870120e-02, -9.69209522e-03,
       -1.61246303e-02, -1.79975033e-02, -4.29336680e-03, 2.79325079e-02,
       3.61703560e-02, 3.42397727e-02, 7.18490360e-03, -2.28369795e-02,
       -1.07890870e-02, -1.92198064e-02, -2.50249896e-02,
       -9.80527513e-03, 8.20903573e-03, 3.43899615e-02, 3.92958969e-02,
       8.23014788e-03, 7.01857498e-03, 5.87135600e-03, 3.15654464e-03,
       -9.12840106e-03, -2.03664210e-02, -1.34909460e-02, 1.77553005e-03,
       1.81778371e-02, 1.07341344e-02, 1.69890113e-02, 8.87187570e-03,
       5.34686958e-03, -1.70998815e-02, -8.42196215e-03, -2.30083074e-02,
       -9.75871179e-03, 5.39203081e-03, 8.28881096e-03, -9.72414389e-03,
       -7.41296157e-04, -3.26040387e-03, -1.81945525e-02,
       -2.63764076e-02, -1.99027807e-02, 1.06215822e-02, 3.42687108e-02,
       1.20759783e-02, 7.14050513e-03, 4.59787110e-03, -1.68230606e-03,
       -2.91493423e-02, -3.64237800e-02, -2.05179062e-02, 2.86482228e-03,
       2.58182213e-02, 2.59835199e-02, 7.13734003e-03, 5.78017300e-03,
       8.20302591e-03, -1.58460699e-02, -9.53273755e-03, -1.86155196e-02,
       -2.38171443e-02, 3.53311747e-03, 8.96026567e-03, 9.34733450e-03,
       1.89047400e-02, 4.21958836e-03, -1.16437068e-02, -1.63924750e-02,
       -1.63994264e-02, -2.13328656e-02, -9.44964180e-04, 9.00128018e-03,
       7.67540466e-03, 9.61406343e-03, -1.25018461e-03, -2.21807603e-02,
       -2.53635105e-02, -1.62356067e-02, -2.90541095e-03, 2.30918936e-02,
       3.18273343e-02, 1.56293064e-02, 1.62386578e-02, 3.07877222e-03,
       -2.01155283e-02, -2.61208396e-02, -2.31782608e-02,
       -1.62672605e-02, 2.45073643e-02, 2.14756299e-02, 1.38989626e-03,
       8.58959835e-03, 9.81503632e-03, 5.21935290e-03, -1.61676127e-02,
       -1.20307980e-02, -8.72221496e-03, 6.45894744e-03, -5.59038424e-04,
       -2.00280398e-02, -5.93941845e-03, 7.09571317e-03, 1.10411951e-02,
       -1.44523885e-02, -1.26481894e-02, -1.19938888e-02,
       -4.22426639e-03, -1.78681780e-02, 2.33701672e-02, 1.81781668e-02,
       8.99623334e-03, -5.26548596e-03, -3.43872271e-02, -1.83732323e-02,
       -9.56308469e-03, 2.08969600e-02, 1.60266254e-02, 2.09235866e-02,
       9.67890583e-03, 1.47201680e-02, -7.69961067e-03, -2.69402880e-02,
       -2.31188331e-02, -1.49176130e-02, 1.67719070e-02, 2.12875959e-02,
       -1.90755520e-02, -6.23988174e-03, 8.35292321e-03, 1.29149873e-02,
       2.69767363e-03, -4.73847147e-03, -7.39199389e-03, -6.04623882e-03,
       -1.90084297e-02, -2.42892504e-02, -1.61323813e-03,
       -4.85793641e-03, -5.93527313e-03, -8.93118139e-03,
       -2.81556416e-02, -1.54176867e-02, 1.53414253e-03, -1.77835654e-02,
       1.98785663e-02, 1.35940230e-02, 1.01268683e-02, -8.45019147e-03,
       -2.55898088e-02, -9.20207985e-03, 6.61531324e-03, 2.70569716e-02,
       2.20708102e-02, 1.20844319e-02, 3.90575267e-03, 3.69457854e-03,
       -1.37403272e-02, -1.35062635e-02, -2.62349751e-02, 3.92508879e-03,
       3.58511172e-02, 1.87818613e-02, -1.27305817e-02, 6.77238358e-03,
       -5.26489411e-03, -8.39513913e-03, -1.77025069e-02,
       -3.30246612e-02, -1.60580128e-02, 1.73639506e-02, 3.31122545e-03,
       -9.88101214e-03, -9.63622518e-03, -1.77409127e-02,
       -1.20622758e-02, -2.80404836e-03, -3.28250304e-02,
       -1.17123257e-02, 2.33793296e-02, 8.28246400e-03, 1.62471663e-02,
       7.72745674e-03, 6.54516183e-03, -3.81007371e-03, -1.64599232e-02,
       -3.76820602e-02, -6.36907294e-03, 2.43472122e-02, 1.99760087e-02,
       5.07035013e-03, 1.67349167e-03, -4.60152607e-03, -6.40760129e-03,
       -9.06105246e-03, -2.63001323e-02, -1.05801886e-02, 1.82468612e-02,
       1.25118168e-02, -1.12533849e-02, -9.16565768e-03, -1.47864698e-02,
       -1.60520133e-02, -7.16850860e-03, -2.54032314e-02,
       -5.10117551e-03, 3.37741449e-02, 1.35819716e-02, 7.90942274e-03,
       1.40397362e-02, -8.61927215e-03, -1.90202408e-02, -3.77960317e-02,
       -3.28460783e-02, -4.83150972e-04, 4.30025198e-02, 1.37012126e-02,
       -1.82619446e-03, 7.27269379e-03, -8.05975869e-03, -1.67684238e-02,
       -1.70011707e-02, -2.15261541e-02, -1.07518462e-02, 1.11019164e-02,
       1.06766326e-02, 1.39963836e-03, 3.00073763e-03, -8.12938809e-03,
       -2.50912122e-02, -3.40835601e-02, -2.64877062e-02, 3.26910592e-03,
       3.34205553e-02, 1.00962073e-02, 2.52207648e-02, 1.87449418e-02,
       -1.69148650e-02, -2.58522965e-02, -2.33000517e-02,
       -3.47711779e-02, -9.81259253e-03, 2.96135657e-02, 2.01907735e-02,
       2.95381043e-02, 1.47886137e-02, -1.59911122e-02, -2.30622496e-02,
       -3.40913199e-02, -3.47430594e-02, -2.12609880e-02, 1.16336392e-02,
       1.95213929e-02, 5.37302485e-03, 8.84237606e-03, -1.07568903e-02,
       -3.18201035e-02, -2.82186419e-02, -3.41870114e-02,
       -1.58508122e-02, 1.67245492e-02, 2.35261419e-03, 2.10748035e-02,
       8.91643949e-03, -1.33006787e-02, -2.33901851e-02, -3.16702724e-02,
       -2.90182941e-02, -1.84870865e-02, 1.65969902e-03, 1.41973291e-02,
       1.95669644e-02, 1.25272935e-02, -6.90890104e-03, -9.08501260e-03,
       -1.87765267e-02, -2.63027418e-02, -1.36427423e-02, 1.22035220e-02,
       1.47513263e-02, 6.42158510e-03, 7.96226226e-03, 9.18077480e-04,
       2.30770931e-03, -5.30555472e-03, -1.51271867e-02, 1.86848559e-03,
       3.21057625e-02, 1.22017683e-02, -7.82107748e-03, -4.00417205e-03,
       -2.02759169e-02, -2.53480636e-02, -2.06721667e-02,
       -2.49370504e-02, -1.09169977e-02, 8.38855561e-03, -1.83402631e-03,
       -7.49561470e-03, 3.19771492e-03, -8.43205396e-03, -2.43778434e-02,
       -1.18815452e-02, -1.15662562e-02, 5.17457630e-03, 2.54536625e-02,
       -1.49067794e-03, 1.52509287e-02, 1.93149373e-02, 1.45586552e-02,
       6.80312654e-03, -1.50512047e-02, -9.41360462e-03, 7.20505789e-03,
       3.06897983e-02, 1.63474940e-02, -1.12581598e-02, 1.73729211e-02,
       2.02013832e-02, 1.90157630e-02, 1.31731490e-02, -9.19781160e-03,
       -5.25071053e-03, 9.27793887e-03, -1.09417913e-02, -8.73495173e-03,
       1.58260856e-02, 3.92921362e-03, -6.15422567e-03, -2.25486942e-02,
       -7.65265152e-03, 9.99596342e-03, 2.30315831e-02, -1.36586707e-02,
       -1.80859361e-02, 5.42946672e-03, 1.38157131e-02, 1.31045757e-02,
       -7.75196636e-03, -9.23560560e-03, -8.38649087e-03,
       -9.98287069e-05, -3.13653946e-02, -1.36875082e-02, 8.44419468e-03,
       2.88766809e-02, 4.65563498e-02, 4.31649312e-02, 2.16339361e-02,
       1.93170924e-03, 7.22467853e-03, -6.22203574e-03, -1.85650084e-02,
       -2.10864935e-02, 1.33340262e-04, 1.20119676e-02, -5.42564783e-03,
       -1.38229048e-02, -2.00844500e-02, -3.31934355e-02,
       -2.08734814e-02, -7.69718969e-03, 8.23623128e-03, 2.44083311e-02,
       3.16757970e-02, 2.06031501e-02, 5.59899444e-03, -1.34864040e-02,
       -1.19696939e-02, -1.75067671e-02, -1.21655101e-02,
       -1.69164445e-02, 4.15054942e-03, 7.42796576e-03, -5.07639209e-03,
       -2.72329804e-02, -3.29054892e-02, -3.33604962e-02,
       -1.35881305e-02, -1.31778680e-02, -1.61338802e-02, 4.45043668e-03,
       9.00063384e-03, 4.24878625e-03, -4.71385056e-03, -1.23698274e-02,
       -3.63423377e-02, -1.97364911e-02, -2.71333777e-03,
       -1.93905961e-02, -5.47531247e-03, -4.63300478e-03,
       -1.15436893e-02, -1.15248570e-02, -1.83797143e-02,
       -3.90307233e-02, -1.37093877e-02, -7.62164453e-03,
       -1.95415411e-02, 4.20233188e-03, 1.43187856e-02, 9.19918623e-03,
       -7.34641496e-03, -2.32542660e-02, -2.85084229e-02,
       -1.87278248e-03, -1.00054611e-02, -2.19360944e-02,
       -7.74442591e-03, 7.63450935e-03, -8.72193777e-04, -6.96480693e-03,
       -2.69548856e-02, -3.65402587e-02, -8.76237080e-03,
       -8.20839219e-03, 1.51234167e-03, 1.14350412e-02, 1.26261096e-02,
       -4.94784769e-03, 7.63040874e-03, -1.25581131e-03, -4.75748768e-03,
       -1.37274377e-02, -1.92077160e-02, -9.07781534e-03, 1.02000348e-02,
       -1.00009551e-03, 3.70153721e-04, -2.86298920e-04, -8.03329423e-03,
       -9.69458744e-03, -7.36058038e-03, -1.15019912e-02, 3.68966511e-03,
       9.34952591e-03, 1.32947136e-02, 4.54129511e-03, 1.57891139e-02,
       1.15300240e-02, 6.78779511e-03, -1.46224455e-03, 1.22969886e-02,
       1.43106598e-02, 1.60187446e-02, 1.94929913e-02, 2.21944111e-03,
       1.08882980e-02, 8.38556048e-03, 1.29738904e-03, 3.42273689e-03,
       -1.54284462e-02, -1.19291507e-02, 2.54846062e-03, 4.02907934e-03,
       5.94287738e-03, -1.44878658e-03, -9.72130802e-03, -5.30543737e-03,
       -6.79456769e-03, -3.47334682e-03, -1.71811646e-03, 1.08509306e-02,
       1.59912035e-02, 9.94698703e-03, -6.19977247e-03, -1.16031663e-02,
       -1.64685061e-03, -7.18453061e-03, 7.59386318e-03, 5.94372256e-03,
       3.01673613e-03, 7.15495460e-03, 3.60941351e-03, 1.72596204e-03,
       -1.72411569e-03, -6.10328186e-03, -1.85345672e-03,
       -2.38909782e-03, 9.58617218e-03, 2.28788294e-02, 1.65470913e-02,
       2.32353131e-03, 2.75640655e-03, -4.60539339e-03, 3.97526054e-03,
       -3.22562922e-03, -1.39687234e-03, 5.56022674e-03, 3.86633282e-03,
       1.60459932e-02, 2.17957310e-02, 1.60586016e-04, -1.06747970e-02,
       -4.48858971e-03, -7.38300756e-03, -1.04027996e-02,
       -1.02788489e-02, -9.57962219e-03, 1.31091813e-03, 1.62711628e-02,
       5.81358466e-03, -8.09505302e-03, -1.43634127e-02, -6.53388537e-03,
       -1.40221287e-02, 3.87556059e-03, 1.28324442e-02, 1.84365567e-02,
       1.99094824e-02, 3.60466563e-03, -5.95622743e-03, -7.98204541e-03,
       -1.16574625e-02, -7.40485312e-03, -6.58762548e-03, 3.64820915e-03,
       -1.43612313e-04, 1.72736216e-02, 8.87405314e-03, 1.17147574e-03,
       -1.42067848e-02, -1.38360821e-02, -2.58435085e-02,
       -7.94310216e-03, -6.55645085e-03, -5.71919931e-03, 4.74607898e-03,
       1.56013733e-02, 2.60071475e-02, 2.72195730e-02, 1.24960544e-03,
       -3.21202911e-02, -1.05959168e-02, -1.13437520e-02,
       -1.32275252e-02, -3.64050106e-03, 6.04304997e-03, 3.31429541e-02,
       4.94709685e-02, 5.45281637e-03, -1.47831663e-02, -4.56931535e-03,
       -3.12072480e-05, -1.18567497e-02, -2.23613717e-03,
       -7.63124088e-03, 1.04888454e-02, -4.39380948e-03, -2.61687990e-02,
       -1.24681043e-02, -1.31577824e-03, -1.32326856e-02,
       -1.77958924e-02, -1.56950636e-03, -8.86833109e-03, 2.22039688e-02,
       2.30786167e-02, -1.26703475e-02, -1.99062489e-02, -4.42987215e-03,
       7.25376653e-04, -1.11106150e-02, -1.28965229e-02, -9.81662050e-03,
       1.57612357e-02, 4.70728241e-02, 7.00799981e-03, -4.97313309e-03,
       3.32401018e-03, 3.86478333e-03, -3.17269750e-02, -1.80178657e-02,
       -1.06427493e-02, -2.40839855e-03, 2.71522067e-02, 1.14105251e-02,
       -1.49721149e-02, 7.95056392e-03, -8.80330801e-03, -1.32866884e-02,
       -7.29146879e-03, -7.41428882e-03, 1.11368727e-02, 3.06831915e-02,
       -9.30368342e-03, 2.66971416e-03, 1.03361700e-02, -1.24174235e-02,
       -3.66460867e-02, -9.65032820e-03, -1.57249812e-02,
       -5.22431592e-03, 1.64242275e-02, 6.66396972e-03, 1.70885341e-03,
       8.99859983e-03, 2.52993574e-04, -2.30340753e-02, -2.00059861e-02,
       -5.64528815e-03, -1.35639787e-03, 1.65225640e-02, 1.13956956e-02,
       1.89245073e-03, 7.95759168e-03, 1.17323617e-03, -2.16815565e-02,
       -9.35419183e-03, -5.93213690e-03, -3.06992698e-03, 1.72175281e-02,
       1.91353878e-03, 1.04635477e-03, 1.16229299e-02, -1.52664334e-02,
       -3.11890095e-02, -2.10510623e-02, -4.37046774e-03, 2.49436148e-03,
       1.10926600e-02, 1.41374590e-02, 3.62595450e-03, 1.09236175e-02,
       -5.70927165e-04, -1.21230949e-02, -2.22071631e-05,
       -4.42070374e-03, -4.48567932e-03, -3.34850186e-03, 1.03695889e-03,
       8.89630802e-03, 1.27613684e-02, 8.03163275e-03, -7.09664403e-03,
       -9.97801125e-03, -8.09035543e-03, -1.47645995e-02, 1.40666068e-02,
       1.50991948e-02, 1.48689346e-02, 2.51143202e-02, 2.49028746e-02,
       -1.46324036e-03, -8.52243323e-03, -2.04882771e-02,
       -2.16369387e-02, 5.85508067e-03, 1.93053596e-02, 1.69916463e-03,
       1.06358696e-02, 7.52226159e-04, -3.70692345e-03, -3.14497994e-03,
       -7.09587801e-03, -1.45893330e-02, -1.76574662e-02, 4.08365810e-03,
       8.58586561e-03, 1.03265783e-02, -6.17900107e-04, -1.32881971e-02,
       5.29200910e-03, -1.64096691e-02, -2.40299832e-02, -1.58370659e-02,
       -2.85478804e-04, 8.84758029e-03, 2.14672238e-02, 1.45325391e-02,
       -4.84799733e-03, -1.69739258e-02, -1.59744415e-02,
       -2.42888462e-03, 1.35653913e-02, 1.85318813e-02, 1.08591393e-02,
       1.26969349e-02, 7.00386474e-03, -6.92242477e-03, -7.27577647e-03,
       -2.24941839e-02, -2.82308995e-03, 2.65417807e-02, 1.26857311e-02,
       1.33212171e-02, 1.58995707e-02, 7.52208708e-03, -4.65732580e-03,
       -8.80015176e-03, -9.66056529e-03, -1.90468617e-02,
       -1.55818984e-02, 2.84839864e-03, 4.90433443e-03, 6.52263267e-03,
       1.66441761e-02, 5.24509232e-03, -5.90225868e-03, -1.96247101e-02,
       -3.09614502e-02, -2.19687168e-02, -1.15449750e-03, 1.36216935e-02,
       1.21856946e-02, 9.68693942e-03, 1.53188372e-03, 1.98815673e-04,
       -2.03529950e-02, -4.67585819e-03, 2.67726779e-02, 2.28979848e-02,
       2.40848353e-03, 8.86738859e-03, 3.47743323e-03, 3.93025344e-03,
       -4.54792101e-03, -9.54961963e-03, 1.16552447e-03, 1.25458632e-02,
       8.60763900e-03, -1.16029959e-02, -2.44329846e-03, 8.83006398e-03,
       -1.20791525e-03, -5.21684811e-03, -1.98025499e-02,
       -2.19460838e-02, -9.80349258e-03, -1.86088737e-02,
       -1.44765666e-02, -8.67720321e-03, -4.92122537e-03, 1.45898503e-03,
       3.18306917e-03, -1.95843689e-02, -1.52770374e-02, -1.28219975e-02,
       -1.92257054e-02, 3.99954570e-03, 1.17093045e-02, -6.13672612e-03,
       2.63435300e-03, 2.69713299e-03, -2.85094162e-03, -2.27835868e-03,
       1.44319376e-02, 6.96143694e-03, -7.57660670e-03, 8.39102548e-04,
       -1.04935365e-02, -1.02547789e-02, -9.64561757e-03,
       -5.91207901e-03, 6.47359469e-04, 2.17976011e-02, 4.75609675e-03,
       -9.40858666e-03, 6.65650237e-03, -5.61094936e-03, 3.71319940e-03,
       -1.94625265e-03, -9.28386953e-03, -1.20612355e-02,
       -1.12232585e-02, -6.74710842e-03, -1.83111299e-02,
       -1.19899260e-02, -1.67932305e-02, -9.93974600e-03, 6.82929065e-03,
       -7.28929974e-03, -9.76806507e-03, 5.79668861e-03, -8.86367448e-03,
       6.88084494e-03, 1.40461763e-02, -3.31568677e-04, -7.43326265e-03,
       -1.86308273e-04, -4.18987824e-03, -6.08592061e-03, 1.35475537e-02,
       1.21584386e-02, 1.51248677e-02, 1.97433066e-02, 2.14436019e-04,
       -4.43142257e-04, -9.65672266e-03, 2.53619626e-03, -2.70302827e-03,
       6.51402457e-04, 1.61348805e-02, -1.32447649e-02, -3.56113166e-03,
       -9.23776720e-03, -1.10657765e-02, 4.49163344e-04, -6.91510271e-04,
       -1.35342833e-02, 2.71436758e-03, -1.33247469e-02, -1.44701963e-02,
       4.30055941e-03, -3.69868777e-03, -1.35389937e-03, -1.90389883e-02,
       1.98444072e-03, -9.60971881e-03, -3.90184019e-03, -2.02524681e-02,
       6.51544239e-03, 1.22028459e-02, -7.97344185e-03, -8.72844551e-03,
       -5.52189071e-04, -2.81499908e-03, 5.96107077e-03, 1.40079278e-02,
       1.38695920e-02, -4.93102800e-03, 2.44361330e-02, 8.34886078e-03,
       -1.29500469e-02, -8.23778752e-03, -7.78004946e-03, 1.26056215e-02,
       1.69092920e-02, 7.77583709e-03, -1.72119122e-02, 3.44130816e-03,
       -6.29679533e-03, -1.04593495e-02, -1.34516619e-02,
       -1.15295146e-02, -6.19460922e-03, 7.06646359e-04, -1.18731391e-02,
       -1.17234588e-02, 9.78765660e-04, 6.30746770e-04, -1.38489893e-02,
       -1.64606478e-02, -2.01707818e-02, 5.37175499e-03, 1.69969921e-04,
       5.42064572e-06, -1.23863702e-03, 2.30148565e-02, 1.48762846e-02,
       -4.53071523e-04, -1.02549559e-02, -1.05594355e-03, 1.44101512e-02,
       1.68121271e-02, -5.57173975e-03, -3.16442479e-03, 2.22130995e-02,
       2.05170754e-02, 1.12350807e-02, -4.74678818e-03, 7.95044121e-04,
       1.11130960e-02, 4.87736752e-03, -1.45465024e-02, -1.42464442e-02,
       6.94677653e-03, 1.02523621e-02, -3.70133505e-03, -2.09068302e-02,
       -2.50791926e-02, 3.05008236e-03, -2.82438961e-03, -3.20680509e-03,
       -8.84291437e-03, 9.58791468e-03, 1.97440349e-02, 4.51189512e-03,
       -1.38721615e-02, -8.72691907e-03, 1.68271307e-02, -7.47568021e-03,
       -1.22883962e-02, 3.23093007e-03, 1.58367641e-02, 2.03542132e-02,
       2.52494402e-02, -9.99061042e-04, 8.40771012e-03, 6.69168308e-03,
       -3.89363314e-03, -1.46077236e-03, -1.56630797e-03,
       -3.69387912e-03, 7.02724932e-03, 1.70510123e-03, -1.95855498e-02,
       -2.13139541e-02, -2.14801542e-02, -1.99034289e-02,
       -3.03771393e-03, -3.77834146e-03, 5.49348351e-03, 1.37051251e-02,
       1.30804842e-02, -6.32480113e-03, 6.07824652e-03, 2.01707333e-02,
       -4.94243810e-03, -5.90756210e-03, 5.10611106e-03, -8.57424457e-03,
       -1.00050140e-02, -8.79202038e-03, -3.15069817e-02,
       -1.74248423e-02, -2.27606557e-02, -2.53659952e-02, 3.48223094e-03,
       5.34552801e-03, -1.01116505e-02, -8.12898816e-06, 7.53673771e-03,
       -8.66966974e-03, -2.02848352e-02, -1.90431979e-02,
       -2.13503297e-02, 4.33921767e-03, -5.79149323e-03, -2.11624447e-02,
       -5.96975442e-03, 6.82948111e-03, 5.81496279e-04, -1.61381811e-02,
       -2.29508560e-02, -3.09292227e-02, -4.87352302e-03, 9.12735239e-03,
       -1.10576609e-02, -8.76444764e-03, -3.90711054e-03,
       -1.50289219e-02, -2.48934310e-02, -2.35570334e-02,
       -2.68831067e-02, 9.57524497e-03, -7.26954127e-03, -2.78409813e-02,
       -4.74015437e-03, -5.78055251e-03, -8.00306164e-03,
       -2.08324734e-02, -2.93843970e-02, -3.74048688e-02,
       -1.03439083e-02, -1.44939888e-02, -3.03140585e-03, 3.53711518e-03,
       5.69467945e-03, -1.10464515e-02, 1.95684992e-02, 4.92199045e-03,
       -8.28884915e-03, -4.63717710e-03, -2.54274136e-03,
       -9.18771431e-04, -2.07038946e-03, 6.34590350e-03, -4.02002856e-02,
       9.83226928e-04, -1.58388186e-02, -2.10873708e-02, -1.00670895e-02,
       5.01170568e-03, 1.45559339e-02, 2.93175988e-02, 2.14737356e-02,
       5.55799389e-03, 2.80605610e-02, 1.38173839e-02, -1.01935875e-03,
       4.73977625e-03, 3.62281455e-03, 9.73120332e-03, 2.46042851e-02,
       1.32221906e-02, -2.23630061e-03, 2.04743203e-02, 3.75751755e-03,
       5.50697464e-03, 3.27422190e-03, 5.31043066e-03, 8.14217050e-03,
       8.23535584e-03, 7.08887121e-03, -2.08075857e-03, 3.12750973e-03,
       -8.79099965e-03, -1.43419998e-03, 5.75978216e-03, -2.47387751e-03,
       1.06426040e-02, 1.84435602e-02, 8.13808478e-03, -5.02303336e-03,
       2.49643308e-05, -6.11261884e-03, -1.18612153e-02, -1.63492188e-03,
       6.00596471e-03, 8.27854872e-03, 1.91524923e-02, 6.28353190e-03,
       -4.95702843e-04, 1.32685527e-02, 8.49846192e-03, 2.03172974e-02,
       7.67832808e-03, 4.19830467e-04, 1.05975596e-02, 1.52699938e-02,
       1.04368273e-02, 1.06768950e-03, 1.21260760e-03, -6.73530949e-03,
       -1.66153116e-03, -4.96033672e-03, -7.78913870e-03, 8.63560848e-03,
       2.26934087e-02, 1.58935897e-02, 2.92601879e-03, 1.08045060e-02,
       -1.17770759e-02, -1.47081194e-02, -1.27456151e-02,
       -1.21396957e-02, 1.23017235e-02, 2.16305647e-02, 1.27082272e-02,
       1.66420992e-02, 1.82672571e-02, 7.09392084e-03, -1.41822100e-02,
       -2.88375411e-02, -5.50536090e-04, 9.04435199e-03, 1.57164838e-02,
       1.68223772e-02, -6.16053061e-04, 1.56853218e-02, -5.08735981e-03,
       -4.21462394e-03, -9.16935503e-03, -1.47561198e-02, 7.11382786e-03,
       1.75059829e-02, 1.09519437e-02, 1.49929076e-02, 2.05710419e-02,
       1.69927278e-03, -1.97240245e-02, -3.68394665e-02, -8.26681219e-03,
       6.84390217e-03, 1.74116008e-02, 4.18733992e-03, 1.76482610e-02,
       8.23789462e-03, 6.36545382e-03, -8.26265104e-03, -1.97086949e-02,
       8.77986022e-04, 1.60011500e-02, 1.44489752e-02, -7.33379507e-03,
       -7.62661686e-04, -7.79638672e-03, 2.36578309e-03, 1.37091638e-03,
       -1.74452830e-02, -2.00213082e-02, 7.91447796e-03, 2.54656263e-02,
       1.13633368e-02, 1.54893603e-02, 2.86682480e-04, 4.62770276e-03,
       -1.74513813e-02, -3.16321626e-02, -7.23989867e-03, 2.17131339e-02,
       3.31959948e-02, 9.05657560e-03, 7.72475963e-03, -1.50026698e-02,
       -1.78250286e-03, -1.36538157e-02, -2.93105282e-02, 1.01046003e-02,
       1.93131994e-02, 1.65209658e-02, -1.23280112e-03, -2.91436329e-03,
       -1.05515087e-03, 6.01382041e-03, 1.10911494e-02, -8.37501830e-06,
       1.89872198e-02, 1.32096549e-02, 1.35182850e-02, -1.83856469e-02,
       -1.02931010e-02, -7.84632098e-03, 2.57172063e-03, 7.99164176e-03,
       7.66599504e-03, 6.12553849e-04, 2.74012759e-02, 3.14957388e-02,
       -2.51717330e-03, 2.72462610e-03, -1.34046320e-02, 1.14898721e-03,
       -1.07840840e-02, -2.05238499e-02, 1.12776468e-02, 1.76973250e-02,
       2.85119582e-02, -1.57135297e-02, -1.02259777e-02, -1.70308482e-02,
       7.03359197e-04, -3.21773882e-03, -1.68601144e-03, 1.00341411e-02,
       1.40977632e-02, -2.80969939e-03, -1.66944321e-02, -1.70888752e-02,
       3.40219983e-03, 9.05613508e-03, 8.25722422e-03, 2.04656757e-02,
       1.40213408e-02, 1.02081727e-02, 6.11324050e-03, -2.37837597e-03,
       2.62771500e-03, 2.00809329e-03, 1.94020715e-04, 2.24552630e-03,
       9.32381675e-03, 2.11337232e-03, 2.24188082e-02, 2.07068436e-02,
       -9.40143690e-03, -2.34647989e-02, -8.26726202e-03, 4.06986987e-03,
       -1.53424451e-03, -8.35915562e-03, -3.89004755e-03, 9.40500386e-03,
       1.34941237e-02, -7.56279659e-03, 3.48218111e-03, -2.93922890e-03,
       8.88924755e-04, -5.70184877e-03, -1.11017628e-02, 1.43076675e-02,
       1.64155029e-02, 1.03705479e-02, 9.49680619e-03, 8.50356929e-03,
       3.11485073e-03, -4.09338484e-03, -8.50004796e-03, 6.12262636e-03,
       1.19248731e-02, 1.74395312e-02, -3.76258278e-03, -8.91240966e-03,
       -9.72757407e-04, -1.08923926e-03, -5.31371729e-03,
       -8.90262425e-03, -2.43908609e-03, -7.82911852e-03, 5.33822645e-03,
       1.17397904e-02, -1.89804286e-03, -4.15653572e-04, 7.27728847e-03,
       1.53490168e-03, -4.44650231e-03, -1.50008556e-02, -2.91548204e-03,
       1.70506388e-02, 1.54980766e-02, -1.31914318e-02, -1.52313104e-02,
       5.48687764e-03, -3.07324901e-03, 1.65831021e-04, -1.23336548e-02,
       1.90833583e-02, 2.49870196e-02, 1.19533436e-02, 4.46137460e-03,
       -7.34077534e-03, 3.52978217e-03, -9.11824126e-03, -1.18000396e-02,
       1.38175376e-02, 8.44378769e-03, 1.23498728e-02, 1.83563158e-02,
       3.89278098e-03, -2.11602598e-02, -4.67921887e-03, -2.28707138e-02,
       -2.42950637e-02, 6.33293157e-03, -5.03725698e-03, 2.74263080e-02,
       1.81867126e-02, -2.25439132e-03, -3.66031867e-03, 1.15592023e-02,
       3.83668835e-03, 5.31819277e-03, -9.63218231e-03, -8.27987120e-03,
       1.41730653e-02, 7.15239113e-03, -6.23701746e-03, -1.51593499e-02,
       8.24166287e-04, 2.10035592e-03, -5.66079235e-03, -8.96698236e-03,
       2.04683351e-03, 1.53156137e-02, 1.91436764e-02, 6.55126804e-03,
       4.28454718e-03, -4.45352821e-03, -1.08442707e-02, -1.86859835e-02,
       -7.08546164e-03, -7.27508217e-03, 1.17707225e-02, 8.22108053e-03,
       1.45734828e-02, 1.39428098e-02, -2.09714379e-02, -9.08943266e-03,
       -1.09526822e-02, -2.84149460e-02, -6.15543872e-03, 1.16995219e-02,
       1.02265775e-02, 6.13956014e-04, -9.83683509e-04, 2.50280695e-03,
       3.29152727e-03, -8.32103938e-03, -1.51537294e-02, -7.72853335e-03,
       6.98695239e-03, 3.63940024e-03, 6.49548648e-03, 6.19752891e-03,
       -1.01924986e-02, -3.94416042e-03, -8.80177540e-04,
       -2.18065251e-02, -6.42421842e-03, 1.13852257e-02, 7.94750825e-03,
       1.92612763e-02, 1.66167878e-02, -1.71054271e-03, 1.35353371e-03,
       -4.67498694e-03, -1.25367064e-02, -1.48347765e-02, 9.18752281e-04,
       2.34691845e-03, 4.13436117e-03, 2.19693780e-02, 5.85180428e-03,
       -6.28340873e-04, -9.27990302e-04, -1.17185758e-02,
       -1.42689133e-02, -5.23305498e-03, -1.75520289e-03, 4.99221776e-03,
       6.15586806e-03, -1.30314624e-03, 1.46542781e-03, -5.84716117e-03,
       -1.39831798e-02, -2.79835798e-02, -6.81998907e-03,
       -2.31153099e-03, -1.33982569e-03, 1.45913819e-02, -3.36452480e-03,
       -4.75316867e-03, -1.90513879e-02, -2.32673641e-02,
       -1.38727343e-02, 6.50157221e-03, 5.71646262e-03, -3.39170056e-03,
       7.76869338e-03, 9.44073498e-03, -1.06203181e-04, 8.03201168e-04,
       -7.23251235e-03, -5.81253320e-03, 1.89802106e-02, 1.32277543e-02,
       5.72126964e-03, -1.37098394e-02, 1.93915162e-02, 1.58299285e-03,
       1.49241043e-02, -6.24094205e-03, -3.58845741e-02, -3.64285451e-03,
       2.38462677e-03, 4.02751006e-03, 8.11098609e-03, 2.26096669e-03,
       -9.17187333e-03, -1.03088208e-02, -2.32606195e-02,
       -2.75627039e-02, 7.47489883e-03, 5.26657095e-03, 3.33829504e-03,
       -8.14190228e-03, 8.78206827e-03, 6.44840719e-03, 4.52214247e-03,
       -1.64898597e-02, -8.12137593e-03, 1.60585400e-02, 1.23837702e-02,
       2.76344642e-03, -1.18394131e-02, -2.48021702e-03, -7.39071518e-03,
       6.18051179e-03, -7.41737057e-03, 1.36628631e-04, 7.81160127e-03,
       1.73077285e-02, 1.87277503e-03, -6.06402708e-03, -3.17462924e-04,
       5.84361190e-03, 8.70365463e-03, 8.62591527e-03, -2.07185317e-02,
       9.66387428e-03, 3.98255698e-03, -1.36045285e-03, -1.76433790e-02,
       -1.24446750e-02, -1.52170770e-02, -1.72199979e-02,
       -2.55769249e-02, -2.32317317e-02, 4.63104807e-03, 8.14599916e-03,
       2.03161035e-03, -1.44006405e-02, -7.95160979e-03, -1.36550888e-02,
       -8.36563855e-03, -1.46324020e-02, -1.23985140e-02, 7.71407178e-03,
       1.85736828e-02, 6.75086956e-03, -2.83574336e-03, -4.61099437e-03,
       2.94387643e-03, 4.07265173e-03, 7.41811143e-03, -1.39590418e-02,
       7.01473374e-03, 1.87614858e-02, 7.21423374e-03, -2.01411382e-03,
       8.14138260e-03, 2.26009469e-02, 6.99845003e-03, -7.29595451e-03,
       -3.41607593e-02, -4.99344012e-03, 1.29362866e-02, 2.76187062e-03,
       -3.14795715e-03, -1.14302197e-03, -8.65461770e-03,
       -4.65771009e-04, -1.49195343e-02, -2.09100172e-02,
       -8.76796184e-05, 6.56568445e-03, -3.87227349e-03, 9.86552797e-03,
       2.06182362e-03, 2.85485364e-03, -1.88949925e-03, -1.27253430e-02,
       -3.11650778e-03, 1.03654200e-02, 1.76546890e-02, 1.14536881e-02,
       -2.75177008e-04, 1.72015298e-02, 2.60616019e-02, 4.71958052e-03,
       5.78673044e-03, 8.36465391e-04, -4.36197221e-03, -1.03011972e-03,
       -5.98829566e-03, -1.79919712e-02, -7.37070991e-03,
       -1.57232471e-02, -1.89410411e-02, 4.70781559e-03, -2.71593523e-03,
       1.46122053e-02, 1.53272217e-02, 2.51785386e-03, 8.64591077e-03,
       7.59733142e-03, 1.10694626e-02, 3.73935234e-03, -4.31260373e-03,
       -8.70953314e-03, -2.04111487e-02, -6.00994623e-04,
       -9.01619252e-03, -2.70668361e-02, -8.85273423e-03,
       -9.90248751e-03, -1.28338775e-02, -6.23742770e-03, 1.56647209e-02,
       -4.67462698e-03, 3.40360543e-03, -1.35167176e-03, -1.01759257e-02,
       -1.39385900e-02, -2.30113175e-02, -2.03285944e-02, 1.66645423e-02,
       1.07318535e-03, -1.87820401e-02, -2.80287990e-04, -1.02775951e-03,
       -1.14171831e-02, -1.95318945e-02, -2.17744075e-02,
       -2.46224590e-02, 6.49011927e-03, 1.02356831e-02, -2.30459608e-02,
       -4.58624959e-03, -7.88972806e-03, -2.41166241e-02,
       -1.51054561e-02, -2.75657997e-02, -2.16766819e-02, 1.33946920e-02,
       -1.89491455e-03, -2.73061190e-02, -1.66685637e-02,
       -8.44490435e-03, -2.47869715e-02, -2.97714435e-02,
       -4.36511561e-02, -3.55490074e-02, 2.44290242e-03, -2.46979266e-01 ]
