%YAML:1.0
---
_1000-2000-testG: !!opencv-object-detector-hog
   winSize: [ 64, 128 ]
   blockSize: [ 16, 16 ]
   blockStride: [ 8, 8 ]
   cellSize: [ 8, 8 ]
   nbins: 9
   derivAperture: 1
   winSigma: 4.
   histogramNormType: 0
   L2HysThreshold: 2.0000000000000001e-01
   gammaCorrection: 1
   nlevels: 64
   signedGradient: 0
   SVMDetector: [ 5.78233115e-02, -1.52251218e-03, 8.84754118e-03,
       3.44990268e-02, 2.71139182e-02, -2.91177314e-02, -2.76294760e-02,
       -4.54322690e-05, 2.99905408e-02, 4.20837253e-02, 3.71162477e-03,
       1.57148540e-02, 1.30040674e-02, -2.21023220e-03, 6.97508501e-03,
       1.21340575e-02, 1.93959847e-02, 2.47865245e-02, 2.26230603e-02,
       -3.26136622e-04, 9.39481799e-03, 3.14635187e-02, -1.42194703e-02,
       -1.11003313e-02, -6.66703135e-02, -6.07487038e-02, 1.06136752e-02,
       2.09147278e-02, 1.57386381e-02, 2.80897133e-02, 3.85304876e-02,
       -3.01039498e-02, 8.90493859e-03, -3.91971469e-02, 3.36972740e-03,
       2.00802721e-02, 1.71448812e-02, 6.71679270e-04, -2.94024823e-03,
       -9.55225714e-03, 1.32106449e-02, -5.79021126e-03, -5.14168339e-03,
       4.22509201e-03, 1.15302000e-02, 4.17921953e-02, 1.00906286e-02,
       -3.04756965e-03, -5.88896591e-03, -2.45972537e-02, 4.59706830e-03,
       -2.94671040e-02, -1.69151966e-02, 1.13941599e-02, -1.93303134e-02,
       7.95076974e-03, 1.50854280e-02, 1.89336133e-03, 6.13163039e-03,
       8.76037031e-03, -1.61343962e-02, 7.98484311e-03, -1.46102700e-02,
       1.56618003e-02, 3.80770974e-02, 3.33476067e-02, 1.80015340e-02,
       -4.52214964e-02, 2.37565842e-02, -9.70846508e-03, 2.80899578e-03,
       1.34696942e-02, 3.02582532e-02, 2.17688885e-02, -8.48899712e-04,
       -3.46854904e-05, 3.43079977e-02, 3.95917967e-02, 1.24462359e-02,
       2.23698579e-02, 2.21287762e-03, 2.52358452e-03, -2.46261759e-03,
       -3.25045548e-02, -1.15543632e-02, 3.44427787e-02, 2.95030773e-02,
       1.72772519e-02, 4.89084981e-02, 3.25076431e-02, -9.62278340e-03,
       3.21453102e-02, 2.82516889e-03, 1.76140554e-02, -4.76507805e-02,
       5.06434664e-02, 1.95620246e-02, 1.12541253e-02, -2.19701571e-04,
       7.90138263e-04, 5.25910454e-03, -2.50474513e-02, -1.03446180e-02,
       -4.74804780e-03, 1.88186392e-02, 1.89591460e-02, 6.94655329e-02,
       1.44325867e-02, -3.04682110e-03, -4.00074665e-03, -1.90844107e-02,
       4.28632237e-02, 3.41830440e-02, 1.07311150e-02, -2.63264701e-02,
       -2.45375489e-03, -2.51334440e-02, -1.53879235e-02,
       -9.29889083e-03, -2.97190025e-02, 2.41372418e-02, 1.24203544e-02,
       -1.07440203e-02, -1.02458000e-02, -1.50151690e-03,
       -1.48952827e-02, -1.14242667e-02, 1.84075087e-02, 7.73912761e-03,
       5.30991033e-02, 4.02189931e-03, 2.32046116e-02, -2.31691869e-03,
       5.71577176e-02, -1.37914559e-02, -3.72188762e-02, -1.55035174e-02,
       -3.47232670e-02, 4.82620997e-03, -2.46221647e-02, -7.05080619e-03,
       -4.27974435e-03, 1.44111887e-02, -1.02686062e-02, -1.92523468e-02,
       -2.16351287e-03, -2.83631235e-02, -1.05454233e-02, 1.44329183e-02,
       -9.75602027e-03, 3.52053493e-02, 4.13185619e-02, -1.20440153e-02,
       -7.61110801e-03, -2.23851874e-02, -3.15705575e-02, 2.35717525e-04,
       1.51560381e-02, -1.44325430e-02, 2.17832550e-02, 3.78536656e-02,
       -1.65798306e-03, -6.99148513e-03, 1.91251580e-02, -2.06521749e-02,
       8.26382730e-03, 1.03017292e-03, 1.42999003e-02, 4.25151736e-02,
       4.80945595e-02, 6.17194595e-03, 9.90636833e-03, -2.30473094e-03,
       -3.81388143e-02, 1.91547740e-02, -5.13790408e-03, -9.03674751e-04,
       4.70449822e-03, 1.28466710e-02, 2.50837076e-02, -2.96181925e-02,
       -4.72981557e-02, -4.02416214e-02, 1.45906415e-02, 3.57651748e-02,
       -1.24102430e-02, -7.85059668e-03, 3.36847194e-02, -1.51020233e-02,
       -1.86691806e-02, -2.94061694e-02, -2.61115767e-02,
       -8.73203855e-03, -3.28387693e-03, -2.36202683e-02,
       -1.92276128e-02, 4.72576618e-02, 3.66902016e-02, 1.34395785e-03,
       -4.39547859e-02, -4.87998948e-02, 1.68722924e-02, 2.35636160e-02,
       1.51625890e-02, -1.33337583e-02, 1.50017859e-02, -1.31683657e-02,
       -2.18081679e-02, 2.35090405e-02, -6.08315342e-04, -1.69882120e-03,
       1.01233395e-02, -3.82991042e-03, 6.54321816e-03, 4.73969430e-02,
       1.00994688e-02, 5.93718048e-03, -5.40968729e-03, -2.43633185e-02,
       4.25045798e-03, 3.15807797e-02, -1.08537003e-02, -1.95442103e-02,
       3.08909249e-02, 4.10253219e-02, 6.63707126e-03, -1.91199686e-02,
       -5.48729673e-02, 8.45929701e-03, -2.51318198e-02, -3.69560122e-02,
       -5.73332831e-02, 2.84830830e-03, 1.75122898e-02, -7.02213123e-03,
       2.03868374e-02, 3.29832062e-02, 2.37013362e-02, 3.07665616e-02,
       2.46891426e-03, 7.95279397e-04, 2.00709626e-02, 1.35378689e-02,
       -2.01580506e-02, -5.59510663e-03, -1.97503231e-02,
       -3.20557831e-03, -1.48624144e-02, -2.57929098e-02,
       -5.47651984e-02, -3.06729674e-02, -2.34107599e-02, 2.07615849e-02,
       -1.07699810e-02, -2.03791149e-02, 5.07815108e-02, 1.54493516e-02,
       6.92738965e-03, -4.23474200e-02, 5.64008951e-03, 1.41579919e-02,
       -1.68158431e-02, -7.17250258e-02, -4.51020375e-02,
       -9.76063311e-03, 1.13171600e-02, -1.16094970e-03, -2.49356497e-02,
       1.80155840e-02, 8.94502737e-03, 1.56028820e-02, 1.36885205e-02,
       -1.14282342e-02, 6.03204332e-02, -6.24153577e-03, 3.43957618e-02,
       3.62712191e-03, 1.06430706e-02, -4.95474145e-04, -9.18279495e-03,
       -1.71041097e-02, -2.12570354e-02, 1.59893278e-02, -1.24520184e-02,
       1.33363772e-02, 2.00430360e-02, 2.22062524e-02, 4.33193753e-03,
       -2.05940995e-02, -6.50127530e-02, -3.80984470e-02, 1.74234807e-02,
       1.57394633e-02, 2.36528814e-02, 9.75183584e-03, 2.85701770e-02,
       3.43596116e-02, -3.33206281e-02, -4.61754575e-02, -1.39575517e-02,
       4.81174923e-02, 6.72077388e-03, -1.42136756e-02, -2.31170747e-02,
       -5.01441723e-03, -8.35356768e-03, -3.40241008e-03,
       -3.56607251e-02, -1.41107664e-02, 3.89857367e-02, -2.83403229e-02,
       1.00232912e-02, 1.81546900e-02, 3.37961018e-02, 2.20801979e-02,
       -5.75659703e-03, 4.29710979e-03, 1.76646002e-02, 5.57268970e-03,
       -3.22950967e-02, -1.84746068e-02, -9.96361021e-03,
       -2.12658360e-03, 3.53678539e-02, -2.12608241e-02, -3.63512114e-02,
       -3.94156575e-02, 2.13420577e-02, -4.21973392e-02, -3.03717796e-03,
       -2.36400981e-02, -6.76318165e-03, 1.85126215e-02, -1.15001237e-03,
       -2.43472625e-02, -7.35244080e-02, -2.06040312e-02,
       -3.11384685e-02, -1.80353373e-02, -6.02977164e-03, 4.27985471e-03,
       -7.32298649e-04, -4.25088778e-03, 1.58384014e-02, 2.11619362e-02,
       3.19821425e-02, -2.72397678e-02, 2.70636566e-02, -3.95383174e-03,
       1.77684706e-02, 4.69928887e-03, -9.39989090e-03, 1.57076924e-03,
       -2.24145371e-02, 4.32293788e-02, -6.55753631e-03, 3.07040662e-02,
       -7.96404202e-03, 2.51657758e-02, -1.00438623e-02, -2.33461671e-02,
       -4.44117971e-02, -5.03775813e-02, -5.92475478e-03,
       -2.60605328e-02, -3.13390158e-02, -3.33303772e-02, 6.41739042e-03,
       -4.03532805e-03, -9.81744379e-04, -5.83283566e-02,
       -2.29131151e-02, 2.03117654e-02, -2.64028106e-02, 1.76761113e-02,
       -5.45302853e-02, -2.92939227e-03, 6.13192376e-03, -7.51630031e-03,
       2.53698020e-03, -2.32253084e-03, 2.52191573e-02, -1.28525011e-02,
       2.74681076e-02, -2.12583598e-03, 3.29828821e-02, -7.38188764e-03,
       1.11519052e-02, 2.36160476e-02, 1.27638308e-02, 6.67833984e-02,
       3.70514207e-02, 4.35410999e-02, -2.75441009e-04, 1.42904073e-02,
       -2.43914383e-03, -2.03832462e-02, -3.24880593e-02,
       -1.03207733e-02, 2.78754085e-02, -6.64245849e-03, 5.08921333e-02,
       -1.16187707e-02, 2.30020378e-02, 4.18361509e-03, -4.71020453e-02,
       -4.64551561e-02, -2.73835771e-02, -1.40036503e-02,
       -1.64355375e-02, -5.72182937e-03, -2.81368755e-02,
       -1.55163612e-02, -2.63175759e-02, 2.18348075e-02, 1.35117183e-02,
       -9.98990983e-03, 4.92851660e-02, 3.27523947e-02, 4.16505672e-02,
       1.75629538e-02, 4.68395278e-03, -1.44339390e-02, -2.18784548e-02,
       -4.64390367e-02, -3.49393040e-02, -1.80850476e-02,
       -7.14356545e-03, 1.01087766e-03, -6.77011954e-03, -1.15550135e-03,
       -1.57603119e-02, -8.74324515e-03, -5.89800649e-04,
       -6.82092924e-03, 5.94274560e-03, -4.05662647e-03, -5.89746563e-03,
       -3.32680531e-02, -1.66887529e-02, -3.20412926e-02, 7.17699621e-03,
       6.48674229e-03, -1.04446197e-02, -4.88124527e-02, 1.97781026e-02,
       -1.70844421e-02, -1.74985714e-02, 1.28355147e-02, 8.05880502e-03,
       1.80616928e-03, -1.25230681e-02, 8.47395044e-03, -1.01404497e-02,
       -2.63897033e-04, 1.47159714e-02, -1.47736678e-02, 2.21856665e-02,
       -3.57064791e-03, 7.13170739e-04, 3.69902290e-02, 4.90528680e-02,
       -1.35656949e-02, 4.42813262e-02, 1.31861912e-02, -2.37640347e-02,
       2.42224596e-02, -9.80875175e-03, -1.06617098e-03, 1.70764662e-02,
       8.55546258e-03, -3.44242379e-02, -7.67956721e-03, -4.90547679e-02,
       -4.98564206e-02, 8.21354333e-03, 6.30840519e-03, 2.94369962e-02,
       -3.03682464e-04, -3.52951261e-04, -1.44409966e-02,
       -7.01559195e-03, -2.03887168e-02, -5.63683063e-02,
       -2.66462918e-02, 1.43598542e-02, 2.35007834e-02, 1.17957196e-03,
       3.89125980e-02, -6.10067882e-03, 6.67033298e-03, -2.55820341e-02,
       -4.87857573e-02, 2.22036522e-02, 2.59023197e-02, 2.77040228e-02,
       9.38739255e-03, 5.46913641e-03, 1.94571767e-04, 1.90610550e-02,
       -3.68840620e-02, -6.91448152e-02, -2.41063181e-02, 1.09567279e-02,
       3.28978449e-02, -2.34627705e-02, -2.53288802e-02, -1.14876125e-02,
       -5.70087926e-03, 2.22817287e-02, -3.31996419e-02, -2.16745865e-02,
       2.52141375e-02, 3.81515734e-02, -3.29128057e-02, -4.86252531e-02,
       -1.44006824e-02, -3.79072763e-02, -2.71145739e-02,
       -3.08124404e-02, -1.64053272e-02, 4.39782813e-02, 8.62889178e-03,
       -1.10343276e-02, -1.51515873e-02, -4.96108085e-03, 3.93396243e-02,
       4.82492708e-02, -4.61282209e-02, -2.93181781e-02, -5.60884317e-03,
       1.64206477e-03, -5.53765781e-02, -4.90462668e-02, 3.51242325e-03,
       2.03791168e-02, 3.21066417e-02, -9.14854929e-03, 1.11121237e-02,
       9.22455080e-03, 4.64530513e-02, 1.67054776e-02, -1.10989793e-04,
       8.53487290e-03, -9.87788010e-03, -8.98240192e-04, -5.48009053e-02,
       -5.72979897e-02, 9.02252737e-03, 4.08522598e-02, 2.75602061e-02,
       1.26852589e-02, 7.81071000e-03, -1.04150465e-02, 2.55378559e-02,
       -1.48322359e-02, 1.76991522e-03, 2.57129315e-02, 2.18433402e-02,
       -2.11225413e-02, -1.98141206e-02, 7.32350210e-03, 4.12653113e-04,
       -6.28906302e-03, -4.08159867e-02, -5.50838932e-02, 2.25540325e-02,
       2.86491551e-02, -4.78284201e-03, -6.22427510e-03, -1.24292970e-02,
       -6.55330941e-02, 2.15747580e-02, -8.29633698e-03, -2.09530406e-02,
       3.47883329e-02, 1.42001081e-02, 1.79012474e-02, -2.11328617e-03,
       -4.09669429e-02, 1.41276862e-03, 1.64049119e-02, -3.06339283e-02,
       -2.30042567e-03, 2.16861372e-04, 1.31942322e-02, 1.51961697e-02,
       -1.66691132e-02, -1.42804105e-02, -3.94282583e-03, 5.21953329e-02,
       7.08716037e-03, 9.15518438e-04, 3.00918873e-02, 7.98132177e-03,
       1.39988214e-02, 1.40914973e-02, -3.44703905e-02, -2.07460616e-02,
       9.76658240e-03, -4.58353497e-02, -4.19451371e-02, -1.34849157e-02,
       -1.80660840e-02, -2.74508223e-02, -2.29973532e-02,
       -1.68807674e-02, -3.24751399e-02, 2.31623873e-02, -3.19764540e-02,
       -4.40749377e-02, -2.00161058e-02, -1.26086436e-02, 5.74114686e-03,
       -3.02722119e-03, 3.34912632e-03, 2.49747876e-02, 3.93101312e-02,
       1.31796952e-02, 1.93475455e-03, -4.27734246e-03, 5.22554759e-03,
       5.32876886e-03, 1.16178636e-02, -1.48932096e-02, 2.78709754e-02,
       -5.39792050e-03, 2.27552000e-02, 5.19185290e-02, 1.96626149e-02,
       -1.33998049e-02, -1.05317719e-02, 2.14273436e-03, -2.37831790e-02,
       2.69580148e-02, 5.33870561e-03, -6.00596098e-03, 4.38864203e-03,
       1.87474918e-02, -3.90090793e-02, -2.05353964e-02, 8.13480280e-03,
       -1.93418190e-02, 2.57736780e-02, -6.58982061e-03, 2.79120319e-02,
       4.87281531e-02, 1.92558635e-02, -1.28469216e-02, 2.88420939e-03,
       -2.56518857e-03, -1.62047837e-02, 8.44363961e-03, -1.36854416e-02,
       -1.29358629e-02, 7.19130924e-03, -8.94807745e-03, 3.31145828e-03,
       2.62317210e-02, -2.33997237e-02, -2.36019678e-02, 2.13889163e-02,
       -8.84236395e-03, -1.34103596e-02, 9.79462452e-03, 7.41835823e-03,
       -6.67103333e-03, 4.08289321e-02, 5.53064048e-02, 1.27214976e-02,
       4.49473644e-03, -1.88744869e-02, 9.58465785e-03, 1.78338028e-02,
       1.72795448e-02, 1.14247799e-02, 6.11527637e-02, 2.76761688e-02,
       7.06118159e-03, -3.55424616e-03, 4.15199960e-04, -2.57434174e-02,
       -1.64196305e-02, -1.14307441e-02, -1.13887771e-03, 2.20391992e-02,
       -2.02420335e-02, -2.68303510e-02, -1.25149926e-02,
       -5.32046473e-03, 1.18771549e-02, 2.92612799e-03, -2.09106747e-02,
       7.94047955e-03, -9.69222933e-03, -3.81751768e-02, -2.85997279e-02,
       1.47624807e-02, -2.13120282e-02, -1.38250589e-02, -1.18974475e-02,
       1.92923415e-02, 1.45961018e-02, 6.02264851e-02, 1.75362248e-02,
       2.58599967e-03, -2.47765556e-02, 6.83462108e-03, 1.98641513e-03,
       1.23667568e-02, -1.83852389e-02, 3.91505240e-03, 1.61522422e-02,
       -3.21017765e-02, 7.83299096e-03, 1.08295912e-02, -2.04870068e-02,
       -1.34405261e-03, 4.66265343e-03, -5.70064364e-03, 3.34078423e-03,
       3.05242464e-02, -4.24728682e-03, -1.57774389e-02, 1.88487973e-02,
       1.52479787e-03, 1.94142794e-03, -2.64251791e-03, 1.94017626e-02,
       -4.31886539e-02, 2.10738573e-02, -8.95378832e-03, -1.38581237e-02,
       1.00546768e-02, -2.45670937e-02, -2.62990897e-03, 2.29751412e-02,
       -4.13418002e-03, 1.13205230e-02, 3.44148763e-02, -1.25840791e-02,
       4.80585266e-03, 2.60590706e-02, 8.05620279e-04, 1.90311614e-02,
       4.23270278e-02, -2.38827779e-03, -3.03933788e-02, 1.42599363e-02,
       -6.53300714e-03, -1.58139262e-02, 2.34877449e-02, -3.19376774e-02,
       -1.55692976e-02, 1.83689930e-02, -3.00475452e-02, -1.35673117e-02,
       1.19473087e-02, 3.27054498e-04, -5.81728946e-03, 4.36749347e-02,
       -9.68744420e-03, -1.12707624e-02, 2.86819208e-02, 6.83316775e-03,
       1.77231990e-03, 2.14298964e-02, 3.58347362e-03, -1.69237871e-02,
       4.17443551e-02, -1.83520801e-02, -4.28589582e-02, -3.24655138e-02,
       -1.85750909e-02, 5.62930889e-02, 5.31436168e-02, -8.73098522e-03,
       -1.21607753e-02, 4.81002666e-02, -9.44917277e-03, -2.32636109e-02,
       1.27921719e-02, 5.87716606e-03, 2.38710456e-02, 5.79588190e-02,
       -1.22495489e-02, -3.58669721e-02, 2.32187589e-03, -7.52512278e-05,
       -9.38735530e-03, 1.07621048e-02, -3.29272375e-02, -2.16325017e-04,
       2.73995344e-02, 1.59933791e-02, 2.52614096e-02, 2.89383065e-03,
       1.30548468e-02, 3.00732511e-03, -4.20993008e-03, -2.23951861e-02,
       -3.90888564e-02, -1.50705967e-02, -3.87303997e-03, 4.09597735e-04,
       -6.39846129e-03, 9.18199681e-03, 3.22531685e-02, 2.39850339e-02,
       -3.31007540e-02, 3.97984125e-02, 7.69895539e-02, -1.35165849e-03,
       -2.02155784e-02, 6.46942621e-03, 2.46853344e-02, 9.82313603e-03,
       5.32506555e-02, -3.44580226e-02, -3.86423897e-03, 3.13721560e-02,
       -1.27610033e-02, -3.08555290e-02, 3.65483165e-02, 2.90888157e-02,
       4.89289314e-02, 6.54781535e-02, 6.69588940e-03, -2.44999919e-02,
       -3.47295403e-02, -2.02132259e-02, 1.47312181e-02, -7.59520149e-03,
       -1.41586391e-02, 3.41376127e-03, 4.18997929e-03, -1.98802594e-02,
       -2.89604673e-03, -1.73259061e-02, -2.81091984e-02, 1.24696707e-02,
       4.17073461e-04, -3.94840017e-02, -1.63135417e-02, -6.40827939e-02,
       -1.06504904e-02, -1.56788286e-02, -6.65233331e-03,
       -2.50942204e-02, -2.44737661e-04, 2.14656033e-02, 3.87351215e-02,
       3.76785062e-02, 3.40419002e-02, 3.48193124e-02, 1.75327417e-02,
       6.03036257e-03, -1.42515171e-02, 2.44103391e-02, 6.01958260e-02,
       1.93336867e-02, 6.55989582e-03, -3.07947546e-02, 3.39073245e-03,
       1.04757259e-02, -1.19735883e-03, -1.91618074e-02, 8.89521930e-03,
       4.75737546e-03, 4.24365653e-03, -2.11075097e-02, -2.15645451e-02,
       -1.66974179e-02, -1.47916814e-02, 1.16385091e-02, -2.45373230e-02,
       2.25322857e-03, 2.81507578e-02, 3.34364027e-02, -2.27638260e-02,
       -1.68594830e-02, -9.58525389e-03, 3.51412743e-02, 2.68934015e-02,
       -1.49017554e-02, -9.92825837e-04, 2.79122405e-03, 3.90153714e-02,
       7.35589443e-03, -1.38856862e-02, -1.09010935e-02, 3.89115550e-02,
       5.57964854e-02, 8.40381440e-03, 8.27324670e-03, 2.37231199e-02,
       4.99515235e-02, -2.44713798e-02, -3.88166010e-02, -7.36897765e-03,
       -3.60416509e-02, 3.65773030e-03, -1.96099151e-02, -1.46470517e-02,
       -3.76430154e-03, 2.82414742e-02, -1.43935960e-02, -1.39183551e-02,
       -2.22157110e-02, -1.65470168e-02, -6.97531924e-03,
       -4.11032178e-02, 2.72638537e-02, 3.81109826e-02, 1.84883028e-02,
       -2.03278661e-02, -1.43858036e-02, -1.70432553e-02, 1.14357397e-02,
       2.78190132e-02, -1.12355947e-02, 7.00447988e-03, 2.87891943e-02,
       2.69706510e-02, -1.05229024e-04, -1.24734640e-02, -2.58019543e-04,
       1.73704289e-02, 2.64635850e-02, -3.11487578e-02, 1.44335162e-02,
       4.79877293e-02, 2.93372963e-02, 5.91192918e-04, -7.97377247e-03,
       2.37615127e-02, -2.87688035e-03, -4.00376180e-03, -3.01942099e-02,
       1.84635073e-02, 3.31228115e-02, 7.29605323e-03, -2.81090587e-02,
       -1.91552322e-02, -4.23720181e-02, -3.15914825e-02,
       -4.46314290e-02, -1.07821496e-02, -2.49053799e-02,
       -2.85902340e-02, -1.77702233e-02, -1.65480562e-02,
       -2.97874003e-03, -5.83868474e-02, 3.40460651e-02, 3.04200295e-02,
       -5.94253000e-03, 2.83433795e-02, 6.05098158e-02, 3.02693807e-02,
       -2.84016374e-02, -2.58854106e-02, 6.82361284e-03, 2.79449522e-02,
       5.67813180e-02, 3.39616165e-02, -5.35010919e-03, 7.97350891e-03,
       3.86165753e-02, 1.28594702e-02, 5.14323870e-03, -1.71292052e-02,
       -6.27838029e-03, -2.42657065e-02, 2.48634517e-02, -1.35060791e-02,
       -2.23338474e-02, -3.25823110e-03, -1.91504527e-02, 6.76453067e-03,
       -1.40467389e-02, -1.81518961e-02, -1.19092176e-02, 6.17471151e-03,
       -1.46012036e-02, 3.77175887e-03, 1.24677236e-03, -2.39824131e-02,
       -1.79023631e-02, -1.53394016e-02, 1.64908171e-02, 4.51026335e-02,
       5.44514582e-02, 1.83584876e-02, 5.08656800e-02, 4.99944910e-02,
       2.72064600e-02, 3.92194279e-02, 2.35640183e-02, -6.34502666e-03,
       1.27612110e-02, 1.51723577e-02, 1.48705551e-02, 5.56023829e-02,
       5.83707690e-02, 3.55990976e-02, 3.00737415e-02, -7.79432431e-03,
       2.05732491e-02, 3.76224983e-03, -2.93569593e-03, -9.10114730e-04,
       1.03715211e-02, 2.05746796e-02, -4.46039764e-03, 1.84114892e-02,
       3.24909315e-02, 3.71642560e-02, 1.07473880e-02, 1.80970077e-04,
       -1.80330258e-02, -1.17796948e-02, -4.57407273e-02,
       -2.55698152e-02, 1.37183685e-02, 4.42774631e-02, -2.57918220e-02,
       8.36916850e-04, -2.51819436e-02, 2.16770098e-02, 4.88910340e-02,
       5.33668213e-02, 1.64811127e-02, 2.54598856e-02, 2.21270532e-03,
       -5.77794313e-02, -3.15609425e-02, -2.43875738e-02,
       -3.18559781e-02, 1.25333862e-02, -4.13360745e-02, -2.51442064e-02,
       -1.60543323e-02, -2.31190566e-02, 4.45152912e-03, 4.57891403e-03,
       3.97602882e-04, 5.17394580e-03, 2.72174645e-02, 7.84198474e-03,
       -3.03382296e-02, 2.98375334e-03, 2.77589019e-02, -1.79929622e-02,
       -4.78164367e-02, -3.09807789e-02, 2.14839261e-03, 2.41299942e-02,
       5.87160792e-03, -3.23801227e-02, 1.16446409e-02, 3.16407122e-02,
       -4.20487486e-02, -2.30644010e-02, 1.63974101e-03, 1.47570483e-02,
       -8.93583405e-04, -1.12880655e-02, -4.47104732e-03,
       -3.46394964e-02, 5.70745207e-03, -1.56739727e-02, -3.89904641e-02,
       -3.43542080e-03, 2.46997904e-02, 1.13936542e-02, 1.58761963e-02,
       5.90290641e-03, -3.26528177e-02, 2.23947819e-02, -3.45680420e-03,
       -3.22128534e-02, -8.77510291e-03, -2.63838144e-03, 8.40326957e-03,
       -3.03791538e-02, -9.01681278e-03, -3.69092859e-02,
       -4.18020785e-03, 1.02729667e-02, -3.63072418e-02, 2.76450552e-02,
       1.83422398e-02, 3.40765738e-03, 1.30481273e-02, -6.26022089e-03,
       -3.72818895e-02, 1.15604401e-02, 5.24898898e-03, -3.76833193e-02,
       -8.40310880e-04, -3.42464913e-03, 1.08210919e-02, -4.22351956e-02,
       -7.91364536e-03, -4.79294136e-02, -1.20716505e-02, 1.52508412e-02,
       -3.46311852e-02, -3.37368250e-02, 2.49354988e-02, 5.40411100e-03,
       2.61132922e-02, -1.17749022e-02, -1.92572400e-02, 2.12196838e-02,
       -5.00902683e-02, -2.96113882e-02, 3.07764616e-02, -1.15250433e-02,
       -2.82183220e-03, -5.11331297e-03, -2.94424538e-02,
       -3.97711210e-02, -4.09142524e-02, 1.85515378e-02, 3.62414196e-02,
       6.61613122e-02, 1.63278133e-02, 2.84058303e-02, -1.93649437e-02,
       -1.17471665e-02, -3.20862047e-02, -1.40985325e-02,
       -3.05494387e-02, -6.99980557e-03, 7.11843371e-02, 5.82920462e-02,
       1.60685647e-02, 8.71975347e-03, -5.67887770e-03, -4.45832089e-02,
       -2.92616058e-02, 7.74793029e-02, 1.10164456e-01, 1.27463803e-01,
       6.21076785e-02, 3.23102660e-02, -1.12531679e-02, 1.96415093e-02,
       1.68899372e-02, 2.10322961e-02, 1.89854875e-02, -3.53024947e-03,
       1.62416266e-03, -2.34620683e-02, 1.25091365e-02, -3.96949649e-02,
       -2.84089334e-02, 5.66208875e-03, 3.28899026e-02, -2.94713862e-02,
       -9.92054958e-03, 3.05014085e-02, -6.16951194e-03, 3.59223038e-02,
       -4.23407815e-02, 7.95403088e-04, 3.97082381e-02, 2.03010086e-02,
       7.83659443e-02, 3.73969004e-02, 4.22076993e-02, -1.48870815e-02,
       1.02828369e-02, -2.70327833e-02, 1.90966669e-02, 6.54298440e-02,
       9.23076048e-02, 1.96602475e-02, 6.57859212e-03, 4.03274596e-02,
       2.00414043e-02, 4.18851599e-02, -2.60371473e-02, 4.66205329e-02,
       8.56506899e-02, 8.61056447e-02, -2.06128061e-02, 6.30099252e-02,
       1.18557341e-01, 6.42891973e-02, 4.50817645e-02, -2.87347529e-02,
       -2.83310246e-02, 6.33067626e-04, -2.17315387e-02, -1.27905495e-02,
       8.33567232e-02, 7.09141791e-02, 9.73976497e-03, 2.80342754e-02,
       -3.79983597e-02, -7.01837763e-02, -2.86759622e-02,
       -5.12101650e-02, -2.05235910e-02, 5.44204190e-02, 1.04766287e-01,
       1.03112809e-01, 4.99761663e-02, 4.39783093e-03, 1.11686187e-02,
       2.23133173e-02, -1.41479205e-02, -4.34923843e-02, 5.51345712e-03,
       4.29133698e-02, 3.22676152e-02, 7.99080636e-03, -3.53113450e-02,
       -4.72843274e-02, -6.42409921e-02, -6.55429512e-02, 2.34292801e-02,
       9.88316834e-02, 6.03457205e-02, -2.52664112e-03, -8.10202397e-03,
       -4.18690406e-03, -2.99102580e-03, 2.99022887e-02, -2.46267151e-02,
       2.41928026e-02, 5.04124202e-02, -2.14436203e-02, -2.20868755e-02,
       2.52332985e-02, -1.26257436e-02, -2.07591280e-02, 4.57835244e-03,
       -3.03355115e-03, -1.99499950e-02, 3.90415103e-03, -9.04455036e-03,
       -6.94264248e-02, -5.25532626e-02, -2.03254689e-02,
       -1.29925087e-04, -3.97164188e-03, -3.74523401e-02,
       -2.76948642e-02, -6.24833582e-03, -6.16907105e-02,
       -8.95280242e-02, -3.43407467e-02, -5.46890944e-02,
       -4.98493500e-02, -2.47561149e-02, -2.80498136e-02, 4.33558598e-02,
       4.55255359e-02, -3.79525013e-02, -1.72575321e-02, 1.40651199e-03,
       -6.36138208e-03, -2.83022076e-02, 7.72764115e-03, 1.37673495e-02,
       3.48597541e-02, 5.23834899e-02, -2.49063279e-02, -9.58104711e-03,
       -1.05686747e-02, -3.19726244e-02, 1.38332171e-03, 2.27695256e-02,
       2.94855540e-03, 2.72167437e-02, 3.70933414e-02, -6.21916465e-02,
       -2.41912268e-02, -3.09272278e-02, -2.32450180e-02,
       -4.82849739e-02, -1.08290222e-02, 6.53147465e-03, 3.55275124e-02,
       5.43137640e-03, -4.67876196e-02, -2.65733749e-02, -4.22115438e-02,
       -2.93923286e-03, 3.62328254e-03, -1.34678762e-02, 3.63726960e-03,
       3.81211527e-02, 8.86637643e-02, -1.82584692e-02, -2.02966090e-02,
       -2.73376238e-02, -2.21442487e-02, 1.58457109e-03, 1.30657665e-02,
       -6.41606096e-03, 3.82466614e-02, 7.36635476e-02, -3.72527651e-02,
       -6.15500249e-02, -5.81878051e-02, -1.86425522e-02, 4.35125921e-03,
       1.10626547e-02, 5.48862433e-03, -1.78587122e-03, 1.72857400e-02,
       -1.40859867e-02, -2.54242606e-02, -4.09159958e-02, 1.10813538e-02,
       1.53695410e-02, -1.93524919e-02, -4.57169488e-02, 1.03641069e-02,
       2.26623863e-02, -1.24617852e-02, -4.50542308e-02, -9.38923191e-03,
       1.34344315e-02, -1.98767763e-02, -4.18755710e-02, -1.89743228e-02,
       7.07942769e-02, 7.92362764e-02, -1.83026679e-03, -4.73082811e-02,
       -4.84966040e-02, -4.63038357e-03, -1.10688377e-02, 2.28914898e-02,
       8.99861846e-03, 5.73914945e-02, 4.51206714e-02, -1.48277348e-02,
       -4.75565977e-02, -1.29948352e-02, -2.73968056e-02,
       -2.01693401e-04, 2.90792473e-02, 3.50436531e-02, 5.11761494e-02,
       1.51675735e-02, 3.30180116e-03, -1.36739882e-02, -7.67197041e-03,
       1.73345320e-02, -1.93378441e-02, -2.87990794e-02, -3.01456805e-02,
       -8.60037468e-03, -1.82152055e-02, -1.86115149e-02,
       -5.80090992e-02, -3.54545042e-02, -2.93000024e-02,
       -2.44491044e-02, -1.64176300e-02, -3.72922719e-02, 2.85303965e-02,
       1.68883633e-02, -2.88254377e-02, -4.14125435e-02, -1.84316412e-02,
       -8.33431259e-03, -1.75871383e-02, 3.91139798e-02, 6.14820123e-02,
       1.39496122e-02, 1.74701754e-02, -3.85242216e-02, -3.27006765e-02,
       2.33635940e-02, -8.29515397e-04, -1.59883779e-02, 1.88253224e-02,
       1.78307872e-02, -1.13199642e-02, -2.54963315e-03, -5.11441901e-02,
       -4.65878509e-02, -3.55616584e-02, -1.14331134e-02,
       -1.52179180e-02, 2.84140613e-02, -8.75588041e-03, -2.03306358e-02,
       -1.46006104e-02, -4.52572145e-02, -2.96757035e-02, 2.61334479e-02,
       -5.39373327e-03, -2.08136421e-02, 1.77172888e-02, 8.32553953e-03,
       2.52123876e-03, 2.28967834e-02, -3.36617939e-02, -4.75850552e-02,
       -3.36869881e-02, -6.89950632e-03, -1.29455524e-02, 2.70803750e-04,
       1.21400701e-02, 3.98592614e-02, 5.14676496e-02, -2.15199161e-02,
       -4.61138189e-02, -2.77701728e-02, -1.19945239e-02,
       -2.76730433e-02, -2.23642718e-02, -6.52869744e-03, 5.38553111e-03,
       1.39711844e-02, -3.31178047e-02, -2.83688623e-02, -1.75840426e-02,
       -2.02957951e-02, -1.13951517e-02, 7.74125382e-03, 1.63584240e-02,
       2.92192083e-02, 4.23646681e-02, -4.73424233e-03, -7.81266466e-02,
       -4.28994112e-02, -1.64294802e-02, -3.54179111e-03,
       -1.40130324e-02, 1.83479860e-02, 6.48030965e-03, 5.18738814e-02,
       -2.93895919e-02, -4.85858992e-02, -1.69154070e-02,
       -1.35674598e-02, -3.24570537e-02, -1.25990463e-02,
       -2.17713378e-02, 3.15457284e-02, 4.76995483e-02, -3.86453941e-02,
       -3.00997645e-02, 6.29799720e-03, -2.37224679e-02, 2.77565536e-03,
       1.04243290e-02, 1.11416671e-02, 2.68945061e-02, 8.36033896e-02,
       -1.58945993e-02, -7.55610764e-02, -5.32298498e-02,
       -3.79524007e-02, 3.47746629e-03, 5.35571761e-03, -1.55504467e-02,
       1.77333634e-02, 2.90863477e-02, -4.46512401e-02, -6.66565150e-02,
       -2.95817256e-02, -5.84229752e-02, -2.80678831e-02,
       -1.55590512e-02, 1.30230039e-02, 1.33094378e-03, 2.66246516e-02,
       -9.34941228e-03, -1.58089399e-02, -8.77499674e-03,
       -2.35760864e-02, -2.71005910e-02, -1.00735826e-02, 5.79585368e-03,
       2.85131304e-04, 3.41051072e-02, -2.02115788e-03, -2.66093612e-02,
       -4.02068198e-02, -3.77616733e-02, -2.39937883e-02,
       -1.82744768e-02, 9.25068557e-03, 3.61720310e-03, -5.57450345e-03,
       -4.15368676e-02, -4.53662015e-02, -2.44589802e-02,
       -5.27537391e-02, -3.69194299e-02, 1.27364164e-02, 2.67677307e-02,
       3.15272585e-02, 2.54542604e-02, 4.33371821e-03, -2.37246733e-02,
       -6.42281072e-03, -2.43187640e-02, -1.86822582e-02,
       -8.26532673e-03, 3.70365269e-02, 2.28158524e-03, 4.86270785e-02,
       1.51940687e-02, -2.07864419e-02, -4.66368310e-02, -1.52209057e-02,
       -2.86856061e-03, -1.55433910e-02, 4.25355835e-03, -2.11557541e-02,
       -1.13994805e-02, -6.68853521e-03, -3.60010900e-02,
       -2.15970818e-02, -1.30826375e-02, 1.87151413e-02, 1.11513585e-03,
       -1.51423737e-03, 7.49851242e-02, 9.21332389e-02, 5.82518019e-02,
       2.38842815e-02, 2.37117782e-02, 2.07615830e-02, 2.38474943e-02,
       -4.48387628e-03, 4.47041504e-02, 3.75637710e-02, 6.93034083e-02,
       8.01235959e-02, 5.45177273e-02, 2.96448842e-02, 4.69172522e-02,
       5.56018166e-02, 1.65115707e-02, 3.07548847e-02, -1.98523253e-02,
       -1.29123386e-02, -1.33128110e-02, 2.32912842e-02, 4.63834666e-02,
       4.13871035e-02, 2.05617640e-02, 1.95246879e-02, 1.02285212e-02,
       -7.94214010e-02, -5.92989922e-02, -4.71230894e-02,
       -8.25158134e-02, -9.36423661e-04, -4.78082262e-02,
       -4.29447219e-02, -3.97199281e-02, -4.29971367e-02, 3.98063511e-02,
       5.26248403e-02, 6.43256232e-02, 9.90053490e-02, 1.47071794e-01,
       1.40398949e-01, 7.02196285e-02, 5.12256697e-02, 5.17178364e-02,
       -3.25625129e-02, -4.79036495e-02, -4.48623784e-02,
       -3.87639552e-02, 2.13362519e-02, 4.72137704e-03, -3.74203473e-02,
       -2.28031464e-02, -8.46176408e-03, -4.63874303e-02,
       -1.07036103e-02, 1.63621530e-02, 1.96214812e-03, 3.47268358e-02,
       1.78951193e-02, 4.36527282e-03, -2.26091556e-02, -1.30302068e-02,
       -2.26122257e-03, -1.90307852e-02, -3.67309083e-03, 1.30860265e-02,
       2.70738378e-02, 3.94132957e-02, 4.29409742e-02, -1.09892366e-02,
       2.55332235e-02, -3.57034877e-02, -3.20607871e-02, -3.19836475e-02,
       -1.19388639e-03, 8.97785649e-03, 1.82704013e-02, -6.35025091e-03,
       6.82440074e-03, 1.24960486e-03, 3.35907587e-03, -3.34516168e-02,
       -2.48900354e-02, -1.45544736e-02, -5.62171359e-03, 1.02579538e-02,
       -1.10853044e-02, -8.95583536e-03, -4.98055387e-03, 1.23478742e-02,
       -5.52726388e-02, -2.62075365e-02, -9.73618962e-03, 2.31916551e-02,
       -3.09176538e-02, -4.99571040e-02, -7.43428394e-02,
       -1.20198529e-03, 5.87079339e-02, -3.93477753e-02, -4.71883044e-02,
       1.91167798e-02, 4.38550748e-02, 3.93064208e-02, -1.37478728e-02,
       -3.14637721e-02, 3.31111141e-02, 3.22756916e-02, -7.43251815e-02,
       -6.77012205e-02, -2.18318943e-02, 3.47983316e-02, -1.79362427e-02,
       -4.46487851e-02, -6.11903481e-02, 3.58166248e-02, 6.56523556e-02,
       -3.04188412e-02, 2.03124457e-03, 1.78789198e-02, 6.58522081e-03,
       5.09891734e-02, -1.56582724e-02, -4.29046415e-02, 4.09317054e-02,
       -6.73557445e-02, -2.20857840e-02, 3.57657224e-02, 4.53256331e-02,
       4.35141772e-02, 6.09708205e-02, 3.16111743e-02, -3.43653262e-02,
       -7.91697130e-02, -2.28565279e-03, 5.73514737e-02, 9.64994952e-02,
       4.28577624e-02, 4.63127680e-02, 3.16984728e-02, 3.38730961e-02,
       1.97544936e-02, -2.47611366e-02, -7.12792948e-02, -3.86564843e-02,
       3.09425462e-02, 3.29156928e-02, 4.49336544e-02, 1.00869454e-01,
       7.62713999e-02, -2.41124649e-02, -7.28732571e-02, -4.37568761e-02,
       6.10552123e-03, 5.06799258e-02, 3.30254845e-02, 5.39058633e-02,
       7.15314373e-02, 1.06959239e-01, 9.66127440e-02, 5.62611269e-03,
       5.92351668e-02, 1.44341942e-02, 2.55703945e-02, -3.19482088e-02,
       -7.76481738e-06, -1.50387986e-02, 1.37975337e-02, 6.20384514e-02,
       7.32954741e-02, 5.60725015e-03, -1.00947497e-02, 2.47347001e-02,
       -9.68628097e-03, 2.72872224e-02, -1.41093908e-02, 2.17893925e-02,
       4.81876992e-02, 4.56341989e-02, 6.48940578e-02, 2.70390809e-02,
       9.47388355e-03, -2.58433707e-02, -5.07244514e-03, -9.05966759e-03,
       1.40105402e-02, 7.40207061e-02, 8.79536346e-02, 2.07979921e-02,
       4.24559340e-02, 6.31513819e-02, -2.69632936e-02, 8.00644141e-03,
       -2.36384310e-02, 1.54947955e-02, -6.95912531e-05, 1.56450272e-02,
       -2.95057725e-02, 1.55435689e-02, 7.52982721e-02, 7.88555145e-02,
       2.44027674e-02, 5.19978404e-02, 4.35515083e-02, 1.92049090e-02,
       -1.65931620e-02, -7.27267116e-02, -5.20806536e-02, 3.13559111e-04,
       1.81755424e-02, 1.04372408e-02, 1.86493285e-02, -3.39543144e-03,
       -4.78253812e-02, -6.59770370e-02, -3.18779871e-02, 3.38857435e-02,
       8.61632749e-02, 4.42253128e-02, 1.53577961e-02, 6.38589114e-02,
       8.32217187e-02, 1.70406718e-02, -3.01789735e-02, -7.71342516e-02,
       -6.71072677e-02, -1.07981742e-03, 8.91677383e-03, 1.58194844e-02,
       3.45964829e-04, -1.39096994e-02, -5.58807887e-02, -9.50506479e-02,
       -4.04230729e-02, -1.54464208e-02, -3.37459752e-03,
       -1.99196395e-02, -4.34771441e-02, 1.21557890e-02, 1.63062438e-02,
       1.08062709e-02, -5.39650209e-02, -1.85102187e-02, -2.08710060e-02,
       -4.79354002e-02, -6.09958470e-02, -3.34284678e-02,
       -5.05389124e-02, -3.99740227e-02, -8.61549471e-03,
       -1.25368685e-02, -4.92143929e-02, -2.14743670e-02, 4.40907339e-03,
       -2.00252561e-03, -4.66450676e-02, -2.92159879e-04, 1.52752502e-02,
       3.45832785e-03, -6.68827742e-02, 5.89724537e-03, -6.47232519e-05,
       -1.97866540e-02, -4.05248739e-02, -4.28472012e-02,
       -5.00525124e-02, -3.74877118e-02, -2.61306968e-02,
       -5.48586994e-02, 1.45726632e-02, 2.13167854e-02, -2.50311755e-02,
       -1.21362684e-02, -1.03350701e-02, -7.36307492e-03,
       -3.69153693e-02, 1.52810942e-03, -2.00815452e-03, -2.83899028e-02,
       -7.27364514e-03, 4.74650087e-03, 1.91378947e-02, -2.02636197e-02,
       2.05392186e-02, -3.04553239e-03, -2.71339603e-02, -6.01391792e-02,
       2.04319898e-02, 6.77399384e-03, -1.97916534e-02, -9.09951515e-03,
       6.69268251e-04, -4.03520046e-03, -3.23145278e-02, -7.89664220e-03,
       -6.39944896e-03, -3.11865192e-02, -3.85058932e-02,
       -1.18135838e-02, -3.65808466e-03, -5.15455846e-03,
       -4.78125038e-03, -2.70374808e-02, -2.39264444e-02,
       -2.58280095e-02, -5.26704490e-02, -2.23407242e-02, 2.46047713e-02,
       4.31750529e-02, 3.41730309e-03, 3.38665284e-02, 2.29587872e-02,
       -2.90816240e-02, -7.02238306e-02, -4.56122234e-02,
       -2.85993833e-02, 1.74891930e-02, 1.67349167e-02, 1.78722180e-02,
       4.62551601e-02, 2.74719112e-02, -3.74615155e-02, -7.19754174e-02,
       -7.02031106e-02, -5.72833978e-02, 1.32309590e-02, 3.43011171e-02,
       2.70124781e-03, 1.27914250e-02, -3.04173422e-03, -1.15936901e-02,
       -2.23937873e-02, -6.26267120e-02, -3.72059047e-02, 1.58075653e-02,
       4.21493351e-02, -2.08412595e-02, 1.85811017e-02, 1.35421967e-02,
       -1.43046575e-02, -2.66077612e-02, -5.83050251e-02,
       -9.42409039e-03, 4.22207527e-02, 4.90360335e-02, 5.28887138e-02,
       7.86976889e-02, 1.75871197e-02, -2.81683262e-02, -7.67220259e-02,
       -7.33240694e-02, -2.86802743e-02, 5.75145939e-03, 1.03370715e-02,
       1.79073978e-02, 4.30252813e-02, -1.16356341e-02, -2.07741316e-02,
       -7.04316869e-02, -7.29629025e-02, -1.71552470e-03, 3.76921743e-02,
       8.13435838e-02, 3.75226922e-02, 6.86879158e-02, 4.66862619e-02,
       8.57634936e-03, -3.37190181e-02, -6.73961118e-02, 6.88690599e-03,
       2.05439869e-02, 2.85643879e-02, 2.16577947e-02, 3.03152893e-02,
       -3.25955392e-04, -2.86988709e-02, -4.84312773e-02,
       -4.44189049e-02, -2.00620349e-02, -1.47871617e-02,
       -6.32318808e-03, -1.46077778e-02, 4.66230931e-03, -1.56449229e-02,
       3.53476517e-02, -2.75926921e-03, -1.17807416e-02, 3.02484743e-02,
       -1.48729924e-02, -3.03820008e-03, 2.14971863e-02, -1.43112671e-02,
       -2.42197551e-02, 3.48500982e-02, -5.12553146e-03, -1.64096709e-02,
       6.96122926e-03, -1.58903506e-02, -8.33403505e-03, 1.20884553e-03,
       -2.56019421e-02, -1.75334048e-02, 2.07693763e-02, -2.92817056e-02,
       5.46501251e-04, 2.40655113e-02, -2.77569313e-02, -4.13547046e-02,
       3.01439445e-02, 2.18337849e-02, 1.78467762e-02, 5.17067686e-02,
       5.26586454e-03, -2.59048212e-02, 5.08891679e-02, -1.75381806e-02,
       -3.62165482e-03, 2.63782055e-03, -2.20939741e-02, -2.78943926e-02,
       -7.01643806e-03, -4.05922569e-02, -2.16674190e-02, 6.98835179e-02,
       2.43128389e-02, -5.62729575e-02, -3.16100158e-02, -3.08047757e-02,
       -4.62659309e-03, -1.01365242e-02, -4.38519679e-02,
       -1.69090908e-02, 2.39604525e-02, -1.45167829e-02, -2.45877691e-02,
       1.35910707e-02, 2.45726947e-03, 3.11430730e-02, 4.69668061e-02,
       -3.84667167e-03, 4.12753969e-03, 2.36137304e-02, 1.98001144e-04,
       -3.65797542e-02, -6.19452670e-02, -5.86395077e-02, 6.58233464e-02,
       7.69253746e-02, 2.20561260e-03, 8.03029863e-04, 9.00803208e-02,
       2.49724854e-02, -5.69107793e-02, -4.57861163e-02, -3.13459188e-02,
       9.31757502e-03, 2.66000703e-02, -5.68197370e-02, -9.67341289e-03,
       3.15637030e-02, -1.36386817e-02, -4.36147898e-02, -1.02945389e-02,
       -3.17534655e-02, -1.81054436e-02, 6.36598933e-03, -4.02647369e-02,
       -1.07182860e-02, 3.57813500e-02, 7.41601316e-03, -4.11719196e-02,
       -7.52615929e-02, -6.61090463e-02, 1.51506336e-02, 9.63867456e-02,
       -2.04755235e-02, -1.11509878e-02, -3.39305820e-03,
       -2.92117354e-02, -4.22606729e-02, -1.75335594e-02,
       -5.38599528e-02, -5.19218929e-02, 2.94175986e-02, -3.82831953e-02,
       -2.80270912e-02, -9.56037547e-03, -9.81357973e-03,
       -1.31138777e-02, -5.30521804e-03, -1.86507814e-02,
       -3.41838375e-02, -9.57374088e-03, -5.09241363e-03, 1.44792153e-02,
       2.16955859e-02, 1.81533359e-02, -5.43257874e-03, -2.66028997e-02,
       -1.50937424e-03, -1.77068985e-03, 8.22138973e-03, 2.70625520e-02,
       9.35066491e-03, -1.62646326e-03, -3.43731046e-02, -3.47227417e-02,
       -6.91789109e-03, -3.87270339e-02, -3.19984294e-02,
       -6.33962825e-03, -2.26593316e-02, 2.64250170e-02, 3.79086100e-02,
       3.15699354e-02, -2.16731168e-02, -3.94830965e-02, -2.67834682e-02,
       -1.17667550e-02, 6.35831570e-03, 5.77974040e-03, 4.01511714e-02,
       4.82654944e-02, 1.18056163e-02, -7.85153301e-04, -4.39342633e-02,
       -2.32776115e-03, -1.54762138e-02, 2.72830739e-03, 1.33101474e-02,
       5.96734062e-02, 5.91751710e-02, 4.36439216e-02, 1.97357684e-02,
       1.07046049e-02, 4.18823324e-02, 3.48745063e-02, 3.73821072e-02,
       5.35590276e-02, 3.22581939e-02, 3.60521376e-02, 2.68209702e-03,
       -6.09918917e-03, -6.28118888e-02, -2.21901163e-02, 1.40180695e-03,
       1.86308082e-02, 4.85452032e-03, 7.96560273e-02, 4.41067144e-02,
       3.54246795e-02, 3.36650535e-02, 3.10797640e-03, 1.74842365e-02,
       8.31480976e-03, 3.30668204e-02, 4.57741953e-02, 3.30975391e-02,
       4.23537381e-02, 3.62546369e-02, 7.06518888e-02, 1.18657395e-01,
       1.05832227e-01, 3.14655527e-02, 3.66879180e-02, 5.07327020e-02,
       -4.29822765e-02, -6.62447736e-02, -6.26692697e-02,
       -2.95083933e-02, -1.22144958e-03, -4.65952121e-02,
       -6.61132261e-02, -3.35889943e-02, -1.51114315e-02, 4.95547354e-02,
       2.19879262e-02, 5.17259724e-02, 1.06991850e-01, 1.06130973e-01,
       8.54643732e-02, -1.48137391e-03, 1.41013842e-02, 3.60835269e-02,
       -3.30329835e-02, -6.34779781e-02, -3.56576331e-02,
       -4.51800646e-03, 1.35641429e-03, -4.37081307e-02, -7.55549073e-02,
       -7.10974485e-02, -3.77449170e-02, -3.18432902e-03,
       -4.17819656e-02, -2.16034371e-02, 4.28023003e-02, 9.38151311e-03,
       4.41408902e-03, 2.14499608e-03, 3.48207615e-02, 3.89024727e-02,
       8.33146367e-03, -2.79745702e-02, -4.14833277e-02, -2.02548709e-02,
       -4.18996140e-02, -4.70708124e-03, -2.00432204e-02,
       -3.43908579e-03, 6.86296495e-03, 2.53888965e-02, -8.35039001e-03,
       2.00385302e-02, 4.68705706e-02, -3.41969170e-03, 6.56837448e-02,
       1.60628408e-02, -1.69984102e-02, 2.18267739e-02, 6.85055740e-03,
       -1.73784290e-02, -1.21762445e-02, -2.20389944e-02,
       -9.33529530e-03, 3.18896063e-02, -1.20592955e-02, -2.24687569e-02,
       4.97146917e-04, 4.05638702e-02, -5.09836301e-02, -4.57580946e-02,
       -3.17177735e-02, 2.86207087e-02, -4.97134752e-04, -8.03313218e-03,
       -2.78255548e-02, 1.94838773e-02, 4.30887192e-02, -1.36487139e-02,
       -1.28199821e-02, 1.04534663e-02, -3.96863855e-02, 3.64319868e-02,
       -1.89385768e-02, -3.32854576e-02, 3.59062245e-03, 1.13784568e-02,
       -2.84844786e-02, -2.62528043e-02, -1.92413758e-02, 1.52065651e-02,
       1.19211422e-02, -7.99507461e-03, -1.68211572e-02, -7.07354536e-03,
       4.05502580e-02, -1.31066935e-03, -1.59841664e-02, -2.48718709e-02,
       -2.02268418e-02, 7.53130298e-03, -7.10369460e-03, -9.95937362e-03,
       3.63403410e-02, -3.31783295e-02, -3.33330669e-02, -3.97237157e-03,
       5.64590469e-03, 4.80328798e-02, 8.97618830e-02, 6.39983192e-02,
       8.22165329e-03, -3.42062190e-02, -1.63767050e-04, -6.96863979e-03,
       1.40084215e-02, -3.00480537e-02, 1.89693049e-02, 5.39104529e-02,
       8.71274620e-02, 1.06402248e-01, 7.20578283e-02, -1.68955550e-02,
       -1.84125416e-02, -2.75627337e-02, -2.57479027e-02, 1.29202818e-02,
       -1.10443318e-02, -3.81289399e-03, -9.83174425e-03,
       -3.25593576e-02, -3.37715028e-03, -1.83917880e-02,
       -3.21782939e-02, -4.00199108e-02, 1.31269416e-03, 1.72480159e-02,
       -2.14927620e-03, 3.11020967e-02, 6.53459085e-03, 6.63247928e-02,
       3.77075709e-02, -4.16600611e-03, -4.86862101e-02, 3.86362290e-03,
       -1.97193120e-02, -1.03941676e-03, 4.17352617e-02, 7.28815570e-02,
       4.74659242e-02, 6.71496913e-02, 3.31391245e-02, -5.14867865e-02,
       2.79336725e-03, 4.84060589e-03, 2.86204908e-02, 8.75488576e-03,
       4.75884369e-03, 2.12554783e-02, 1.35506233e-02, -2.19028220e-02,
       -5.33225723e-02, 1.41486553e-02, -2.94804219e-02, -2.17879899e-02,
       -1.44739822e-02, 2.69280635e-02, 6.30016066e-03, 5.17028198e-02,
       2.04172283e-02, -2.08316799e-02, 5.09729311e-02, -1.73013583e-02,
       1.64766964e-02, -4.67959279e-03, -2.17759460e-02, -1.98852476e-02,
       6.12409972e-03, -1.18688019e-02, -4.46978211e-02, -1.09538687e-02,
       6.81935102e-02, 1.03039131e-01, 6.97469786e-02, -2.34413221e-02,
       -6.28547743e-02, -6.40319511e-02, -6.90590665e-02,
       -4.94417958e-02, 1.30901495e-02, -1.10327192e-02, 2.83529796e-02,
       2.04596184e-02, -5.25271632e-02, -2.05242746e-02, 2.03648768e-02,
       -1.21049806e-02, -2.21077353e-02, -7.12987501e-03, 5.72101846e-02,
       1.16990037e-01, 1.08455420e-01, -1.69302691e-02, -4.59383689e-02,
       -3.17667648e-02, -5.25355637e-02, -2.62428094e-02,
       -4.08850191e-03, 1.18637541e-02, 6.44982681e-02, 6.74097091e-02,
       -2.15428490e-02, -2.71942746e-02, -1.08314268e-02,
       -6.56650215e-03, -1.88888479e-02, -5.49093746e-02,
       -6.04136512e-02, 1.15269041e-02, 1.45170800e-02, -2.37786099e-02,
       1.93271749e-02, 1.25785675e-02, -9.80341900e-03, -2.37013195e-02,
       1.78749254e-03, -5.16963042e-02, -2.01079473e-02, 7.92874489e-03,
       -1.37046473e-02, -3.32585280e-03, -4.46220022e-03, 1.59768766e-04,
       -6.91420538e-03, -4.42330614e-02, -1.06120016e-02, 4.66806851e-02,
       7.64511973e-02, 2.64057238e-02, 2.25501675e-02, 2.68786709e-04,
       -1.37152476e-03, -2.02843416e-02, -3.64139713e-02,
       -2.11490039e-02, -6.23426866e-03, 1.26258107e-02, 1.80582311e-02,
       3.45923156e-02, 1.75768584e-02, -4.32301499e-03, -3.14497924e-03,
       1.33097777e-02, -3.69425602e-02, -5.62901609e-02, 2.37483904e-02,
       3.47786173e-02, -1.84949338e-02, -2.48278603e-02, -3.89079303e-02,
       -2.16322448e-02, -2.07009539e-02, -1.04830936e-02,
       -2.43703201e-02, 2.60993000e-02, 5.43781556e-02, 2.08364353e-02,
       2.52873451e-02, -1.48774637e-02, 1.20786217e-03, -2.17517000e-02,
       -3.39201428e-02, -3.15128379e-02, 1.31525681e-03, 1.88647341e-02,
       5.22641605e-03, 5.28436415e-02, -1.68851838e-02, -4.86987643e-02,
       -3.46920788e-02, 3.64103517e-03, -9.76157840e-03, 4.33710925e-02,
       1.15716821e-02, -5.56990020e-02, -3.64852510e-02, -4.53184396e-02,
       -1.47058424e-02, -1.79908983e-02, 1.97235066e-02, 1.03490464e-02,
       6.05529957e-02, 3.01970504e-02, -6.54213205e-02, -5.12108207e-02,
       -4.22293544e-02, -3.35474359e-03, -5.16495556e-02,
       -1.92000549e-02, -1.90954655e-02, 3.87585908e-02, 3.30517069e-02,
       2.38400158e-02, 3.39302495e-02, -2.27382407e-02, -2.68712584e-02,
       -1.85680315e-02, 2.22615507e-02, 1.86253916e-02, 1.32581592e-01,
       2.17338055e-02, -8.24194681e-03, 2.19912326e-04, -1.84784774e-02,
       -7.77723035e-03, -1.59878861e-02, -6.33288771e-02,
       -3.69515382e-02, 8.95781964e-02, 4.36088964e-02, -5.62238619e-02,
       -3.61859612e-02, -1.72263514e-02, 1.48997959e-02, -1.84716824e-02,
       8.46933760e-03, -2.19266512e-03, 4.44859676e-02, 4.55742739e-02,
       -3.27834822e-02, -2.16071028e-02, -3.41910720e-02,
       -1.36624034e-02, -2.44843177e-02, -2.94458214e-02,
       -8.98254476e-03, 1.42208543e-02, 1.65233575e-02, -2.85758805e-02,
       6.68260083e-03, -8.76152609e-03, 3.24748568e-02, -1.99948438e-03,
       -4.71841805e-02, -2.77768187e-02, 7.34586418e-02, 4.68518436e-02,
       4.93121818e-02, 2.61089522e-02, -2.35944358e-03, 8.88345111e-03,
       9.56308655e-03, -4.27178629e-02, -8.76663998e-03, 4.73647378e-02,
       6.55440912e-02, -7.01693352e-03, 6.73876656e-03, -2.66942028e-02,
       -1.34728141e-02, -1.51080750e-02, -5.91477230e-02,
       -4.91664149e-02, 9.82407015e-03, 9.75001883e-03, -1.81874484e-02,
       6.66237110e-03, -3.26852389e-02, -1.66691002e-02, 2.21148226e-03,
       -5.10485936e-03, -3.41584943e-02, -1.97562743e-02,
       -2.47611590e-02, 7.83670619e-02, 3.93631049e-02, -3.79073024e-02,
       -5.62905008e-03, -1.74528509e-02, -5.89584447e-02,
       -2.88341697e-02, 4.46160734e-02, 5.53506538e-02, 1.46930777e-02,
       5.58509212e-03, -4.59259637e-02, 8.75240471e-03, 3.49890627e-02,
       -4.27357713e-03, -4.66037914e-02, 2.18760673e-04, 3.91619615e-02,
       3.67906434e-03, 2.89922301e-02, -2.04976182e-02, -2.13724524e-02,
       -2.00486947e-02, -4.37502842e-03, 1.00437040e-02, 1.84413660e-02,
       5.56355016e-03, 2.09975261e-02, 7.19945785e-03, -3.38627584e-02,
       -3.98080163e-02, -7.51975924e-02, -5.54947071e-02, 1.59458220e-02,
       4.61321473e-02, 7.00105960e-03, 1.82204749e-02, 9.80543438e-03,
       -2.28555333e-02, -1.38851022e-03, 1.69948824e-02, 8.24912684e-04,
       -3.06266733e-02, 5.80143090e-03, -1.98028109e-04, 1.51240667e-02,
       -1.51578430e-02, -4.54378240e-02, -3.56048159e-02,
       -1.04955193e-02, -3.23160216e-02, -2.07317825e-02, 3.16479765e-02,
       -1.45826489e-02, 6.40969584e-03, 3.14091034e-02, -5.99844195e-03,
       -1.72555130e-02, -4.89809141e-02, -4.80953418e-02,
       -6.06108364e-03, 8.19752067e-02, -7.10752839e-03, 3.11086178e-02,
       8.87421332e-03, -3.17265913e-02, -3.74737196e-02, -4.75343578e-02,
       -4.86170724e-02, -3.91364582e-02, 6.70410022e-02, -5.98625420e-03,
       -8.73975176e-03, 1.72280967e-02, -7.67682632e-03, -7.47421896e-03,
       5.40334440e-04, -2.61773858e-02, -4.58591469e-02, 2.23023240e-02,
       -3.35069038e-02, -1.74456574e-02, 9.74606164e-03, -2.16802792e-03,
       -1.10397786e-02, -2.65181810e-02, -3.89525667e-02,
       -4.89221513e-02, 2.21169163e-02, -3.43385525e-02, 4.15866375e-02,
       2.45606918e-02, -3.84155884e-02, -4.42485474e-02, -3.47876698e-02,
       -3.30757350e-02, -1.57854706e-02, 2.54439618e-02, 1.71066877e-02,
       1.34332525e-02, 2.63682548e-02, 2.10009180e-02, -1.85491890e-02,
       -2.69546863e-02, -1.22474674e-02, 2.97557842e-02, 4.47442532e-02,
       2.88673975e-02, -2.64563803e-02, -4.47517745e-02, -4.32126522e-02,
       -3.06119192e-02, -1.99721549e-02, -2.41195466e-02,
       -1.29974196e-02, 2.63422094e-02, -3.32694873e-02, -1.13913612e-02,
       -3.56412791e-02, 7.04886252e-03, -2.78510712e-02, -4.16531431e-04,
       -1.94272082e-02, 7.80371763e-03, 9.53951571e-03, -2.67611574e-02,
       3.99601199e-02, 3.80725302e-02, 6.32660314e-02, 2.64733080e-02,
       -1.39338942e-02, 8.31663981e-03, 4.27748039e-02, 7.56814703e-02,
       4.69663553e-02, 3.60279866e-02, 2.16940679e-02, 4.11319397e-02,
       2.90747117e-02, 2.44816337e-02, 5.12334369e-02, 4.90720235e-02,
       6.26343414e-02, 4.86229174e-02, 2.44057104e-02, 7.24652410e-03,
       1.88812688e-02, -1.67928338e-02, -4.42785240e-05, -1.66248772e-02,
       1.45025989e-02, 1.88727155e-02, 1.11425221e-02, 1.91959944e-02,
       2.56954506e-02, 1.00259557e-02, -3.34070846e-02, 5.54749230e-03,
       -3.78931104e-03, 2.56932853e-03, 2.69072186e-02, 3.15811485e-02,
       2.80226413e-02, 3.75040770e-02, 6.99729025e-02, 1.19517103e-01,
       1.28597513e-01, 7.98966289e-02, 4.57453541e-02, 4.82664779e-02,
       4.05245945e-02, -3.70513164e-02, -4.73434478e-02, -8.04701913e-03,
       1.82068571e-02, 1.36230988e-02, -3.10579650e-02, -4.55786735e-02,
       -5.80679886e-02, -4.98020165e-02, 2.92403288e-02, 4.18153405e-02,
       5.42432815e-02, 7.54425824e-02, 6.79552779e-02, 4.87593189e-02,
       6.09019352e-03, 5.94758894e-03, 9.93114710e-03, -2.77580470e-02,
       -4.83045019e-02, -1.55038601e-02, -1.67848484e-03,
       -3.28382500e-03, -3.96518782e-02, -4.12051156e-02,
       -6.84127435e-02, -4.49532941e-02, -1.08344690e-03,
       -1.54360365e-02, 7.95308221e-03, 1.89465210e-02, -1.60748102e-02,
       2.16848925e-02, -2.13612672e-02, -4.14947756e-02, -3.85075621e-02,
       -9.68695804e-03, -2.70093251e-02, 9.65098664e-03, -8.66021588e-03,
       -1.32488823e-02, 1.67052951e-02, -2.29886472e-02, -6.47512078e-02,
       -3.81071866e-02, 2.38755681e-02, -2.08061133e-02, -1.16100851e-02,
       4.28561866e-02, 2.39848271e-02, 3.31615470e-02, 1.07114390e-03,
       -6.05944404e-03, 1.74650252e-02, -3.44131235e-03, -4.25122827e-02,
       1.16828047e-02, 4.12227511e-02, 3.53862904e-02, 3.24347839e-02,
       -5.57812257e-03, -4.22097072e-02, -7.10359821e-03,
       -4.47943201e-03, -2.58230139e-02, -4.12963554e-02,
       -3.22438516e-02, 2.10746168e-03, -9.65222903e-03, -3.62380929e-02,
       -1.31740374e-02, -1.58185586e-02, 2.15500016e-02, 2.97807157e-03,
       -9.27212369e-03, 4.65927320e-03, -2.23918296e-02, -2.25120783e-02,
       -5.06328605e-02, -9.15566925e-03, 4.59900452e-03, 8.29094183e-03,
       -2.48179771e-02, -2.04176605e-02, -1.84923746e-02, 1.25799812e-02,
       -2.75703869e-03, -2.85125095e-02, -9.57088079e-03, 3.34562436e-02,
       1.91690102e-02, 3.14404964e-02, 9.28786118e-03, 4.71206158e-02,
       8.62453692e-03, 3.71326469e-02, 1.13431802e-02, -9.34594078e-04,
       1.99905504e-02, -4.96848207e-03, -2.88282242e-02, -3.15525830e-02,
       1.00099798e-02, -7.65004428e-03, -4.11847308e-02, -3.00510023e-02,
       1.76536441e-02, -5.99625008e-03, 3.39336954e-02, -2.62482110e-02,
       -2.65572630e-02, 1.06086209e-02, -1.21956682e-02, -2.53910739e-02,
       -3.86458971e-02, 3.97739373e-03, 2.23901458e-04, -1.91807710e-02,
       4.11918620e-03, -2.26126201e-02, 7.88175617e-04, 7.72943196e-04,
       -1.85634214e-02, -1.78502556e-02, 5.15617849e-03, 9.83123295e-03,
       1.92892328e-02, -1.21196574e-02, 1.20926164e-02, 3.36856842e-02,
       1.87072325e-02, 5.62579511e-03, 3.12151480e-03, 2.93363333e-02,
       3.05537991e-02, 2.28236094e-02, -1.08554550e-02, -2.30647512e-02,
       8.53062235e-03, 1.83150973e-02, -4.21394892e-02, -3.34389508e-02,
       -2.59783044e-02, 1.29956671e-03, -7.64978165e-03, 3.71493325e-02,
       1.64992884e-02, 8.98563769e-03, 4.59558815e-02, -2.14293189e-02,
       -1.87350065e-02, -2.83624157e-02, -4.47594188e-02,
       -3.61333452e-02, -1.58656202e-02, 6.13472983e-03, 2.99035497e-02,
       -1.13951333e-03, -5.90381306e-03, -7.67179439e-03, 1.35453297e-02,
       1.79754943e-02, -1.64360404e-02, 3.69987674e-02, 1.49277709e-02,
       -9.84535273e-03, 1.90742109e-02, 9.36206151e-03, 1.67529117e-02,
       2.36626691e-03, 1.51856886e-02, -1.46753974e-02, 2.26863399e-02,
       8.89618415e-04, -2.69062407e-02, -1.51557205e-02, -9.49862134e-03,
       4.65927646e-02, 3.53009142e-02, -2.25205161e-02, -3.58893201e-02,
       -1.92501247e-02, -2.77332794e-02, -1.38994316e-02,
       -2.23428924e-02, -3.12156267e-02, 2.56708032e-03, 5.02682403e-02,
       7.50029506e-03, -1.91949494e-02, -5.20440866e-04, -2.63806991e-02,
       -4.00004685e-02, -1.35929817e-02, -3.71607095e-02, 2.52303686e-02,
       9.34738386e-03, -1.48063544e-02, -3.11574363e-03, 1.07880021e-02,
       -4.24791910e-02, -4.06491011e-02, -1.66743398e-02,
       -5.38468733e-02, 1.09983366e-02, 4.25554998e-02, 2.09294688e-02,
       -1.11157745e-02, -1.10434238e-02, -8.19474272e-03,
       -6.01187756e-04, -2.99071651e-02, -2.50285082e-02, 9.61172115e-03,
       6.11605756e-02, 4.30625081e-02, -1.72385033e-02, -2.40526889e-02,
       -4.47971560e-02, -2.77096573e-02, -2.45452356e-02,
       -2.93911938e-02, -2.63129249e-02, 1.13125481e-02, -5.43714082e-03,
       9.88966785e-03, 1.78039912e-02, -2.15319498e-03, -1.98060758e-02,
       -3.36243659e-02, -2.68871859e-02, 2.02178787e-02, 6.87261000e-02,
       4.45488244e-02, -4.72382829e-03, -8.48691724e-03, -1.54885398e-02,
       -1.05515318e-02, -7.65274803e-04, -4.79884334e-02,
       -1.07422397e-02, 1.98208485e-02, -2.26433426e-02, -5.20055369e-03,
       1.81299541e-02, -2.13850429e-03, 2.81200819e-02, 2.35847291e-02,
       6.35565585e-03, -8.64887517e-03, -3.75345844e-04, -1.72007224e-03,
       -2.01105438e-02, 2.91435067e-02, 1.31428959e-02, -9.38910805e-03,
       3.15136835e-02, 1.13044614e-02, 8.54059774e-03, 1.28782857e-02,
       -1.43502960e-02, 1.62935406e-02, 3.29914726e-02, -4.09275293e-03,
       2.43263617e-02, 1.32492278e-02, -2.12793257e-02, -1.91340614e-02,
       9.54271946e-03, -3.18894424e-02, 4.62708436e-03, 2.94266157e-02,
       1.19615765e-02, -1.16657708e-02, -5.93882520e-03, -2.68352441e-02,
       -1.66205838e-02, 9.26946639e-04, -4.45943065e-02, 3.93373659e-03,
       1.38532901e-02, 4.65819286e-03, -1.85295139e-02, 3.64531018e-02,
       7.59233534e-03, 9.45504848e-03, 6.14707582e-02, 2.24553421e-02,
       -3.38909961e-02, 9.66878608e-03, 4.04578494e-03, -1.21602407e-02,
       2.62845457e-02, -1.61331370e-02, -1.83910858e-02, 5.18446267e-02,
       2.48053018e-03, 1.35828229e-02, 3.60041601e-03, -1.65430848e-02,
       -2.32391991e-02, 3.21277231e-02, 9.25789529e-04, -2.81404471e-03,
       4.58456343e-03, 1.71897060e-03, -3.35777528e-03, -3.01378928e-02,
       -4.39200550e-02, -2.52773799e-02, 4.05130945e-02, -1.33425202e-02,
       -1.07090613e-02, -5.22316527e-03, 4.31853719e-03, -4.61147390e-02,
       4.52812798e-02, 2.04447247e-02, 6.72453493e-02, 8.96605011e-03,
       -2.09169537e-02, -2.89116483e-02, 3.19649987e-02, 4.19801753e-03,
       2.09067948e-02, 5.78087904e-02, -2.17037345e-03, 6.44582435e-02,
       2.32806727e-02, -8.62607826e-03, -1.96670997e-03, 3.49311009e-02,
       2.16573607e-02, 1.54013904e-02, 1.57422479e-02, -1.04927076e-02,
       3.06994729e-02, 5.03342459e-03, 7.95878936e-03, -1.32828346e-02,
       -1.02708647e-02, -3.74450604e-03, -9.01597925e-03, 4.51560225e-03,
       -9.43638757e-03, 1.93166491e-02, 6.83433376e-03, 1.38865446e-03,
       -1.21511575e-02, -1.94195341e-02, -1.65708922e-02, 3.52180675e-02,
       3.53980809e-02, -2.01244820e-02, 3.75310481e-02, 5.86067419e-03,
       -7.15393526e-03, -1.66666117e-02, 1.18797161e-02, 8.35421495e-03,
       1.77709982e-02, -1.84933115e-02, -2.62039024e-02, 3.11560556e-02,
       3.32104117e-02, 2.62815114e-02, -1.13581801e-02, 6.35243440e-03,
       4.13675755e-02, -1.19058043e-02, -1.37658175e-02, -1.30953668e-02,
       7.10046990e-03, -6.90840976e-03, 1.99855329e-03, 1.21733611e-02,
       -1.63612999e-02, -2.90168989e-02, -5.04243420e-03,
       -3.52948047e-02, -1.09122209e-02, -1.13267498e-02, 1.17723718e-02,
       -1.31655522e-02, -1.57046001e-02, -1.95483454e-02, 4.50661685e-03,
       -6.35753735e-04, 4.78601269e-03, -4.38879477e-03, 5.10442778e-02,
       2.95071956e-02, 2.75367424e-02, -8.92723352e-03, 3.33704427e-02,
       2.24424619e-02, -2.85030197e-04, -3.25816907e-02, -2.14395188e-02,
       3.73063087e-02, 2.50733364e-02, 2.93786433e-02, 8.55097175e-03,
       3.31652313e-02, 2.63222633e-03, -1.32082989e-02, 6.89454516e-03,
       -9.67119448e-03, 2.63898447e-02, 2.39012409e-02, -1.24358898e-03,
       -2.42720880e-02, -1.73195507e-02, 5.75801823e-03, -3.36279087e-02,
       -2.69570164e-02, -1.41839134e-02, 3.24142762e-02, 1.46303941e-02,
       1.33584663e-02, -2.11148933e-02, -1.21688691e-03, -1.45767862e-02,
       2.95554232e-02, -6.09793607e-03, 2.18345225e-02, 5.09868823e-02,
       8.32451582e-02, 3.95758748e-02, -4.43278346e-03, 2.02259999e-02,
       1.06443297e-02, -6.86824461e-03, -2.40702946e-02, -5.16664563e-03,
       2.02540383e-02, 3.27837877e-02, 3.59598990e-03, -2.40508057e-02,
       3.59389815e-03, -1.99555457e-02, -3.38289253e-02, -2.77230088e-02,
       -1.41842023e-03, 8.14007875e-03, 3.93124111e-02, 7.18271825e-03,
       -1.70972329e-02, 1.16038751e-02, -2.36428548e-02, -3.80564108e-02,
       -1.45974532e-02, -1.69384629e-02, -1.65950209e-02, 4.64681201e-02,
       2.56246813e-02, -3.30403857e-02, -1.31538149e-03, -3.85867655e-02,
       -1.54105676e-02, -4.07946818e-02, -2.65424959e-02, 1.87888481e-02,
       5.32388687e-02, 1.19526368e-02, 7.17237778e-03, 3.72270420e-02,
       5.72085055e-03, -3.90487351e-03, -9.00530815e-03, 2.34745704e-02,
       1.72712915e-02, 7.90206075e-04, 1.27890082e-02, 3.30653228e-02,
       4.19266745e-02, 8.29341542e-03, -1.53247016e-02, -1.84267852e-02,
       -3.06068640e-02, 1.12235118e-02, 5.02987094e-02, -5.34444256e-03,
       -2.63826493e-02, 9.71541740e-03, -2.41973754e-02, -2.51943781e-03,
       1.06669310e-02, 8.64216127e-03, -1.68371145e-02, -2.61066910e-02,
       -3.08386330e-02, -1.07431458e-02, -3.39606926e-02,
       -2.09402991e-03, 1.69599690e-02, 3.50033157e-02, 3.99256311e-02,
       3.36335860e-02, 7.22072572e-02, 5.92277646e-02, 4.89014648e-02,
       2.17258707e-02, -1.01993261e-02, 1.16660455e-02, 4.07530852e-02,
       2.72345468e-02, 6.73249690e-03, 3.35552804e-02, 3.71416844e-02,
       7.24150334e-03, 1.25721125e-02, 2.99902726e-03, -1.54381199e-02,
       2.82833334e-02, 1.10984230e-02, -3.71158868e-02, -2.02184021e-02,
       -2.41532619e-03, 1.59184001e-02, -3.86253111e-02, 6.30243309e-03,
       -3.22995894e-02, 1.21360784e-03, 9.38392896e-03, -4.21569347e-02,
       7.01852422e-03, 1.12833846e-02, -6.12315675e-03, -2.00244561e-02,
       -4.62990953e-04, 1.68233775e-02, 4.23361138e-02, 4.71668765e-02,
       4.69095968e-02, 3.87562923e-02, 1.91554353e-02, -2.49780272e-03,
       -9.79203079e-03, -1.75611954e-02, 1.25895273e-02, -1.76320840e-02,
       -5.69448108e-03, -5.23224892e-03, -7.06046307e-03,
       -2.33689900e-02, -7.66106462e-03, -5.03281690e-02,
       -1.17396852e-02, 2.08092649e-02, 2.13655699e-02, 3.12873349e-02,
       9.55612026e-03, 3.69280763e-02, -2.36803088e-02, -1.79730281e-02,
       -1.10461777e-02, 6.64230064e-03, 3.92406173e-02, -5.39198890e-03,
       -2.81160735e-02, -1.86124351e-02, -1.14580719e-02,
       -2.68213339e-02, -2.77536549e-03, -1.32835181e-02, 2.97808331e-02,
       5.30902185e-02, -2.01771539e-02, -2.78538931e-02, 5.52184973e-03,
       -2.42933910e-02, -2.41700676e-03, -4.27356549e-03,
       -2.82276478e-02, 3.02897748e-02, 1.30148670e-02, -4.54807542e-02,
       -1.81432869e-02, -1.55556761e-02, -2.58449297e-02,
       -5.85043058e-03, -1.70675591e-02, -5.85076883e-02, 2.28444813e-03,
       4.90538254e-02, 7.81520363e-03, -1.33552216e-02, 2.96212099e-02,
       -3.71969771e-03, 8.93564709e-03, 2.65231580e-02, -9.51584987e-03,
       2.20303461e-02, 9.76828579e-03, -1.76880937e-02, -1.02883698e-02,
       -1.18790464e-02, -8.89159925e-03, 2.04888172e-02, 1.02746775e-02,
       -5.00420630e-02, -2.94059664e-02, 1.30124651e-02, -3.95126715e-02,
       -4.34588343e-02, -7.80282822e-03, -3.10840774e-02, 1.74716916e-02,
       -1.55962100e-02, -2.23787054e-02, 2.09703241e-02, 1.47911068e-02,
       -3.30971857e-03, -9.85760894e-03, 2.70468481e-02, -1.90723105e-03,
       6.04917631e-02, 1.63225848e-02, -1.14020268e-02, 9.55889095e-03,
       2.29266342e-02, -2.69732065e-03, 1.16469413e-02, 8.67880601e-03,
       -2.81857662e-02, 4.24190722e-02, -4.59490111e-03, -2.17388906e-02,
       1.95949227e-02, 2.03723591e-02, 2.84183249e-02, 2.69721523e-02,
       5.62515780e-02, -1.87685769e-02, 3.85258943e-02, 2.29493156e-03,
       -3.22911399e-03, 8.89391452e-03, -2.51762923e-02, -8.73767212e-03,
       -3.82595919e-02, -2.54836213e-02, -1.76012479e-02, 1.68084877e-03,
       1.10406596e-02, -3.62036610e-03, -7.91656040e-03, -1.41485026e-02,
       -1.58935953e-02, -2.35607428e-03, 3.44428644e-02, -1.95796397e-02,
       1.48147242e-02, 3.14913504e-02, 4.21881527e-02, 3.93193997e-02,
       1.18927322e-02, 3.90922977e-03, 2.98633729e-03, -1.12202009e-02,
       -1.48648461e-02, -1.56395638e-03, -2.07969523e-03, 3.33332317e-03,
       1.44276740e-02, 1.34896543e-02, 2.38671284e-02, 2.44966485e-02,
       2.04596929e-02, -2.73348428e-02, 9.35616810e-03, 1.40528735e-02,
       2.36511193e-02, 1.20749390e-02, -3.95334363e-02, -1.85827613e-02,
       2.61006281e-02, 2.73600668e-02, -3.45292017e-02, 1.63627136e-03,
       -1.52950455e-02, 2.09043827e-02, 1.78052597e-02, -2.22886186e-02,
       2.50484087e-02, 3.51940989e-02, -4.99178376e-03, -2.25208718e-02,
       -5.72746526e-03, -2.56428048e-02, -2.33206432e-03, 3.75291891e-03,
       1.87946693e-03, 1.58191398e-02, 4.50587720e-02, 2.98417769e-02,
       3.15711424e-02, 1.48862479e-02, -5.18460001e-04, 3.24181877e-02,
       -5.19920606e-03, 1.48657737e-02, 3.76776420e-02, 3.37197147e-02,
       -4.53006802e-03, 6.81074569e-03, 2.40430213e-03, -2.06830092e-02,
       1.00803357e-02, -6.53023133e-03, -1.86544098e-02, 3.09946164e-02,
       1.06944516e-02, -5.88986836e-03, -1.42911207e-02, -6.45676209e-03,
       2.18712520e-02, 9.72095598e-03, -9.28481948e-03, -5.11320727e-03,
       2.63057929e-02, -2.39564441e-02, -2.31862254e-02, -2.20872834e-02,
       -2.74858829e-02, 2.06621606e-02, -1.02383422e-03, -3.58130783e-02,
       -3.34487930e-02, 2.12046225e-02, -7.21094199e-03, -2.83124601e-03,
       2.91055278e-03, 3.91825382e-03, 9.89920227e-04, 6.31229999e-03,
       -3.70697007e-02, -3.17309126e-02, -1.56930853e-02,
       -9.33959987e-03, 4.49338928e-03, -2.25237366e-02, -8.97848513e-03,
       1.12484833e-02, 4.15006513e-03, -4.75199930e-02, 2.08277218e-02,
       4.67552468e-02, 3.27826254e-02, -2.07118574e-03, 3.67497560e-03,
       1.52890570e-02, 1.30355423e-02, 3.11900787e-02, -1.17184268e-02,
       5.46228327e-03, 2.14961059e-02, 3.91756520e-02, 7.41115306e-03,
       1.82806961e-02, -6.40557799e-03, -1.79585088e-02, 5.52992243e-03,
       -4.44585457e-02, -2.14919057e-02, 1.08137382e-02, 1.77824479e-02,
       8.82232934e-03, -1.15741044e-02, 2.18730439e-02, 4.41867067e-03,
       1.54581023e-02, -3.81428599e-02, -2.44728345e-02, -1.18985688e-02,
       -7.85108749e-03, -3.01975608e-02, -9.28175915e-03,
       -1.36339348e-02, -3.95682380e-02, -2.07889806e-02,
       -2.32327674e-02, -2.76005804e-03, 4.68523614e-02, 1.02139050e-02,
       3.54810618e-02, 1.41581465e-02, 1.24790519e-02, -2.06524096e-02,
       -1.01700602e-02, -3.38382125e-02, 1.18364766e-03, 1.90827269e-02,
       -6.23480650e-03, -2.35541034e-02, 2.26416741e-03, -8.75113066e-03,
       -3.81899904e-03, 3.65507416e-02, -2.58844849e-02, -9.85952280e-03,
       1.81154646e-02, 8.86523258e-03, 2.04083952e-03, -7.89419562e-03,
       3.00806277e-02, -1.88024044e-02, -3.66674438e-02, -2.26628855e-02,
       -2.20521390e-02, 1.33419205e-02, -1.01948231e-02, -3.26102190e-02,
       -5.59259299e-03, -4.07747179e-03, -2.12121140e-02,
       -9.98100825e-03, -3.70057970e-02, 1.45311067e-02, 6.42779269e-05,
       -2.09508203e-02, -1.58644598e-02, 2.05449704e-02, 3.89792770e-02,
       5.36413258e-03, 4.09614481e-02, 1.12045063e-02, -8.60965811e-03,
       -3.12079079e-02, -4.99088317e-02, -1.28587456e-02, 1.91929508e-02,
       1.09993210e-02, 1.92802539e-03, -1.55962189e-04, 2.72900827e-04,
       -4.25243285e-04, 1.15796868e-02, -4.75528557e-03, -1.60002373e-02,
       1.53913889e-02, 1.17099257e-02, -2.56031919e-02, 1.23871518e-02,
       -1.74706522e-02, -1.52156288e-02, 8.97448696e-03, -1.42656593e-02,
       -2.46580523e-02, -3.12199409e-04, 1.00196956e-03, -4.81877960e-02,
       -1.47977509e-02, -6.39115460e-03, 1.41005777e-02, 2.62637855e-03,
       -5.15415194e-03, 3.18939500e-02, 1.68029591e-02, 3.25863473e-02,
       -2.63092195e-04, 3.80898360e-03, 5.46524674e-03, 2.12548990e-02,
       2.06878013e-03, 8.60277750e-03, 8.47533159e-03, 1.62694007e-02,
       1.42143434e-03, -4.79209609e-03, -6.44806121e-03, 8.89527611e-03,
       1.00043081e-02, 1.65862963e-02, -2.72590350e-02, 1.85051970e-02,
       1.50041264e-02, 1.41752698e-02, -1.95237380e-02, -4.41294163e-03,
       1.36417998e-02, 5.41621400e-03, 1.21183349e-02, -3.66996713e-02,
       3.73480812e-04, 2.46357988e-03, -1.39581831e-02, -4.97941561e-02,
       -3.78813595e-02, -2.42456757e-02, 1.09222410e-02, 1.95468497e-02,
       1.52168097e-02, 1.11053893e-02, -1.69841330e-02, 8.27931240e-03,
       1.77860726e-02, -1.65309999e-02, -2.21132790e-03, -1.18019397e-03,
       1.31962840e-02, 1.89500966e-03, -2.60487944e-02, 1.29622901e-02,
       -6.27851998e-03, -8.44612252e-03, -3.13410955e-03,
       -2.23145876e-02, 3.90595719e-02, 3.56900655e-02, 1.56423859e-02,
       2.83767562e-02, 2.22563576e-02, 1.00109568e-02, -3.82923298e-02,
       -4.33431864e-02, -2.42745169e-02, 8.59778840e-03, 2.43672710e-02,
       1.60724018e-02, -5.31111518e-03, 3.45727839e-02, 2.59685963e-02,
       -1.43620418e-02, -2.08582524e-02, -2.64135189e-02,
       -1.42900867e-03, 3.14923748e-02, -2.49824696e-03, 2.08430942e-02,
       -3.11839134e-02, 2.35444754e-02, 7.08431890e-03, 5.65384142e-03,
       -5.72177488e-03, -2.63006091e-02, 1.21215293e-02, -6.18246756e-03,
       2.66613290e-02, -3.42723876e-02, 2.18363274e-02, -1.71829686e-02,
       4.18563560e-03, -2.81431284e-02, 1.70021895e-02, -8.42045248e-03,
       -2.37019751e-02, 3.25643783e-03, -4.68864255e-02, 2.59621497e-02,
       -3.61150666e-03, 1.04129063e-02, -1.88193824e-02, -4.92978259e-04,
       6.85758563e-03, -4.74320538e-03, 1.20938458e-02, -1.70265641e-02,
       1.58427507e-02, -9.90060344e-03, 9.30962036e-04, 1.32925529e-02,
       -2.04375703e-02, 1.13084409e-02, -6.55165268e-03, 5.57041308e-03,
       7.15675065e-03, 2.30765552e-03, -2.07969584e-02, -5.24467416e-03,
       -2.29218677e-02, -2.70713363e-02, 1.68993734e-02, 2.11446616e-03,
       1.92562945e-03, 1.56259667e-02, 3.36433500e-02, -1.45901619e-02,
       1.17688319e-02, -2.79629100e-02, -2.89188279e-03, 7.80584849e-03,
       1.60212722e-03, 1.33135496e-02, -1.32735409e-02, -1.47132706e-02,
       -2.09846050e-02, -3.00983014e-03, 8.65848735e-03, 1.80330053e-02,
       6.32117921e-03, -4.57164422e-02, 2.01212522e-02, -1.58847310e-02,
       1.53674828e-02, -1.78565495e-02, -8.30579083e-03, 4.71965503e-03,
       -1.96243394e-02, 1.73270125e-02, 2.44914345e-03, 1.40202008e-02,
       4.02412415e-02, 4.99053821e-02, -1.66470055e-02, 1.36471381e-02,
       -1.80988982e-02, -8.29520263e-03, -6.78579789e-04,
       -1.14964657e-02, -3.67643349e-02, -1.63564011e-02,
       -1.26181161e-02, -2.77789291e-02, -3.17100100e-02,
       -1.05473585e-02, 4.50625690e-03, 2.62294970e-02, -4.62677516e-02,
       1.19911507e-02, 3.60731967e-02, 5.23382984e-02, 1.36311986e-02,
       -1.27792209e-02, -2.41172928e-02, -5.59993796e-02, 6.78794412e-03,
       -6.05590865e-02, -5.30627780e-02, 1.68168228e-02, -2.00629551e-02,
       -4.74260524e-02, -3.08002643e-02, -2.42939945e-02, 1.19522335e-02,
       4.44379076e-02, 6.21384196e-03, -3.48328650e-02, 7.71596679e-04,
       -3.72146582e-03, 4.50950908e-03, -2.39640959e-02, 1.81020871e-02,
       -9.59708635e-03, 4.37922627e-02, 2.38378327e-02, -1.35907158e-02,
       3.40374298e-02, 1.22838514e-02, 2.59047970e-02, 1.49483448e-02,
       1.40471822e-02, -3.10240425e-02, -1.75345037e-02, -6.84454963e-02,
       -3.42299268e-02, 2.42324546e-02, 2.35212725e-02, -1.23164626e-02,
       -1.05884029e-02, 7.69492472e-03, -1.15388194e-02, 1.30894943e-03,
       -3.02965939e-02, 5.23936702e-03, 6.95257410e-02, 1.68267004e-02,
       -2.07771361e-02, -3.62307066e-03, 1.30912848e-02, 1.75002571e-02,
       2.92535760e-02, 6.98609650e-03, -1.12460274e-02, 3.20829973e-02,
       -5.47534367e-03, 2.14874605e-03, 3.91529500e-03, 1.28871473e-02,
       1.36989858e-02, -1.31013598e-02, -2.35474389e-02, -1.56011386e-02,
       -7.21500488e-03, 4.91403416e-03, -5.27577382e-03, -2.78693810e-02,
       4.17066086e-03, 1.49277523e-02, 1.41620487e-02, -2.41392720e-02,
       -9.30765271e-03, 5.97467013e-02, 5.10249520e-03, 5.98787563e-04,
       2.19994597e-02, 1.55178756e-02, 2.89378595e-02, -3.64785716e-02,
       -2.15269905e-02, 4.20772005e-03, -6.91960519e-03, -6.86398614e-03,
       -2.46696882e-02, -5.35710296e-03, 3.48225534e-02, 2.84741502e-02,
       -1.38028373e-03, 6.27322588e-03, 2.49091275e-02, 1.55573282e-02,
       8.65614600e-03, 7.07837567e-03, -1.92947369e-02, 5.28630684e-04,
       1.89744048e-02, 1.92424487e-02, 3.57120181e-03, 2.56112497e-03,
       6.96350541e-03, 1.85838528e-02, -4.43805649e-04, -4.13905755e-02,
       -1.25188120e-02, 3.74315083e-02, -1.12457899e-02, 1.24713806e-02,
       1.19622909e-02, -2.11741682e-02, -2.56019598e-03, -1.39675718e-02,
       -3.44431810e-02, 3.45885605e-02, 3.16136628e-02, 1.16876885e-02,
       -1.18145011e-02, 1.04725594e-02, -1.75117701e-02, -1.68319355e-04,
       -3.84784155e-02, -4.92427647e-02, 2.77128424e-02, -1.17717588e+00 ]
