%YAML:1.0
---
_2000-4000-testG: !!opencv-object-detector-hog
   winSize: [ 64, 128 ]
   blockSize: [ 16, 16 ]
   blockStride: [ 8, 8 ]
   cellSize: [ 8, 8 ]
   nbins: 9
   derivAperture: 1
   winSigma: 4.
   histogramNormType: 0
   L2HysThreshold: 2.0000000000000001e-01
   gammaCorrection: 1
   nlevels: 64
   signedGradient: 0
   SVMDetector: [ -5.15396893e-03, -1.73940342e-02, 1.81701742e-02,
       1.86874345e-02, -4.10816446e-03, -2.79720873e-02, -3.02820709e-02,
       -9.53490660e-03, 3.53497230e-02, 3.07281129e-02, -5.91422245e-03,
       2.21688747e-02, 3.50634791e-02, 3.13221104e-02, 3.88070904e-02,
       1.26344413e-02, 1.42941130e-02, 3.37384157e-02, -1.65528280e-03,
       5.50113199e-03, 3.26257497e-02, 3.22021507e-02, -2.10389551e-02,
       -1.30269649e-02, -4.04507555e-02, -5.21512665e-02,
       -4.11088066e-03, -3.79715883e-03, -3.05310339e-02, 2.05477048e-02,
       3.56963910e-02, -1.76398549e-02, 3.75709049e-02, -1.81659982e-02,
       -2.75059207e-03, 4.54599876e-03, 2.12950842e-03, -6.98270462e-03,
       -5.69555396e-03, 8.05947185e-03, 2.87025161e-02, 2.88292137e-03,
       6.70508109e-03, 3.81767587e-03, 9.45211202e-03, 1.66132208e-02,
       3.99416592e-03, 1.11161801e-03, 1.16567612e-02, 5.98524790e-03,
       -1.75414123e-02, 2.44610710e-03, 2.46290560e-03, 7.50507228e-03,
       -1.37309656e-02, -2.35792771e-02, 8.73276731e-04, 1.67085230e-03,
       2.63339113e-02, 1.72716770e-02, -6.73120003e-03, 1.34323277e-02,
       2.79081259e-02, 1.20256897e-02, 1.80452969e-02, 2.21950989e-02,
       2.79502086e-02, -1.42242322e-02, 1.53975198e-02, -9.65642743e-03,
       2.11824197e-03, 3.02239582e-02, 1.22797797e-02, 8.56447220e-03,
       -4.97528212e-03, -2.60554883e-03, 1.35682961e-02, 3.68660092e-02,
       2.14077532e-02, 2.22508721e-02, -4.13894095e-03, 3.03995516e-02,
       8.74208403e-04, 4.79188561e-03, -5.45896823e-03, 3.42828408e-02,
       4.15650979e-02, 3.74885276e-02, 2.65788548e-02, 4.99919057e-02,
       -8.87276325e-03, 1.56764835e-02, -3.76191107e-03, 3.21905278e-02,
       -1.65567324e-02, 2.01353673e-02, -6.26233965e-03, 6.04539737e-03,
       7.96358474e-03, -6.84653502e-03, -1.48046361e-02, -6.19171420e-03,
       -7.56826112e-03, 1.77840777e-02, -7.02506723e-03, 1.50445867e-02,
       4.08670083e-02, 3.50623927e-03, 4.16072533e-02, 1.79604180e-02,
       -3.68132372e-04, -3.20487982e-03, 8.63565970e-03, 2.84761712e-02,
       5.99927036e-04, -1.22429868e-02, 1.41174495e-02, -2.03023143e-02,
       -2.08057109e-02, -1.90157257e-02, -3.15114670e-02,
       -8.61457922e-03, -1.26138306e-03, -2.49074511e-02,
       -1.06404815e-02, -6.20828895e-03, -6.56703999e-03, 1.05119608e-02,
       2.49345768e-02, 2.56123412e-02, 3.33599397e-03, 3.70846167e-02,
       2.65697073e-02, 5.43319806e-02, -6.59927865e-03, -7.51174241e-02,
       -4.30944599e-02, -2.75680944e-02, -1.42907258e-02,
       -5.54247238e-02, 2.80643310e-02, -2.84792553e-03, 6.03884505e-03,
       -3.48086841e-02, -4.75153774e-02, -6.23360369e-03,
       -1.22433598e-03, -6.21983595e-03, 1.01393592e-02, -1.73915946e-03,
       1.52685065e-02, 1.80364680e-02, -6.65752031e-03, -2.23845840e-02,
       -2.66153961e-02, -2.89689563e-02, -1.97842177e-02, 2.90198158e-02,
       -6.61264174e-03, -1.12608746e-02, 1.90841984e-02, 1.16265401e-04,
       1.52896915e-03, -4.22668597e-03, -1.98951084e-02, -4.25950345e-03,
       -1.68850664e-02, 1.42156277e-02, 2.74181794e-02, 1.61792040e-02,
       2.00183466e-02, -2.94541195e-02, -4.32082377e-02, -4.80858982e-02,
       -2.46344302e-02, 2.24317331e-03, -1.44933686e-02, -1.17935822e-03,
       -3.65719665e-03, 7.84899201e-03, -1.65425967e-02, -2.63226628e-02,
       -3.02371141e-02, -8.36223736e-03, 2.87775770e-02, 1.15545094e-02,
       -1.51777202e-02, 1.17856320e-02, 1.31127425e-02, -2.06840113e-02,
       -2.92978212e-02, -1.98103525e-02, -2.08990416e-03, 3.47022992e-03,
       -1.49857905e-02, -3.27103510e-02, 2.33091693e-02, 1.86056066e-02,
       -1.19557157e-02, -4.30240482e-02, -3.21945846e-02, 6.41337596e-03,
       9.34119243e-03, 1.55585343e-02, -1.25456769e-02, 2.82625314e-02,
       -8.80493317e-04, -5.42677082e-02, 6.88475603e-03, 3.58015648e-03,
       7.41938083e-03, 6.42701564e-03, -9.95414797e-03, -9.85516980e-03,
       4.05963846e-02, -5.18013025e-03, -4.90120205e-04, -1.12311793e-02,
       -5.26831020e-03, 4.04789448e-02, 3.36163193e-02, -4.30024005e-02,
       -1.70989074e-02, 3.16731073e-02, 1.64074693e-02, 7.73585122e-03,
       -1.39887957e-02, -4.40048240e-02, 1.83089487e-02, 1.74086075e-02,
       -4.47387174e-02, -2.84211431e-02, 2.46278588e-02, 1.69765931e-02,
       -2.47796122e-02, -1.51948212e-02, 6.02902984e-03, 4.49809097e-02,
       1.43891731e-02, -5.09969518e-02, 2.07174849e-03, 2.26309821e-02,
       -2.02859174e-02, -2.31500138e-02, -3.44925076e-02,
       -4.28409837e-02, -2.65541356e-02, -2.43580937e-02,
       -2.32020058e-02, -1.39677059e-02, 1.91169919e-03, -2.51400005e-02,
       1.39260979e-03, 9.18615796e-03, -9.77029465e-03, 1.00498591e-02,
       2.38151923e-02, 9.20555647e-03, -1.73702203e-02, 2.14454439e-02,
       3.72020714e-03, -3.30754071e-02, -5.40036410e-02, -3.45450975e-02,
       -3.52198333e-02, -1.89136658e-02, 4.98904940e-03, -1.26254279e-02,
       3.68140563e-02, -2.19780579e-02, 4.28669853e-03, 7.26906001e-04,
       2.74372799e-03, 1.81236230e-02, -8.05639289e-03, 4.84048501e-02,
       3.62315699e-02, 2.55143326e-02, 8.34085792e-03, -1.79205071e-02,
       -5.33449138e-03, -9.89977829e-03, -4.11533704e-03,
       -1.59781463e-02, 9.41145420e-03, 4.11082879e-02, 2.77028605e-02,
       -9.42950789e-03, -3.72912884e-02, -5.16105853e-02,
       -4.04053368e-02, -3.06286849e-03, -5.98071469e-03, 2.40999628e-02,
       5.78992011e-04, 3.77037413e-02, 4.37162770e-03, -2.70530879e-02,
       -2.53907163e-02, -1.45064425e-02, 1.63377374e-02, -2.79939966e-03,
       -1.55403810e-02, -1.95317026e-02, -1.44994892e-02, 1.00870477e-02,
       1.72370356e-02, -1.57528762e-02, 1.55304680e-02, 2.13145167e-02,
       -2.48671137e-02, 2.82195695e-02, 2.17126068e-02, 2.63815504e-02,
       1.57610476e-02, -6.05089078e-03, -8.10531899e-03, 3.21770422e-02,
       1.07335504e-02, 1.22579932e-02, 8.24477151e-03, -9.16699588e-04,
       -1.48766218e-02, 2.09626928e-02, -3.17301787e-02, -2.26766784e-02,
       -2.63739489e-02, 9.69346240e-03, -3.18646282e-02, 2.46507325e-03,
       -3.42159942e-02, -1.35474429e-02, 4.04621959e-02, 1.81205161e-02,
       -3.56502682e-02, -6.34869635e-02, -3.00969537e-02,
       -3.82367447e-02, -1.77562702e-02, -1.61289908e-02,
       -3.43077304e-03, 2.89517995e-02, -3.11960885e-03, 1.36141730e-02,
       3.15923654e-02, 3.32301818e-02, 1.49930638e-04, 4.20966037e-02,
       -1.19075496e-02, 8.54883250e-03, 1.18028428e-02, -2.59367451e-02,
       -5.67640597e-03, -1.36116089e-03, 1.79692507e-02, -1.09525006e-02,
       2.12756135e-02, -3.52376401e-02, 3.99350049e-03, -1.20317275e-02,
       4.41543106e-03, -2.66580395e-02, -3.04897912e-02, -2.15359451e-03,
       -3.29048809e-04, -1.65557619e-02, -1.00957323e-02, 1.35991108e-02,
       1.88665204e-02, 1.58244441e-03, -5.00120930e-02, -9.84659698e-03,
       2.27712058e-02, -2.41445526e-02, 6.62727887e-03, -2.58444324e-02,
       -3.73632438e-03, 1.75655056e-02, 2.60274415e-03, 1.67569723e-02,
       7.96982367e-03, 5.51315665e-04, 3.12776044e-02, 1.80995986e-02,
       -3.03330924e-02, 3.12816203e-02, 6.43705390e-03, 8.01098067e-03,
       3.11496761e-02, -8.12781230e-03, 4.18982320e-02, 6.94483565e-03,
       7.07793934e-03, -2.01466251e-02, 1.22301653e-02, -1.19395740e-02,
       -2.16720235e-02, -2.62338109e-02, -3.78195848e-03, 4.83881049e-02,
       1.82686672e-02, 2.65814755e-02, -1.86214838e-02, 2.81825010e-02,
       1.61776412e-02, -3.48536968e-02, -2.41743736e-02, -2.51256339e-02,
       -2.31756940e-02, -3.25692887e-03, -2.08521690e-02,
       -6.35278374e-02, -5.38735138e-03, -1.69164687e-02, 2.18473189e-03,
       3.01807616e-02, -1.41902901e-02, 3.22701707e-02, 1.30632995e-02,
       3.69576551e-02, 6.00148272e-03, 1.59864295e-02, -1.60751175e-02,
       -4.07457389e-02, 8.41521192e-03, -6.66057086e-03, 8.90535768e-03,
       -2.74147317e-02, 1.39307566e-02, -3.00912447e-02, -1.61316711e-02,
       -2.91789100e-02, -2.94191092e-02, -2.36554164e-02,
       -8.81145056e-03, 7.93807732e-04, 5.80984447e-03, 5.88460034e-03,
       -2.79855765e-02, 2.12710816e-02, -1.20709836e-02, -2.17773039e-02,
       -2.57222168e-02, -1.44878794e-02, -4.03601341e-02, 1.13718929e-02,
       -3.42842489e-02, -9.16228071e-03, 4.67387438e-02, 8.48580804e-03,
       1.00306841e-02, 2.00828873e-02, 1.83420312e-02, 3.43102068e-02,
       1.89435836e-02, 2.50697862e-02, 4.47777752e-03, 1.47519624e-02,
       -4.04163823e-03, -1.62791386e-02, 3.10153030e-02, 3.77652682e-02,
       -1.04519157e-02, -7.82951806e-03, -3.69118825e-02,
       -9.05032083e-03, 5.86718554e-03, -5.78016005e-02, -2.51037497e-02,
       5.91329159e-03, 2.89088418e-03, -1.80691888e-03, -2.35726661e-03,
       -2.29936969e-02, -4.60301451e-02, 2.99986638e-02, 2.04585362e-02,
       -7.45283021e-03, -2.06282958e-02, -1.40261892e-02, 1.33970019e-03,
       1.34607097e-02, -1.99413151e-02, -4.98815253e-02, -1.99061111e-02,
       1.77703239e-02, 6.03666343e-03, 3.29526253e-02, 4.19076383e-02,
       7.07113650e-03, -3.04628853e-02, -2.26899423e-02, -4.69887555e-02,
       -2.60987803e-02, -1.94485150e-02, 2.06839126e-02, -5.43087116e-03,
       -4.57882090e-03, 6.15961617e-03, 2.74364576e-02, -1.69231333e-02,
       -3.76807116e-02, -1.83322020e-02, 2.82907207e-02, 2.19220892e-02,
       -3.08169834e-02, -3.09200399e-02, 1.87718663e-02, 1.43571487e-02,
       7.64367264e-03, -3.45662683e-02, -2.01975331e-02, 3.66870165e-02,
       4.20353785e-02, -5.13302274e-02, -1.47993946e-02, 1.77303758e-02,
       -7.15525895e-02, -3.05477418e-02, -2.18900256e-02, 6.72823889e-03,
       6.12523742e-02, 2.25806944e-02, -2.88288612e-02, -1.05044693e-02,
       2.33830605e-02, 3.97157371e-02, 5.29207513e-02, -2.65343301e-02,
       -1.75846014e-02, 2.69696806e-02, 1.93826035e-02, -3.49448472e-02,
       5.80783351e-04, 4.43877466e-02, -3.46358754e-02, 4.06976156e-02,
       7.21235760e-03, -3.45482794e-03, 1.82777718e-02, 5.48817851e-02,
       -5.01846196e-03, -2.26477161e-03, 2.10785363e-02, 1.62969753e-02,
       -4.91868751e-03, -4.22107540e-02, -5.34935072e-02, 9.53159668e-03,
       5.19804433e-02, 5.35743404e-03, 1.06218467e-02, 1.10088922e-02,
       1.21327657e-02, 3.94643620e-02, -1.55472923e-02, -2.77312822e-03,
       2.62288507e-02, 2.16295831e-02, -4.18754406e-02, -3.86712588e-02,
       2.52080779e-03, 3.09711564e-02, -2.08210535e-02, -3.69842798e-02,
       -2.93630995e-02, 3.94539945e-02, 2.61866394e-02, -3.50619014e-03,
       5.47394715e-03, -8.06557853e-03, -3.87174822e-02, -6.81247469e-03,
       -8.74298811e-03, -1.21040326e-02, 2.00602170e-02, 2.00511981e-02,
       -2.34377719e-02, -2.56489050e-02, -5.97327948e-02, 3.07681616e-02,
       4.12465148e-02, -2.34452579e-02, -8.13031849e-03, 1.97129641e-02,
       2.92159207e-02, -1.58872213e-02, -3.52705233e-02, -1.59180965e-02,
       -2.17550322e-02, 3.29876207e-02, -3.21502541e-03, -5.23637515e-03,
       5.25099188e-02, -8.24149884e-03, -1.89806651e-02, -7.49302609e-03,
       -2.70019192e-02, 2.64937803e-02, 2.00913958e-02, -1.40327923e-02,
       -5.86575158e-02, -1.69574954e-02, 2.40111556e-02, -1.43250227e-02,
       -1.97279211e-02, 1.27938809e-02, -2.89125927e-02, 4.63006878e-03,
       -1.57840289e-02, -4.33087721e-02, 3.11515876e-03, -1.64690346e-03,
       -1.43053317e-02, -1.24218725e-02, 1.00462884e-02, 3.06944381e-02,
       1.05133681e-02, -4.51210653e-03, -9.68903827e-04, -3.35644046e-03,
       -6.57105632e-03, -2.76167244e-02, -1.26333497e-02,
       -1.26969628e-02, 3.61896232e-02, -1.53975831e-02, 1.55737270e-02,
       3.89987379e-02, -7.63383973e-03, 2.61876620e-02, -9.09407996e-03,
       -5.87864779e-03, 2.66478602e-02, 2.16819588e-02, 3.02691758e-02,
       1.69381946e-02, 2.85622030e-02, 3.69099863e-02, -5.00187203e-02,
       -3.11402027e-02, -4.97059198e-04, 2.64649000e-03, 4.00078818e-02,
       1.69330686e-02, 3.37377191e-02, 4.84913811e-02, -1.04723265e-02,
       -6.56047976e-03, -2.41516866e-02, 3.79119665e-05, -2.60941647e-02,
       4.68897354e-03, -9.16623231e-03, -8.16425588e-03, 4.66685137e-03,
       -1.07223578e-02, 4.73553827e-03, 1.31285414e-02, -1.18898647e-02,
       -1.25591252e-02, 1.80990119e-02, 1.61295850e-02, -2.93721501e-02,
       -2.18575634e-02, -2.16983445e-02, -2.47678515e-02, 1.60580631e-02,
       6.06956817e-02, 2.02916507e-02, -5.98294381e-03, -1.45327095e-02,
       5.87127917e-03, 2.89314892e-02, -5.89822093e-03, 9.96357389e-03,
       4.40383777e-02, 1.51016545e-02, -5.42170834e-03, -6.15953375e-03,
       1.22289518e-02, -3.67917679e-03, -2.32176539e-02, -2.52417959e-02,
       5.02272844e-02, 3.99319753e-02, -1.78631805e-02, -7.03651737e-03,
       -1.32788597e-02, 8.18466302e-03, -9.20605939e-03, -2.63291635e-02,
       -3.64600569e-02, 3.52754518e-02, -1.06735127e-02, -2.71812081e-02,
       -2.22028140e-02, 1.08972983e-02, -1.49114127e-03, -4.08454873e-02,
       -2.55128983e-02, 1.12592448e-02, 7.27631524e-02, 8.83282498e-02,
       2.51900987e-03, -9.12056025e-03, -4.28974740e-02, 2.59105843e-02,
       2.10302211e-02, 1.55226896e-02, 1.72917545e-03, 2.74271984e-02,
       1.72762142e-03, -3.38259786e-02, 1.18274549e-02, 3.23405154e-02,
       3.07618920e-03, 1.86763443e-02, 1.07589504e-02, -7.74808519e-04,
       1.65098440e-02, 1.84427872e-02, -7.66821252e-03, 1.24282977e-02,
       3.34898494e-02, 8.57896078e-03, -2.31634509e-02, 7.10908184e-03,
       3.01898401e-02, -2.32300777e-02, 1.83496438e-02, -1.75652951e-02,
       1.85121149e-02, 2.89717875e-02, -1.45377573e-02, -2.77590323e-02,
       1.97512247e-02, -1.71892997e-02, 3.31620057e-03, 2.82385815e-02,
       -9.36401635e-03, 1.80778168e-02, 3.48801650e-02, 9.15915519e-03,
       1.45564089e-02, 3.80406193e-02, -3.60753038e-03, -1.91809833e-02,
       3.17708924e-02, -2.09410805e-02, 2.04182975e-03, 2.38942504e-02,
       8.96011945e-03, 4.18281695e-03, 1.94987040e-02, -7.01734424e-02,
       -1.72212967e-04, -5.71929663e-03, -7.59540778e-03, 1.99236069e-02,
       2.25804783e-02, -3.63222398e-02, -5.63471718e-03, 2.99714524e-02,
       -3.39993066e-03, 1.10749463e-02, -2.13524904e-02, -8.44918843e-03,
       -2.11440697e-02, -4.36144881e-03, -4.18619290e-02,
       -4.02409025e-03, 5.00518503e-03, 1.15618296e-02, 3.76241058e-02,
       5.93244247e-02, 7.91652035e-03, 1.10203773e-02, 3.37782018e-02,
       1.76150515e-03, -3.89839732e-03, -2.07745540e-03, -2.69923136e-02,
       2.46751476e-02, 4.31607664e-02, -4.47280006e-03, -2.17975471e-02,
       2.29837000e-03, -1.23336352e-02, 8.18359107e-03, 2.38064192e-02,
       7.39230309e-03, 4.64386214e-03, -1.88635420e-02, 1.12888487e-02,
       -4.39695083e-03, -3.59667204e-02, -4.55964403e-03, 8.95276573e-03,
       2.18416215e-03, -2.30781603e-04, -1.86689571e-02, 5.12360595e-03,
       -1.37927392e-02, -2.35362910e-03, -1.66348331e-02,
       -1.15375994e-02, 3.34140509e-02, 1.20225130e-02, -6.63470756e-03,
       3.84016633e-02, 5.53161651e-02, -1.69140231e-02, -8.60732282e-04,
       -6.43128157e-03, 1.23087196e-02, 5.30849444e-04, 1.83035266e-02,
       -2.15447284e-02, -1.68031303e-03, 5.07650077e-02, -9.12565272e-03,
       5.04467217e-03, 1.65276304e-02, 2.50813533e-02, 1.25941010e-02,
       -2.24286737e-03, 3.25201005e-02, -1.13709383e-02, -1.35227218e-02,
       -1.72688104e-02, 1.20328953e-02, 4.35085909e-04, -3.59563297e-03,
       -2.14059232e-03, -7.93453958e-03, -1.37181059e-02, 1.59724755e-03,
       2.44418130e-04, -9.67039540e-03, 1.47555368e-02, 3.32886837e-02,
       -2.75755785e-02, -8.07124376e-03, -3.41106392e-02,
       -1.98030230e-02, -1.36397649e-02, 2.18604997e-04, -7.69771542e-03,
       4.51379940e-02, 4.09672111e-02, 6.16331920e-02, 4.19407003e-02,
       7.54812779e-03, 4.35814410e-02, -1.11012161e-02, -1.41354622e-02,
       -1.22975037e-02, 2.88201347e-02, 3.99353616e-02, 3.57351336e-03,
       3.32112750e-03, 3.14432313e-03, 2.30795238e-02, 1.18114259e-02,
       9.87809896e-03, -5.30683482e-03, 1.85527764e-02, 7.85074197e-03,
       -6.55782642e-04, -2.25623213e-02, -3.86503362e-03,
       -6.94239559e-03, -1.62324328e-02, 1.26327099e-02, -6.11058250e-03,
       -2.39611082e-02, 6.29323209e-03, 6.84069516e-03, -4.78744991e-02,
       8.04212131e-03, -1.67823248e-02, 2.80954354e-02, 4.14210670e-02,
       -2.14452185e-02, 1.69409383e-02, 1.69975143e-02, 2.64354181e-02,
       -7.47715496e-03, 4.45265789e-03, -1.88540842e-03, -1.00080743e-02,
       3.28085050e-02, -2.75305603e-02, 1.32202578e-03, 2.34913342e-02,
       2.83014849e-02, -3.93851176e-02, -3.47600109e-03, 1.10795962e-04,
       -1.33948466e-02, 1.51774799e-02, -2.63744462e-02, -4.19857614e-02,
       2.01248322e-02, 1.03056878e-02, -4.53839004e-02, 2.19269563e-02,
       3.53975315e-03, -3.84631716e-02, -1.18937744e-02, -4.87766564e-02,
       1.14596421e-02, 2.57614865e-05, 6.02977676e-03, -3.71758975e-02,
       -1.26212612e-02, -2.31893826e-02, -7.02112075e-03, 1.14293369e-02,
       -7.66032236e-03, 1.12083824e-02, 5.64085692e-02, 2.58259010e-02,
       -6.84146630e-03, 9.41064500e-04, 4.51730704e-03, 4.19163937e-03,
       4.23402619e-03, -3.73043008e-02, 2.45686900e-02, 5.03813215e-02,
       2.66106054e-02, -7.51823746e-03, -3.64069529e-02, -1.42422961e-02,
       6.44878438e-03, 2.00596321e-02, -2.60815732e-02, -1.31032977e-03,
       -8.44924245e-03, 1.21880015e-02, -2.38733906e-02, -1.32007105e-02,
       -1.49947060e-02, -1.34082893e-02, 1.75752863e-02, 4.25030105e-03,
       -3.31749767e-02, -7.32869580e-02, -9.94160585e-03,
       -1.23952851e-02, 3.23612895e-03, -3.32997069e-02, 4.68894131e-02,
       3.06706075e-02, 3.34720663e-03, 2.18148232e-02, 6.67988807e-02,
       3.24209072e-02, -2.55066529e-02, -3.63429263e-02, -9.24276374e-03,
       1.75529942e-02, 3.30825225e-02, 2.59276349e-02, -2.18224097e-02,
       2.73254458e-02, 2.64238063e-02, -2.11823471e-02, -4.02042605e-02,
       -2.44645141e-02, 4.43682587e-03, 9.35974903e-03, 2.86910553e-02,
       1.36665488e-02, -3.05406358e-02, -8.17980152e-03, -4.31801379e-03,
       6.19538734e-03, 7.50609720e-03, 2.42039072e-03, -5.06401435e-03,
       -1.85564626e-02, -3.64771523e-02, -4.07739878e-02,
       -5.75971417e-02, -1.35580655e-02, -1.40398263e-03,
       -1.99622624e-02, -1.37449591e-03, 1.93574857e-02, 6.45163655e-02,
       3.13029289e-02, 7.39020556e-02, 8.54836926e-02, 2.15813089e-02,
       2.17708386e-02, 1.27672441e-02, 1.48437833e-02, 1.00338059e-02,
       6.91482145e-03, -1.49354804e-02, 2.72371098e-02, 2.76832897e-02,
       4.05214690e-02, 3.42895277e-02, -1.87595692e-02, 3.66902463e-02,
       1.77641697e-02, -1.41267304e-03, -2.75011454e-02, -3.34355496e-02,
       -7.68406410e-03, 4.33075102e-03, 1.84992608e-03, 5.88673307e-03,
       4.69180457e-02, 8.10104329e-03, 1.40267489e-02, -1.22883329e-02,
       2.24749781e-02, -3.54088470e-02, -1.06837256e-02, 6.90017734e-03,
       4.05569747e-02, 4.13505919e-03, -4.20116354e-03, -6.71316637e-03,
       -2.10089725e-03, 3.29247862e-02, 2.75138039e-02, 2.25356407e-02,
       9.23075248e-03, -1.91747285e-02, -5.10247536e-02, -5.76159544e-02,
       -1.31100854e-02, -3.05727888e-02, 1.39731476e-02, -2.30281316e-02,
       -1.55284610e-02, -1.04567502e-02, -1.66971572e-02,
       -4.84584551e-03, -1.26574300e-02, 2.78208964e-02, 4.31898087e-02,
       2.62391232e-02, 2.76611038e-02, -2.47758403e-02, -5.18095039e-04,
       1.54493134e-02, -5.38446475e-03, -1.73786972e-02, 8.57544877e-03,
       7.15834722e-02, -1.96155161e-02, -1.02128566e-03, -3.00353784e-02,
       -1.79971624e-02, 2.95682922e-02, -1.86284650e-02, -3.11714746e-02,
       8.41204636e-03, 1.07082594e-02, -2.29514819e-02, 9.38495528e-03,
       -5.52105159e-03, -2.43409420e-03, 2.05812752e-02, 2.56790053e-02,
       -3.91702764e-02, -1.04883192e-02, 5.69289848e-02, 1.19010042e-02,
       8.14916193e-03, -1.89982299e-02, -5.08140326e-02, 3.90448980e-03,
       1.15020191e-02, -3.12068146e-02, -8.27786420e-03, 8.42359476e-03,
       3.22557241e-02, -2.18493119e-02, -4.09457600e-03, -2.61003487e-02,
       1.12112798e-02, 4.06292714e-02, -1.02889594e-02, 3.10980305e-02,
       -5.09971846e-03, -2.24467926e-02, -1.72586907e-02,
       -9.00121313e-03, -9.11613181e-03, 4.71116230e-02, 4.05256590e-03,
       -5.23515679e-02, -5.34026325e-03, 1.43372118e-02, 3.23490351e-02,
       -4.13212776e-02, -2.70301718e-02, -2.54940428e-02,
       -1.85628906e-02, 1.35701504e-02, -2.68827602e-02, -2.48755943e-02,
       3.37616205e-02, -2.40570288e-02, 2.39127260e-02, -4.62536365e-02,
       -3.94457858e-03, 4.95993048e-02, -3.65429297e-02, -3.42588089e-02,
       1.98814962e-02, -3.08080893e-02, -4.60279686e-03, -4.24525291e-02,
       -4.95627299e-02, -5.98810390e-02, -1.88703481e-02, 5.37419096e-02,
       7.52043575e-02, 8.30029175e-02, 4.15971950e-02, 1.06808776e-02,
       -2.83600632e-02, -1.65744852e-02, -2.50855424e-02, 1.91262574e-03,
       -2.58707125e-02, 3.46688932e-04, 7.70276487e-02, 4.06502038e-02,
       1.89809464e-02, -3.32978019e-03, -5.27264960e-02, -6.33780658e-02,
       -2.97872219e-02, 6.91860095e-02, 1.22387692e-01, 1.45364419e-01,
       8.86053294e-02, 1.99312773e-02, 7.08861370e-03, -1.02100789e-03,
       -4.31006250e-04, -1.05064465e-02, 4.18500416e-02, 6.27690088e-03,
       -1.60456579e-02, -3.09492312e-02, -2.96155810e-02,
       -3.66428420e-02, -2.20849216e-02, 3.21565010e-02, 4.70915176e-02,
       -5.40162586e-02, -5.98681197e-02, 5.91284735e-03, -1.27857272e-03,
       1.31326783e-02, -4.12885137e-02, 1.00459373e-02, 4.31441031e-02,
       1.53458407e-02, 7.90623128e-02, 2.60722600e-02, 2.23770458e-02,
       -1.15741389e-02, -1.64990723e-02, -2.92776618e-02,
       -3.25052557e-03, 6.69675022e-02, 1.01987325e-01, -1.62745509e-02,
       -8.64965282e-03, 1.40965218e-02, 3.13026272e-02, 1.40581047e-02,
       -3.15707326e-02, 4.40883785e-02, 6.70057684e-02, 8.32505971e-02,
       -3.09212804e-02, 8.08489323e-02, 1.40487090e-01, 5.75740822e-02,
       -7.30397599e-03, -5.09466603e-02, -2.60876026e-02, 7.89999589e-03,
       -2.54082363e-02, -1.72070693e-02, 1.03933528e-01, 5.46805449e-02,
       -2.87640970e-02, -1.56326778e-02, -4.21983078e-02,
       -4.38062809e-02, -3.17483060e-02, -6.79920614e-02,
       -3.99835445e-02, 8.41180459e-02, 1.32334694e-01, 1.01937093e-01,
       2.73613818e-02, 7.01300800e-04, 3.99044454e-02, 5.21402024e-02,
       7.87721667e-03, -4.22680974e-02, 8.63503944e-03, 4.50818874e-02,
       -1.34099135e-02, 2.86659622e-03, -4.61779945e-02, -2.75120456e-02,
       -6.27903342e-02, -6.83714449e-02, 4.08191830e-02, 1.39117345e-01,
       5.31596951e-02, -8.82846024e-03, -5.12442440e-02, 1.40591068e-02,
       2.40542609e-02, 2.29274798e-02, -2.30914969e-02, -6.62523927e-03,
       4.80120517e-02, -3.53622390e-03, -3.09845600e-02, 2.20602620e-02,
       9.44964029e-03, 1.18434336e-02, -2.13673105e-03, -1.05685899e-02,
       -2.77982675e-03, 4.69549224e-02, -2.78743420e-04, -5.32424971e-02,
       -5.98511435e-02, -1.57211423e-02, 8.94457754e-03, -9.71684814e-04,
       -4.02235202e-02, -2.70100962e-02, -1.41846193e-02,
       -6.70220926e-02, -9.78851765e-02, -5.09078205e-02,
       -3.47211845e-02, -4.21880558e-02, -3.04746982e-02,
       -6.15462800e-03, 1.45140979e-02, 3.01848147e-02, -3.89711894e-02,
       -2.76251938e-02, 1.09567139e-02, -1.38325347e-02, -2.27093566e-02,
       1.97756942e-02, 2.00979840e-02, 4.78338860e-02, 9.32442620e-02,
       -3.32515500e-02, -2.76666377e-02, -3.97446891e-03,
       -1.38560431e-02, 8.86561908e-03, 4.29039970e-02, -1.27800824e-02,
       -2.91874516e-03, 1.34597355e-02, -5.11736609e-02, -2.82994378e-02,
       -2.21684240e-02, -9.03971214e-03, -5.72582036e-02,
       -3.27885449e-02, 4.01595328e-03, 5.16910590e-02, 3.21390778e-02,
       -1.02599561e-02, -3.94497551e-02, -3.06425430e-02,
       -2.68732104e-02, -2.04284750e-02, -2.40941886e-02, 1.18366778e-02,
       4.29772995e-02, 1.08377397e-01, -2.08130591e-02, -2.13334449e-02,
       -1.23137888e-02, -2.98830750e-03, 9.79546085e-03, 2.82490160e-02,
       7.45339738e-03, 2.50876844e-02, 8.19996819e-02, -4.27217782e-02,
       -4.81542349e-02, -5.83161600e-03, 1.06643606e-02, 2.90981513e-02,
       1.92496367e-02, 7.95944594e-03, 2.84685306e-02, 1.98782589e-02,
       -1.02162000e-03, -3.53380628e-02, -5.02807125e-02, 1.30172921e-02,
       1.36263622e-02, 1.08763678e-02, -2.08178964e-02, -9.42921173e-03,
       3.12596150e-02, -1.26244714e-02, -2.28910558e-02, 2.34100297e-02,
       4.31645736e-02, -1.79775379e-04, -8.79313517e-03, -1.91198010e-03,
       8.41931999e-02, 7.63231292e-02, -1.82655044e-02, -1.56244263e-02,
       -2.75783315e-02, 4.05183956e-02, 1.90217569e-02, 2.41155345e-02,
       2.49061286e-02, 6.96064755e-02, 6.97513074e-02, -1.83013715e-02,
       -1.18198004e-02, -4.89656162e-03, 3.88990366e-03, 2.21370198e-02,
       3.32530737e-02, 5.80986589e-02, 3.38743106e-02, 2.07650997e-02,
       -2.77292337e-02, 1.42391631e-02, 4.97287186e-03, 4.18921895e-02,
       7.00151082e-03, 3.34437238e-03, -2.36948058e-02, -1.55188637e-02,
       -3.26063745e-02, -4.31026928e-02, -4.15545553e-02,
       -1.11608682e-02, -4.36757505e-02, -9.54624917e-03, 1.10160569e-02,
       -2.48209164e-02, 3.18401977e-02, 2.51640733e-02, -2.84208152e-02,
       -1.50495330e-02, -2.58425046e-02, 2.79812515e-02, 8.39204993e-03,
       4.34930287e-02, 9.21247452e-02, 3.04162093e-02, 1.86697319e-02,
       -2.41031274e-02, -1.51723418e-02, 9.42852721e-03, -5.73822903e-03,
       -1.80440154e-02, 2.12485287e-02, 4.94137220e-02, -1.56892482e-02,
       -1.73848551e-02, -5.68919145e-02, -3.09914481e-02,
       -1.72075909e-02, -7.20112445e-03, 3.00629647e-04, 3.71552557e-02,
       9.69280582e-03, 1.35344584e-02, -6.95479382e-03, -3.62346582e-02,
       -6.98288856e-03, 1.80901457e-02, -2.28704233e-02, -2.88959313e-02,
       1.72365771e-03, 5.87477582e-03, 2.42273342e-02, 4.09708396e-02,
       -4.49078716e-02, -3.63668390e-02, -2.79908665e-02,
       -2.72785034e-02, -2.75065824e-02, -2.34755664e-03, 2.86932737e-02,
       1.09888949e-02, 4.05741595e-02, -4.73926328e-02, -4.23988700e-02,
       -4.60327193e-02, -2.37490889e-02, -3.46790366e-02, 1.85865152e-03,
       -4.28318884e-03, 3.54961082e-02, 4.48091365e-02, -2.00531838e-04,
       -2.50032637e-02, -1.71796679e-02, -4.72975783e-02,
       -2.24226099e-02, 9.26957279e-03, 6.76902989e-03, 2.62156408e-02,
       3.81654948e-02, 7.32603855e-03, -7.01379478e-02, -4.19120900e-02,
       -2.98728012e-02, -1.81544833e-02, -1.05895773e-02,
       -8.75701755e-03, -1.83094423e-02, 2.13987771e-02, -6.11303821e-02,
       -5.38089275e-02, -2.44453959e-02, -9.92742088e-03,
       -1.16208596e-02, 6.44598762e-03, -2.25200085e-03, 8.10478721e-03,
       2.63566747e-02, -4.76331040e-02, -1.07193468e-02, -2.53602620e-02,
       -1.45031624e-02, 3.55494278e-03, -1.12669996e-03, -3.12736537e-03,
       8.07725172e-03, 8.61597955e-02, -1.73711795e-02, -7.25971684e-02,
       -6.40768511e-03, -2.16014124e-02, 1.49887921e-02, 7.23246159e-03,
       -2.12370679e-02, 3.96189466e-02, 4.32700105e-02, -6.06562421e-02,
       -4.98153195e-02, -1.90395694e-02, -2.01161075e-02,
       -3.43308994e-03, 1.25886463e-02, 2.23258082e-02, 3.01771378e-03,
       2.14303434e-02, -9.27155954e-04, -9.95808281e-03, -1.51557550e-02,
       -2.54884977e-02, -3.48554365e-02, -2.41865553e-02,
       -2.15188395e-02, -1.46131683e-03, 1.17136091e-02, -4.30106185e-03,
       -4.76063304e-02, -3.22749093e-02, -4.75599058e-02,
       -3.62116657e-02, -3.38579901e-02, 1.27922893e-02, 4.43912558e-02,
       2.63073854e-02, -3.93602289e-02, -4.42295857e-02, -2.98027378e-02,
       -3.29208151e-02, -2.95821670e-02, 3.71887833e-02, 5.06978221e-02,
       3.44077349e-02, 1.28864152e-02, -1.71583015e-02, -4.04267423e-02,
       -1.70601327e-02, -5.50966412e-02, -2.02306919e-02, 4.39784154e-02,
       6.38122037e-02, -8.43115710e-03, 2.27644555e-02, 1.90717038e-02,
       -2.77282801e-02, -3.76668684e-02, -6.07022317e-03, 2.10166276e-02,
       -1.30299665e-03, 1.68695785e-02, -1.62112843e-02, -1.65992603e-02,
       9.70136374e-03, -4.99951392e-02, -3.77773717e-02, -2.02406924e-02,
       1.59674101e-02, -9.35704913e-03, -1.99057255e-02, 1.04121044e-01,
       8.24322999e-02, 4.79222648e-02, 2.04038899e-02, 3.33225057e-02,
       -5.33874473e-03, 3.51040810e-02, 4.33679186e-02, 5.70691265e-02,
       6.71951175e-02, 5.19423224e-02, 4.59223092e-02, 1.83817986e-02,
       1.08519485e-02, 4.42939699e-02, 5.14145978e-02, 3.64814624e-02,
       2.77996063e-02, -7.64631527e-03, -1.86837185e-02, 9.02733859e-03,
       2.79527288e-02, 3.45591158e-02, 4.11624610e-02, 2.65204292e-02,
       4.30280156e-03, -5.98465465e-03, -6.96962327e-02, -6.91588074e-02,
       -3.70290577e-02, -7.20231757e-02, -2.58851163e-02,
       -3.42709497e-02, -1.83751788e-02, -2.49336623e-02,
       -1.54640125e-02, 5.81424087e-02, 3.09487451e-02, 6.26854897e-02,
       7.64514580e-02, 1.09095417e-01, 1.34834900e-01, 6.81277737e-02,
       5.80486916e-02, 6.38944134e-02, -3.84099521e-02, -6.43860251e-02,
       -2.36962549e-02, -2.81991046e-02, 1.36129688e-02, 1.27458386e-02,
       -4.83708642e-03, -2.17272006e-02, 1.59423687e-02, -2.08248794e-02,
       8.66353791e-03, 1.22845909e-02, 1.23692630e-02, -2.68015172e-03,
       7.94131029e-03, 3.30095254e-02, -1.38868217e-03, 2.83623394e-02,
       -8.47395416e-03, -3.41948047e-02, -1.91742796e-02, 4.36871983e-02,
       -3.14658886e-04, 3.77339572e-02, 2.93006487e-02, -2.40659472e-02,
       2.63578631e-03, -2.13517714e-02, -2.52936333e-02, -2.20242888e-02,
       4.43848642e-03, -2.23146528e-02, 4.82446738e-02, 3.79244238e-02,
       -5.71329911e-05, 3.52317989e-02, -2.79992400e-03, -7.06395507e-02,
       -4.66485955e-02, 1.15134101e-02, -2.34261397e-02, 5.13473293e-03,
       1.07529201e-03, -3.48323844e-02, 6.18674606e-03, 2.69451980e-02,
       -7.52227977e-02, -4.14205603e-02, -2.58131586e-02, 3.76095772e-02,
       -5.92683740e-02, -6.38219416e-02, -5.37924208e-02, 4.72095533e-04,
       5.39058633e-02, -3.63344029e-02, -3.32559049e-02, 4.00135070e-02,
       6.65397048e-02, 8.50281119e-03, -5.50354794e-02, -3.64120528e-02,
       4.36636098e-02, 4.41577993e-02, -4.48275097e-02, -2.59345379e-02,
       -1.54800564e-02, 2.92014554e-02, -1.97780803e-02, -2.95942109e-02,
       -5.35327382e-02, 4.15942706e-02, 3.25354822e-02, -3.93434241e-02,
       -5.83101017e-03, 6.39518723e-02, 4.02738526e-02, 5.52821830e-02,
       -1.91296414e-02, -9.92365647e-03, 5.63023537e-02, -5.00429422e-02,
       -1.38412658e-02, 4.53887098e-02, 3.44348885e-02, 4.98866290e-02,
       3.91542800e-02, -6.74003968e-03, -4.32847589e-02, -5.47936894e-02,
       -3.33233029e-02, 6.19707182e-02, 1.09416328e-01, 6.69747889e-02,
       5.07143177e-02, 5.25412150e-02, 4.33897898e-02, 1.67748407e-02,
       -4.78138216e-02, -6.67323321e-02, -5.29300459e-02, 1.27023272e-02,
       2.64973640e-02, 4.06281166e-02, 9.57980901e-02, 9.22079235e-02,
       1.79067552e-02, -5.80720752e-02, -3.81429642e-02, 6.38343114e-03,
       2.25191265e-02, 5.79952598e-02, 4.47380356e-02, 7.97479153e-02,
       1.23798139e-01, 1.33884832e-01, 6.58128317e-03, 6.90882728e-02,
       2.41291616e-02, 1.42441979e-02, -1.92277618e-02, 7.64103513e-03,
       -1.33169899e-02, -3.37655633e-03, 5.70576116e-02, 8.68799910e-02,
       -6.15061447e-03, -1.41392900e-02, 3.72609459e-02, -1.67855085e-03,
       8.46253522e-03, -2.04845201e-02, 3.90662067e-02, 4.11334373e-02,
       4.74765003e-02, 7.04076439e-02, 7.85804465e-02, 1.62314121e-02,
       -1.19441319e-02, 3.35380947e-03, -1.74831823e-02, -1.13408692e-04,
       7.16150627e-02, 9.28133875e-02, 4.92780432e-02, 4.89233583e-02,
       6.39082417e-02, -3.33241485e-02, 1.06523074e-02, -2.36008968e-02,
       2.99071837e-02, -3.24967224e-03, 3.29599157e-02, -4.94491123e-02,
       1.17688412e-02, 1.02755181e-01, 9.02089775e-02, 2.25509256e-02,
       6.86822459e-02, 7.08602592e-02, 2.49721557e-02, -2.58177202e-02,
       -8.84507596e-02, -4.56215590e-02, 1.89125761e-02, -1.50861812e-03,
       3.56366672e-02, 1.16791744e-02, 1.22914491e-02, -4.77556996e-02,
       -7.62850046e-02, -1.55499652e-02, 2.88806222e-02, 1.12286374e-01,
       4.85894755e-02, 2.09811796e-02, 7.92193487e-02, 1.10415146e-01,
       1.37205431e-02, -3.71104181e-02, -7.14232698e-02, -5.36295958e-02,
       4.86601107e-02, -7.39008887e-03, 4.99608368e-02, -2.36903038e-03,
       -1.98374260e-02, -6.34167641e-02, -7.19551966e-02,
       -5.06545827e-02, 2.60150060e-03, -1.17429188e-02, -1.73016414e-02,
       -5.42365536e-02, 9.99968778e-03, 2.68775690e-02, 1.90091901e-03,
       -4.13725749e-02, -3.15797850e-02, -2.84183081e-02,
       -5.81420138e-02, -6.70599714e-02, -3.14582065e-02,
       -1.56871863e-02, -5.19975685e-02, -2.93083321e-02,
       -6.40889211e-03, -5.43101132e-02, -4.82030329e-04, 2.97297090e-02,
       -2.58307718e-03, -5.81071265e-02, 1.94374751e-02, 1.13439597e-02,
       1.09493863e-02, -4.07760702e-02, 4.29454027e-03, -6.82214554e-03,
       -3.89152840e-02, -4.82895821e-02, -3.73954661e-02,
       -2.83508338e-02, -3.88368182e-02, -2.79768016e-02,
       -2.85237748e-02, -1.32633569e-02, -1.79569181e-02,
       -1.69862863e-02, -1.45227462e-02, 1.11938026e-02, 2.69930698e-02,
       -3.99793647e-02, -1.70431528e-02, 1.20175385e-03, -3.51110026e-02,
       -1.02996454e-02, 3.22499201e-02, -3.68970702e-03, -1.60837919e-02,
       2.30025128e-02, 8.21650494e-03, -1.45190135e-02, -5.77629022e-02,
       -1.14685819e-02, 1.53868254e-02, -1.75286960e-02, -6.61285967e-03,
       -6.14795880e-03, -6.30354974e-03, -1.83224771e-02,
       -1.15528451e-02, -4.41229390e-03, -4.68376912e-02,
       -6.89205481e-03, 6.73490344e-03, -1.80813540e-02, -4.78715375e-02,
       -2.57506724e-02, -2.14479007e-02, -2.77129039e-02,
       -3.08636557e-02, -3.68750840e-02, -1.71445236e-02, 3.16970758e-02,
       9.81195923e-03, -1.36416145e-02, 2.89972667e-02, 1.64157860e-02,
       -1.12117948e-02, -5.66711612e-02, -5.09155132e-02,
       -2.62557212e-02, 2.23759934e-02, 1.49972541e-02, 1.71324164e-02,
       6.17280491e-02, 8.78037326e-03, -5.53246262e-03, -5.80017455e-02,
       -5.08393571e-02, -2.24916451e-02, 3.63793299e-02, 1.69787128e-02,
       -2.07103565e-02, 1.54138645e-02, -1.22900279e-02, -1.32640814e-02,
       -1.77863159e-03, -6.93993270e-02, -1.62427519e-02, 3.73419821e-02,
       4.00594808e-02, -2.09896341e-02, 1.95811093e-02, 1.25825182e-02,
       -2.80693918e-02, -4.32123020e-02, -3.65483835e-02,
       -1.09379608e-02, 2.75874883e-02, 2.74981037e-02, 4.87194136e-02,
       8.05785656e-02, 2.93401834e-02, 1.29330009e-02, -2.56451834e-02,
       -5.93961254e-02, -4.41156551e-02, -1.94229521e-02,
       -1.52563665e-03, 3.08210868e-02, -7.79928500e-03, -7.38255493e-03,
       -4.58152406e-03, -4.35030796e-02, -3.38606238e-02, 6.52119890e-03,
       3.38568166e-02, 4.59085926e-02, 1.66715905e-02, 4.99001108e-02,
       7.98777565e-02, 5.24672493e-03, -1.74967349e-02, -4.38329056e-02,
       -8.73471703e-03, 1.81330778e-02, -4.00679745e-03, 2.00845357e-02,
       -7.60609610e-03, 1.74966175e-03, -5.14450483e-02, -3.20094228e-02,
       -4.37174924e-02, -1.92278419e-02, -2.71518305e-02,
       -6.19547116e-03, 6.04306674e-03, -2.24649701e-02, -1.44446101e-02,
       3.85698676e-02, -9.91781708e-03, 2.20310725e-02, 4.90641482e-02,
       -1.03713339e-02, 4.90277493e-03, 1.08809033e-02, -3.03132311e-02,
       -1.84627138e-02, 2.11752187e-02, 9.45131411e-04, -1.36089111e-02,
       -7.78930145e-04, -2.88244616e-02, -2.43875030e-02, 2.13002898e-02,
       -1.97443701e-02, -7.89349433e-03, 7.87319336e-03, -4.13306057e-02,
       1.05707617e-02, 1.71752814e-02, -4.64180857e-02, -4.99384403e-02,
       1.24391615e-02, 2.58792732e-02, 1.10349171e-02, 4.52495776e-02,
       2.40139607e-02, 4.49431036e-03, 8.30167308e-02, 1.37558794e-02,
       -1.58913955e-02, 1.33756539e-02, -1.33301094e-02, -1.31007191e-02,
       3.90665000e-03, -3.28449793e-02, -2.33391989e-02, 7.73482993e-02,
       6.21146597e-02, -4.99896258e-02, -2.16895230e-02, -3.25994827e-02,
       1.10989995e-02, 2.69067753e-02, -3.36625241e-02, -3.00976429e-02,
       1.11240093e-02, -2.54033431e-02, -4.93468009e-02, 1.43979676e-02,
       9.27768741e-03, 2.46861298e-02, 5.65844104e-02, 2.46857069e-02,
       -2.86633596e-02, 2.58508846e-02, 1.61260739e-02, -3.92303504e-02,
       -3.78188379e-02, -6.50331825e-02, 5.89961819e-02, 8.98978412e-02,
       5.24748769e-03, -6.09167619e-03, 1.02700308e-01, 3.43077965e-02,
       -2.81667802e-02, 1.06851908e-03, -1.33533673e-02, 1.63244121e-02,
       5.27006947e-02, -5.26977889e-02, 3.47670801e-02, 5.21749035e-02,
       -3.55096273e-02, -4.02033590e-02, -9.75176785e-03,
       -9.14037693e-03, -1.62857659e-02, 3.14188860e-02, -3.00259683e-02,
       -3.74335684e-02, 3.83069813e-02, 1.21428464e-02, -1.07442737e-02,
       -2.24735439e-02, -5.89488782e-02, 1.78163964e-02, 1.02146737e-01,
       1.20282602e-04, -1.75707657e-02, 1.50245195e-02, -4.31398824e-02,
       -2.50518434e-02, -2.41388548e-02, -5.52079342e-02,
       -4.19298559e-02, 1.38330599e-02, -3.02349497e-02, 3.44365314e-02,
       1.19962292e-02, -3.06871030e-02, -3.45922373e-02, 5.86670684e-03,
       -2.49312017e-02, -3.96138467e-02, -2.99528763e-02,
       -2.25163549e-02, 3.81255187e-02, 4.27237619e-03, -7.10585574e-03,
       -1.97823644e-02, -1.63480304e-02, -2.86106300e-02,
       -1.30037963e-03, 7.91145116e-03, 3.93474698e-02, 5.99824311e-03,
       -3.04081291e-02, -5.68252765e-02, -4.55466844e-02,
       -6.42346544e-03, -3.88064459e-02, -4.25289869e-02,
       -2.46164594e-02, -2.25451700e-02, 5.38726784e-02, 1.67709328e-02,
       1.50146871e-03, -4.16909903e-02, -3.22019160e-02, -9.55588929e-03,
       -1.09631158e-02, 1.80686768e-02, 7.68864248e-03, 4.24143113e-02,
       2.14161724e-02, 9.92778316e-03, 1.74954161e-02, 4.46458608e-02,
       9.37767699e-03, -3.10592377e-03, 1.35053191e-02, 2.49214601e-02,
       4.16550599e-02, 3.19695994e-02, 1.84019580e-02, 1.22406445e-02,
       1.78279094e-02, 4.25097160e-02, 3.80730107e-02, 3.20613347e-02,
       7.44727068e-03, 5.73927723e-02, 3.62906381e-02, -4.47903015e-03,
       1.35444347e-02, 1.14987511e-02, 1.93118602e-02, 2.15676595e-02,
       3.44054066e-02, -1.20462030e-02, 5.40494286e-02, 4.44626845e-02,
       2.57018544e-02, 3.62625830e-02, 5.20497076e-02, 1.62521116e-02,
       2.31400356e-02, 2.17829626e-02, 1.47986263e-02, 2.00589988e-02,
       3.34366038e-02, 4.59886156e-02, 8.62435251e-02, 8.77818242e-02,
       1.04359254e-01, 4.97967638e-02, 4.76452298e-02, 2.65984945e-02,
       -5.70448525e-02, -7.78257698e-02, -2.45567709e-02,
       -2.35318821e-02, 1.76302958e-04, -4.27155718e-02, -4.77119572e-02,
       -6.04095683e-02, -2.22235043e-02, 5.73066473e-02, 4.59508933e-02,
       5.72182126e-02, 1.24185681e-01, 1.08634882e-01, 8.29162076e-02,
       5.31895924e-03, 2.83801313e-02, 2.91362852e-02, -2.43227761e-02,
       -4.50374931e-02, -2.78323074e-03, 4.75111417e-03, 4.24764417e-02,
       -3.83593328e-02, -8.02626759e-02, -8.85247812e-02,
       -4.45069708e-02, 3.19808815e-03, -4.76956740e-02, -1.57704781e-04,
       2.89016236e-02, 5.47825219e-03, 4.61129211e-02, 2.96210442e-02,
       -1.38225146e-02, 3.31461616e-02, 5.38003072e-03, -3.65789570e-02,
       -4.31639813e-02, 4.99318540e-03, -4.33111303e-02, -1.56739596e-02,
       -7.66545488e-03, -2.27300879e-02, 6.50475360e-03, 2.02240646e-02,
       -6.12257002e-03, 2.74374820e-02, 3.26278470e-02, 1.63534656e-02,
       6.10987581e-02, 6.97973091e-03, -1.58395953e-02, 2.01788619e-02,
       1.23286014e-02, 4.04208637e-04, -2.22132262e-03, 9.61989537e-03,
       -1.24415597e-02, 1.94172165e-03, 5.71445888e-03, -1.39426142e-02,
       1.87046546e-03, 1.98573526e-02, -4.34114113e-02, -2.61020698e-02,
       -1.76082365e-02, 2.08526757e-02, 1.30285127e-02, 4.12077783e-03,
       -2.15148218e-02, -2.85047591e-02, 1.16729252e-02, -2.74316128e-02,
       -3.31574380e-02, 3.01014036e-02, -2.85149198e-02, 2.26302538e-02,
       -7.07032019e-03, -6.52107596e-03, 2.51407688e-03, 1.28344190e-03,
       -3.61513905e-02, -1.87037103e-02, -5.31531218e-03, 2.64278166e-02,
       3.01195979e-02, -2.02942081e-02, -3.22279558e-02, -2.20914874e-02,
       5.10129593e-02, 2.77471282e-02, -8.05499591e-03, 4.20379778e-03,
       -1.67844798e-02, -5.18767489e-03, 1.77236218e-02, -2.44852225e-03,
       5.68117499e-02, -4.64426912e-02, -7.04844669e-02, -3.68539989e-02,
       -1.76415816e-02, 5.54973036e-02, 9.08310488e-02, 9.73733366e-02,
       2.19066087e-02, -3.56302373e-02, -9.00342688e-03, -8.77157133e-03,
       -3.87178129e-03, -5.42204594e-03, 3.06798760e-02, 7.69760832e-02,
       1.25683606e-01, 1.21891081e-01, 5.67284264e-02, -3.21111791e-02,
       -5.11334948e-02, -5.29758260e-02, -6.61318675e-02, 2.30064690e-02,
       -4.11279686e-03, 2.45570801e-02, -2.02663168e-02, -3.35292369e-02,
       9.67682246e-03, -3.38424393e-03, -4.47503477e-03, -2.55961772e-02,
       2.94781309e-02, 5.11902794e-02, 4.83291969e-02, 5.05746678e-02,
       4.25503496e-03, 8.35865512e-02, 7.10700452e-02, -2.22953851e-03,
       -2.63912603e-02, -1.35046234e-02, -3.07111125e-02,
       -4.54863161e-03, 2.79967282e-02, 5.71408980e-02, 7.07051307e-02,
       7.63392672e-02, 2.69693378e-02, -4.67518866e-02, 6.87932735e-03,
       1.50977867e-03, 1.63866021e-02, -3.50647159e-02, -7.13593094e-04,
       3.44210267e-02, 4.36519459e-02, 4.99230810e-03, -1.30393049e-02,
       2.97614150e-02, -3.68542932e-02, -3.84323336e-02, -1.66606847e-02,
       1.86316129e-02, 3.91467921e-02, 4.43388335e-02, 1.92130618e-02,
       7.45117152e-03, 7.81135634e-02, 1.39258737e-02, -1.30841769e-02,
       -2.62114126e-02, -7.92761985e-03, -1.38307959e-02, 3.79721709e-02,
       -5.52297342e-06, -4.49247099e-02, -2.00365409e-02, 1.03087090e-01,
       1.39224380e-01, 6.57824203e-02, -3.26809697e-02, -6.71043694e-02,
       -4.62427326e-02, -5.72405532e-02, -8.01976323e-02,
       -1.26353081e-03, -7.04228925e-03, 2.54195798e-02, 1.92041174e-02,
       -1.34977894e-02, -3.06455586e-02, 2.04573702e-02, -2.36145053e-02,
       -5.28716482e-02, -1.86036173e-02, 8.50833580e-02, 1.24799751e-01,
       1.04903370e-01, -4.23838431e-03, -4.48305346e-02, -3.93372849e-02,
       -6.89381137e-02, -7.09559321e-02, -1.22950980e-02,
       -7.79531058e-03, 3.24333683e-02, 6.55069873e-02, -1.15661500e-02,
       -3.02203894e-02, 2.92017753e-03, 1.30324187e-02, -2.29725018e-02,
       -6.12148717e-02, -3.89961116e-02, -7.23729702e-03, 3.73468138e-02,
       1.74766332e-02, -2.37400434e-03, 4.10637865e-03, 3.35693221e-05,
       -4.50457633e-02, -2.65164059e-02, -4.48767506e-02,
       -2.48411167e-02, 1.39001012e-02, -1.89023893e-02, 8.45916755e-03,
       7.77152134e-03, 3.53517290e-03, 2.11049151e-03, -3.58209051e-02,
       -1.21962233e-02, 2.94480361e-02, 9.75220576e-02, 5.02598546e-02,
       6.67130155e-03, 9.22423264e-04, 1.39103169e-02, -2.75380556e-02,
       -1.13769975e-02, -1.75075345e-02, 2.86263390e-03, 1.64621361e-02,
       -1.65026775e-03, -1.31582879e-02, 5.34855435e-03, -3.15397829e-02,
       -3.45100872e-02, -2.92818751e-02, -4.09332551e-02,
       -5.02395071e-02, 2.25099195e-02, 7.36620463e-03, -3.17651704e-02,
       -7.28015183e-03, -4.00077514e-02, -3.40851881e-02,
       -2.19739247e-02, -4.29419912e-02, -4.42899987e-02, 2.03938633e-02,
       2.37101223e-02, 2.40905732e-02, 3.73781957e-02, -3.32136974e-02,
       -3.21165882e-02, -1.27688348e-02, -1.47213489e-02,
       -1.01441685e-02, 2.65742578e-02, 1.29334377e-02, 2.08048001e-02,
       7.08090737e-02, -1.12316757e-02, -2.02636234e-02, -2.64493767e-02,
       -7.89929368e-03, -1.25749810e-02, 6.17625006e-02, 3.63462120e-02,
       -3.77675146e-02, -1.42338099e-02, -8.54111556e-03, 9.40330513e-03,
       -1.69972554e-02, 7.70311384e-03, -1.00784730e-02, 2.74735410e-02,
       2.93759983e-02, -5.64905033e-02, -4.09206562e-02, -1.74436290e-02,
       2.98260357e-02, -3.73380594e-02, -1.16222799e-02, 1.04662692e-02,
       2.52565648e-02, -3.58811067e-03, 2.69546956e-02, 3.54272239e-02,
       1.10823279e-02, 1.78884272e-03, -1.11545678e-02, 3.24090570e-02,
       2.26086304e-02, 1.08788736e-01, 5.14723733e-02, -2.87101902e-02,
       6.02546521e-03, -1.42640015e-02, -2.14910582e-02, -1.23056611e-02,
       -2.42950562e-02, -1.04872845e-02, 9.80550498e-02, 4.96307649e-02,
       -4.78182659e-02, -3.96743454e-02, -1.19913286e-02, 1.03648575e-02,
       -4.60792109e-02, 6.26646401e-03, 3.25630158e-02, 3.46517079e-02,
       1.37328058e-02, -4.58995178e-02, -4.14391533e-02, -1.80886555e-02,
       -7.75550120e-03, -1.31371850e-02, -4.16621268e-02,
       -7.73948291e-03, -4.41528149e-02, -2.32168976e-02, 2.26257201e-02,
       1.20050060e-02, -1.88703202e-02, -4.79992805e-03, -3.58963721e-02,
       -2.66808774e-02, -2.95645837e-03, 8.94607082e-02, 1.01270698e-01,
       6.98406398e-02, 1.58241354e-02, -1.78619158e-02, 1.49670336e-02,
       -1.81137258e-03, -4.35244665e-02, -2.34314781e-02, 3.04759294e-02,
       7.72764906e-02, 8.26927088e-03, -1.07074833e-04, -1.17287897e-02,
       9.27108806e-03, 3.00248545e-02, -4.08293605e-02, -3.08442526e-02,
       -1.55692389e-02, -3.17227207e-02, 1.76285468e-02, -1.73459984e-02,
       -6.00339659e-02, -3.33501063e-02, 1.42175304e-02, 7.76808523e-03,
       -3.95001508e-02, -2.43969411e-02, -1.18051553e-02, 6.73424974e-02,
       3.89177762e-02, -1.71862878e-02, 2.43150014e-02, 2.91913431e-02,
       -3.86300087e-02, -3.17897499e-02, 2.02687960e-02, 5.89786656e-02,
       4.35966104e-02, 2.68745199e-02, -5.28061911e-02, -1.94609854e-02,
       2.05491539e-02, -3.09557468e-02, -2.88551785e-02, -3.38274194e-03,
       3.84888351e-02, -5.62892761e-03, 1.28610255e-02, -3.84147726e-02,
       -3.37855145e-02, -8.80432222e-03, -1.32858194e-03,
       -1.05142966e-02, 1.32245501e-03, 1.35709951e-02, 6.35211880e-04,
       -8.39073909e-05, -3.42258886e-02, -1.80150196e-02,
       -3.59495208e-02, -6.09891638e-02, 1.41229446e-03, 3.81424390e-02,
       2.78370734e-02, 4.34684120e-02, 1.01766512e-02, -3.51525769e-02,
       -2.06649005e-02, -3.58796841e-03, -1.70792807e-02,
       -3.25293839e-02, 1.00885723e-02, 3.38381454e-02, 3.85641418e-02,
       -3.88887338e-03, -3.67807783e-02, -1.37907201e-02,
       -7.69077521e-03, -3.61087285e-02, -3.74812409e-02, 2.91926246e-02,
       2.38689613e-02, -1.76649112e-02, 2.38504522e-02, -1.14084417e-02,
       5.13155945e-03, -2.67403610e-02, -6.25286028e-02, -1.52937993e-02,
       1.01336904e-01, -2.53278995e-03, 3.71640315e-03, 2.69236099e-02,
       -4.31408510e-02, -2.12253667e-02, -3.34071815e-02,
       -3.94165553e-02, -3.64568830e-02, 5.46309017e-02, 1.46532832e-02,
       -1.28262967e-04, 1.21745067e-02, -2.50098426e-02, 4.55175713e-03,
       9.40084457e-04, -5.23850471e-02, -3.18215899e-02, 4.49981727e-02,
       -9.48602706e-03, -1.46738971e-02, -1.67322252e-02,
       -4.10826430e-02, -2.83888448e-02, -2.60034786e-03,
       -5.18694595e-02, -3.18303518e-02, 3.14790830e-02, -7.08168931e-03,
       4.23834026e-02, 3.38944048e-02, -3.72822471e-02, -4.25645784e-02,
       -5.46233468e-02, -4.23040278e-02, -3.73371392e-02, 6.47400226e-03,
       9.42809880e-03, 5.11417016e-02, 4.21324335e-02, -9.68890544e-03,
       -3.67766172e-02, -2.33857930e-02, 9.72496066e-03, 1.59372985e-02,
       6.18712083e-02, 1.53370155e-02, -1.63810141e-02, -3.65533978e-02,
       -4.34766524e-02, -2.33633853e-02, 6.66860724e-03, -5.30128852e-02,
       -1.80785060e-02, 1.11587252e-02, -2.03993246e-02, 7.38097960e-03,
       -3.34627517e-02, -1.11675393e-02, -4.06951532e-02,
       -1.90534685e-02, -2.32502036e-02, -1.54705010e-02, 2.72189616e-03,
       -1.17966440e-02, 6.24513105e-02, 7.66360983e-02, 4.85269502e-02,
       1.44071858e-02, 2.83227116e-02, 5.38115650e-02, 4.53138351e-02,
       7.57269785e-02, 4.12754416e-02, 3.51787843e-02, 5.74304648e-02,
       3.53817642e-02, 1.68153159e-02, 4.29901667e-02, 3.63306738e-02,
       4.50480916e-02, 4.22895253e-02, 1.96511317e-02, 2.16792300e-02,
       2.57375166e-02, 3.05691380e-02, -1.24187185e-03, -1.42193083e-02,
       5.59043325e-03, -2.43272912e-03, 1.28182806e-02, -1.20232906e-02,
       -1.44283278e-02, 1.43043566e-02, 2.00763997e-02, -5.35836481e-02,
       -1.59956552e-02, -1.96763147e-02, -1.23837562e-02,
       -6.67692861e-03, -2.77079251e-02, 4.51036058e-02, 5.20485826e-02,
       6.35111183e-02, 1.33737728e-01, 1.45602614e-01, 8.97351876e-02,
       3.93679440e-02, 5.21706901e-02, 4.95758988e-02, -3.66305336e-02,
       -4.86533381e-02, -1.00552505e-02, 3.05144358e-02, 4.18075323e-02,
       -1.57582499e-02, -4.68178093e-02, -6.36800304e-02,
       -4.80287932e-02, 1.61437821e-02, 2.18197480e-02, 4.07630168e-02,
       6.27039075e-02, 3.20274755e-02, 2.35682316e-02, 4.60775988e-03,
       1.46197807e-02, 2.33096466e-03, -4.58819047e-02, -3.89047116e-02,
       -3.59693728e-02, -1.53602278e-02, -2.57918593e-02,
       -6.19080141e-02, -5.73522262e-02, -6.03178069e-02,
       -4.63233404e-02, 8.14712793e-03, -2.34772470e-02, 5.22504374e-03,
       2.04131547e-02, -3.23661081e-02, 5.81221934e-03, -3.70139256e-02,
       -3.60996686e-02, -7.13031134e-03, -1.62007492e-02,
       -2.60863081e-02, 2.28221831e-03, 1.53062800e-02, -4.14016768e-02,
       -3.46096326e-03, -1.17887910e-02, -4.96653616e-02,
       -8.40076338e-03, 6.19421387e-03, -1.26110483e-02, -9.96679626e-03,
       2.09528618e-02, -3.40482518e-02, 1.16652036e-02, -8.53150617e-03,
       1.92210153e-02, 9.58608277e-03, -7.65197445e-03, -4.10933793e-02,
       1.50682358e-02, 4.90831994e-02, 9.42320749e-03, 2.78529022e-02,
       -8.55449680e-03, -2.79315636e-02, 7.46682053e-04, 1.50735378e-02,
       -2.69114114e-02, -2.85058543e-02, -2.43345592e-02, 9.86681087e-04,
       -2.43618488e-02, -3.53244953e-02, -2.27413476e-02,
       -1.19710369e-02, 2.38994788e-02, 1.78755410e-02, 8.61412659e-03,
       1.15200421e-02, -1.23969531e-02, -3.96186784e-02, -4.25945502e-03,
       3.09219281e-03, 2.68157404e-02, 9.19976085e-03, -2.77021565e-02,
       -2.26088893e-02, -2.18890589e-02, 1.07636647e-02, 2.02690996e-02,
       -4.61659208e-03, -7.78022036e-03, 2.63868105e-02, 2.30939090e-02,
       1.31284613e-02, -6.33548480e-03, 6.37807250e-02, -2.31890772e-02,
       9.67999548e-03, 1.67393610e-02, 7.31494930e-03, 2.60178465e-02,
       -2.02904958e-02, -3.34098004e-02, -1.96738429e-02,
       -6.69959420e-03, -7.20754126e-03, -4.09321226e-02,
       -2.00590547e-02, -9.30125918e-03, -3.48495916e-02, 2.08799727e-02,
       -3.90400249e-03, -8.09863396e-03, 1.09489448e-02, -1.54747127e-03,
       -6.37729000e-03, -2.35062558e-02, -1.79778282e-02,
       -2.44928505e-02, 2.01196317e-02, 3.01393634e-03, -4.08513099e-03,
       3.31731215e-02, -1.49880610e-02, -3.64168771e-02, -3.66131999e-02,
       -1.88900325e-02, 1.40206562e-03, 4.85642888e-02, 1.88337583e-02,
       1.85591280e-02, 4.09411378e-02, 1.39988987e-02, -2.88883550e-03,
       -3.00929416e-02, -1.63097307e-02, -1.30926128e-04, 1.13840885e-02,
       1.29470909e-02, -1.83124957e-03, 3.20992656e-02, 4.71566655e-02,
       -1.38291130e-02, -3.98046263e-02, -4.05491553e-02,
       -2.85235569e-02, -1.03878304e-02, 4.10243943e-02, 1.48012061e-02,
       3.59917954e-02, 3.68870609e-02, 1.18103379e-03, 4.58502946e-05,
       -2.68616304e-02, -4.68540601e-02, -5.40821208e-03, 6.77651167e-03,
       -4.44462197e-03, 4.28428734e-03, 1.63719077e-02, 1.53153623e-02,
       -1.02751730e-02, -2.66416222e-02, -2.54430193e-02, 2.76170895e-02,
       3.48368809e-02, 6.39822055e-03, 3.62569839e-03, 1.42997596e-02,
       -3.06483405e-03, 8.55471287e-03, -3.02989818e-02, 1.40741924e-02,
       -2.53101271e-02, 9.66828316e-03, 8.74424260e-03, -8.13566241e-03,
       -2.29970794e-02, 2.19749548e-02, 4.36647981e-02, 1.45413335e-02,
       -2.48515978e-02, -5.28079234e-02, -3.53913829e-02,
       -2.99370605e-02, -1.55636230e-02, 1.22623695e-02, -2.78707221e-02,
       -1.44926775e-02, 3.94856669e-02, 2.05809763e-03, -1.58550385e-02,
       -5.08676656e-03, 3.90774244e-03, 1.16852932e-02, -5.72026521e-03,
       -2.44870353e-02, -6.22212281e-03, -2.62883212e-02,
       -3.06137037e-02, -1.82708465e-02, -1.44198155e-02,
       -4.03171815e-02, 8.04172736e-03, 3.02554145e-02, -4.63397428e-02,
       -1.98628511e-02, -7.22596049e-03, 3.13954102e-03, -9.92748234e-03,
       1.90640818e-02, -3.22484877e-03, 8.68871436e-03, -4.15482884e-03,
       -4.92222458e-02, -7.89502263e-03, 7.07362741e-02, 6.86415732e-02,
       -3.01671512e-02, -3.72414617e-03, -7.65680242e-03,
       -1.96769498e-02, 2.20335703e-02, -1.87356845e-02, -2.82998234e-02,
       8.94857012e-03, -1.80630106e-03, -3.18212109e-03, 1.46356700e-02,
       6.36007218e-03, -1.65998252e-04, 1.04951784e-02, -5.71522340e-02,
       -1.03420569e-02, 5.60714491e-02, 4.00919765e-02, -2.12644171e-02,
       -9.73743759e-03, -2.88752522e-02, -2.53515299e-02,
       -1.75722234e-03, -7.07613900e-02, -5.10462150e-02, 9.84469615e-03,
       -1.99446436e-02, -2.31705308e-02, 3.70233208e-02, 4.33494290e-03,
       2.25511435e-02, 4.60945591e-02, 7.06482539e-03, -1.12928590e-02,
       4.36381251e-02, 1.19308932e-02, -2.57681161e-02, 3.06154992e-02,
       8.76331760e-04, 1.83435180e-03, 2.01377030e-02, -1.92742608e-02,
       -3.46806832e-02, -6.37853402e-04, -1.34353545e-02, 1.73422210e-02,
       3.37219127e-02, -3.15263346e-02, 6.09819870e-03, 2.37605944e-02,
       -1.31358979e-02, -5.14989458e-02, 2.31958795e-02, 2.21274290e-02,
       -1.14306705e-02, 1.61498319e-02, -2.09784564e-02, -8.55592825e-03,
       2.07856260e-02, -2.80128028e-02, -4.07215878e-02, 1.53496144e-02,
       -1.65461916e-02, -1.34760188e-02, 6.67818589e-03, 1.88057218e-02,
       6.29165396e-03, 2.47901380e-02, 2.28203461e-02, -4.89985105e-04,
       5.29604144e-02, 2.74267364e-02, -3.12671848e-02, 1.81293190e-02,
       -8.90469179e-03, -2.99640950e-02, 2.61532348e-02, 6.30681217e-03,
       -5.47331804e-03, 3.43262032e-02, -3.97537230e-03, 6.79329736e-03,
       1.54726421e-02, -1.44550903e-02, -1.10537121e-02, 3.10033951e-02,
       1.39239756e-02, -1.78681258e-02, 1.74876377e-02, 9.46729258e-03,
       -9.53131262e-03, 6.10114215e-03, -2.47061141e-02, -2.97861304e-02,
       2.64658052e-02, -5.76470420e-03, -3.71589214e-02, -1.15906047e-02,
       -1.36805028e-02, -9.51583311e-03, 3.97214666e-02, 1.13847824e-02,
       1.10288355e-02, -1.08540403e-02, -1.03912475e-02, -3.55690755e-02,
       4.30326201e-02, 2.76893377e-02, 2.63684224e-02, 1.78994669e-03,
       -1.79869812e-02, 3.97693254e-02, 3.62216085e-02, -1.55488625e-02,
       -2.57167276e-02, 3.17536592e-02, 2.50948854e-02, 1.74264032e-02,
       2.43512467e-02, -5.59763890e-03, 2.63198046e-03, -1.54724736e-02,
       -4.61270707e-03, -1.70936715e-02, -2.13032011e-02,
       -2.70008910e-02, -4.51556453e-03, 5.36504260e-04, -1.94178279e-02,
       -6.58190809e-03, 1.33019611e-02, -2.92965421e-03, -1.32129407e-02,
       -1.07257152e-02, -9.47030028e-04, -2.63676513e-03,
       -7.21604982e-03, -1.86346471e-03, 6.52440488e-02, 5.62612116e-02,
       1.96730364e-02, -1.48442239e-02, 2.28040107e-02, -6.07801042e-03,
       9.89060267e-04, 9.23376996e-03, -1.58174895e-02, 2.73120403e-02,
       1.47154070e-02, 2.07131021e-02, 4.08124272e-03, -6.27646782e-03,
       -1.76987145e-02, -4.47189389e-03, -8.51275492e-03,
       -7.09989900e-03, 6.76990161e-03, 1.02730654e-02, 1.63291041e-02,
       -1.22097007e-03, -6.61861757e-03, -2.30314769e-02,
       -3.15728448e-02, -1.71394162e-02, -6.97934860e-03,
       -2.46262867e-02, 1.19358497e-02, 2.18198784e-02, -3.87461943e-04,
       1.43918376e-02, -1.52524561e-02, -4.12965231e-02, 1.30967731e-02,
       5.12166927e-03, 4.39828485e-02, 2.17719860e-02, 2.75386907e-02,
       -1.34190526e-02, 2.03602910e-02, -1.68776698e-02, -1.95403527e-02,
       -1.32318940e-02, -1.15332277e-02, 3.65616791e-02, -9.03810188e-03,
       1.70048457e-02, -5.97392721e-03, 2.72176936e-02, -1.04810195e-02,
       -3.84175144e-02, 1.13565279e-02, -5.83332265e-03, -4.99850046e-03,
       3.32795130e-03, 3.68281677e-02, -6.53992547e-03, -1.80029019e-03,
       4.00342606e-03, -3.78625914e-02, -8.04030988e-03, -3.12217288e-02,
       -1.70926824e-02, -4.30130512e-02, -1.94529407e-02,
       -1.56962723e-02, -1.43454568e-02, -1.31806517e-02,
       -1.50045482e-02, 3.27873207e-03, 1.36964610e-02, 4.59594205e-02,
       5.46547994e-02, 1.36440741e-02, -4.69925348e-03, 2.71960888e-02,
       -1.00508733e-02, -1.83560569e-02, -5.21784909e-02,
       -1.38964029e-02, 2.84994226e-02, 3.86123769e-02, -7.14965258e-03,
       -1.38159515e-02, -7.20455870e-03, 5.26015880e-03, -4.91418540e-02,
       -8.02269857e-03, -4.00374644e-03, 2.23409925e-02, 1.16968742e-02,
       4.51750588e-03, -2.15078201e-02, 1.01276347e-02, -4.11046408e-02,
       -2.83618178e-02, -3.05835158e-02, -3.42072546e-02, 1.94492415e-02,
       3.40731479e-02, 1.51649052e-02, -3.87689397e-02, -2.16865749e-03,
       -3.69179919e-02, -6.13343855e-03, -3.42668034e-02,
       -6.07972918e-03, 4.00804058e-02, 6.70804977e-02, 3.24351084e-03,
       -2.35697225e-04, 1.68199595e-02, 2.79239248e-02, -9.91960149e-03,
       -1.10657495e-02, 2.00522202e-03, 1.70392282e-02, 8.10233003e-04,
       3.36776637e-02, 2.62996051e-02, 5.39835393e-02, 3.23816128e-02,
       1.78483110e-02, -2.03803051e-02, -3.58266532e-02, 1.02316216e-02,
       1.90712269e-02, -2.87535395e-02, -9.52766556e-03, 1.14803733e-02,
       -1.88934046e-03, -2.49483343e-02, 3.59163582e-02, -7.07664061e-03,
       -2.84025241e-02, -5.83859608e-02, -3.83458026e-02,
       -6.65415684e-03, 1.06083043e-02, 1.54920779e-02, -2.82947766e-03,
       3.51840332e-02, 4.22548801e-02, 6.12324663e-02, 5.80209382e-02,
       7.53841102e-02, 4.28948328e-02, 3.36962007e-02, -1.41442372e-02,
       -1.61833223e-02, 3.62391286e-02, 3.27941552e-02, -1.25969928e-02,
       -1.06819142e-02, 1.40319038e-02, 1.64436121e-02, 2.05387343e-02,
       -7.86157791e-03, -2.66091507e-02, 5.18540367e-02, 1.29639637e-02,
       -3.12576827e-04, -3.65096666e-02, -4.42490214e-03,
       -4.90176864e-03, -8.91062617e-03, 7.04791071e-03, -3.94176431e-02,
       -5.88042021e-05, -2.18173233e-03, -2.52285693e-02,
       -2.13133916e-02, -4.48664427e-02, -2.89337020e-02,
       -1.42191090e-02, 1.40018445e-02, 2.00783163e-02, 4.79011647e-02,
       4.17532958e-02, 7.44922087e-02, -1.24192741e-02, 7.47120799e-03,
       -9.19377198e-04, 6.08289195e-03, 4.41460405e-03, 1.01554319e-02,
       6.07842067e-03, -1.17624914e-02, -2.90204175e-02, -2.27352139e-02,
       -3.48810554e-02, -1.58561058e-02, -4.37037833e-02,
       -2.20873021e-02, 2.93449238e-02, 3.49331051e-02, 2.53556650e-02,
       2.86253933e-02, 5.03492914e-03, -3.57760191e-02, -1.85577963e-02,
       -1.78915747e-02, 1.76136345e-02, 3.52257304e-02, 3.23271863e-02,
       4.58570925e-04, -5.01404628e-02, -2.03148350e-02, -2.43696384e-02,
       -3.72027606e-03, -4.24850248e-02, -2.68324278e-03, 5.19885123e-02,
       7.56439846e-03, -1.31945796e-02, -2.05661077e-02, -1.98556017e-02,
       1.63244046e-02, 9.76111367e-03, -2.44122352e-02, 1.12973778e-02,
       1.00105880e-02, -2.01435164e-02, -1.22451995e-04, -1.57271475e-02,
       -3.98447439e-02, 3.43267433e-02, -1.54330749e-02, -5.68729267e-02,
       -1.05964309e-02, 4.47560810e-02, 2.62549333e-02, 8.38231575e-03,
       1.63877402e-02, -8.88971519e-03, 3.87920924e-02, 2.26294249e-02,
       -4.52413633e-02, 1.02325231e-02, 1.81987341e-02, -2.44962610e-02,
       -1.76476836e-02, 7.69137917e-03, 1.21513614e-03, 6.79312870e-02,
       -1.84229258e-02, -7.68296272e-02, -1.25736985e-02, 2.27120239e-03,
       -5.60336709e-02, -4.97369878e-02, -3.62578221e-02,
       -1.50752058e-02, 2.80127954e-02, -4.27326141e-03, -9.88459401e-03,
       1.35921296e-02, 1.44046471e-02, -2.47654449e-02, -2.21255869e-02,
       3.80523540e-02, -1.73946489e-02, 5.31382412e-02, 1.23625183e-02,
       -1.15779741e-02, 7.30591035e-03, 3.54956314e-02, -1.79655186e-03,
       5.43504767e-03, -1.79815164e-03, -1.67666897e-02, -1.40560661e-02,
       -3.62492986e-02, -2.82113180e-02, 1.93932988e-02, 3.32653299e-02,
       5.71988672e-02, 2.88358461e-02, 5.01225442e-02, 1.38161471e-02,
       4.30851504e-02, 1.57659757e-03, 1.53044537e-02, 3.17621827e-02,
       6.71627990e-04, -1.69155877e-02, -3.51247340e-02, 1.16360793e-02,
       -4.23164666e-02, 7.78149301e-03, -7.19033368e-03, -1.29681500e-02,
       -4.14427044e-03, 1.23416390e-02, -9.63944383e-03, -2.93440651e-02,
       2.23507881e-02, -2.67012548e-02, 1.53172286e-02, -7.28246814e-04,
       9.44241602e-03, 4.41857465e-02, 1.71075948e-02, 2.42073685e-02,
       -5.77248540e-03, 1.36653089e-03, -1.13625648e-02, 2.87586227e-02,
       2.06582639e-02, 4.38808405e-04, -1.24017652e-02, 7.41345063e-03,
       1.42321680e-02, -2.41314787e-02, -1.93470158e-02, -3.62703502e-02,
       2.45810952e-02, 2.04748679e-02, 3.85994185e-03, -2.40762928e-03,
       -1.38346385e-02, 1.64757308e-03, 8.83077300e-05, 2.57061254e-02,
       -1.37580540e-02, 2.88683120e-02, -2.94103697e-02, -1.13309342e-02,
       -1.98260117e-02, 2.09206529e-02, 2.47678589e-02, -1.78984180e-03,
       1.05449473e-02, -1.93298720e-02, -2.98200664e-03, -2.41160560e-02,
       -6.38711080e-03, 1.91967573e-03, -2.65231635e-02, 2.42274310e-02,
       2.47209202e-02, 3.26727070e-02, 6.54911017e-03, 9.74358153e-03,
       -8.39322060e-03, 8.36577825e-03, -1.98945403e-02, 1.92805342e-02,
       3.74323167e-02, 3.24509628e-02, 1.15050059e-02, 7.84713123e-03,
       -2.20905952e-02, -2.02032216e-02, -2.79658614e-03, 1.32555459e-02,
       6.32505212e-03, 2.26654075e-02, -1.35036400e-02, 4.99783969e-03,
       -1.39458906e-02, 1.55418571e-02, 1.65258180e-02, 2.07342226e-02,
       -9.68758203e-03, -4.60637733e-03, 6.56789821e-03, -3.16227563e-02,
       -8.70679133e-03, -3.00903078e-02, -1.70385763e-02, 2.64881812e-02,
       -1.78795401e-02, -1.73361097e-02, -3.57054989e-03, 2.52121910e-02,
       1.42404260e-02, -9.37619153e-03, -2.12291237e-02, -1.11040100e-02,
       -1.29916873e-02, 7.24874763e-03, -9.55898035e-03, -5.87860914e-03,
       -7.19345966e-03, -2.50583664e-02, -3.24936956e-02,
       -4.71256003e-02, -2.69192290e-02, -4.59168945e-03, 1.64518841e-02,
       -3.27393897e-02, 2.86220131e-03, 2.24229917e-02, 2.18028035e-02,
       1.00005176e-02, 2.52486672e-02, -5.43774525e-03, -4.33175312e-03,
       1.77734904e-02, -1.85381509e-02, -1.39423450e-02, 2.24167528e-03,
       1.56775881e-02, 8.01989250e-03, 2.45682560e-02, -3.80411595e-02,
       -5.72419465e-02, 8.65277369e-03, -4.93753143e-02, -1.19946506e-02,
       -1.04664974e-02, -2.33854130e-02, -1.80412363e-02,
       -5.96523518e-03, 2.18707044e-02, 2.25866842e-03, 4.54088533e-03,
       -5.55854402e-02, -2.43332926e-02, -1.94389857e-02,
       -4.52485541e-03, -1.96542963e-02, -1.85380795e-03,
       -2.64200494e-02, -4.87567447e-02, -2.13071648e-02,
       -3.08310054e-02, 4.97744232e-03, 4.59372103e-02, -2.20867153e-02,
       2.40603276e-02, 2.15595309e-03, -2.58240663e-03, -5.74182644e-02,
       -6.47256442e-04, -3.05196299e-04, 1.54288398e-04, 1.11607136e-02,
       -3.31432484e-02, -1.39841475e-02, -7.48121820e-04,
       -8.53355043e-03, -2.15051081e-02, 4.22191881e-02, -2.14171056e-02,
       -6.94430294e-03, 3.17152292e-02, 2.15754155e-02, 3.22349072e-02,
       2.10490567e-03, -7.65447505e-03, -5.22707030e-02, -3.22634764e-02,
       -2.60001682e-02, -3.42955776e-02, 8.41963571e-03, 3.08227865e-03,
       -1.14697656e-02, -1.34046255e-02, -6.63836906e-03,
       -4.18705456e-02, -1.12674087e-02, -5.02935983e-02,
       -9.83395614e-03, 7.74015859e-03, -3.24663334e-02, 5.27078193e-03,
       4.50637471e-03, 3.48246023e-02, 2.56332848e-03, 6.07901365e-02,
       7.27924658e-03, -2.35246681e-02, -2.78306492e-02, -5.32088168e-02,
       -2.01526228e-02, -5.25440881e-03, 1.45188137e-03, -1.96416415e-02,
       1.15162805e-02, -1.07836248e-02, 2.52200360e-03, 1.15398020e-02,
       1.30623467e-02, 6.00073161e-03, 3.02578788e-03, 2.05084290e-02,
       -2.59036086e-02, 2.06676107e-02, -1.62552428e-02, -5.98839368e-04,
       1.79797933e-02, -2.88954843e-02, -2.27095950e-02, 4.98450408e-03,
       -1.94618888e-02, -7.12526515e-02, -4.75998456e-03,
       -6.23830035e-03, 5.81259048e-03, 2.52978317e-02, -1.12934057e-02,
       3.31917815e-02, 2.95307278e-03, 1.52999321e-02, -3.72892176e-03,
       9.90088657e-03, -9.40132793e-03, 3.56496172e-03, 1.07617667e-02,
       -1.51665071e-02, -1.15210768e-02, -1.10657550e-02,
       -2.02061944e-02, 4.63077985e-03, -6.83074177e-04, -1.77362189e-02,
       -1.13871321e-02, 4.53599133e-02, -1.41956266e-02, 8.46241426e-04,
       3.64222028e-03, -1.52629819e-02, -5.04436605e-02, 2.02029180e-02,
       -5.86008001e-03, -1.90048013e-02, 2.68501136e-02, -2.08469369e-02,
       9.94145987e-04, -9.10751335e-03, -1.20301954e-02, -3.81624326e-02,
       7.39061227e-03, -1.34186139e-02, 7.12818978e-03, 1.24903517e-02,
       -1.32273161e-03, -2.54731416e-03, -2.99935471e-02, 4.01413674e-03,
       2.90568229e-02, -8.99076834e-03, -8.30082409e-03, -1.75267514e-02,
       2.95984396e-03, 1.16789816e-02, -3.26931700e-02, -3.03613348e-03,
       5.57722640e-04, 1.58142857e-02, 1.87363345e-02, -9.06604808e-03,
       2.50228345e-02, 1.97582189e-02, -2.24366831e-03, 2.53045391e-02,
       3.82787990e-03, 2.19950173e-02, 4.77005262e-03, -1.33708119e-02,
       -1.83343925e-02, 3.98384314e-03, 3.00581311e-03, 1.13679105e-02,
       -1.92717128e-02, 2.03756075e-02, 1.16156656e-02, -2.63164332e-03,
       -1.30546011e-03, -7.35642947e-03, 7.61204492e-03, 2.77374294e-02,
       1.07337916e-02, 1.46854753e-02, -2.70188451e-02, 3.70510109e-02,
       2.52296459e-02, 1.07750399e-02, 1.96869206e-03, -6.84720837e-03,
       1.35940555e-02, -3.96443094e-04, -3.55231483e-03, -6.23081923e-02,
       6.35384303e-03, -8.56139231e-03, -9.54577047e-03, -1.19789690e-02,
       4.13167812e-02, -2.30832733e-02, -1.59455594e-02, 4.69684042e-03,
       1.14684347e-02, 2.54869387e-02, -2.58448869e-02, -4.68440587e-03,
       5.56185492e-04, 2.46964246e-02, 1.43192206e-02, 2.24380710e-04,
       9.76763200e-03, 1.22211389e-02, -1.75508112e-02, -4.66851890e-02,
       -2.78566629e-02, 1.83726959e-02, -3.94511819e-02, 2.07964480e-02,
       1.29826348e-02, 1.85043048e-02, 1.87457930e-02, 1.06833987e-02,
       -1.65930018e-02, 1.19133992e-02, -9.07004904e-03, -3.45687605e-02,
       8.00660439e-03, -2.73266882e-02, 4.23581246e-03, 2.25884784e-02,
       2.89230309e-02, -1.48220118e-02, 3.03462222e-02, -4.70739696e-03,
       -6.82908064e-03, 1.94899254e-02, -1.17149306e-02, 2.32007783e-02,
       3.14840786e-02, -1.36040486e-02, -5.45150824e-02, -9.37890820e-03,
       6.89421920e-03, -1.56356078e-02, 1.78387687e-02, -4.74084169e-02,
       2.06865165e-02, 1.05693527e-02, 1.54783661e-02, -2.41402760e-02,
       -2.24715192e-03, -1.29129682e-02, -5.95819391e-03, 1.33474367e-02,
       -1.11908372e-02, 1.63636543e-02, 3.43886279e-02, 3.55067886e-02,
       -3.82643798e-03, 2.55004466e-02, -1.37810707e-02, -3.69512029e-02,
       1.77296232e-02, 1.71725999e-03, -2.61436515e-02, -4.36115749e-02,
       -2.67348401e-02, -2.39383569e-03, -5.63155487e-03,
       -4.53577414e-02, -8.39132816e-03, 2.45364811e-02, -3.16367336e-02,
       2.26138122e-02, 3.50064859e-02, 4.61586118e-02, 1.17819887e-02,
       8.12663324e-03, -3.33460234e-02, -5.71764521e-02, 4.83248383e-03,
       -4.69509810e-02, -3.63373719e-02, -1.72522422e-02,
       -3.89942005e-02, -3.29097360e-02, -9.55614541e-03,
       -3.01554259e-02, -4.35136212e-03, 6.40091747e-02, 2.42505856e-02,
       1.12391477e-02, -8.19162000e-03, 9.67854820e-03, 3.83204897e-03,
       8.58942233e-03, 5.36763715e-03, -4.64226939e-02, 6.41987333e-03,
       8.07586871e-03, 6.49255235e-03, -2.13309983e-03, -1.35430666e-02,
       5.17831184e-03, 9.71970987e-03, 4.90306923e-03, -2.33393069e-02,
       6.71057915e-03, -3.44506577e-02, -1.58975888e-02, -9.97141004e-04,
       2.73575131e-02, 2.10923702e-02, 3.57968546e-02, -2.48193145e-02,
       -4.67103254e-03, -3.27840302e-04, -1.36237806e-02,
       -6.77245390e-03, 3.23727876e-02, 2.02880632e-02, -1.74712036e-02,
       -3.05336388e-03, -1.90846045e-02, 7.38014188e-03, 1.43557023e-02,
       -1.21975634e-02, -6.58396399e-03, -8.61841626e-03,
       -7.57685024e-03, 2.02484000e-02, 1.03697218e-02, 1.07248072e-02,
       2.43276171e-02, -3.50832287e-03, -1.34481769e-02, -2.06591561e-02,
       -6.33328035e-03, -1.12335719e-02, 1.40958754e-02, -3.34258713e-02,
       -1.76517561e-03, 1.92892347e-02, 9.17440001e-03, -2.72394419e-02,
       -3.07088078e-04, 3.82149927e-02, 4.08557802e-02, 2.51304861e-02,
       1.01544764e-02, -8.84820241e-03, 6.28970424e-03, -4.99286614e-02,
       -5.06171100e-02, -1.95241887e-02, -1.17662130e-04, 2.80830488e-02,
       -9.88773070e-03, -2.77280752e-02, -6.61710463e-03, 4.37406562e-02,
       6.54470269e-03, 2.46424582e-02, 7.12514520e-02, 2.95405625e-03,
       1.51543431e-02, 1.45014357e-02, -4.87090349e-02, 6.13933755e-03,
       2.02389024e-02, -2.42886301e-02, 1.79847574e-03, 5.64918555e-02,
       -2.27606557e-02, 1.69179514e-02, -1.07288854e-02, -7.55592212e-02,
       8.33499432e-03, 3.71385776e-02, -3.09678866e-03, -2.12435029e-03,
       3.11783869e-02, -2.70633586e-02, 5.44755906e-03, -2.91583110e-02,
       -3.32996622e-02, 2.60130744e-02, 4.47733626e-02, -1.81239657e-02,
       -1.93776079e-02, 7.34620437e-04, -2.46546008e-02, -2.23885961e-02,
       -3.86478007e-02, -5.39248735e-02, 4.02346738e-02, -1.34546518e+00 ]
