%YAML:1.0
---
_2416-4146-testG: !!opencv-object-detector-hog
   winSize: [ 64, 128 ]
   blockSize: [ 16, 16 ]
   blockStride: [ 8, 8 ]
   cellSize: [ 8, 8 ]
   nbins: 9
   derivAperture: 1
   winSigma: 4.
   histogramNormType: 0
   L2HysThreshold: 2.0000000000000001e-01
   gammaCorrection: 1
   nlevels: 64
   signedGradient: 0
   SVMDetector: [ 1.20771369e-02, -4.90603484e-02, -7.42759462e-03,
       2.76020002e-02, -1.31406663e-02, -2.37193201e-02, -4.14837524e-02,
       -1.31563097e-02, 4.94282506e-02, 3.57594416e-02, -8.73939320e-03,
       4.38560061e-02, 4.53037582e-02, 2.95930859e-02, 3.35511267e-02,
       -1.07190467e-03, 2.38030148e-03, 3.68342623e-02, -1.35060251e-02,
       -2.33300570e-02, 2.98450310e-02, 3.16171385e-02, -2.48803627e-02,
       -1.39842648e-02, -4.70269434e-02, -4.87527363e-02, 1.59223520e-04,
       1.44744487e-02, -8.52560345e-03, 2.77069993e-02, 3.94869670e-02,
       -1.84732508e-02, 3.37859951e-02, -9.99227073e-03, 1.68700400e-03,
       1.87981818e-02, 3.44077870e-03, -1.93074942e-02, 1.07472725e-02,
       1.45764509e-02, 3.48003320e-02, 8.83079879e-03, 4.13001422e-03,
       -3.05162999e-03, -1.29495561e-03, 1.95028372e-02, 6.30961033e-03,
       2.62088589e-02, 1.95447896e-02, 1.57738384e-02, -1.78242959e-02,
       6.36418932e-04, 8.87112506e-03, 6.52542384e-03, 5.61155146e-03,
       -1.26283681e-02, -3.83948791e-03, 2.28837430e-02, 2.71027647e-02,
       2.52673887e-02, 4.22248943e-03, 7.78450584e-03, 2.50197668e-02,
       2.53539886e-02, 1.13357147e-02, 1.54955396e-02, 2.22044643e-02,
       -2.14494299e-02, 1.34194624e-02, 1.04542756e-02, 1.40207000e-02,
       4.29906882e-02, 2.42343880e-02, 1.41815376e-02, 1.85983460e-02,
       1.54787432e-02, 1.87125206e-02, 4.05389182e-02, 1.27533954e-02,
       2.48713549e-02, 6.11766567e-03, 4.55880016e-02, 3.41465184e-03,
       9.97923221e-03, -8.24884139e-03, -9.05734836e-04, 3.03952917e-02,
       2.69591808e-02, 2.30746921e-02, 6.45065904e-02, 8.00685585e-03,
       8.79130699e-03, 4.50183358e-03, 2.97156759e-02, -1.97724998e-02,
       2.29981951e-02, 2.38488883e-05, 5.93413552e-03, 2.20461208e-02,
       -7.28560146e-03, -4.83823568e-03, -7.20945466e-03,
       -1.03074787e-02, -1.29959164e-02, -1.06264716e-02, 8.54187179e-03,
       2.68081762e-02, -9.46639688e-04, 2.73669455e-02, 5.12744067e-03,
       -3.25352931e-03, -8.93681217e-03, 1.44378720e-02, 1.97113026e-02,
       1.05185146e-02, -8.44330993e-03, 1.21635627e-02, -3.17640528e-02,
       -5.58253704e-03, -2.54596956e-02, -4.21172827e-02,
       -1.07423551e-02, -1.04938261e-02, -3.64826294e-03, 8.25562347e-06,
       -1.42930085e-02, -9.29930899e-03, -5.06912265e-03, 2.13545635e-02,
       2.27195080e-02, 6.55601907e-04, 3.52356955e-02, 2.00579651e-02,
       3.89093719e-02, -1.83695126e-02, -5.58607094e-02, -1.87880285e-02,
       -2.49420051e-02, -1.17503339e-02, -3.06272637e-02, 2.96125114e-02,
       8.50017369e-03, 2.60111853e-03, -4.05714139e-02, -3.07880808e-02,
       3.36359371e-03, -1.12003544e-02, -7.56254885e-03, 1.95758659e-02,
       -1.33586931e-03, 2.90526059e-02, 2.37628166e-02, -6.51470292e-03,
       -2.99637150e-02, -3.44753638e-02, -3.83429527e-02,
       -6.71200687e-04, 4.28729281e-02, 6.02575159e-03, -2.63787787e-02,
       5.66474162e-03, -1.15532717e-02, 2.52100080e-03, 1.00478986e-02,
       -1.89656634e-02, 1.10130701e-02, 4.67197970e-03, 1.30799869e-02,
       2.27917340e-02, 5.50565636e-03, 3.85095924e-03, -5.38796857e-02,
       -4.83502336e-02, -4.36649211e-02, -6.19883044e-03, 1.00719910e-02,
       -4.61812271e-03, 4.86048451e-03, 2.89084041e-03, -1.13087557e-02,
       -2.03008857e-02, -3.07452399e-02, -2.87851170e-02, 5.71369193e-03,
       3.77685837e-02, 1.95682272e-02, -6.86699059e-03, 7.78560899e-03,
       1.39569687e-02, -1.04638310e-02, -3.17137167e-02, -1.23811942e-02,
       5.35906712e-03, -4.96617472e-03, -1.36950649e-02, -2.11255699e-02,
       1.80545729e-03, 1.25491172e-02, -1.89713482e-02, -3.36324833e-02,
       -4.16276976e-02, 1.81237347e-02, 2.16373838e-02, 1.42979575e-02,
       -3.33601423e-03, 3.80107909e-02, -3.31253023e-03, -4.53773960e-02,
       1.57202333e-02, -1.22460295e-02, 1.17875617e-02, 1.52846926e-03,
       -1.21940924e-02, -5.83901023e-03, 2.92208754e-02, -2.20896211e-02,
       3.79309291e-03, 1.32296165e-03, 4.87246783e-03, 3.58903743e-02,
       1.69061832e-02, -3.44317555e-02, -7.59415794e-03, 2.07014531e-02,
       1.92603096e-02, 1.45432800e-02, 5.49755245e-03, -4.39099148e-02,
       -3.69448448e-03, -1.30270552e-02, -3.83754745e-02,
       -4.52092364e-02, 1.90644264e-02, 8.99203680e-03, -1.56914294e-02,
       -1.52122490e-02, -8.00844934e-03, 4.78075668e-02, 2.20831241e-02,
       -1.82448607e-02, 1.23092057e-02, 2.79265195e-02, -2.80493610e-02,
       -1.92243755e-02, -1.74365994e-02, -3.54443602e-02,
       -1.42081017e-02, -1.35429259e-02, -8.77616089e-03,
       -2.91185565e-02, -1.14080645e-02, -2.30237339e-02, 7.03784404e-03,
       -1.28936898e-02, -2.81660333e-02, 5.56614902e-03, 3.21687162e-02,
       9.39718541e-03, -3.59238796e-02, 1.43611506e-02, -1.21394871e-02,
       -3.44652757e-02, -6.82515725e-02, -4.74701151e-02,
       -1.50218038e-02, 7.93687720e-03, -1.03356701e-03, -1.31079294e-02,
       3.20800208e-02, -2.93293409e-02, 1.18620992e-02, 1.72865845e-03,
       1.23757380e-03, 3.01065259e-02, -4.84484946e-03, 5.02131321e-02,
       2.28356905e-02, 7.49597279e-03, -1.31630513e-03, -1.53121771e-02,
       -1.03545301e-02, -1.60062388e-02, 1.91969816e-02, -1.05681177e-02,
       1.12381727e-02, 3.37112658e-02, 1.55845378e-02, -1.21393129e-02,
       -3.58342528e-02, -6.13548979e-02, -5.40522113e-02, 2.39633882e-04,
       -1.01963188e-02, 7.30765983e-04, -7.31793838e-03, 1.95859205e-02,
       -7.87016749e-03, -2.52432898e-02, -5.29580489e-02,
       -1.48133924e-02, 2.46127918e-02, 1.55744911e-03, -1.92644857e-02,
       -2.33322270e-02, -1.81139689e-02, -2.96823471e-03,
       -1.53526999e-02, -1.98485609e-02, -4.47685318e-03, 4.15140996e-03,
       -3.46222222e-02, 1.71310492e-02, 1.87642835e-02, 8.17548763e-03,
       -5.55151002e-03, -2.86133075e-03, -1.03590535e-02, 1.93642341e-02,
       9.46333865e-04, 1.57606527e-02, 1.86865143e-02, 1.26137435e-02,
       -2.10542399e-02, 1.51141593e-02, -2.57836357e-02, -4.26008999e-02,
       -2.54273154e-02, 1.62083749e-02, -3.50109152e-02, -1.28976116e-02,
       -4.98508513e-02, -1.68542862e-02, 2.78372634e-02, 1.77520737e-02,
       -4.35391292e-02, -6.25492334e-02, -3.24951597e-02,
       -5.29236868e-02, -1.93516929e-02, -3.40271778e-02,
       -2.08930355e-02, 2.51739305e-02, 1.82228221e-03, 5.37814852e-03,
       2.72488017e-02, 3.32630314e-02, -5.76969795e-03, 3.41688953e-02,
       -1.33213894e-02, -3.11735226e-03, 9.69973486e-03, -5.79605717e-03,
       -1.25159640e-02, -1.41888307e-02, 1.00179557e-02, -1.29559301e-02,
       2.47569717e-02, -2.34472994e-02, -1.19779017e-02, 5.32028545e-03,
       2.45031063e-03, -2.34751478e-02, -3.11946999e-02, -6.43019797e-03,
       -2.34478340e-02, -2.48653293e-02, -3.30809988e-02,
       -1.08804926e-02, 9.69414227e-03, -1.01318220e-02, -4.21096683e-02,
       -1.67153822e-03, 1.18527487e-02, -2.58925743e-02, 2.94755632e-03,
       -4.50205728e-02, -1.84782054e-02, -4.58582770e-03,
       -5.41428057e-03, 1.37741975e-02, 1.33705176e-02, 1.90245616e-03,
       8.72317050e-03, 1.78478155e-02, -2.26466432e-02, 1.22197233e-02,
       -1.65900716e-03, -8.85656662e-03, 3.64639200e-02, 6.42038789e-03,
       3.67997475e-02, 1.17050507e-03, -3.15450132e-03, -3.36169899e-02,
       2.26457380e-02, 6.77429279e-03, -2.05508359e-02, -2.83654258e-02,
       -8.49059317e-03, 2.64265221e-02, 7.09502352e-03, 2.04590503e-02,
       -2.14924980e-02, 3.16942930e-02, 1.73777137e-02, -4.00430560e-02,
       -4.62816134e-02, -3.47803384e-02, -5.30020855e-02,
       -3.73745970e-02, -1.63529981e-02, -5.22464924e-02, 7.98783917e-03,
       -6.77259825e-03, 5.48631838e-03, 2.94296443e-02, -1.42908087e-02,
       2.41294764e-02, 2.11969838e-02, 1.86312366e-02, 3.35423462e-03,
       3.29602472e-02, -3.75409750e-03, -4.27999645e-02, -8.35843477e-03,
       -2.00710241e-02, 6.00952771e-04, -3.09399441e-02, 1.46182170e-02,
       -1.60600953e-02, -5.25693130e-03, -4.01688479e-02,
       -2.97605079e-02, -3.56781855e-02, -1.00774383e-02,
       -3.12221912e-03, -1.36071946e-02, 9.31334123e-03, -2.39849314e-02,
       6.06230320e-03, -1.03767365e-02, -2.74110660e-02, -2.72984449e-02,
       -6.39039138e-03, -5.65309487e-02, 4.50620148e-03, -3.71174105e-02,
       -6.39704661e-03, 2.31060777e-02, -4.12499346e-03, 2.82934611e-03,
       2.93649337e-03, 1.48118315e-02, 2.91640628e-02, 6.18672976e-03,
       4.08881977e-02, 2.10577901e-02, 2.34044883e-02, -2.10669152e-02,
       -4.95640328e-03, 1.99894849e-02, 2.24653408e-02, -1.51074464e-02,
       5.63429203e-03, -9.02412646e-03, 1.34876100e-02, 7.10358564e-03,
       -5.24836928e-02, -3.07282656e-02, -9.50266980e-03, 5.48663689e-03,
       -2.98255812e-02, 7.52337044e-03, -2.51417961e-02, -4.41055708e-02,
       3.38300993e-03, 1.81698380e-03, -5.68580057e-04, -3.23803537e-02,
       1.82040513e-03, 7.74419121e-03, 2.39551123e-02, -9.07756481e-03,
       -5.12662232e-02, -1.99286900e-02, 1.36338398e-02, 7.53534585e-03,
       1.49428258e-02, 3.96387167e-02, -1.46356365e-02, 3.03082913e-03,
       -4.19430388e-03, -2.33542603e-02, -2.49504168e-02,
       -1.92001481e-02, 2.21756101e-02, -1.03528341e-02, 3.13465521e-02,
       5.61131677e-03, 2.67142635e-02, -8.75040144e-03, -5.21844439e-02,
       -1.39425136e-02, 2.22105701e-02, 2.34740879e-02, -3.71999927e-02,
       -2.80569009e-02, 1.02802990e-02, 3.69400834e-03, 1.61094870e-02,
       -3.80445793e-02, -2.49729082e-02, 3.63914780e-02, 2.08282582e-02,
       -3.70908044e-02, -1.17096068e-04, 2.56862654e-03, -6.31849989e-02,
       -3.06515880e-02, -1.02272620e-02, -1.12363948e-02, 3.85385863e-02,
       2.27828640e-02, -3.92387435e-02, -7.02649076e-03, -2.84437486e-03,
       2.34409198e-02, 6.40678108e-02, -2.96040382e-02, -2.76366752e-02,
       1.53953554e-02, 1.54565591e-02, -3.22973840e-02, -4.81239799e-03,
       2.81494129e-02, -3.78315970e-02, 4.28834856e-02, 1.22231543e-02,
       -2.14637034e-02, 1.08760567e-02, 3.36408131e-02, -2.31190175e-02,
       -2.63100187e-03, 9.96743236e-03, 1.98049899e-02, 2.87225726e-03,
       -3.40091884e-02, -3.23187225e-02, 2.09249444e-02, 5.16422726e-02,
       -6.90543966e-04, 4.24930081e-03, 4.38467786e-03, 6.13390701e-03,
       3.48382331e-02, 4.13768040e-03, 8.88263527e-03, 3.32839265e-02,
       4.05113911e-03, -3.76734212e-02, -2.76030414e-02, 1.00754632e-03,
       8.77524540e-03, -1.51608698e-02, -2.37317234e-02, -3.38278674e-02,
       4.86386046e-02, 1.47532057e-02, -2.23341002e-03, 1.23708220e-02,
       -3.28050437e-03, -3.79060693e-02, 1.43764289e-02, 1.30279781e-02,
       -6.84508076e-03, 2.15083975e-02, 2.57928353e-02, -2.37909928e-02,
       -2.96920761e-02, -5.02752028e-02, 2.17117686e-02, 2.72618178e-02,
       -3.16789821e-02, -1.52586708e-02, 1.92755051e-02, 3.49064358e-02,
       -1.95613969e-02, -2.80854777e-02, -9.61123127e-03,
       -1.28363529e-02, 1.61787774e-02, 1.17379043e-03, -5.03032282e-03,
       4.81789000e-02, -2.00181287e-02, -8.55539646e-03, 1.50821870e-02,
       -2.36678310e-02, 6.26029493e-03, 1.91707648e-02, -2.20835339e-02,
       -5.88572100e-02, -2.83406693e-02, 3.33103128e-02, -6.87156944e-03,
       1.21398410e-03, 3.19153368e-02, -4.79106046e-02, 1.33090336e-02,
       -3.30665894e-02, -2.41113883e-02, 1.62392703e-03, -5.91569999e-03,
       -2.10385788e-02, -4.15662164e-03, 5.15901623e-03, 2.22514216e-02,
       1.50475919e-03, -2.58717965e-03, -1.55482162e-02, -6.15385780e-03,
       9.17212013e-03, -1.91981811e-02, 3.69927613e-03, -1.36048216e-02,
       5.11255581e-03, -5.55226160e-03, 1.14470944e-02, 2.32288893e-02,
       6.10893453e-03, 2.90274248e-02, -6.64938660e-03, 1.05887176e-02,
       2.92978492e-02, 2.70257201e-02, 2.35418864e-02, 3.17423651e-03,
       3.08764633e-02, 4.86834198e-02, -3.49805802e-02, -1.64150987e-02,
       1.72145176e-03, -8.62348452e-03, 3.53257507e-02, 2.17551203e-03,
       2.58842427e-02, 4.86957543e-02, -2.50778830e-04, 3.94939241e-04,
       -1.62279848e-02, 8.31360370e-03, -2.31097993e-02, 1.09979277e-02,
       2.06825812e-03, 5.38666127e-03, -1.63402688e-03, -7.89601263e-03,
       1.14518416e-03, 3.93855497e-02, -3.61608225e-03, -1.88081339e-02,
       1.22293346e-02, 5.46815060e-03, -3.37108597e-02, -2.26362068e-02,
       -2.14219969e-02, -1.70341264e-02, 2.34449022e-02, 4.97441925e-02,
       1.41719738e-02, 1.72117352e-02, -2.58498755e-03, 1.24749392e-02,
       2.37053353e-02, -6.92631118e-03, -2.25583054e-02, 5.29201105e-02,
       8.29174649e-03, -7.87983090e-03, -5.57853782e-04, -5.05988626e-03,
       -1.86333135e-02, -2.36738436e-02, -2.80267857e-02, 5.72231449e-02,
       4.43607680e-02, -2.12509502e-02, -1.28411409e-02, -2.19046790e-02,
       1.09746251e-02, -1.25886323e-02, -3.25078070e-02, -2.04055384e-02,
       1.62526674e-03, -1.49451243e-02, -2.80298069e-02, -2.73955576e-02,
       1.25386687e-02, -5.74816437e-03, -2.09785532e-02, -1.61542669e-02,
       1.89332489e-03, 7.13801980e-02, 6.85125142e-02, -1.19467368e-02,
       -1.56111624e-02, -3.99721079e-02, 1.42960353e-02, 7.89822638e-03,
       1.88492481e-02, 1.00321807e-02, 4.52507026e-02, 1.08938385e-02,
       -2.33692024e-02, 1.04018888e-02, 3.35621834e-02, 1.39157660e-03,
       3.41128334e-02, 2.78790183e-02, -6.18146826e-03, 8.23056139e-03,
       1.96932871e-02, -1.77777298e-02, -1.41813923e-02, 1.57417953e-02,
       5.04368870e-03, -2.00134329e-02, 9.80164390e-03, 2.22453829e-02,
       -8.64046812e-03, 1.32945906e-02, -2.63111386e-02, 6.97493600e-03,
       1.79380886e-02, -1.28381513e-02, -3.80302668e-02, 1.50865922e-02,
       -2.81053260e-02, 3.08616329e-02, 4.86417785e-02, 6.86731935e-03,
       9.65576712e-03, 1.85717624e-02, 1.22234076e-02, 1.18663302e-02,
       5.07153757e-02, -2.66804639e-03, -9.45638027e-03, 3.82044837e-02,
       2.26423843e-03, 2.09575775e-03, 2.20869612e-02, 7.11682439e-03,
       -7.35265203e-03, 1.45561798e-02, -4.81015816e-02, 5.37778670e-03,
       -3.04372907e-02, -1.79710537e-02, 1.97065845e-02, 4.23430093e-02,
       -1.24795977e-02, -5.60298003e-03, 3.19430158e-02, -1.10670635e-02,
       1.10234413e-02, -1.48433335e-02, 2.11107917e-03, -2.20655985e-02,
       -6.89854287e-03, -3.95625420e-02, -1.83006488e-02, 8.32604337e-03,
       5.92568330e-03, 4.23110835e-02, 6.10586852e-02, 2.42623426e-02,
       2.85955891e-03, 4.09726016e-02, 5.79986442e-03, 4.51008277e-03,
       1.29273278e-03, -3.99673395e-02, 2.74538808e-02, 4.30052094e-02,
       -3.61613533e-03, -2.82103159e-02, 2.27902401e-02, -1.28346235e-02,
       1.05123194e-02, 2.22472399e-02, 1.82306627e-03, 1.32187810e-02,
       -1.77559666e-02, 1.59598570e-02, 6.52804365e-03, -3.47758792e-02,
       -1.38199590e-02, 3.47126485e-03, 4.33304999e-03, -8.22221860e-03,
       -7.88342953e-03, 3.41491960e-03, -1.22933472e-02, 1.14301620e-02,
       -2.34335419e-02, -6.25531981e-03, 2.71910783e-02, 9.05467011e-03,
       -4.94927168e-03, 3.92166376e-02, 4.24338281e-02, -3.47861089e-03,
       1.42739825e-02, 1.46394009e-02, 1.73849519e-02, 1.42191863e-03,
       2.39834953e-02, -2.21193060e-02, -6.06427726e-04, 4.05310355e-02,
       -4.88330144e-03, 2.35292483e-02, 2.85944995e-02, 4.34376188e-02,
       1.54001070e-02, 1.07385442e-02, 2.83731632e-02, -8.82078707e-03,
       -1.20304786e-02, -3.89323160e-02, 8.07530619e-03, -6.39221538e-03,
       -1.86618697e-03, -1.39878113e-02, -3.29345325e-03,
       -1.40955616e-02, 1.81195214e-02, -5.07431990e-03, -1.58477630e-02,
       1.89235974e-02, 3.62468027e-02, -1.80610828e-02, 4.97243200e-05,
       -3.33728977e-02, -1.11740092e-02, -9.05183516e-03, 1.17627541e-02,
       -2.31797826e-02, 5.62137589e-02, 5.04820421e-02, 7.73516968e-02,
       3.37811708e-02, 1.96614675e-02, 1.37489270e-02, 6.54806988e-03,
       -9.45114181e-04, -5.24207251e-03, 4.05813083e-02, 5.41006848e-02,
       1.77326351e-02, 1.88545864e-02, 6.80607464e-03, 1.87072791e-02,
       3.38506848e-02, 4.80270013e-03, -1.36445956e-02, 1.30571220e-02,
       -1.77879706e-02, -7.39821407e-04, -1.01809194e-02,
       -1.13964705e-02, 8.15822836e-03, 4.42161784e-03, 1.23776011e-02,
       -1.22109028e-02, -2.21900530e-02, 1.09813428e-02, 6.00787392e-03,
       -3.85298990e-02, -1.39984293e-02, -9.88766272e-03, 4.66827750e-02,
       5.41340262e-02, -2.39590611e-02, 2.43007988e-02, -5.04839513e-03,
       3.98597009e-02, 3.42268720e-02, 1.74319651e-02, -4.68193181e-03,
       -1.19911125e-02, 3.51290442e-02, -3.82786877e-02, 1.17298579e-02,
       1.50115779e-02, 2.61764023e-02, -9.68483835e-03, -4.21830191e-04,
       -1.02424305e-02, -4.22860868e-02, 1.54530816e-02, -2.85097528e-02,
       -3.28463167e-02, 3.06491926e-02, 7.88481627e-03, -2.52340976e-02,
       3.10674217e-03, -3.23653482e-02, -6.76077604e-02, -1.69522129e-02,
       -4.49982733e-02, 1.78041626e-02, 8.00687075e-03, 7.76914693e-03,
       -4.00692187e-02, -6.87759696e-03, -2.39074081e-02,
       -2.28275750e-02, 8.49808380e-03, -6.88267080e-03, 1.25853028e-02,
       6.50898218e-02, 1.38027417e-02, 3.97467334e-03, 1.03555489e-02,
       -1.44077260e-02, -9.94552486e-03, 2.54916097e-03, -2.65258756e-02,
       3.49638835e-02, 3.56312878e-02, 2.76226271e-02, -1.15578938e-02,
       4.04829765e-03, -1.03648929e-02, -3.98771279e-03, 3.11328005e-03,
       -3.16014625e-02, 1.75898883e-03, -7.19202030e-03, -8.65685847e-03,
       -2.88581755e-02, -2.57337745e-03, -3.18807526e-03,
       -3.01040486e-02, 1.36176927e-03, -5.53399185e-03, -1.40306959e-02,
       -7.14715123e-02, -2.21770089e-02, -5.93120791e-03, 1.22836195e-02,
       -4.25424725e-02, 5.47078103e-02, 3.55858691e-02, 1.22856617e-03,
       1.24794859e-02, 6.78263456e-02, 3.15251984e-02, -2.92941518e-02,
       -3.72830522e-03, 3.32888518e-03, 3.62167582e-02, 5.80549277e-02,
       3.87455672e-02, -1.42987240e-02, 2.62528174e-02, 1.41398283e-02,
       -1.64174568e-02, -1.46685587e-02, -2.35095583e-02, 1.91477768e-03,
       -2.37670334e-04, 1.58753153e-02, 8.73117335e-03, -4.65786196e-02,
       -1.46791767e-02, 2.10690987e-03, 1.71155799e-02, -5.23639470e-03,
       -6.48785266e-04, -1.06751295e-02, -2.29256228e-02,
       -2.70060506e-02, -4.08362225e-02, -3.95464525e-02,
       -7.31721707e-03, 5.01427567e-04, -2.09462177e-02, 2.27082483e-02,
       2.98298765e-02, 5.26641347e-02, 1.90200023e-02, 6.12719320e-02,
       5.57880625e-02, 1.01768030e-02, 3.69209833e-02, 1.25283357e-02,
       1.08257150e-02, -6.29610615e-03, 9.39079851e-04, -1.45682767e-02,
       1.50579745e-02, 2.80154012e-02, 4.72827964e-02, 5.22705354e-02,
       -7.94936437e-03, 1.96798611e-02, 1.69885177e-02, 1.89724676e-02,
       -1.98471043e-02, -2.73684561e-02, -1.19512947e-02, 1.04680499e-02,
       6.32650452e-04, -3.27650085e-03, 2.06657611e-02, 6.31055702e-03,
       2.90122386e-02, -1.03677530e-02, 1.69314109e-02, -3.64873670e-02,
       -2.84922775e-02, -1.59781647e-03, 2.41545867e-02, 8.42671748e-03,
       -1.73995700e-02, -1.01728588e-02, -2.03456217e-03, 1.95895229e-02,
       1.24238534e-02, 4.80226018e-02, 3.05591747e-02, 1.62226986e-03,
       -6.13166355e-02, -5.66696636e-02, -1.41325099e-02,
       -4.21904288e-02, 5.88594936e-03, -2.26498060e-02, -9.74267535e-03,
       -6.51190430e-03, -1.10056074e-02, -3.88423097e-03,
       -6.48684427e-03, 2.89782882e-02, 2.23449711e-02, 1.67242792e-02,
       2.48145554e-02, -2.74537634e-02, -6.94776373e-03, 8.79553147e-03,
       -2.70572305e-03, -1.83175150e-02, -9.26647894e-03, 5.33786006e-02,
       -3.27761807e-02, -4.11556009e-03, -4.12154198e-02,
       -2.48308573e-02, 2.83430349e-02, -2.20055357e-02, -2.50199586e-02,
       4.01781313e-03, -1.07889352e-02, 1.14753209e-02, 6.35845959e-03,
       6.07566535e-03, 8.24021362e-03, 3.38453427e-02, 5.43730799e-03,
       -4.31443676e-02, -1.54205561e-02, 3.74650098e-02, 8.90919100e-03,
       -4.81740339e-03, -1.31763490e-02, -4.95677032e-02,
       -4.44118725e-03, -8.40420369e-03, -2.93744821e-02,
       -1.47496127e-02, -5.90459863e-03, 2.25032400e-02, -2.64845379e-02,
       -3.02972421e-02, -5.17790429e-02, 1.26453917e-02, 3.24417725e-02,
       3.46611044e-03, 2.44272444e-02, -3.51543189e-03, -1.54941548e-02,
       -3.07431794e-03, -7.00466335e-03, -2.21075434e-02, 3.89562361e-02,
       1.16246855e-02, -2.95576937e-02, -3.19756148e-03, -5.84048266e-03,
       2.64649298e-02, -2.82897241e-02, -2.66341679e-02, -3.00234165e-02,
       -3.21746193e-04, 1.81292295e-02, -2.51213275e-02, -4.05741967e-02,
       2.74021737e-02, 2.14776769e-03, 4.93390933e-02, -3.20390090e-02,
       -2.47920174e-02, 3.48161422e-02, -5.47550209e-02, -2.54963394e-02,
       3.98041233e-02, -1.40704792e-02, -1.13376779e-02, -4.22304384e-02,
       -5.22655770e-02, -7.02596232e-02, -5.38378693e-02, 2.97804438e-02,
       6.55121505e-02, 8.73855203e-02, 5.35175838e-02, 9.88884736e-03,
       -2.41723731e-02, -2.84798536e-02, -9.07834433e-03,
       -1.14568993e-02, -2.96546295e-02, -2.79487250e-03, 7.45233372e-02,
       6.78581372e-02, 3.62259597e-02, -1.08999247e-02, -4.54934835e-02,
       -7.71324262e-02, -4.58309501e-02, 5.49504906e-02, 1.04931027e-01,
       1.28657281e-01, 9.88667607e-02, 8.68627429e-03, -1.07954163e-02,
       1.05039706e-03, 1.16159283e-02, -1.48035288e-02, 3.44070233e-02,
       -1.57229870e-03, -1.09174829e-02, -3.05670071e-02,
       -1.29941832e-02, -3.52100246e-02, -1.80599019e-02, 5.31204790e-02,
       5.90793602e-02, -4.05079611e-02, -3.72735187e-02, 1.29432436e-02,
       -9.44468472e-03, 1.39920069e-02, -5.73510118e-02, -1.70412986e-03,
       5.67381792e-02, 1.56900845e-02, 8.76232758e-02, 4.79132049e-02,
       2.50819605e-02, -1.19368853e-02, -1.00696576e-03, -2.96350345e-02,
       8.56432319e-03, 8.26255605e-02, 1.12583548e-01, 5.10656461e-03,
       2.38881004e-03, 2.43382361e-02, 1.65000670e-02, 3.26104388e-02,
       -3.64769548e-02, 3.85011248e-02, 8.14229026e-02, 8.36435407e-02,
       -1.80027932e-02, 9.15123597e-02, 1.39177322e-01, 6.16172142e-02,
       2.18011737e-02, -3.58450375e-02, -2.08554845e-02, 6.82841102e-03,
       -2.18489822e-02, -1.78587064e-02, 9.25652385e-02, 4.30068411e-02,
       -6.22877944e-03, -1.30113764e-02, -4.49766219e-02,
       -6.36411384e-02, -2.98490394e-02, -6.70119077e-02,
       -2.79631298e-02, 8.83787796e-02, 1.51579216e-01, 9.99664590e-02,
       4.51059379e-02, 2.58496366e-02, 4.91435267e-02, 6.18979782e-02,
       1.00053707e-02, -4.84906100e-02, 2.82167527e-03, 4.11565974e-02,
       -9.16009676e-03, -4.57076915e-03, -2.10161358e-02,
       -3.98767702e-02, -5.12896217e-02, -7.87308887e-02, 4.30740453e-02,
       1.04511276e-01, 3.36372107e-02, -6.73018117e-03, -6.31776527e-02,
       3.86677543e-03, 5.64093143e-03, 1.65260732e-02, -1.61034297e-02,
       1.18662408e-02, 6.08193912e-02, 7.26766232e-03, -1.97399426e-02,
       1.24137327e-02, -3.99545161e-03, 2.14491244e-02, 9.98359825e-03,
       -2.64028227e-03, 1.43224222e-03, 4.11068201e-02, 3.33316298e-03,
       -4.88136895e-02, -6.34646416e-02, 4.34739003e-03, -9.24085919e-03,
       -5.44500770e-03, -3.41565050e-02, -1.08817611e-02, 3.92890116e-03,
       -5.15440628e-02, -9.96564999e-02, -4.24897932e-02,
       -3.85568812e-02, -4.01264578e-02, -2.74252892e-02,
       -5.13154967e-03, 3.97966765e-02, 5.46690971e-02, -2.91730501e-02,
       -2.12402567e-02, -5.99972624e-03, -1.56977326e-02,
       -1.43919345e-02, 2.82405280e-02, 2.13337541e-02, 4.45352644e-02,
       7.33307824e-02, -2.23512035e-02, -3.18081230e-02, -2.47006528e-02,
       -1.46982130e-02, 5.15049370e-03, 2.40046866e-02, -1.14121810e-02,
       7.27853505e-03, 2.08118912e-02, -4.47447337e-02, -2.97182519e-02,
       -3.58711183e-02, -1.25520909e-02, -3.73989530e-02,
       -1.50002036e-02, -8.04646593e-03, 5.17442413e-02, 1.63851026e-02,
       -8.81281868e-03, -3.97392251e-02, -4.00377698e-02,
       -3.88001278e-02, -1.71706248e-02, -3.12351938e-02,
       -8.81163869e-03, 3.14031467e-02, 9.46303681e-02, 4.56983969e-03,
       -4.21043523e-02, -2.06506159e-02, 3.74075980e-03, 2.83523463e-02,
       3.41835842e-02, 7.32806232e-03, 2.65842173e-02, 7.20191449e-02,
       -2.32305434e-02, -5.72348498e-02, -6.18416211e-03, 5.96224517e-03,
       4.04260792e-02, 1.60166137e-02, 5.84908389e-03, 1.78521536e-02,
       1.61365401e-02, 9.32598428e-04, -4.49356474e-02, -4.31687683e-02,
       1.59208104e-02, 3.34457867e-02, 1.31981708e-02, -2.21110135e-02,
       -7.70064024e-03, 3.51128243e-02, -3.82121070e-03, -4.72080782e-02,
       1.12040760e-02, 5.39959483e-02, 1.64081454e-02, -6.22330047e-03,
       -9.88757331e-03, 7.73768499e-02, 4.47396189e-02, -1.06539605e-02,
       -5.87551622e-03, -2.20242310e-02, 4.25982736e-02, -1.24094856e-03,
       9.67300963e-03, 3.23974788e-02, 4.88856100e-02, 4.54965755e-02,
       -1.42532289e-02, 2.18153279e-03, -9.48598702e-03, 2.25470960e-02,
       1.55370757e-02, 4.60034423e-02, 5.67496158e-02, 4.88861389e-02,
       1.11475056e-02, -1.36307748e-02, 2.67924694e-03, -6.65131817e-03,
       4.00539339e-02, 9.88234859e-03, -1.25453956e-02, -1.10189309e-02,
       -2.91481484e-02, -3.68948467e-02, -4.83377054e-02,
       -5.01341745e-02, -7.85404583e-04, -3.42436060e-02,
       -9.61054116e-03, 1.38268117e-02, -1.62237324e-02, 2.52873506e-02,
       2.77955420e-02, -3.30002345e-02, -9.56278946e-03, -3.22196260e-03,
       3.45146954e-02, 1.48214586e-02, 5.99711984e-02, 7.14866892e-02,
       3.40784155e-02, 2.81279050e-02, -2.17485763e-02, -1.42947128e-02,
       1.79595836e-02, -2.81701004e-03, 4.45226440e-03, 9.96531546e-03,
       4.60512564e-02, -2.54382621e-02, -1.18473740e-02, -6.81604445e-02,
       -4.25240174e-02, -2.62485947e-02, -3.38638504e-03, 6.98106550e-03,
       4.56669815e-02, 8.19919910e-03, 3.20706628e-02, 6.19519735e-03,
       -1.76692996e-02, -2.89882310e-02, 1.87073648e-02, -2.21834313e-02,
       -2.98890080e-02, -1.01927447e-03, 2.70313248e-02, 2.17584781e-02,
       3.98717709e-02, -4.36435714e-02, -3.17336284e-02, -2.76734494e-02,
       -2.19712239e-02, -2.59060436e-03, -1.27840200e-02, 1.41748711e-02,
       2.08745766e-02, 3.59073803e-02, -5.15595600e-02, -4.07027677e-02,
       -4.09744233e-02, -3.22148502e-02, -2.45210249e-02,
       -3.63547937e-03, 5.63051179e-03, 3.61960270e-02, 4.89314944e-02,
       -4.02301410e-03, -2.55162194e-02, -4.83889552e-03,
       -4.75847349e-02, -2.35268790e-02, 1.05367424e-02, 5.81347337e-03,
       1.90129615e-02, 3.55534516e-02, 5.71584329e-03, -5.71544990e-02,
       -1.80872492e-02, -2.94960346e-02, -1.34117398e-02, 1.15346434e-02,
       1.28907487e-02, -3.20424850e-04, 2.41158456e-02, -4.85476628e-02,
       -3.89042869e-02, 4.83491039e-03, -1.73501670e-02, -1.93895623e-02,
       -5.15245646e-03, -1.52096944e-02, 8.49439111e-03, 1.60828047e-02,
       -3.66380289e-02, -9.83387791e-03, -8.35893396e-03,
       -1.43413199e-02, -5.41949971e-03, 3.99178360e-03, -7.27509323e-04,
       2.01647356e-02, 7.28033409e-02, -1.91669594e-02, -5.89551292e-02,
       1.22812239e-03, -3.09435222e-02, 1.60104390e-02, 1.25615867e-02,
       -1.70028750e-02, 3.93063314e-02, 2.82540116e-02, -4.25515138e-02,
       -3.16704251e-02, -2.21568905e-02, -1.50573384e-02,
       -6.42726291e-03, 1.27391536e-02, 2.03674603e-02, -6.86310697e-04,
       2.11493988e-02, -4.83628921e-03, -1.97801813e-02, -2.80314591e-03,
       -1.96807124e-02, -4.45914418e-02, -1.57658681e-02,
       -8.44237953e-03, 1.92405768e-02, 1.42438840e-02, -4.90978034e-03,
       -3.17283720e-02, -2.54859496e-02, -4.48104106e-02,
       -4.17535380e-02, -3.88771705e-02, 7.54860276e-03, 3.58253419e-02,
       1.87713597e-02, -2.83216890e-02, -3.32471132e-02, -2.68168300e-02,
       -3.04408129e-02, -4.58961762e-02, 3.13830748e-02, 3.31259407e-02,
       2.24049389e-02, 1.96954776e-02, -4.00276948e-03, -1.87140834e-02,
       -7.24334270e-03, -2.50899456e-02, -9.24690533e-03, 3.29830647e-02,
       5.71849309e-02, 7.71384500e-03, 3.49243470e-02, 2.40196288e-02,
       -2.43127756e-02, -4.06787246e-02, -1.50314262e-02,
       -5.49884886e-03, -3.25569557e-03, 2.41137985e-02, -3.12201213e-02,
       -1.79757625e-02, 1.10169975e-02, -4.22608964e-02, -3.20078917e-02,
       -1.71442162e-02, 1.71492174e-02, -2.39590532e-03, -2.40023863e-02,
       6.82749152e-02, 8.71900693e-02, 6.85201734e-02, 3.42477076e-02,
       4.01562750e-02, 1.04867360e-02, 3.38680148e-02, 4.62913178e-02,
       6.54648319e-02, 4.30899002e-02, 6.13955520e-02, 6.58100098e-02,
       4.00598533e-02, 3.65996100e-02, 4.99498844e-02, 7.00062811e-02,
       4.08749357e-02, 3.24333683e-02, -1.85527112e-02, -1.33923013e-02,
       1.36569804e-02, 3.29824723e-02, 3.82057764e-02, 3.60106900e-02,
       4.07891423e-02, 2.14319266e-02, -5.04334690e-04, -5.96649125e-02,
       -6.28330261e-02, -4.36651707e-02, -6.97124377e-02,
       -2.94492133e-02, -3.72986905e-02, -2.52889059e-02,
       -2.76256129e-02, -1.81735661e-02, 4.03963923e-02, 3.87274921e-02,
       7.26472437e-02, 7.58290961e-02, 1.30488589e-01, 1.32210150e-01,
       9.06749815e-02, 5.90114966e-02, 5.62773757e-02, -4.11552973e-02,
       -7.30886385e-02, -3.18989828e-02, -2.40499284e-02, 2.43847370e-02,
       4.57495032e-03, -6.75429916e-03, -3.08731496e-02, -1.16668986e-02,
       -1.38429217e-02, 2.12610420e-02, 2.59633325e-02, 1.83281098e-02,
       4.28475887e-02, 1.56871844e-02, 2.51024496e-02, 1.31527865e-02,
       2.69726980e-02, -2.48605758e-02, -2.52417643e-02, -2.31545488e-03,
       4.43652123e-02, 5.17904200e-03, 2.19477732e-02, 2.69041322e-02,
       -2.17241254e-02, -1.91280935e-02, -2.09642779e-02,
       -3.39045636e-02, -1.52191343e-02, 1.21980961e-02, 1.73182003e-02,
       5.67633025e-02, 4.08704169e-02, 6.27139444e-03, 1.62846651e-02,
       -1.92806385e-02, -5.55792637e-02, -3.67728695e-02,
       -5.29731484e-03, -1.14828106e-02, 1.49048558e-02, -3.92753584e-03,
       -2.25807708e-02, -1.34274261e-02, 3.73129919e-02, -5.90278991e-02,
       -5.43784015e-02, -4.75613587e-02, -1.85297418e-03,
       -5.02754338e-02, -5.41153997e-02, -4.44333889e-02, 1.02240955e-02,
       5.40510863e-02, -3.42216976e-02, -3.91984992e-02, 2.23692805e-02,
       6.22919463e-02, 2.53883284e-02, -4.16987017e-02, -3.29851136e-02,
       2.85511538e-02, 4.67280634e-02, -2.75950972e-02, -3.80721726e-02,
       -1.77214388e-02, 1.88791342e-02, -3.90179828e-02, -3.42484005e-02,
       -4.95683253e-02, 5.82183711e-02, 3.93397957e-02, -3.19509618e-02,
       1.70823664e-03, 5.18831983e-02, 2.74684560e-02, 4.89586927e-02,
       -8.01513344e-03, -4.92692459e-03, 4.83278036e-02, -4.13371548e-02,
       -1.50625063e-02, 3.43351997e-02, 2.33620405e-02, 5.12216575e-02,
       3.19085978e-02, 4.90274373e-03, -3.20864469e-02, -5.02370670e-02,
       -2.08252091e-02, 6.24775328e-02, 8.49087089e-02, 5.45505509e-02,
       3.49744186e-02, 4.75300588e-02, 6.01173751e-02, 4.09123898e-02,
       -3.49780768e-02, -5.34380823e-02, -5.85418604e-02, 1.42054018e-02,
       1.80239659e-02, 2.51373481e-02, 8.09971988e-02, 7.78153613e-02,
       -4.68400400e-03, -4.70141582e-02, -4.00177501e-02, 7.80701078e-03,
       3.70136313e-02, 4.67666164e-02, 3.30799706e-02, 7.94089511e-02,
       1.11842304e-01, 1.17331892e-01, 5.87626733e-03, 7.00170770e-02,
       3.37367505e-02, 8.69433768e-03, -1.55097060e-02, -1.46499032e-03,
       -2.20658793e-03, 1.18934037e-03, 5.75209558e-02, 7.22133666e-02,
       8.04629084e-03, 3.90158812e-06, 4.09600548e-02, 3.02337110e-03,
       1.26725454e-02, -3.29630189e-02, 2.10727118e-02, 3.27317789e-02,
       2.11768225e-02, 5.35208099e-02, 7.42485970e-02, 2.35797595e-02,
       -1.75026897e-02, -3.16477148e-03, 1.47732254e-02, 1.69685781e-02,
       6.44456372e-02, 7.98564851e-02, 3.85333879e-05, 4.41762395e-02,
       5.27420603e-02, -5.12022637e-02, 2.51143295e-02, 5.54491300e-03,
       1.42171076e-02, -2.36544553e-02, -1.90136125e-04, -5.47243990e-02,
       2.04348713e-02, 9.93964970e-02, 7.60138407e-02, 4.03975695e-03,
       5.54857887e-02, 5.84033243e-02, 3.05005908e-02, -4.25833240e-02,
       -8.65570232e-02, -5.11090122e-02, -1.25236402e-03,
       -8.55345000e-03, 5.79813868e-03, 6.42852765e-03, 2.66863173e-03,
       -4.23375182e-02, -7.60958567e-02, -3.01963184e-02, 2.71181501e-02,
       9.98100042e-02, 3.35929208e-02, 3.31164524e-02, 9.89472941e-02,
       9.94459316e-02, 1.27796326e-02, -5.29997014e-02, -7.86101669e-02,
       -4.06285934e-02, 4.67840396e-02, -9.23126098e-03, 6.35732710e-02,
       -5.31828869e-03, -1.66750234e-02, -6.58091977e-02,
       -8.55882466e-02, -4.33518477e-02, -7.62871327e-03,
       -1.58441048e-02, -1.40787000e-02, -5.58836535e-02, 1.80477239e-02,
       1.52202640e-02, 1.62604228e-02, -3.56691591e-02, -2.17767842e-02,
       -2.20752731e-02, -6.12683296e-02, -7.71248192e-02,
       -2.83008236e-02, -3.55906188e-02, -5.85903004e-02,
       -2.06105541e-02, -7.78095890e-03, -6.36897609e-02,
       -9.19233169e-03, 2.71639489e-02, -4.30602999e-03, -4.50684540e-02,
       6.60036458e-03, -3.43658612e-03, 8.10184330e-03, -3.71163972e-02,
       -3.19616147e-03, -2.01549586e-02, -4.50587347e-02,
       -4.73207161e-02, -6.43623620e-02, -4.91895452e-02,
       -5.17631769e-02, -1.65152699e-02, -1.96014550e-02,
       -2.12017875e-02, -1.72471404e-02, -3.08997650e-02,
       -1.25265000e-02, -8.70312378e-03, 1.31465588e-02, -3.36826555e-02,
       -1.59857031e-02, -1.77921560e-02, -1.79584753e-02,
       -1.87736228e-02, 7.09725916e-03, 3.92795511e-04, -2.49149483e-02,
       2.05620974e-02, 5.99986967e-03, -1.60892103e-02, -5.11021167e-02,
       -1.03049241e-02, 2.24734023e-02, -1.64709911e-02, -9.48945619e-03,
       -3.06916311e-02, 2.67183263e-04, -3.65659185e-02, -2.67826915e-02,
       -2.00528000e-02, -5.18581048e-02, 1.35879859e-03, 1.18332980e-02,
       -1.89097114e-02, -5.30976467e-02, -2.02775393e-02,
       -2.61913612e-02, -3.56857441e-02, -2.67087184e-02,
       -3.30427513e-02, -8.21119081e-03, 1.75653659e-02, 1.97463427e-02,
       -1.47802848e-02, 3.29644829e-02, 1.81524456e-02, -3.22418404e-03,
       -5.53059652e-02, -4.09378111e-02, -9.62017477e-03, 1.07862968e-02,
       1.06739458e-02, 1.01654581e-03, 7.47444183e-02, 1.30038243e-02,
       -1.42070523e-03, -5.88411205e-02, -4.89069894e-02,
       -1.97847653e-02, 3.38774398e-02, 2.54824795e-02, -6.76170876e-03,
       1.91253200e-02, -5.01165539e-03, 1.26047516e-02, 1.93002273e-03,
       -6.90553784e-02, -1.73001438e-02, 2.97990628e-02, 6.53248057e-02,
       -1.49672227e-02, 1.12922769e-02, 2.03405004e-02, -1.27818203e-02,
       -3.95979658e-02, -3.67379747e-02, -9.07795131e-03, 2.70567201e-02,
       3.92365828e-02, 6.31799176e-02, 9.27226245e-02, 4.80952226e-02,
       1.03595741e-02, -3.16719674e-02, -6.60466701e-02, -4.00845930e-02,
       -1.80861261e-02, 1.31424200e-02, 2.74950173e-02, 1.26677202e-02,
       9.74974595e-03, 1.09813772e-02, -4.41656336e-02, -4.64408323e-02,
       7.13407714e-03, 2.59923507e-02, 7.04130977e-02, 5.04325293e-02,
       5.62106483e-02, 8.47865865e-02, 8.53531715e-03, -2.04958674e-02,
       -6.12327717e-02, 1.24931708e-02, 1.14915743e-02, 1.39765926e-02,
       2.44002044e-02, -6.21613162e-03, -2.42400216e-03, -5.01527339e-02,
       -2.10422706e-02, -5.36521338e-02, -1.28240883e-02,
       -2.26157624e-02, -1.22332294e-02, -2.25574244e-03,
       -1.37086934e-03, -6.25968096e-04, 4.44534980e-02, 7.95296583e-05,
       1.26896380e-02, 3.82677987e-02, -1.14387618e-02, -8.06761347e-03,
       3.50938588e-02, -1.59582477e-02, -2.00481452e-02, 2.72260774e-02,
       1.97872538e-02, -2.11515557e-02, 2.20783446e-02, -3.03894375e-02,
       -1.73456091e-02, 1.53574040e-02, -2.58698836e-02, -2.01530103e-03,
       1.20952791e-02, -4.26321216e-02, 2.30183359e-03, 3.69991548e-02,
       -3.85741815e-02, -3.88792083e-02, 2.16140896e-02, 1.81024596e-02,
       1.68916751e-02, 4.69809175e-02, 8.32369551e-03, -2.63137510e-03,
       7.06508160e-02, 5.42546716e-03, -1.35282502e-02, 3.99746709e-02,
       -1.50284767e-02, -1.29874293e-02, 2.25984920e-02, -1.21219242e-02,
       -2.53101941e-02, 5.33217452e-02, 3.49607915e-02, -4.78563234e-02,
       -7.07697123e-03, -2.89318319e-02, 1.13450261e-02, 5.42505644e-02,
       -1.41049353e-02, -2.00646929e-02, 3.13510224e-02, -2.19647624e-02,
       -4.26760241e-02, 1.38479723e-02, -1.01194542e-03, 2.20416393e-02,
       3.84069532e-02, 1.37386518e-02, -1.36032514e-02, 4.30045240e-02,
       -8.83769896e-03, -3.77584063e-02, -2.99170930e-02,
       -7.16291517e-02, 3.84719819e-02, 7.70389363e-02, 1.40635036e-02,
       2.84268241e-03, 8.36766586e-02, 1.90220270e-02, -3.07451263e-02,
       -8.69446900e-03, -1.96875744e-02, 1.82263795e-02, 5.27532250e-02,
       -4.07753587e-02, 2.75692306e-02, 4.08888981e-02, -3.75531055e-02,
       -2.30785385e-02, -3.00574303e-02, -1.10568386e-02,
       -1.91469286e-02, 2.10494790e-02, -3.29236537e-02, -1.50288399e-02,
       4.45321687e-02, 5.60448458e-03, -9.14064888e-03, -1.02288881e-02,
       -6.19906485e-02, 5.14852675e-03, 9.83848423e-02, -8.85789224e-04,
       -5.92820160e-03, 6.30063517e-03, -3.65873277e-02, -1.88585687e-02,
       -1.54148629e-02, -4.06938158e-02, -4.46017683e-02, 8.51700641e-03,
       -2.76896544e-02, 1.78324841e-02, 6.56633114e-04, -2.87913065e-02,
       -2.23097708e-02, 5.51813748e-03, -1.41492011e-02, -5.46531007e-02,
       -2.64264755e-02, -1.08426055e-02, 2.11788509e-02, 6.92606252e-03,
       3.54195433e-03, -1.33958729e-02, -2.20035762e-02, -2.32062936e-02,
       -1.12880021e-02, 1.57782715e-03, 3.64664048e-02, 2.14396138e-02,
       -2.08675563e-02, -5.86958230e-02, -4.11794148e-02, 3.72401229e-03,
       -2.48837564e-02, -3.82765941e-02, -2.44234484e-02,
       -2.52849702e-02, 7.71044269e-02, 4.05268483e-02, 1.95166506e-02,
       -3.25983651e-02, -3.84175330e-02, -2.29778085e-02,
       -7.77847925e-03, 8.88802577e-04, 1.91422331e-03, 2.37192307e-02,
       2.86255144e-02, 3.16302329e-02, 3.00471913e-02, 3.47090885e-02,
       1.56426094e-02, -1.44912172e-02, 6.84280321e-03, 2.90845800e-02,
       4.54730541e-02, 4.97097261e-02, 3.93350311e-02, 1.61618832e-02,
       3.37953195e-02, 3.74244712e-02, 2.53328681e-02, 2.74326280e-02,
       2.78139729e-02, 6.06379025e-02, 2.56200582e-02, 1.02744233e-02,
       4.79701580e-03, -1.19961752e-02, 2.29456984e-02, 1.69715006e-02,
       1.26543902e-02, -1.89271383e-02, 5.63845113e-02, 3.44326086e-02,
       2.79385485e-02, 1.31672937e-02, 2.02418789e-02, 3.24161425e-02,
       3.26756597e-03, -4.00546356e-04, 2.62243431e-02, 3.84386294e-02,
       5.79535067e-02, 5.04931733e-02, 7.10516870e-02, 9.30811986e-02,
       1.02048278e-01, 3.57229821e-02, 4.70654629e-02, 3.72785032e-02,
       -3.87744047e-02, -8.69223401e-02, -5.56536131e-02,
       -3.81342694e-02, -9.52044595e-03, -4.44931425e-02,
       -4.36583869e-02, -5.25743440e-02, -2.77270582e-02, 6.45641387e-02,
       4.07276526e-02, 5.27551323e-02, 1.04350515e-01, 1.04562178e-01,
       7.35513717e-02, -4.31827642e-03, 3.23208272e-02, 2.55185422e-02,
       -9.52348765e-03, -5.79981618e-02, -3.61548811e-02,
       -9.17202607e-03, 3.49621959e-02, -4.23006229e-02, -6.23665042e-02,
       -7.03789592e-02, -3.26798856e-02, 3.16188368e-03, -5.88629916e-02,
       -2.57230978e-02, 1.33269345e-02, 8.81211180e-03, 4.32372019e-02,
       2.40128674e-02, -5.83421730e-04, 2.98020132e-02, -2.28644907e-03,
       -3.80348414e-02, -3.87682021e-02, -1.71331353e-02,
       -4.25833128e-02, 1.93333719e-03, -1.29537592e-02, -1.67206656e-02,
       8.03331472e-03, 3.51531468e-02, 7.14213680e-03, 1.71386935e-02,
       4.08836827e-02, 1.21674472e-02, 4.28437591e-02, -3.17779882e-03,
       -1.25638451e-02, 2.00168341e-02, 2.08608750e-02, 1.18745556e-02,
       2.81772967e-02, 2.01108214e-02, -1.46058397e-02, -2.77035218e-03,
       -1.52759627e-02, -2.65750196e-02, -3.50535242e-03, 3.30075510e-02,
       -3.50799598e-02, -2.98669450e-02, -1.11340135e-02, 2.18634177e-02,
       1.25302710e-02, 1.20588550e-02, -2.09128875e-02, 2.70597497e-03,
       1.92479193e-02, -2.32152529e-02, -2.19213981e-02, 3.36919539e-02,
       -3.43473069e-02, 3.60733047e-02, 9.63158160e-03, 6.68290537e-03,
       1.58226769e-02, -3.28132953e-03, -3.95041890e-02, -2.15909705e-02,
       -5.69291995e-04, 7.82531686e-03, 2.65898462e-02, -1.42565640e-02,
       -3.88770700e-02, -2.47680768e-02, 2.74762549e-02, 9.93114989e-03,
       -7.69279245e-03, 1.24877784e-02, -3.74319701e-04, 1.75055992e-02,
       2.09181830e-02, -7.38208089e-03, 3.82161438e-02, -3.95925045e-02,
       -7.38575384e-02, -3.76842618e-02, -2.11337730e-02, 4.70796488e-02,
       9.91811976e-02, 1.00428216e-01, 2.30659656e-02, -1.78514346e-02,
       -1.33108755e-04, 2.56822328e-03, 2.68921964e-02, 8.72775854e-04,
       3.10102999e-02, 8.25691819e-02, 1.03679150e-01, 9.00553763e-02,
       6.04775250e-02, -5.33483811e-02, -5.43382280e-02, -4.58571427e-02,
       -5.19099794e-02, 1.88899022e-02, 1.29438983e-02, 2.95404233e-02,
       -2.31478773e-02, -4.22488824e-02, -8.30980949e-03, 9.14394623e-04,
       3.59167834e-03, -1.77499596e-02, 3.06233615e-02, 5.98346442e-02,
       4.89432588e-02, 4.60067987e-02, -5.80440648e-03, 7.42003322e-02,
       7.25569502e-02, -9.13035008e-04, -2.76597403e-02, -2.87943496e-03,
       -1.18997572e-02, 7.86773395e-03, 3.85971926e-02, 6.78142980e-02,
       4.77310047e-02, 8.89428481e-02, 1.67726409e-02, -4.96444963e-02,
       1.69455837e-02, 2.74924990e-02, 4.31543253e-02, -1.31101627e-02,
       -4.54880577e-03, 4.62158769e-02, 3.48438360e-02, -3.32801929e-03,
       -2.45202109e-02, 1.17290895e-02, -4.28543165e-02, -3.71324308e-02,
       -1.40919089e-02, 3.35186385e-02, 3.55679877e-02, 4.46154065e-02,
       1.10682799e-02, -1.30027244e-02, 3.83615084e-02, -2.46317405e-02,
       4.25107218e-03, -2.24245340e-02, -1.44455647e-02, -7.54826376e-03,
       4.49891612e-02, 9.83692799e-03, -4.60482948e-02, -3.45839979e-03,
       1.20384768e-01, 1.52025849e-01, 6.66237995e-02, -3.52478065e-02,
       -6.54122308e-02, -3.63949202e-02, -3.48833315e-02,
       -8.24313238e-02, -4.38295491e-03, -4.92683193e-03, 3.63190770e-02,
       1.58945844e-02, -1.90672372e-02, -2.13587675e-02, 3.04693431e-02,
       -1.06732501e-02, -5.36025614e-02, -2.77551413e-02, 7.98079893e-02,
       1.31411299e-01, 1.17539503e-01, 3.26323090e-03, -5.61052524e-02,
       -1.94679499e-02, -5.06135337e-02, -8.19648355e-02,
       -1.36399167e-02, -2.72570830e-03, 3.82311717e-02, 7.88136199e-02,
       -1.36289457e-02, -3.83967757e-02, -4.40364564e-03, 1.19402232e-02,
       -3.00295949e-02, -5.72184809e-02, -3.26295793e-02, 1.58680533e-03,
       3.09864115e-02, 8.67234264e-03, -9.41958395e-04, -7.99359661e-03,
       -1.29735551e-03, -4.19319049e-02, -3.19265500e-02,
       -4.19324748e-02, -2.98547596e-02, 8.85838643e-03, -2.29461510e-02,
       -1.12417946e-02, 2.69952565e-02, 1.82804391e-02, -3.83546017e-03,
       -3.60710472e-02, 4.31796070e-03, 4.47441638e-02, 8.60283375e-02,
       4.57591861e-02, -2.56815413e-03, 1.02687133e-02, 2.57509109e-02,
       -2.27639414e-02, -2.33683959e-02, -8.52658879e-03, 1.34150181e-02,
       3.17293629e-02, -5.52747026e-03, 5.13771130e-03, 2.45342460e-02,
       -1.06303068e-02, -3.24219987e-02, -4.06771190e-02,
       -3.77694704e-02, -6.21745400e-02, 5.49565721e-03, -1.76050831e-02,
       -1.70284193e-02, 5.95557038e-03, -2.11843234e-02, -3.53704616e-02,
       -1.20259197e-02, -2.12966260e-02, -4.01753038e-02,
       -4.85975528e-03, 1.19486507e-02, 3.14196013e-02, 2.56142858e-02,
       -2.58905441e-02, -3.49910073e-02, -1.79190449e-02,
       -2.30109319e-02, -2.10241452e-02, 3.54023278e-02, 6.18800428e-03,
       1.63726807e-02, 6.09257035e-02, -2.01194193e-02, -3.14806886e-02,
       -2.69680992e-02, -2.18309858e-03, 4.11533099e-03, 7.28878081e-02,
       2.40655262e-02, -2.34063398e-02, -9.36386548e-03, -6.52549090e-03,
       8.12715851e-03, -1.07932212e-02, 1.64998397e-02, 6.12145523e-03,
       3.20242159e-02, 2.78936494e-02, -4.24859412e-02, -4.36702520e-02,
       -1.54637778e-02, 2.38539819e-02, -5.74287549e-02, -3.38952467e-02,
       4.34087357e-03, 2.68816743e-02, -1.86110614e-03, 2.59420667e-02,
       3.77402566e-02, -9.83830262e-03, -2.38766661e-03, -2.12402456e-02,
       3.73077504e-02, 4.10678387e-02, 1.24965630e-01, 4.88085486e-02,
       -2.96252687e-02, 2.19358108e-03, 7.78824184e-03, -2.45048255e-02,
       1.40034938e-02, -2.82070749e-02, -1.53176924e-02, 8.89331177e-02,
       4.72565517e-02, -2.26360038e-02, -3.17389332e-02, -8.09369422e-03,
       1.00393463e-02, -2.67709866e-02, -1.29098399e-02, 1.86802838e-02,
       2.64538880e-02, 2.02939250e-02, -2.54614577e-02, -2.04753354e-02,
       -2.30632480e-02, -9.07602254e-03, -1.38193220e-02,
       -6.44386634e-02, -2.80086882e-02, -4.38980088e-02,
       -1.55048845e-02, 3.71852778e-02, -8.72125383e-03, -1.24955149e-02,
       -7.22365640e-03, 7.06662284e-03, -3.26249152e-02, -1.14894556e-02,
       7.36099109e-02, 8.48053843e-02, 6.56298175e-02, 1.64165962e-02,
       -3.12784663e-03, 3.93735766e-02, -1.08164111e-02, -5.38923517e-02,
       -2.46658940e-02, 2.56629698e-02, 5.82399778e-02, 1.96699463e-02,
       2.27701142e-02, -1.19193057e-02, 5.63921826e-03, 1.00849126e-03,
       -6.59460276e-02, -4.77434620e-02, -1.40941590e-02,
       -3.23089175e-02, 1.73918642e-02, 1.64905225e-03, -4.94307727e-02,
       -2.67304257e-02, -8.01921356e-03, -1.18534565e-02,
       -3.92833389e-02, -1.38629461e-02, -1.21094733e-02, 4.21255715e-02,
       4.96848263e-02, -6.02053246e-03, 3.69780622e-02, 6.14349497e-03,
       -5.41716181e-02, -3.60665172e-02, 2.15437505e-02, 3.11272256e-02,
       2.88165361e-02, 1.65364686e-02, -1.77887026e-02, -1.00288568e-02,
       2.28991043e-02, -3.80119048e-02, -4.55464534e-02, 1.35008502e-03,
       2.59760283e-02, 4.54486301e-03, 1.91602763e-02, -3.79892625e-02,
       -3.65905091e-02, -2.16859970e-02, -7.08851172e-03,
       -4.49510897e-03, 1.42133189e-02, 1.10084927e-02, 2.34029330e-02,
       5.09541109e-03, -5.02781495e-02, -2.53826622e-02, -3.12787704e-02,
       -6.24509044e-02, -5.90575812e-03, 3.88158672e-02, 1.50559889e-02,
       3.11371591e-02, 7.46188639e-03, -2.18433887e-02, -1.86619572e-02,
       -3.30099743e-03, -2.63161622e-02, -5.15850373e-02, 3.72324092e-03,
       2.79324036e-02, 3.84044759e-02, -4.98362537e-03, -4.27532792e-02,
       -1.16028143e-02, -5.72750205e-03, -4.83386591e-02,
       -5.33543713e-02, 1.84849408e-02, 1.52152274e-02, 2.35159253e-03,
       2.16380563e-02, -1.09971417e-02, 8.22923426e-03, -2.88890302e-03,
       -4.96768579e-02, -1.71104148e-02, 9.68175232e-02, -8.73002806e-04,
       1.90148074e-02, 2.47371811e-02, -3.28695774e-02, -1.76933873e-02,
       -3.02611627e-02, -2.22821198e-02, -2.02947427e-02, 5.53601459e-02,
       1.54766142e-02, -1.41554717e-02, 5.80267457e-04, -3.45906280e-02,
       1.15830367e-02, 2.86480375e-02, -4.23829034e-02, -2.63391882e-02,
       3.53460349e-02, -1.40608475e-02, -4.46518213e-02, -1.18456893e-02,
       -4.11515646e-02, -2.42726915e-02, -8.01086193e-04,
       -2.69222595e-02, -2.16664933e-02, 3.21503617e-02, -1.90083142e-02,
       5.68163544e-02, 4.28669117e-02, -4.11948077e-02, -3.91037278e-02,
       -4.00888808e-02, -2.72471365e-02, -2.15010215e-02, 1.72656756e-02,
       1.04709184e-02, 8.14724416e-02, 6.12880401e-02, 2.80780043e-03,
       -4.18418758e-02, -3.72747406e-02, -8.64430331e-03, 1.81673579e-02,
       4.64900695e-02, 8.91085714e-03, -3.52831334e-02, -1.83361042e-02,
       -3.89989726e-02, -4.41253092e-03, 3.94652784e-03, -2.77555026e-02,
       -1.08869961e-02, 1.93317272e-02, -3.04130968e-02, 1.24597382e-02,
       -2.84621622e-02, -1.18855918e-02, -3.90022472e-02,
       -1.65739171e-02, -1.72366872e-02, -2.40260046e-02, 2.64447852e-04,
       -1.67351086e-02, 6.79950640e-02, 6.49983510e-02, 6.14899620e-02,
       2.43487675e-02, 2.24243514e-02, 5.78847714e-02, 5.59415892e-02,
       6.12165928e-02, 3.74519788e-02, 3.11130714e-02, 2.78215464e-02,
       3.14341374e-02, 2.13289149e-02, 5.15054241e-02, 7.27467313e-02,
       4.63521034e-02, 2.22232305e-02, 2.83614695e-02, 4.36715111e-02,
       1.60971396e-02, 2.57911701e-02, 2.61498196e-03, -1.71837825e-02,
       -2.02581403e-03, 3.73094343e-03, 2.56806985e-02, 1.30467918e-02,
       -7.03564519e-03, -4.23370767e-03, 5.39284386e-03, -3.85609679e-02,
       -5.53994346e-03, -1.00077083e-02, -1.93340871e-02,
       -8.09256826e-03, -8.07350501e-04, 3.80743034e-02, 4.01704870e-02,
       4.55090068e-02, 1.12308688e-01, 1.22738659e-01, 7.62316361e-02,
       2.55663730e-02, 4.90507819e-02, 4.76139188e-02, -1.34747596e-02,
       -3.06320116e-02, -2.16411259e-02, 3.20612267e-02, 3.74446549e-02,
       -2.44823489e-02, -3.75653580e-02, -5.17301634e-02,
       -2.61949711e-02, 2.51941215e-02, 1.96956787e-02, 3.14260945e-02,
       5.11124805e-02, 2.96573509e-02, 3.18032913e-02, -1.19050499e-03,
       6.17188727e-03, 1.51744634e-02, -2.66454220e-02, -2.52111051e-02,
       -2.76359748e-02, 4.16686945e-03, -2.55350880e-02, -4.43070270e-02,
       -4.11971956e-02, -4.55880798e-02, -3.85511182e-02, 7.86096230e-03,
       -4.88200597e-03, 1.88601157e-03, 2.62856539e-02, -1.50309773e-02,
       4.21262998e-03, -3.07606887e-02, -3.10000293e-02, -1.29981991e-02,
       -2.63940617e-02, -1.55247841e-02, 2.46559381e-02, 1.47428662e-02,
       -5.12976572e-02, -1.13891345e-02, -4.14004289e-02,
       -6.92125112e-02, -4.07398567e-02, 1.36412354e-02, -6.41326746e-03,
       -1.64931770e-02, 2.57252306e-02, -9.28997342e-03, 1.97030511e-02,
       3.23306071e-03, 2.34203134e-02, -5.92949102e-04, -1.61302201e-02,
       -4.48371209e-02, 8.99568014e-03, 2.27005947e-02, -2.44440865e-02,
       3.44033688e-02, -1.16637419e-03, -2.86471099e-02, -1.93842798e-02,
       2.51011420e-02, -2.60353815e-02, -2.23460551e-02, -2.32935585e-02,
       3.40017211e-03, -1.42667154e-02, -2.57009324e-02, -2.91348118e-02,
       -5.59562584e-03, 3.41811404e-02, 2.36690659e-02, 1.30869849e-02,
       1.88846961e-02, -4.88174241e-03, -1.60241351e-02, 1.28219547e-02,
       -6.96009351e-03, 2.52942890e-02, 2.06543244e-02, -3.03021781e-02,
       -1.58625692e-02, -1.58345886e-02, 2.05501150e-02, 3.45936939e-02,
       -2.23673973e-02, -2.62962691e-02, 2.84372084e-02, 3.29255275e-02,
       2.43711658e-02, 7.52465846e-03, 5.06001674e-02, -2.09433381e-02,
       1.95454117e-02, 4.31516999e-03, -6.96608564e-03, 3.95641699e-02,
       -7.65771745e-03, -3.74732539e-02, -9.23066307e-03, 1.61494110e-02,
       -1.81680471e-02, -3.31634842e-02, -1.50660733e-02,
       -1.48156527e-02, -2.32841317e-02, 2.98716612e-02, -1.86248664e-02,
       -1.38533115e-02, 3.58299329e-03, -8.85909516e-03, -1.68066646e-03,
       -2.76533905e-02, -9.89344623e-03, -1.67093880e-03, 1.38415936e-02,
       -8.44833534e-03, -9.83488839e-03, 3.43931727e-02, -2.11199168e-02,
       -3.39234360e-02, -2.52470151e-02, -1.36764189e-02, 2.48169471e-02,
       3.98121774e-02, 5.89865772e-03, 2.16617640e-02, 3.08776330e-02,
       2.83862948e-02, -2.45748144e-02, -3.70205641e-02, 3.19959433e-03,
       1.90593712e-02, 3.31828259e-02, 5.81925735e-03, -1.40260551e-02,
       1.58064738e-02, 1.64593440e-02, -1.77311245e-02, -3.64866145e-02,
       -1.89496931e-02, 5.97911596e-04, -1.96316559e-03, 2.65298933e-02,
       1.75652895e-02, 2.63351928e-02, -4.32325341e-03, -3.10271159e-02,
       -5.57873817e-03, -2.09165197e-02, -3.97882350e-02, 1.77120545e-03,
       -1.28217563e-02, -1.51669243e-02, -7.48675177e-03, 1.22394208e-02,
       3.85428924e-04, -2.04089805e-02, -9.73499287e-03, -6.07088814e-03,
       9.72809456e-03, 2.24066675e-02, -8.42302688e-04, -9.57464334e-03,
       -1.95257307e-03, -1.79790184e-02, 4.66773845e-03, -1.38008446e-02,
       3.75562464e-03, -2.67783590e-02, 2.10155789e-02, 2.52314694e-02,
       -4.63300524e-03, -1.73548795e-02, 7.73504144e-03, 4.05458137e-02,
       2.11057793e-02, -1.76914576e-02, -6.65033087e-02, -2.49590483e-02,
       -1.75532009e-02, -2.64508631e-02, 1.50676584e-02, -2.06553303e-02,
       -8.19964707e-03, 3.76902632e-02, -6.27123658e-03, -2.21597776e-02,
       -1.35091767e-02, 5.13575971e-03, -2.99841719e-04, 2.62964820e-03,
       -2.89256275e-02, 4.75996966e-03, -9.33322590e-03, -2.63295732e-02,
       -1.02019832e-02, -2.46570222e-02, -2.91322507e-02,
       -2.12621759e-03, 3.74346636e-02, -3.29339802e-02, 4.97514498e-04,
       1.77077274e-03, 1.20678097e-02, -1.56197613e-02, 3.74820642e-02,
       5.94684109e-03, 8.00453499e-03, -6.21204870e-03, -3.56802903e-02,
       2.66455822e-02, 7.43922442e-02, 6.82971925e-02, -2.32334081e-02,
       8.55481997e-03, -2.00973954e-02, -1.87445171e-02, -3.30940558e-04,
       -2.46252231e-02, 1.73320584e-02, 3.60196717e-02, 2.22230908e-02,
       5.51554793e-03, 1.55397505e-02, 1.27282152e-02, -1.14149712e-02,
       3.25753842e-03, -6.03003949e-02, 5.20596141e-03, 7.24008232e-02,
       5.68046048e-02, -1.88682452e-02, -6.11922378e-03, -2.55634543e-02,
       -2.06587724e-02, -1.95269305e-02, -8.36168900e-02,
       -1.28111150e-02, 2.28342488e-02, -1.60912257e-02, -4.46062488e-03,
       3.05394959e-02, -3.66548356e-03, 1.83760840e-02, 3.17584909e-02,
       4.21502627e-03, 9.82897449e-03, 5.81587553e-02, 2.51955185e-02,
       -2.06120685e-02, 2.74355635e-02, -5.92452846e-03, -2.75388919e-03,
       1.94252317e-03, -1.78817529e-02, -4.65895934e-03, 3.07061188e-02,
       -6.20422792e-03, -5.48107177e-03, 1.84734836e-02, -2.64489371e-02,
       2.08316483e-02, 1.28460536e-02, -1.11126481e-02, -3.01368069e-02,
       2.24835649e-02, -7.84903672e-03, -6.21698424e-03, 3.50826001e-03,
       -1.35424621e-02, -1.16788102e-02, 1.67293362e-02, -1.60570946e-02,
       -2.55571622e-02, 3.32307182e-02, -2.41352264e-02, -2.33563147e-02,
       1.75635014e-02, 3.78047861e-03, 1.13860341e-02, 1.38040315e-02,
       1.79014541e-02, 1.23099098e-02, 7.59986490e-02, 3.03594358e-02,
       -3.07842270e-02, 3.00085470e-02, 6.42132340e-03, -3.02977581e-02,
       4.49314639e-02, 3.24486918e-03, -1.53415734e-02, 3.95002104e-02,
       2.95130559e-03, 2.78560794e-03, 1.67751797e-02, -1.46329664e-02,
       -1.74144115e-02, 4.45342027e-02, 2.14223955e-02, -1.27416775e-02,
       2.35803593e-02, 3.59785999e-03, -2.04715924e-03, 2.37202849e-02,
       -1.06616793e-02, -3.02316621e-02, 4.91016731e-02, -1.20532922e-02,
       -1.96603574e-02, -6.66385656e-03, 1.26520870e-03, 1.93864061e-03,
       3.63494419e-02, 6.82418933e-03, 7.38799747e-04, 9.17351246e-03,
       6.21582940e-03, -2.37840842e-02, 5.07788025e-02, 3.76596153e-02,
       1.46682728e-02, -1.47070619e-03, -1.92902107e-02, 5.46858162e-02,
       2.30048373e-02, -7.53516005e-03, -3.23968381e-02, 3.25762406e-02,
       2.33340124e-03, 1.95331648e-02, 2.40023248e-02, -1.30861970e-02,
       -1.82819925e-02, -7.08957296e-03, 1.53600203e-03, 6.32582791e-03,
       -1.57502852e-02, -1.15952436e-02, -5.14499843e-03, 1.41560212e-02,
       -1.85038373e-02, -1.50836213e-02, 1.55991165e-03, -4.30879416e-03,
       -1.76834539e-02, -2.32043527e-02, 1.02070614e-03, -1.09863542e-02,
       9.38077341e-04, -1.99570903e-03, 6.59243762e-02, 3.21577713e-02,
       1.75505430e-02, -2.04334110e-02, 3.04838382e-02, -9.91191994e-03,
       -2.39299098e-03, 6.42084097e-03, 4.97063668e-03, 2.53808815e-02,
       9.26732738e-03, 2.58318894e-02, 5.99592342e-04, 1.29131705e-03,
       3.74474050e-03, -2.26274831e-03, 1.39607477e-03, -1.72301102e-02,
       -3.75461718e-03, -3.29795736e-03, -1.61690149e-03,
       -3.47531438e-02, -2.53732074e-02, -2.16915049e-02,
       -2.39448920e-02, -2.85459682e-02, -1.99667402e-02,
       -3.25745344e-02, 1.12689482e-02, -6.50089991e-04, -2.41457131e-02,
       -1.19124493e-02, -7.96618033e-03, -3.69308032e-02, 2.16868669e-02,
       1.53098330e-02, 3.64475138e-02, 2.61200941e-04, 2.33991537e-02,
       -1.58282723e-02, 1.99671444e-02, 1.36916502e-03, 2.49808049e-03,
       -3.92955262e-03, -2.18602233e-02, 4.56229039e-02, 5.86848531e-04,
       9.86703113e-03, -2.30351705e-02, 1.70261785e-02, 1.02381418e-02,
       -2.38752626e-02, -1.85703195e-03, -1.55209228e-02,
       -5.48836216e-03, -1.66025814e-02, 1.23482868e-02, -1.29975984e-02,
       -1.19130649e-02, 9.48641391e-04, -3.57337408e-02, -1.49364304e-02,
       -3.50682214e-02, 1.25779375e-03, -4.64962348e-02, -2.47643534e-02,
       -2.55410448e-02, -1.69654097e-02, -1.46665685e-02,
       -4.02350817e-03, -3.71239008e-03, 1.97744113e-03, 4.09672000e-02,
       4.72820923e-02, 1.52246505e-02, -1.04134399e-02, 2.28797626e-02,
       3.59605736e-04, -3.23812999e-02, -4.08946238e-02, -1.16753187e-02,
       3.52589637e-02, 2.94596124e-02, 2.38326360e-02, -7.98449200e-03,
       3.10551710e-02, -1.37786996e-02, -4.82184142e-02, -1.47374002e-02,
       -4.46313852e-03, 1.54247731e-02, -1.67894596e-03, -1.00607183e-02,
       -3.37489471e-02, 8.92245583e-03, -3.53807099e-02, -2.40822546e-02,
       -1.95072368e-02, -2.75038388e-02, 2.02408694e-02, 1.71617214e-02,
       2.34909840e-02, -4.67872024e-02, -1.58891380e-02, -5.34659997e-02,
       -1.28425360e-02, -1.46180931e-02, -6.92722108e-03, 5.48858196e-02,
       5.92830218e-02, 2.06242315e-02, 1.69892900e-03, 2.28180345e-02,
       1.41081326e-02, -1.60215311e-02, -1.23595363e-02, -1.23651726e-02,
       1.91313215e-02, 1.74183436e-02, 2.42296308e-02, 6.55711582e-03,
       1.96636152e-02, 1.31698670e-02, 1.87215842e-02, -2.54484583e-02,
       -3.79436836e-02, 2.25485712e-02, 2.52262838e-02, -1.44336578e-02,
       -2.20913943e-02, -8.84610228e-03, -1.27823586e-02,
       -3.27268876e-02, 1.12959789e-02, -2.07996145e-02, -3.13985795e-02,
       -5.38353324e-02, -2.41484325e-02, -1.44866062e-02,
       -2.24533658e-02, -2.18735775e-03, 1.46255514e-03, 2.60762293e-02,
       2.48401649e-02, 6.90209121e-02, 5.85888550e-02, 6.25512898e-02,
       3.12623605e-02, 3.36358324e-02, -5.84878819e-03, -3.90017591e-03,
       3.31571884e-02, 2.02563144e-02, 2.43083597e-03, -1.25079532e-03,
       3.18096206e-02, 1.81982275e-02, 1.38634313e-02, -2.07108539e-03,
       -3.73850726e-02, 4.43062708e-02, -5.77740197e-04, -1.34295915e-04,
       -5.11595123e-02, 4.65795770e-03, -2.52611062e-04, -2.36292854e-02,
       -1.46714002e-02, -3.56191136e-02, 3.26931127e-03, -5.55792009e-04,
       -1.73984300e-02, -4.81439661e-03, -2.08987091e-02,
       -1.97567306e-02, -2.39158664e-02, 3.94602912e-03, 1.53168179e-02,
       3.79628390e-02, 4.24046256e-02, 5.03685735e-02, 4.13760747e-04,
       2.40217615e-02, 2.80906167e-03, -6.01379434e-03, -2.71644606e-03,
       -4.11692745e-04, -6.16420666e-03, -7.57234823e-03,
       -1.88838858e-02, -2.14256290e-02, -2.14459971e-02,
       -1.51423113e-02, -5.32266535e-02, -4.41269092e-02, 2.18508821e-02,
       1.84787195e-02, 2.97459252e-02, 2.37281863e-02, 1.75132006e-02,
       -2.40450688e-02, 9.29050148e-03, -1.17042102e-02, 1.07669774e-02,
       1.99826136e-02, 1.97195485e-02, -8.72195419e-03, -3.47835571e-02,
       -4.07513268e-02, -2.92478241e-02, 2.95999786e-03, -3.65087017e-02,
       -5.10132359e-03, 6.22730888e-02, 1.20148500e-02, -1.87300760e-02,
       1.62166508e-03, -1.39098288e-02, -5.83479996e-04, 9.01808683e-03,
       -1.77729707e-02, 6.99212123e-03, 2.59707160e-02, -9.38627589e-03,
       -4.66315262e-03, -1.37553485e-02, -5.38985319e-02, 2.87312157e-02,
       -3.36516346e-03, -3.49241011e-02, 4.11516055e-03, 3.46492380e-02,
       2.35000588e-02, 4.06299392e-03, 3.89328599e-02, -1.22016221e-02,
       1.66811813e-02, 1.01878596e-02, -4.75444198e-02, -9.84515413e-04,
       1.22065833e-02, -3.24594006e-02, -2.29864735e-02, -1.37920724e-03,
       -1.40523035e-02, 4.25758809e-02, -1.29108466e-02, -6.83841482e-02,
       -2.70477179e-02, -1.05618453e-02, -5.42022958e-02,
       -3.63567770e-02, -2.27829516e-02, 9.44186375e-03, 5.48640713e-02,
       -1.54732121e-02, -2.81153340e-02, 6.26583258e-03, -5.29103389e-04,
       -1.36452504e-02, -1.61759574e-02, 2.16909703e-02, -1.52333379e-02,
       5.06877527e-02, -7.68104894e-03, -1.06944907e-02, 1.47211282e-02,
       3.74553911e-02, 1.30032306e-03, 1.13313533e-02, -1.44245068e-03,
       -9.37946513e-03, 1.42402016e-02, -3.05299778e-02, -4.06849161e-02,
       3.33209075e-02, 3.04026417e-02, 4.48181294e-02, 1.88697055e-02,
       4.15765829e-02, 9.14624613e-03, 3.01944148e-02, -1.07722580e-02,
       -1.69765356e-03, 4.46078889e-02, -2.11501755e-02, -8.71629082e-03,
       -2.41734739e-02, 7.56173162e-03, -3.42471115e-02, 1.08516812e-02,
       -1.15398467e-02, 8.88126262e-04, 7.67898886e-03, -1.22621283e-03,
       4.20611631e-03, -1.01222033e-02, 3.72240804e-02, -4.92605707e-03,
       -1.35332183e-03, 7.49399792e-03, 2.96896286e-02, 4.61760797e-02,
       1.91257074e-02, 2.54176091e-02, 1.52808137e-03, -8.50442704e-03,
       2.99012777e-03, 3.35652269e-02, -2.15344504e-03, -1.79900099e-02,
       -8.48309137e-03, 1.37387570e-02, 4.50864471e-02, 3.39684682e-03,
       1.20799635e-02, 2.08185557e-02, 2.47018952e-02, 3.16322374e-04,
       -2.13948940e-03, 5.16672526e-03, -1.39339585e-02, 5.71340695e-03,
       -3.57519812e-03, 2.33513433e-02, -1.89672783e-02, 3.97259835e-03,
       -1.51998373e-02, 2.39323080e-03, -9.61469393e-03, 2.06730571e-02,
       2.81514190e-02, 3.22259817e-04, -4.45382297e-03, -2.00071037e-02,
       -2.53179614e-02, -1.97962895e-02, -4.67320718e-03, 3.09821160e-04,
       -3.15976772e-03, 3.64860222e-02, 3.62671725e-02, 4.55141217e-02,
       1.99065804e-02, 1.66113935e-02, -6.85306685e-03, 8.79033096e-03,
       5.46284253e-04, 1.97409783e-02, 2.18844339e-02, 2.60990281e-02,
       -2.20906734e-03, -1.92712597e-03, -3.16189192e-02,
       -2.82245502e-02, -1.45506428e-03, 1.94516890e-02, -2.33408902e-02,
       1.76149961e-02, -6.35790220e-03, -7.31478725e-03, 1.10052037e-03,
       2.61768233e-03, 4.69230441e-03, 1.08864587e-02, -3.09110060e-02,
       -3.92222255e-02, 2.67452188e-03, -3.18424664e-02, 8.59139767e-03,
       -1.48335490e-02, -5.09296311e-03, 6.60170475e-03, -1.50910625e-02,
       -3.51386219e-02, -1.98655967e-02, 6.46411255e-03, 1.43727623e-02,
       -9.54722241e-03, -8.71497206e-03, -2.19719782e-02,
       -2.50829589e-02, 2.54352596e-02, -6.53483346e-03, -9.15016513e-03,
       1.31766731e-02, -1.10762184e-02, -9.13886633e-03, -4.52623442e-02,
       -2.27448791e-02, -2.11217832e-02, 2.18468644e-02, -3.77199240e-02,
       -1.96699034e-02, 2.02699434e-02, 1.40471086e-02, 4.47796332e-03,
       1.17611727e-02, -6.86645135e-03, -1.16547886e-02, 2.19224989e-02,
       -1.65409949e-02, -2.11867709e-02, 5.80051867e-03, 1.67621356e-02,
       5.10311220e-03, 1.08481236e-02, -2.44655143e-02, -3.73425633e-02,
       -5.88013278e-03, -5.76721206e-02, -1.46377552e-02, 1.41837811e-02,
       -2.00442858e-02, -1.92197468e-02, -1.42773250e-02, 3.02566104e-02,
       -1.40022719e-02, 1.65890083e-02, -3.49703543e-02, -2.52758171e-02,
       -2.80967932e-02, -3.65834273e-02, -2.53355131e-02, 1.13981648e-03,
       -8.10471736e-03, -5.69359884e-02, -2.58894078e-02,
       -1.23459324e-02, -3.11545972e-02, 2.83233989e-02, -6.33386429e-03,
       3.70526277e-02, 2.02529933e-02, 1.02884462e-02, -4.88149226e-02,
       -1.23225907e-02, -2.88791098e-02, -5.63273719e-03, 1.20704994e-03,
       -2.08726320e-02, -1.70274097e-02, -9.20926500e-03, 1.73791905e-03,
       -2.37744600e-02, 5.18086404e-02, -1.90963820e-02, -1.93723794e-02,
       1.22751947e-02, -5.39319869e-03, 4.14608456e-02, 3.36538292e-02,
       1.60788260e-02, -6.00067750e-02, -3.39656062e-02, -8.86098202e-03,
       -2.67302245e-02, -4.01848520e-04, 2.99808802e-03, -2.16323114e-03,
       1.17312912e-02, -2.67990888e-03, -5.61908036e-02, -2.83967182e-02,
       -2.18773279e-02, 1.72739069e-03, 9.21139121e-03, -2.38908269e-02,
       4.10046708e-03, 1.89315919e-02, 4.01671156e-02, -1.15908561e-02,
       5.47212251e-02, 1.22088362e-02, -3.64288837e-02, -2.67030243e-02,
       -4.42502759e-02, -1.37810074e-02, -1.05884885e-02,
       -2.26664986e-03, -9.90298856e-03, 1.18727656e-02, -1.43248513e-02,
       1.08562782e-02, 1.50460172e-02, -4.69385646e-03, -3.37737193e-03,
       1.25029162e-02, 2.42823921e-02, -4.05959152e-02, 1.12725096e-02,
       -4.85346746e-03, -3.63666122e-03, -1.51804206e-03,
       -4.18942049e-02, -2.01491136e-02, -1.36198511e-03,
       -1.37234631e-03, -6.87081218e-02, 6.07586699e-04, -4.28899750e-03,
       -3.02631594e-03, 2.99541950e-02, -4.26447252e-03, 1.99360885e-02,
       9.47964750e-03, 3.27760577e-02, 6.87289191e-03, 4.45903465e-03,
       -1.43860476e-02, -6.46669604e-03, 3.25178877e-02, -5.78291994e-03,
       -2.75206026e-02, -1.88920572e-02, -5.07548824e-03, 1.64048083e-03,
       -2.65900772e-02, -1.98530555e-02, -9.23375774e-05, 4.97401729e-02,
       -5.91137819e-03, 1.82842724e-02, 1.57495942e-02, 1.74191799e-02,
       -4.67992537e-02, 1.21140126e-02, -8.12314916e-03, -3.40936817e-02,
       4.80582789e-02, -1.23097040e-02, -6.67349529e-03, -5.66448271e-03,
       -7.77413277e-03, -2.96437256e-02, -1.81383863e-02,
       -1.58516970e-02, -2.84359814e-03, 1.32081574e-02, -9.02543683e-03,
       -4.91604814e-03, -3.94706912e-02, 3.23735783e-03, 2.00815387e-02,
       -3.30278650e-02, -3.21696028e-02, -2.00187415e-02,
       -1.05086723e-02, -1.44475754e-02, -3.13873738e-02, 7.62202544e-04,
       -1.75684653e-02, -1.16647491e-02, -1.38994530e-02,
       -2.93216500e-02, 7.29986373e-03, 1.96849480e-02, -2.11147573e-02,
       1.30864242e-02, 5.26738074e-03, 2.51921788e-02, 2.91962661e-02,
       -1.83989443e-02, -2.57961582e-02, -1.50918514e-02, 1.02257309e-02,
       -1.21631194e-02, -2.11718995e-02, 2.75688805e-03, 4.29573818e-04,
       9.27738566e-03, -1.86332744e-02, -3.32769156e-02, 9.92110837e-03,
       1.92282703e-02, -7.04439078e-03, 1.43284108e-02, -2.89101247e-02,
       1.09741474e-02, 1.23600976e-03, -5.69958473e-03, 1.31976446e-02,
       6.29083766e-03, 6.57185679e-03, 3.02485516e-03, 2.24018544e-02,
       -6.77165762e-02, 3.09130852e-03, -2.19714046e-02, -1.12519348e-02,
       -7.00051384e-03, 1.33556835e-02, -3.57585251e-02, -4.04543914e-02,
       -1.33773983e-02, -9.68486257e-03, -3.55908577e-03,
       -1.92919634e-02, 2.87026120e-03, -6.43537496e-04, 9.32756718e-03,
       -3.20042372e-02, -2.13498734e-02, 2.26227250e-02, -1.03713945e-03,
       -1.31817153e-02, -6.20252416e-02, -3.48880072e-03, 3.75538692e-02,
       -1.81559101e-02, 2.43803319e-02, -1.27162784e-03, 1.89166088e-02,
       1.80604979e-02, 1.17747001e-02, -1.83116738e-02, 6.98596658e-03,
       -1.47493239e-02, -1.78565588e-02, 1.41010089e-02, -2.38953903e-02,
       2.82634806e-04, -6.24652812e-03, 3.55332233e-02, -2.28855740e-02,
       5.25280787e-03, -2.53574476e-02, -4.37883753e-03, -5.39204292e-03,
       -2.12987959e-02, 2.76251212e-02, 4.22251038e-02, -1.98502536e-03,
       -6.17730431e-02, -6.41607586e-03, 1.27795162e-02, -2.40130071e-02,
       1.16762007e-02, -3.96310017e-02, 1.15556298e-02, -4.59059887e-03,
       1.77665371e-02, -1.69776268e-02, -4.30284272e-04, -3.00348233e-02,
       6.01075217e-03, 1.66938305e-02, -4.50069085e-03, 1.23782894e-02,
       3.41342911e-02, 4.12998945e-02, 3.12469230e-04, 1.73985865e-02,
       -2.00631414e-02, -1.93347167e-02, 1.12981414e-02, 1.53039652e-03,
       -8.51882529e-03, -2.14022491e-02, -1.44966375e-02,
       -1.90605212e-03, -2.51901951e-02, -4.03906628e-02,
       -7.96451978e-03, 2.19020285e-02, -2.98046675e-02, 1.02130715e-02,
       1.63960699e-02, 4.10958529e-02, 1.49218244e-02, 2.70388927e-03,
       -4.80867252e-02, -3.74759361e-02, -2.63773743e-03,
       -5.02693132e-02, -2.51242574e-02, -6.82399003e-03,
       -3.42268907e-02, -3.81449051e-02, -1.46714943e-02,
       -3.80456112e-02, 1.75603549e-03, 5.79471812e-02, 2.31939889e-02,
       1.23543525e-02, -9.39720869e-03, 1.70798115e-02, 1.12832598e-02,
       -4.29127831e-03, 4.78294725e-03, -2.02999320e-02, 1.12003451e-02,
       2.87115276e-02, 1.47283152e-02, 1.48749677e-03, -7.65468180e-03,
       8.04980227e-04, -4.06341488e-03, 8.44317675e-03, 4.31968458e-03,
       -2.59660347e-03, -3.73130292e-02, -2.39314456e-02,
       -1.44332349e-02, 3.11609786e-02, 9.70774144e-03, 2.50376370e-02,
       8.94361292e-04, 1.00508686e-02, -2.22579800e-02, 5.67867933e-03,
       -7.18216412e-03, 2.06161160e-02, 1.92666575e-02, -1.69000477e-02,
       -1.90688800e-02, -5.43576293e-03, 1.05826138e-02, 1.71269719e-02,
       -7.38613016e-04, 1.11621553e-02, 1.21080270e-02, -1.52785992e-02,
       1.60581786e-02, 1.28312670e-02, 7.98457861e-03, 1.25576276e-02,
       -1.00749871e-02, -1.99286342e-02, -6.86409837e-03,
       -1.46803642e-02, -2.30284855e-02, 2.26628520e-02, -2.23104600e-02,
       5.42794168e-03, 7.02806376e-03, -6.60976022e-03, -2.62758434e-02,
       -4.35021287e-03, 4.72663417e-02, 2.72250902e-02, 5.71621070e-03,
       -5.58132958e-03, -1.51849352e-02, -8.91087763e-03,
       -5.53453751e-02, -5.12258783e-02, -8.55220668e-03, 7.72555126e-03,
       1.58609059e-02, -1.27673559e-02, -1.70409679e-02, -2.29067896e-02,
       2.96658911e-02, -2.22310610e-03, 6.43325457e-03, 6.30165190e-02,
       1.53599947e-03, -1.64012320e-03, 1.86724849e-02, -4.77574579e-02,
       3.17357387e-03, 1.44750280e-02, -3.47888879e-02, 7.44626811e-03,
       4.33972999e-02, -2.97362804e-02, -3.39838816e-03, -1.37116562e-03,
       -8.36930126e-02, -1.21810427e-02, 2.25723796e-02, -1.05291717e-02,
       -1.31971133e-03, 2.65181586e-02, 8.64929520e-03, 9.24133137e-03,
       -2.44512130e-02, -2.38899179e-02, 1.69543121e-02, 2.86677703e-02,
       -1.87445525e-02, -2.16428861e-02, -4.73462371e-03,
       -1.97914653e-02, -1.74312349e-02, -2.27096267e-02,
       -5.02212085e-02, 2.25195847e-02, -1.19850028e+00 ]
