%YAML:1.0
---
best-model-2: !!opencv-object-detector-hog
   winSize: [ 64, 128 ]
   blockSize: [ 16, 16 ]
   blockStride: [ 8, 8 ]
   cellSize: [ 8, 8 ]
   nbins: 9
   derivAperture: 1
   winSigma: 4.
   histogramNormType: 0
   L2HysThreshold: 2.0000000000000001e-01
   gammaCorrection: 1
   nlevels: 64
   signedGradient: 0
   SVMDetector: [ 1.94509851e-03, 3.73152667e-03, 1.23166982e-02,
       2.14465186e-02, 2.25650202e-02, 1.28267109e-02, 1.16948225e-02,
       8.92309658e-03, 6.45282818e-03, 5.22872573e-03, 7.87693914e-03,
       8.72578938e-03, 6.01751637e-03, 1.32959080e-03, 1.12242054e-03,
       7.20854092e-04, -7.06051057e-03, 4.02412843e-04, -6.92196051e-03,
       4.72092768e-03, 1.58838388e-02, 2.43760813e-02, 1.77949877e-03,
       7.59822410e-03, 1.73440424e-03, -2.80700182e-03, -1.13748312e-02,
       -1.04314508e-02, -4.60035959e-03, 1.00752236e-02, 4.74421727e-03,
       -2.29363609e-02, 4.55559278e-03, -6.17661560e-03, -2.60449667e-03,
       -6.04190910e-03, -2.11416930e-03, 5.65697951e-03, 8.26621987e-03,
       3.12753045e-03, 1.46164810e-02, 5.98850241e-03, -6.27399515e-03,
       -6.49695378e-03, -6.45615906e-03, 1.03803026e-02, 9.72951949e-03,
       1.61047559e-02, 1.07608661e-02, 1.79474503e-02, 9.91577003e-03,
       1.62896747e-03, -6.05592132e-03, 2.05238364e-04, -1.49753243e-02,
       -3.04086902e-03, 5.70557406e-03, 2.81638303e-03, 4.41681128e-03,
       4.98351874e-03, -7.75310816e-03, -2.61563854e-03, -1.26535967e-02,
       1.67859497e-03, 1.46676945e-02, 2.01677177e-02, 1.93764269e-02,
       1.81870628e-02, 5.23428340e-03, 1.40611297e-02, 8.01144913e-03,
       -4.60790377e-03, -8.22099950e-03, 8.92031845e-03, 1.52280154e-02,
       9.38454829e-03, 5.90828899e-03, 7.94955622e-03, 6.61132997e-03,
       -2.48632976e-04, -8.47545639e-03, -2.57406030e-02, 3.89809418e-03,
       2.10164785e-02, 1.68833826e-02, 3.25778592e-03, 7.67268881e-04,
       -1.09892460e-02, 1.24934048e-03, -1.75076295e-02, -1.59041155e-02,
       2.87936535e-03, 1.21302847e-02, 1.04775215e-02, 4.37481562e-03,
       4.25025966e-04, 1.19580198e-02, 7.85634201e-03, -1.36126578e-02,
       -1.18473275e-02, 5.95075544e-03, 2.25061402e-02, 1.73221100e-02,
       1.47049297e-02, 2.02501640e-02, 9.65236221e-03, 9.72537603e-03,
       -3.39166820e-03, -1.59967914e-02, 5.97468577e-03, 2.07303669e-02,
       1.03377262e-02, -8.92349239e-03, 1.64679519e-03, -5.01373829e-03,
       -7.27077620e-03, -1.90121550e-02, -6.51175110e-03, 9.91907716e-03,
       9.63452458e-03, -2.99219362e-04, -1.01404423e-02, 1.51323981e-03,
       4.09813831e-03, -1.03661940e-02, -1.13176825e-02, -9.85880382e-04,
       2.10088305e-02, 3.02718300e-02, 1.60635188e-02, -2.51321122e-03,
       7.64853274e-03, -2.82337563e-03, -2.34073331e-03, -1.00982003e-03,
       1.13669792e-02, 3.45349945e-02, 3.67476270e-02, 1.10921655e-02,
       -1.86245553e-02, 1.06703886e-03, -1.38993654e-02, -4.14315239e-03,
       -1.95928826e-03, -8.91696941e-03, 7.63736106e-03, 9.96562559e-03,
       3.25897685e-03, -5.25254104e-03, 9.90639310e-05, 3.48301302e-03,
       8.88912659e-03, 5.17580612e-03, -5.82029857e-03, 3.25961201e-03,
       1.23194633e-02, -5.62056527e-03, -1.03822304e-02, -2.00330690e-02,
       -6.74173655e-03, 1.68245041e-03, 7.13009620e-03, 1.64541248e-02,
       3.50682475e-02, 2.53196917e-02, 1.07463785e-02, -1.42625133e-02,
       3.09129129e-03, -5.67341340e-04, 7.58494623e-03, 7.22713489e-03,
       9.19231120e-03, 3.09908856e-02, 2.03481764e-02, -1.96897727e-03,
       -8.69653467e-03, -1.79475043e-02, -6.17167493e-03, 1.04174269e-02,
       1.23299481e-02, -1.65907084e-03, 9.55335889e-03, 9.64868069e-03,
       -3.52629926e-03, -1.47916926e-02, -1.48555152e-02,
       -7.77247315e-03, 3.48777068e-03, 8.61188583e-03, 1.31717743e-02,
       9.37741250e-03, 8.23157094e-03, -2.57949159e-03, -2.12828498e-02,
       -6.76374370e-03, -6.60538161e-03, 4.84552293e-05, 2.45893351e-03,
       1.82754807e-02, 3.06220874e-02, 2.40176525e-02, -2.84378207e-03,
       -1.03693791e-02, -5.75987622e-03, -8.49321857e-03, 9.10401437e-03,
       6.09285757e-03, 2.81731505e-02, 3.84141766e-02, 2.66198721e-02,
       7.13052345e-04, -9.69745312e-03, -9.01274569e-03, -1.94851682e-03,
       8.68917350e-03, 1.72703154e-02, 7.07009854e-03, 1.01004969e-02,
       5.27878152e-03, 4.49328078e-03, -8.89394619e-03, -3.39345634e-03,
       -1.01101138e-02, 2.43012700e-03, 2.43026298e-03, -3.24582146e-03,
       -6.13953220e-03, 8.28522164e-03, 2.45618075e-02, 1.12664595e-03,
       -2.88382464e-04, -3.29684187e-03, -4.49931278e-04,
       -6.53377501e-03, 1.66791156e-02, 2.04269812e-02, 2.17315517e-02,
       2.55419896e-03, -2.15004105e-02, -1.08565185e-02, -8.39053281e-03,
       6.71610143e-03, 2.08640937e-02, 3.78987473e-03, -2.74646515e-03,
       2.09670817e-03, 6.65453961e-03, -1.50721951e-03, -1.95260113e-03,
       -6.25055935e-03, 2.09082151e-03, 1.45066911e-02, -4.25979309e-03,
       4.39114915e-03, 1.44001562e-02, 3.26194204e-02, 1.93871614e-02,
       1.96362939e-03, 3.64210719e-04, 1.06629245e-02, 3.08823539e-03,
       -1.37458900e-02, 1.45139790e-03, 1.11875841e-02, 6.73563685e-03,
       2.29773577e-04, -1.72697175e-02, -6.31506043e-03, 4.80002910e-03,
       -4.65661893e-03, -6.17208797e-03, -1.22755896e-02,
       -4.67805250e-04, 1.46256639e-02, 1.38190081e-02, 7.96847418e-03,
       9.56289098e-03, 1.81186255e-02, 1.42716626e-02, -1.40253548e-02,
       -1.69758573e-02, -5.50787954e-04, 1.13373790e-02, 1.28504671e-02,
       8.71389546e-03, 3.16021731e-03, 1.36401933e-02, 3.75136593e-03,
       -1.68193895e-02, -4.17101942e-03, 1.27503332e-02, 1.10784341e-02,
       4.85861907e-04, -9.43015330e-03, -3.32364300e-03, 2.03942251e-03,
       -4.88338899e-03, -2.59092189e-02, -1.05799520e-02, 5.85267507e-03,
       1.90163963e-02, 1.56287663e-02, 1.17881671e-02, 5.80008654e-03,
       1.30819697e-02, -3.29830393e-04, -1.95545424e-02, -1.87396556e-02,
       4.63799573e-03, 1.67340618e-02, 1.43603003e-02, 9.33897868e-03,
       5.89261879e-04, 4.64669801e-03, 3.39580071e-03, -1.75847728e-02,
       -1.84642915e-02, 8.59267265e-03, 1.53938355e-02, 2.12152861e-02,
       8.89376365e-03, -1.38746132e-03, 4.21908638e-03, 5.21209184e-03,
       -2.32549328e-02, -1.67928413e-02, -1.36453554e-03, 1.35155953e-02,
       1.79387257e-03, 9.61158238e-03, 4.04514186e-03, 4.85798530e-03,
       8.26727541e-04, 1.15655572e-03, -1.14050880e-02, -2.80553126e-03,
       7.66236940e-03, 2.74535990e-03, -1.28362083e-03, 9.68131295e-04,
       4.05832147e-03, -5.59777301e-03, -7.67653575e-03, -1.09060425e-02,
       3.32755246e-03, 1.90597381e-02, 1.98104344e-02, 1.11497762e-02,
       1.22140988e-03, 1.26532838e-02, 6.98605552e-03, 8.08607973e-03,
       1.26521266e-03, 3.58694262e-04, 9.48101468e-03, 3.34132370e-03,
       6.58062345e-04, 4.66112513e-04, 9.03696008e-03, 1.80388335e-03,
       -9.32369288e-03, -9.79158375e-03, 5.31280355e-04, 1.06977588e-02,
       -7.81640597e-03, -1.74781238e-03, 6.64295163e-03, 1.34785811e-03,
       -1.21423695e-02, -1.21377781e-02, -2.05307477e-03, 5.94428414e-03,
       1.24271046e-02, -8.87811650e-03, -6.80671073e-03, -5.11884550e-03,
       1.19179953e-03, -1.25021087e-02, 1.03180734e-02, 7.57695641e-03,
       7.91215990e-03, 9.59824957e-03, -3.89870000e-03, -4.35106596e-03,
       3.33157298e-03, 1.74412690e-02, 1.18165109e-02, 1.41801336e-03,
       1.04716448e-02, -9.16474091e-04, 1.14827733e-02, -4.09980118e-03,
       -1.05820608e-03, 1.63916114e-03, 3.52018583e-03, 1.96071411e-03,
       -1.77822858e-02, -5.45454537e-03, 2.60685477e-03, -1.10738154e-03,
       -5.13616344e-03, -1.35737984e-03, -8.45496636e-03,
       -2.80675967e-03, -1.65858939e-02, -1.83809418e-02, 1.23219229e-02,
       4.94648842e-03, 6.76825410e-03, -1.16726505e-02, -9.54190455e-03,
       -7.70066120e-03, -2.26927968e-03, -2.44672913e-02,
       -4.16043773e-03, 6.45835185e-03, -4.77226032e-03, 3.47934826e-03,
       6.52254559e-03, -3.14437994e-03, -6.88893721e-03, -7.51518877e-03,
       -9.79528017e-03, -1.44352671e-03, 1.87093653e-02, 1.76953711e-02,
       2.18081903e-02, -7.48689985e-04, -4.43637231e-03, -2.75801355e-03,
       -9.03510547e-04, -2.23252154e-03, -9.02839098e-03, 1.01695359e-02,
       6.76683197e-03, -1.86455494e-04, -1.61623899e-02, -1.19088003e-02,
       2.40193610e-03, 1.53392073e-04, -1.99349988e-02, -4.27612948e-04,
       -2.53046863e-03, 9.74450912e-03, 4.59565455e-03, -7.49444729e-03,
       -5.08835213e-03, 4.65254951e-03, 1.59662291e-02, -7.45545491e-04,
       -3.46247485e-04, 6.37758896e-03, 1.03653250e-02, 7.40775792e-03,
       -1.33807845e-02, 4.85196593e-04, 8.23060237e-03, 1.03004798e-02,
       -5.80835575e-03, -5.09523368e-03, 5.74538996e-03, 2.13550515e-02,
       2.14687604e-02, 7.32384715e-03, 1.00098588e-02, 1.73411071e-02,
       1.89720150e-02, -9.12809186e-03, 1.38740866e-02, 1.48095714e-03,
       2.12476011e-02, 2.44522952e-02, -2.63693812e-03, -9.29555111e-03,
       -9.59831639e-04, 1.03183920e-02, 1.13509530e-02, 3.38464975e-03,
       -2.01119259e-02, 8.41699913e-03, 1.86363254e-02, -2.71181837e-02,
       -1.55562619e-02, -2.34191772e-02, -2.42565796e-02, 9.36585129e-04,
       5.88503247e-03, 4.52107890e-03, 3.33616212e-02, 3.70118953e-02,
       7.88215734e-03, 1.23687424e-02, 1.15605826e-02, 1.36298779e-02,
       1.38357002e-03, -9.96187679e-04, -1.44455843e-02, 2.04095477e-03,
       1.24860015e-02, -1.15756253e-02, -1.02183213e-02, -2.00630948e-02,
       -2.19718851e-02, -1.04346257e-02, 1.15979696e-02, -2.26316005e-02,
       -5.41583495e-03, 1.02016022e-02, -8.89798068e-03, -5.48248645e-03,
       -1.75077673e-02, -2.11541988e-02, 1.29156606e-02, 1.77278707e-03,
       -2.38336399e-02, -2.51969658e-02, -1.51981711e-02,
       -2.14108303e-02, -7.51817646e-03, -1.91677939e-02,
       -1.42327286e-02, 1.26914131e-02, 1.35409860e-02, -2.28995457e-02,
       -1.11134527e-02, 1.22355148e-02, -5.33203082e-03, 9.64509672e-04,
       -9.34051257e-03, -1.86875295e-02, 1.11217927e-02, -2.89817923e-03,
       -4.28384468e-02, -2.69869976e-02, -3.13429744e-03,
       -8.43289588e-03, 5.63380308e-03, -8.82335845e-03, -2.21845955e-02,
       2.74321903e-03, -4.37662099e-03, 1.71765666e-02, 2.41235122e-02,
       1.89746022e-02, 6.69851853e-03, 8.30682460e-03, -1.18727889e-03,
       -8.40505678e-03, -1.21620372e-02, -1.63753179e-03, 6.60010288e-03,
       1.25911087e-02, 7.30836589e-04, -1.06008081e-02, 4.19134274e-03,
       -3.23489844e-03, -3.47873173e-03, 3.07123782e-03, 4.48585115e-03,
       1.52839674e-02, 2.37991121e-02, 1.58374831e-02, 1.19905444e-02,
       6.03520451e-03, -9.71780159e-03, -2.24768519e-02, -9.82981268e-03,
       1.94156996e-03, 8.04402679e-03, 1.53548438e-02, -1.00196851e-02,
       -6.02588383e-03, -1.17633790e-02, -1.50335161e-02,
       -3.40732746e-02, -1.37537606e-02, -1.26475263e-02,
       -2.62342440e-03, -1.78364920e-03, -9.00977943e-03,
       -9.36242007e-03, 2.82049971e-03, -8.49536620e-03, -5.13875205e-03,
       -9.44483001e-03, -8.76943488e-03, 1.43093262e-02, 1.45652087e-03,
       -8.40398367e-04, -3.99443554e-03, 1.88024307e-03, 6.92984508e-03,
       -3.42479278e-03, -1.45149548e-02, -1.17113972e-02, 5.11507643e-03,
       6.30180165e-03, -1.19612971e-03, -7.05731509e-04, -5.90897724e-03,
       -1.47217456e-02, -2.69471072e-02, -2.56847292e-02, 3.48350208e-04,
       1.04306405e-02, 9.93984379e-03, 1.35856029e-03, 1.73610449e-02,
       -3.02792876e-03, -8.25681165e-03, -1.24249896e-02,
       -1.49608804e-02, -1.35173351e-02, 7.21910736e-03, 9.90431383e-03,
       6.82031410e-03, 8.87583755e-03, -1.44779321e-03, 2.81203678e-03,
       -5.80290984e-03, -1.13371573e-02, -6.35294477e-03, 6.57079462e-03,
       1.27009619e-02, 8.34948476e-03, 2.25947015e-02, 5.96386986e-03,
       5.58245461e-03, -3.10848653e-03, -1.42270495e-04, -1.62775442e-02,
       4.25910018e-03, 4.03597532e-03, -2.44923984e-03, 5.65513410e-03,
       -1.12864459e-02, -7.56063918e-03, -7.04250438e-03,
       -2.14955844e-02, -1.98419560e-02, 4.88131493e-03, 1.19644860e-02,
       1.15032289e-02, 1.75911712e-03, -4.59885370e-04, 2.13698833e-03,
       -5.63018210e-03, -2.87628509e-02, -1.19452532e-02, 1.20292827e-02,
       2.48314068e-02, 1.21910428e-03, -7.42404535e-03, -4.77330992e-03,
       -1.75657012e-02, -1.75819043e-02, -6.27967622e-03,
       -2.23337251e-04, 4.63266410e-02, 4.04731445e-02, 2.90243421e-03,
       -7.47093116e-04, -8.87339376e-03, -2.82538999e-02,
       -1.28069678e-02, -1.90775581e-02, -1.65285189e-02, 2.94715595e-02,
       3.93984988e-02, 1.25827650e-02, -1.65274821e-03, -1.21455258e-02,
       -1.49895065e-02, -9.09445155e-03, -4.71886061e-02,
       -2.77123018e-03, 5.40399253e-02, 4.77535389e-02, 1.11429952e-03,
       -1.60184177e-03, -1.07306391e-02, -1.91479120e-02,
       -8.53200071e-03, -4.01803441e-02, 1.27961598e-02, 5.31655401e-02,
       3.04368436e-02, 2.75355019e-03, -1.20168161e-02, -8.58107302e-03,
       -1.30042937e-02, -8.02765426e-04, -9.64566041e-03, 1.84300616e-02,
       3.10867392e-02, 7.28936680e-03, -1.94052961e-02, -1.84718817e-02,
       -3.66614610e-02, -1.41142253e-02, -1.80803542e-03, 1.08307023e-02,
       1.71324015e-02, 6.39204383e-02, 4.27800603e-02, -9.67529044e-03,
       -1.84350051e-02, -8.53591971e-03, 3.20271909e-04, -2.94235954e-03,
       -1.47094177e-02, -1.91463821e-03, 3.30662876e-02, 1.02667632e-02,
       -1.75656732e-02, -3.03271115e-02, -3.39928754e-02,
       -5.06404042e-03, -9.47092287e-03, -1.44960461e-02, 2.04851702e-02,
       2.98038833e-02, 1.51304696e-02, -1.22792907e-02, -2.38398518e-02,
       -1.38227437e-02, -5.32058906e-03, 4.87055676e-03, 1.09863542e-02,
       1.69576723e-02, 3.08297109e-02, 2.34133005e-02, -5.12824021e-03,
       -2.26859357e-02, -2.35089799e-03, -2.68055621e-04, 1.03957858e-02,
       8.20695329e-03, -8.14400380e-04, 2.70812586e-02, 1.59410201e-02,
       -5.53483516e-03, -2.90495902e-02, -1.63645316e-02, 2.46630865e-03,
       1.01858620e-02, -3.70833115e-03, 2.39489800e-05, 1.93590075e-02,
       1.80760324e-02, -3.68206319e-03, -2.61726007e-02, -1.54093970e-02,
       -8.09423160e-03, 7.24484120e-03, -4.41109808e-03, 1.40481452e-02,
       9.38286725e-03, 8.22563190e-03, -5.77992899e-03, -1.61561202e-02,
       -5.99485543e-03, -5.66470157e-03, 9.85254347e-03, 2.14170571e-02,
       2.72424798e-03, -7.37375487e-03, -1.30619602e-02, -6.31560571e-03,
       4.01285477e-03, -3.04659246e-03, 2.04465655e-03, 1.04863970e-02,
       1.97385307e-02, 1.51146771e-02, 1.13031520e-02, -1.37564971e-03,
       -1.22473137e-02, -2.53254790e-02, -1.20316101e-02,
       -5.96921192e-03, 6.09160727e-03, 1.05469134e-02, 1.01216314e-02,
       5.84869133e-03, -8.14490300e-03, -7.25400634e-03, -1.05751501e-02,
       -4.06078948e-03, 1.27381096e-02, 2.23573856e-02, 1.56352799e-02,
       -4.63638688e-03, -3.63805657e-03, -4.38397564e-03, 6.50697947e-03,
       4.88642370e-03, 6.97225332e-03, 6.09186245e-03, 1.18569750e-02,
       1.83691923e-02, -1.40315769e-02, -1.45664262e-02, -8.19688197e-03,
       1.47417025e-03, 6.63913088e-03, 1.35281701e-02, 1.99602405e-03,
       6.33104052e-03, 1.05217071e-02, 4.06785822e-03, 9.47745983e-03,
       1.34325167e-03, 3.03188845e-05, -4.73810267e-03, -7.72674452e-04,
       3.92094348e-03, 1.62069462e-02, 5.96334040e-03, -2.32784645e-04,
       2.96704331e-03, -7.90351722e-03, -1.72049105e-02, 1.31341419e-03,
       -8.96940287e-03, -1.20092952e-03, 9.66992322e-03, 1.14923539e-02,
       -1.66161191e-02, -1.57878548e-02, -3.59183364e-03, 5.45978593e-03,
       7.24413432e-03, 7.39183649e-03, -7.84848072e-03, 4.51311411e-04,
       6.93308841e-03, -1.15826922e-02, -6.78236270e-03, 2.83064996e-03,
       1.54294223e-02, 1.71540268e-02, -9.02906433e-03, -2.36041080e-02,
       -1.09853875e-02, 1.29361870e-02, 6.71733683e-03, 7.34559260e-03,
       -1.16628385e-03, -1.34112230e-02, -9.59538762e-03,
       -5.00931079e-03, -3.52416118e-03, 1.07510118e-02, 1.31655298e-02,
       3.85516323e-04, 1.82635039e-02, 1.22425500e-02, -3.65728419e-03,
       2.26125447e-03, -4.37396951e-03, -8.94942228e-03, 2.32239184e-03,
       1.09083699e-02, -4.40626638e-03, -8.38336721e-03, -6.03862945e-03,
       8.09502602e-03, 2.04089992e-02, -8.24842544e-04, -2.38231961e-02,
       3.20001808e-03, 1.25739351e-02, 8.39356892e-03, 9.99462046e-03,
       -3.28517839e-04, -3.20629729e-03, 1.95374480e-03, -3.58020165e-03,
       -1.23570533e-02, 8.34835134e-03, 1.70476623e-02, -6.08897023e-03,
       1.99508648e-02, 7.60828238e-03, -7.21831527e-03, -6.27794676e-03,
       -1.09455241e-02, -3.06598302e-02, -2.40271492e-03, 8.28852784e-03,
       4.92777536e-03, 3.00094653e-02, 1.70571133e-02, 1.89925637e-03,
       -8.35670915e-04, -1.00353966e-02, -1.33479908e-02,
       -9.72360140e-04, -4.70757775e-04, 7.98970181e-03, 1.24700777e-02,
       -2.85645598e-03, -4.56990395e-03, -1.38158072e-02,
       -1.16445571e-02, -9.77929216e-03, 1.24690477e-02, 2.70182490e-02,
       7.04350602e-03, 1.31985557e-03, -1.59850903e-02, -5.62625332e-03,
       -1.79149322e-02, -1.13375941e-02, -1.37414178e-02,
       -1.10080757e-03, 1.65722277e-02, 2.19447911e-03, 2.03043614e-02,
       5.11514070e-03, -4.51860111e-03, -6.66394923e-03, -1.42951822e-02,
       -4.60180966e-03, 9.26059764e-03, 1.33356871e-02, 1.33645628e-03,
       -5.60339715e-04, -6.58805901e-03, -2.91669206e-03,
       -1.12585481e-02, -1.67629644e-02, -1.31820496e-02, 1.02999201e-02,
       1.73455272e-02, 4.71819472e-03, 1.02698838e-03, -4.59349202e-03,
       -2.03353935e-04, -6.00729417e-03, -1.22820931e-02,
       -1.76149812e-02, -6.38185861e-03, -1.14165014e-03,
       -3.39869270e-03, 5.57651231e-03, 1.65904686e-02, 6.11423235e-03,
       1.81699696e-03, -1.31679308e-02, -1.64737217e-02, -4.39121295e-03,
       -1.46514755e-02, 3.26012308e-03, -5.30803984e-04, 1.95779256e-03,
       4.73476527e-03, -7.29282014e-03, -1.89722981e-02, -1.91979576e-02,
       3.80697497e-03, 1.32334903e-02, -7.87287019e-03, 7.17297196e-03,
       1.52820246e-02, 6.73185242e-03, -3.18817003e-03, -1.25087844e-02,
       -4.99980384e-03, 1.46189574e-02, 1.54454424e-03, -8.96957424e-03,
       3.54229496e-03, 1.51069853e-02, 7.06169708e-03, -1.11140450e-02,
       -8.81540682e-03, -2.07002414e-03, 6.37928071e-03, -1.19914049e-02,
       -9.60833952e-03, -3.13826255e-04, 1.87938288e-02, 2.18926761e-02,
       7.99797755e-03, 2.09792051e-03, 1.03333816e-02, 9.25625023e-03,
       -7.41787720e-04, -1.43413749e-02, 8.37085210e-03, 1.90613735e-02,
       1.21262511e-02, -1.56732916e-03, -4.19120491e-03, 8.16453993e-03,
       1.52691025e-02, -5.56051545e-03, -1.71715934e-02, 8.62348301e-04,
       1.23738525e-02, 9.29741934e-03, 6.11361582e-03, -2.24526227e-03,
       1.26712779e-02, 9.19631217e-03, 1.77433854e-03, 8.80069274e-04,
       1.23709682e-02, 3.39828767e-02, 3.81305777e-02, 1.52454376e-02,
       1.60452146e-02, 1.00822179e-02, 4.82400414e-03, 2.97942851e-03,
       9.49140452e-03, 4.25887434e-03, 9.15711373e-03, 1.01567116e-02,
       -9.16276593e-03, -1.20765306e-02, -1.54443942e-02,
       -1.37457531e-02, 5.71529707e-03, -1.02056582e-02, 3.04314191e-03,
       1.46460114e-02, 2.89118160e-02, 4.66966350e-03, 1.56642385e-02,
       1.57568567e-02, 2.97815725e-03, -2.91825621e-04, -2.03689430e-02,
       -1.96992345e-02, -9.14630387e-03, -2.51083402e-03,
       -2.19316483e-02, -2.09537484e-02, -1.73419025e-02,
       -2.76297424e-02, -1.50228525e-02, 1.88061390e-02, -5.02592744e-03,
       -1.23353559e-03, 7.31541449e-03, 4.13133437e-03, 7.66134297e-04,
       -9.75772180e-03, -9.11303144e-03, 1.19713657e-02, 5.57410344e-03,
       -3.24732065e-02, -2.35878769e-02, 1.11199380e-03, 9.14796349e-03,
       1.12807155e-02, -5.81651321e-03, -1.81521606e-02, 4.18413943e-03,
       -4.64380207e-03, -2.46343613e-02, -1.48087461e-02,
       -5.23215905e-03, -1.24481265e-02, -1.06103458e-02,
       -9.01156012e-03, -2.20934283e-02, -8.72956682e-03,
       -4.23067342e-03, -3.87959480e-02, -3.50004882e-02,
       -7.67972460e-03, -7.31223077e-03, 3.53264553e-03, -3.67348525e-03,
       -2.58172024e-02, -6.57973811e-03, 7.63224903e-03, 1.50919054e-02,
       1.90233365e-02, 1.56597253e-02, 7.04292720e-03, 1.27209732e-02,
       -2.15082732e-03, -1.18432296e-02, -4.20321757e-03,
       -3.93429724e-03, 9.88821127e-03, 2.60793585e-02, 8.88560619e-03,
       -7.51741836e-03, -7.39406655e-03, -7.45591149e-03,
       -1.73786394e-02, -1.41862882e-02, 8.30659468e-04, 7.87834823e-03,
       6.63675321e-03, 1.20957447e-02, 4.18966031e-03, 1.10673290e-02,
       1.02487172e-03, -1.57336723e-02, -8.29216000e-03, -1.12323547e-02,
       -2.61002337e-03, 2.13116389e-02, 2.74923947e-02, -1.72916744e-02,
       6.64167758e-03, -5.79281850e-03, -9.21889767e-03, -4.70531126e-03,
       -1.60499904e-02, 3.22164060e-03, 9.91393346e-03, -3.74317402e-03,
       -1.38250161e-02, -1.22763310e-02, -2.11276393e-02,
       -2.43301503e-02, -2.70718858e-02, 5.77030983e-03, 2.10297387e-02,
       1.51913790e-02, -1.56080443e-03, -1.32432431e-02, -1.64211467e-02,
       -2.26604342e-02, -2.74225064e-02, -1.24571500e-02,
       -2.04021335e-02, 1.08668897e-02, 2.60986965e-02, 1.67266689e-02,
       -2.99398345e-03, 5.23121282e-03, -1.57606341e-02, -2.69711837e-02,
       -2.80167013e-02, 1.60017293e-02, 4.60486077e-02, 4.16690409e-02,
       2.85142846e-02, 2.77188607e-02, 6.65089116e-03, 4.03053407e-03,
       -1.17821889e-02, -2.95505102e-04, -4.50440310e-03, 1.24628488e-02,
       6.47881255e-03, -7.85979163e-03, -1.35907838e-02, -1.64563823e-02,
       -1.28743937e-02, -1.18507966e-02, -4.68685944e-03,
       -1.45701636e-02, 1.35968309e-02, 2.18516160e-02, 4.37316438e-03,
       -1.84641108e-02, -1.81209296e-02, -1.18038747e-02,
       -6.82508200e-03, -1.98102668e-02, -7.01090088e-04, 2.80826855e-02,
       2.92805079e-02, 1.32989399e-02, 1.12619027e-02, -7.75446591e-04,
       1.45196924e-02, 9.73313395e-03, 2.26300536e-03, -1.41166244e-02,
       1.74896568e-02, 3.90406214e-02, 2.04548761e-02, -4.79267118e-03,
       -8.93922336e-03, 1.85093544e-02, 1.26729012e-02, -4.89322655e-03,
       -4.69221035e-03, 3.95251028e-02, 5.52933738e-02, 1.80198755e-02,
       -1.09080402e-02, -2.45514996e-02, -1.84331723e-02,
       -5.70638478e-03, -2.37014387e-02, 5.19178296e-03, 5.28230704e-02,
       4.96614613e-02, -1.72532396e-03, -9.96863749e-03, -2.24399436e-02,
       -1.69956647e-02, -8.19748733e-03, -2.35946961e-02,
       -8.44166055e-03, 2.94008907e-02, 5.26780635e-02, 1.46947280e-02,
       -2.54133698e-02, -2.09713448e-02, 7.84424413e-03, 2.83650984e-03,
       -1.05898669e-02, -1.23899169e-02, 1.76666956e-02, 2.90937088e-02,
       -6.35819789e-03, -2.78481096e-02, -2.68882029e-02,
       -1.25066750e-02, -1.48744527e-02, -1.86659489e-02, 1.83009021e-02,
       5.26261218e-02, 3.60814407e-02, -9.25739016e-03, -2.01181173e-02,
       -1.24485753e-02, -2.68829870e-03, 5.56156598e-03, 6.65002503e-04,
       1.58142466e-02, 2.86065228e-02, 8.00074730e-03, -2.58659348e-02,
       -3.18914913e-02, -2.62756776e-02, -8.35742522e-03, 1.06400149e-02,
       3.16415518e-03, -2.51185428e-03, 2.37534381e-02, 1.63831003e-02,
       -1.66625772e-02, -1.83744263e-02, -8.42908304e-03,
       -3.03136068e-03, 5.67272911e-03, -1.44626883e-05, -1.74684147e-03,
       9.79225803e-03, -6.99465070e-03, -3.84037085e-02, -2.63711363e-02,
       -1.45898806e-02, -1.12052867e-03, 1.12443203e-02, 9.48940683e-03,
       1.80230178e-02, 2.48057079e-02, 3.80535307e-03, -1.48335742e-02,
       -3.82804610e-02, -1.72205772e-02, -3.47000617e-03, 1.68654267e-02,
       1.02745276e-02, 2.18912046e-02, 2.48742960e-02, 1.47285068e-03,
       -1.10270474e-02, -2.00382695e-02, -9.57124121e-03,
       -9.51143447e-03, 1.20595312e-02, 1.27181886e-02, 1.74195389e-03,
       6.03768276e-03, -1.60693917e-02, -2.23793834e-02, -3.91466916e-02,
       -1.00893741e-02, 1.02563696e-02, 1.61567722e-02, 5.11292741e-03,
       8.47562868e-03, 4.53305518e-04, -1.40222963e-02, -1.53849022e-02,
       -2.01470181e-02, 6.58196583e-03, 1.36662405e-02, 2.04826258e-02,
       1.31567577e-02, 1.98141858e-02, 2.07201838e-02, 6.17962331e-03,
       -1.00952247e-02, -1.81798413e-02, -4.97714244e-03, 3.85472405e-04,
       4.50888136e-03, 2.47319620e-02, 1.34914145e-02, 1.56109920e-02,
       -2.90766300e-04, -6.42301375e-03, -2.15066820e-02,
       -1.26728788e-02, 1.15750264e-02, 9.12028458e-03, 1.51992664e-02,
       -7.09567545e-03, -1.30327174e-03, -3.97476554e-03,
       -3.66628286e-03, -5.64292725e-03, 1.11650303e-02, 1.40860509e-02,
       3.00845783e-03, 5.80743595e-04, -3.14844400e-02, -2.74185967e-02,
       -1.20976400e-02, -4.85739729e-04, 2.95910169e-04, 8.48051067e-03,
       5.37560089e-03, -1.20403143e-02, -3.18364203e-02, 1.62516609e-02,
       1.44755477e-02, 3.52058606e-03, 1.02083422e-02, -4.46987338e-03,
       6.91285473e-04, 1.20467413e-02, 1.86035428e-02, 1.87017862e-02,
       1.20445443e-02, 1.36389742e-02, -5.83514757e-03, -8.86142720e-03,
       -7.66545534e-03, -1.36593627e-02, 6.51852097e-05, 7.97575992e-03,
       1.89831555e-02, -2.66255923e-02, -2.28598695e-02, -1.50246359e-02,
       9.37905069e-03, 5.46988565e-03, 6.80985255e-03, 5.68016572e-03,
       -9.65432543e-03, -3.32782567e-02, -9.72453505e-03,
       -1.02252038e-02, -1.44630447e-02, -9.72821843e-03,
       -6.10647630e-03, -4.05819481e-03, -9.19509307e-03, 2.98292842e-03,
       -1.16880424e-02, 1.32460874e-02, 8.35159142e-03, -2.84787221e-03,
       -1.68163143e-02, -1.89459641e-02, -1.06262686e-02, 2.76602659e-04,
       8.77117831e-03, 2.40551680e-02, 1.01207169e-02, 2.04938613e-02,
       2.74858699e-04, -1.21252704e-02, -1.46326683e-02, -1.17301336e-02,
       2.55087204e-03, 1.52933681e-02, 2.08193827e-02, -9.05699562e-03,
       5.91693213e-03, -1.64880175e-02, -1.89905502e-02, -2.75418684e-02,
       -1.69063769e-02, -1.51255028e-02, 8.20688158e-03, -5.39208902e-03,
       -3.26263299e-03, 2.43066326e-02, -3.75849055e-03, -1.26849569e-03,
       -1.68110523e-02, -2.48330794e-02, -1.76944006e-02,
       -2.83943227e-04, -8.37868918e-03, 3.85455391e-03, 1.94653738e-02,
       2.80643348e-04, -1.44547196e-02, -2.49002781e-02, -2.04836931e-02,
       -1.16253048e-02, 8.47986527e-03, 1.43581266e-02, 1.14016486e-02,
       3.40482891e-02, 1.07299443e-02, -9.94891953e-03, -2.36389544e-02,
       -2.43381858e-02, -8.83958489e-03, 1.66113162e-03, 1.39692510e-02,
       -2.46268860e-03, 3.66632566e-02, -1.95440021e-03, -1.44879259e-02,
       -1.95634533e-02, -3.40041816e-02, -1.60327144e-02,
       -4.19271877e-03, -8.08014907e-03, 1.74907334e-02, 4.96679433e-02,
       9.42557026e-03, -2.56611742e-02, -2.93700416e-02, -2.81437412e-02,
       -7.08431704e-03, 1.92879140e-02, 1.93390716e-02, -5.97354141e-04,
       1.64114852e-02, -4.97145206e-03, -9.62921698e-03, -1.02693075e-02,
       -2.47997753e-02, -1.25164809e-02, 2.77507165e-03, 1.19392611e-02,
       -1.80641786e-04, -4.80295066e-03, -9.98129044e-03,
       -5.69440192e-03, -1.11541850e-02, -2.60019302e-02,
       -1.06923198e-02, 4.59824735e-03, 1.68593917e-02, 1.22530330e-02,
       2.41097156e-02, -5.27951214e-03, -2.52325218e-02, -2.12248825e-02,
       -2.71844789e-02, -1.29031735e-02, 1.63938142e-02, 2.31332779e-02,
       4.45142435e-03, 6.71513937e-03, -8.69219843e-03, -1.34132365e-02,
       -8.00008327e-03, -1.52660729e-02, -8.69206432e-03, 1.39202243e-02,
       1.56471990e-02, -1.23089477e-02, -4.79392242e-03, -5.18504623e-03,
       -3.13655357e-03, -9.50681418e-03, -2.79773828e-02,
       -1.71062127e-02, -3.60330637e-03, -1.56843942e-03,
       -9.65736341e-03, 5.21138310e-03, 5.82689838e-03, 8.08388367e-03,
       3.00641009e-03, -1.42440367e-02, -1.76084926e-03, 1.13624362e-02,
       2.19143089e-03, -1.39042102e-02, 3.21737351e-03, -1.45512982e-03,
       -3.50020803e-03, -9.40459940e-05, -1.05995378e-02,
       -2.79913191e-03, 1.21239824e-02, 1.66170206e-03, -1.22302370e-02,
       1.11724921e-02, 1.12034520e-02, 6.37511490e-03, 5.85971912e-03,
       -1.93086278e-03, 3.85820540e-03, 2.11210344e-02, 3.24573833e-04,
       -7.71693839e-03, 9.44480672e-03, 9.18445550e-03, 7.33629661e-03,
       -7.30458507e-03, 5.82484668e-03, 9.97685269e-03, 1.28883999e-02,
       3.35365883e-03, -3.02004591e-02, -4.53590881e-03, 8.37233756e-03,
       7.73709407e-03, -8.47146939e-03, 8.34154082e-04, 1.57291852e-02,
       -2.81147147e-03, -1.43319005e-02, -2.41926615e-03, 1.20035177e-02,
       4.06757416e-03, -2.14771135e-03, 1.32502275e-04, 6.16869051e-03,
       1.98342334e-02, 2.85633877e-02, 1.29859904e-02, -2.60727946e-02,
       5.87843219e-03, 1.04938075e-02, 1.19687608e-02, 7.25223543e-03,
       1.23172626e-02, 1.48280468e-02, 2.10073087e-02, -1.20281326e-02,
       -1.75588652e-02, 9.76267096e-04, 1.42080123e-02, 3.73435691e-02,
       1.85664892e-02, 3.20588648e-02, 2.80749984e-02, 7.75289396e-03,
       -4.35212953e-03, -2.95913182e-02, -2.52486840e-02,
       -1.49984388e-02, -7.49366591e-03, -1.06531689e-02,
       -1.55549217e-02, -1.14214336e-02, -2.15337239e-02,
       -2.59290282e-02, -1.49943288e-02, 2.27311179e-02, 3.64615060e-02,
       5.12718596e-02, 4.50329781e-02, 5.78845590e-02, 3.44883017e-02,
       2.65129097e-02, -1.23233851e-02, -4.17090282e-02, -1.69749726e-02,
       -7.23478803e-03, 1.16464624e-03, 3.16545903e-03, 1.06980419e-02,
       -5.29575674e-03, -1.66236199e-02, -3.35195437e-02,
       -4.58264584e-03, -2.02900358e-02, -1.08829699e-02, 5.66897495e-03,
       4.99439985e-03, -1.07877711e-02, 2.56954983e-04, -7.51101924e-03,
       -8.02031532e-03, 2.64892261e-03, -2.36839317e-02, -9.14845895e-03,
       1.24768261e-02, -4.35863435e-03, -3.06277024e-03, 3.48990923e-03,
       -1.20845363e-02, 7.79083231e-03, -2.33030468e-02, -1.80109851e-02,
       -6.90443162e-03, 7.54540553e-03, 1.19003456e-03, 1.52415433e-03,
       -2.18731933e-04, -9.38473549e-03, -7.96306692e-03,
       -2.23146640e-02, -2.17874199e-02, 8.83187226e-04, 1.18977716e-02,
       -2.46129837e-03, -8.08524899e-03, 4.73585009e-04, -1.82713419e-02,
       -1.02721741e-02, -9.04089492e-03, 1.13133329e-03, 1.70090571e-02,
       1.87109262e-02, 2.31201593e-02, 4.22201492e-03, -3.44858301e-04,
       -1.93690769e-02, -1.24814501e-02, -1.93988625e-02,
       -6.93094172e-03, 1.90052819e-02, 2.78369132e-02, 2.56745610e-02,
       1.63486023e-02, -2.45524663e-03, -1.60806216e-02, -1.06204171e-02,
       -1.94863547e-02, 1.44309551e-03, 2.37812027e-02, 2.18795594e-02,
       2.28601210e-02, 7.16893282e-03, 3.45152424e-04, -1.35592688e-02,
       -5.83096966e-03, -2.13710126e-02, -4.36864095e-03, 1.92669779e-02,
       2.09907573e-02, 2.58842707e-02, 2.24339515e-02, -8.90509808e-04,
       -1.60144232e-02, -2.34011598e-02, -3.34090777e-02,
       -7.00805755e-03, 1.46981580e-02, 2.11267788e-02, 1.18304119e-02,
       1.43192103e-02, -1.74761228e-02, -3.21147814e-02, -3.33446525e-02,
       2.56662187e-03, 1.77320447e-02, 3.14552784e-02, 3.48733291e-02,
       3.53486799e-02, 2.14861613e-02, 3.34015768e-03, -3.76827130e-03,
       -9.26428242e-04, -3.73105630e-02, -1.43636856e-02, 4.35390230e-03,
       9.52568091e-03, 1.12517765e-02, 1.60997082e-02, -4.62154299e-03,
       -2.43737586e-02, -3.38426530e-02, -1.02813132e-02, 1.12787616e-02,
       2.52936762e-02, 2.05311272e-02, 1.72487218e-02, 2.43146922e-02,
       5.13557717e-03, -3.26573080e-03, 3.02494364e-03, -9.56878532e-04,
       7.65473768e-03, 2.01179534e-02, 1.20238084e-02, 1.08341509e-02,
       1.03887999e-02, 9.28316265e-03, 1.17843971e-02, 2.22714385e-03,
       -1.03144459e-02, 1.32547300e-02, 3.12662087e-02, 6.26197038e-03,
       -5.56093082e-03, -1.07236924e-02, 2.10082978e-02, 2.16990225e-02,
       -4.93833050e-03, -8.83813575e-03, 1.54332994e-02, 2.69871764e-02,
       1.36831542e-02, -1.01343589e-03, -5.42750722e-03, -6.80590142e-03,
       -9.36654024e-03, -1.09120905e-02, -3.40053928e-03, 2.10691132e-02,
       2.84255687e-02, -3.53763858e-03, 2.16209446e-03, -1.02340439e-02,
       9.79942456e-03, 5.73427789e-03, -1.12988548e-02, -1.14248227e-02,
       1.95565168e-02, 4.31947596e-02, 1.26516419e-02, -1.03223938e-02,
       -3.30498139e-03, 2.67560128e-02, 1.70228835e-02, -5.83501626e-03,
       -1.65008996e-02, -3.89032857e-03, 1.74920093e-02, 5.72385848e-04,
       -4.46250022e-04, 8.10500700e-04, 3.29007348e-03, -2.32263724e-03,
       -1.30793452e-02, -7.07873888e-03, 1.76133979e-02, 3.15715894e-02,
       1.49202289e-03, 3.86962248e-03, 4.66966489e-03, 2.31044758e-02,
       1.45046534e-02, -8.72993190e-03, -9.78360977e-03, -1.04366113e-02,
       4.27049864e-03, -5.01501560e-03, 7.38206739e-03, 5.33183292e-03,
       9.72109102e-03, -4.99582104e-03, -8.98813270e-03, -5.87446056e-03,
       6.66561536e-03, 9.12792981e-03, 5.67734707e-03, 1.56669749e-03,
       1.61526557e-02, 6.06343010e-03, 5.82471443e-03, -1.24918961e-03,
       -1.22133158e-02, -4.13475605e-03, -3.14946240e-03,
       -6.73115859e-03, -8.38975143e-03, 5.11391973e-03, 6.57623787e-06,
       -7.83940079e-04, -6.64475560e-03, -9.12809046e-04, 4.02183301e-04,
       6.79098582e-03, 4.95993998e-03, -9.23894253e-03, 5.27179893e-03,
       9.03622527e-03, 6.39184611e-03, -1.03394059e-03, -1.63213548e-03,
       3.80553305e-04, 5.00780204e-03, 1.86133187e-03, -4.75735025e-04,
       -1.07873185e-02, -1.52481003e-02, -5.07439580e-03,
       -1.47811295e-02, -1.16870617e-02, 2.06117146e-03, -4.58685477e-04,
       2.31420901e-03, -2.56790640e-03, 4.07881569e-03, -1.37875276e-03,
       2.60505616e-03, -6.79416175e-04, -2.42361221e-02, 3.96455545e-03,
       -1.37938710e-03, 1.24884164e-02, -7.56995651e-05, 1.21196052e-02,
       3.81624443e-03, 7.80717656e-03, -1.56876836e-02, -1.29339471e-03,
       9.23923217e-03, 1.42081622e-02, 7.96118379e-03, 1.10504404e-02,
       -3.67398909e-03, -2.25426443e-02, -3.07771470e-03,
       -6.97676977e-03, -1.93227660e-02, 1.25954682e-02, 1.25947604e-02,
       1.34770768e-02, 8.29221122e-03, 4.11392516e-03, -1.27780782e-02,
       -4.01066430e-03, -2.55165249e-02, -3.25059481e-02,
       -6.44501997e-03, 4.63123480e-03, 1.63029060e-02, 4.08117101e-03,
       1.75811127e-02, 1.01235518e-02, 1.49533176e-03, -2.38431338e-02,
       -4.45776135e-02, -1.55614568e-02, 6.49393117e-03, 2.27559134e-02,
       2.63802521e-02, 2.50707995e-02, 1.45585341e-02, -7.74226105e-03,
       -4.15861905e-02, -3.27473432e-02, 5.96950389e-03, 2.42058691e-02,
       2.31042411e-02, -9.78344120e-04, 2.27922155e-03, -5.91184478e-03,
       -6.49982758e-05, -3.19717638e-02, -3.67648266e-02, 4.84872377e-03,
       2.16353387e-02, 3.41916233e-02, 2.08910424e-02, 8.62726010e-03,
       -5.42660477e-03, -1.32712936e-02, -4.53390405e-02,
       -4.07487638e-02, -1.38611021e-02, -3.12528427e-04, 2.31750999e-02,
       2.70247888e-02, 2.00105608e-02, 3.56813846e-03, -1.20784333e-02,
       -4.13610563e-02, -6.34669233e-03, -7.69609062e-04,
       -2.74747587e-03, 2.77818181e-03, 1.07568074e-02, -2.24334770e-03,
       -4.23834147e-03, 9.04880092e-03, -6.74540270e-03, -3.22344005e-02,
       -4.26540896e-03, 5.78360399e-03, 3.06093637e-02, 1.88615415e-02,
       1.21875070e-02, -5.54614095e-03, -1.49699831e-02, -4.04529199e-02,
       -1.47425355e-02, 9.84937232e-03, 1.27198652e-03, 7.34774861e-03,
       2.11084671e-02, -5.70826745e-03, -4.18496202e-04, 4.93166503e-03,
       -3.71765811e-03, -1.28436671e-03, 1.99536402e-02, -4.80362633e-03,
       -1.13857901e-02, -1.17097031e-02, -1.52531639e-02,
       -9.29992367e-03, 2.12740228e-02, 8.95559974e-03, 2.72146077e-03,
       3.83733734e-02, 4.62902477e-03, -7.98341876e-04, -1.06999483e-02,
       -2.27035284e-02, -1.13378605e-02, 2.06766855e-02, 9.35539720e-04,
       -3.04916501e-03, 2.29385830e-02, -3.75429704e-03, -7.85295386e-03,
       -1.55035211e-02, -2.55117472e-02, -1.10289557e-02, 2.37879269e-02,
       6.16761623e-03, -1.48645015e-02, 1.39820138e-02, -2.55729118e-03,
       -2.90007819e-03, 7.19416328e-03, -2.73310058e-02, -8.77345260e-03,
       3.33818942e-02, 2.57654209e-03, 2.97321752e-03, 3.65497880e-02,
       1.38563407e-03, -1.20128470e-03, -5.10836532e-03, -1.84606966e-02,
       -1.39598083e-02, 9.34993941e-03, 2.58469419e-03, 2.46707816e-02,
       4.10016328e-02, -6.28323527e-04, -1.88689586e-02, -1.44092869e-02,
       -1.63123403e-02, -4.22637630e-03, 3.10825519e-02, 2.79970597e-02,
       -1.51471896e-02, -5.35023259e-03, -1.47965262e-02,
       -5.16577251e-03, -3.23190470e-03, -2.38640439e-02,
       -1.08635435e-02, 2.69556921e-02, 1.25216646e-03, 1.01642590e-02,
       6.19429490e-03, -1.77078936e-02, -2.06945203e-02, -1.61470603e-02,
       -2.56833024e-02, -2.39543198e-03, 3.43932584e-02, 4.02192725e-03,
       2.18396578e-02, 2.13039462e-02, -3.63331824e-03, -2.27738339e-02,
       -1.33752422e-02, -2.17609424e-02, -1.11029055e-02, 1.97923034e-02,
       3.41692753e-02, 9.75195039e-03, 6.44774782e-03, -1.13856280e-02,
       -2.06979867e-02, -7.02915620e-03, -1.44602591e-02,
       -8.31992459e-03, 2.06640195e-02, 1.90962777e-02, 1.38791287e-02,
       2.73400638e-03, -2.77590360e-02, -3.30031514e-02, -2.04830877e-02,
       -3.45967188e-02, -1.87607594e-02, 1.75361726e-02, 1.10025695e-02,
       8.81954934e-03, -1.76596094e-03, -2.31334083e-02, -1.84484795e-02,
       -1.25652319e-02, -3.43611799e-02, -2.03160103e-02, 4.85065766e-03,
       6.69848220e-03, -1.11204395e-02, 7.09619420e-03, -2.47543911e-04,
       -5.13241021e-03, 8.63597076e-03, -1.14674373e-02, -6.51566219e-03,
       9.20830853e-03, 4.66095097e-03, -2.61513609e-03, 7.04687322e-03,
       2.11208826e-03, 8.82376858e-04, -3.63540323e-03, -8.57512280e-03,
       -4.96026501e-03, 1.62965916e-02, 5.31734107e-03, 8.29329831e-04,
       9.18942911e-04, -1.53979659e-02, -3.26826307e-03, -4.01710672e-03,
       -2.42234394e-02, -1.65553205e-02, 5.16863773e-03, -8.41291063e-03,
       -1.90729348e-04, -3.04413214e-03, -7.44710583e-03, 2.92272051e-03,
       -6.34495076e-03, -1.82233360e-02, -1.13116717e-02, 2.08417363e-02,
       4.38092928e-03, 3.19950026e-03, 1.17593119e-03, -6.80170546e-04,
       4.47651488e-04, -6.73514698e-03, -3.94874392e-03, 6.16042269e-03,
       2.00765245e-02, 9.60494857e-03, -9.20627359e-03, 5.02245314e-03,
       1.07276449e-02, 1.32223880e-02, 2.24593896e-02, 6.72925310e-03,
       5.00055542e-03, 1.47800837e-02, -4.18776833e-03, 2.25456664e-03,
       4.97188512e-03, 2.06737986e-05, 6.33712625e-03, -1.22297518e-02,
       -1.50263151e-02, 3.12059955e-03, 2.37074085e-02, 7.69116310e-03,
       -8.76342040e-03, 5.59165701e-03, 1.06703602e-02, 2.03436539e-02,
       2.32821200e-02, -6.03967765e-03, -5.20920381e-03, 2.34308443e-03,
       -1.52336350e-02, -1.26714464e-02, 8.76905769e-03, 1.95433218e-02,
       4.13265377e-02, 5.01681790e-02, 4.61470746e-02, 1.66386589e-02,
       5.26576722e-03, -8.33575148e-03, -3.47368903e-02, -2.66438685e-02,
       -1.90193225e-02, -6.41199620e-03, -7.46641541e-03, 6.60122326e-03,
       -1.27748698e-02, -2.43059825e-02, -2.45473366e-02,
       -1.37956273e-02, -1.27146172e-03, 1.84340291e-02, 5.21388948e-02,
       4.69595902e-02, 3.23735848e-02, 3.08941584e-03, 2.48292345e-03,
       -8.54607765e-03, -3.34290639e-02, -3.24068815e-02,
       -1.46285454e-02, 4.91261762e-03, 1.34206493e-03, -4.70743002e-03,
       -2.35141050e-02, -3.98774929e-02, -3.10090408e-02,
       -9.79606528e-03, -1.66308545e-02, -1.74757186e-03, 4.02762042e-03,
       3.18650808e-03, 3.64563917e-03, -6.81046536e-03, -1.25624333e-02,
       3.29573615e-03, -4.06663027e-03, -2.30086390e-02, -1.14295743e-02,
       4.83940495e-03, -5.66425174e-03, -1.27976108e-02, -7.86744896e-03,
       -1.89359114e-02, 2.20055037e-04, -8.63431767e-03, -9.59660858e-03,
       5.48890792e-03, 6.97679911e-03, 1.04515525e-02, 3.94475460e-03,
       -9.95433237e-03, -2.98195519e-02, -1.39817884e-02,
       -2.34929053e-03, -2.51381658e-02, -7.14797527e-03,
       -4.99650789e-03, -9.40054841e-03, -1.49510568e-02,
       -2.02940311e-02, -3.48481052e-02, -1.45281591e-02,
       -9.41648788e-04, 1.04726674e-02, 1.76298823e-02, 1.89846307e-02,
       1.03336945e-02, 6.79008011e-03, -2.03836826e-03, -8.85841344e-03,
       7.71825807e-03, -7.81373680e-03, 1.59411051e-03, 4.07488551e-03,
       1.28811486e-02, -2.11317255e-03, 1.40829552e-02, -8.36469978e-03,
       -1.88812353e-02, -1.17489444e-02, 7.65712652e-03, 8.26300122e-03,
       1.33843720e-02, 1.11419959e-02, 3.09645035e-03, 9.45273228e-03,
       -4.39565536e-03, -5.18007809e-03, 6.82325847e-03, -9.26240173e-04,
       -1.13263987e-02, -1.32406480e-03, -5.02582500e-03, 4.44449065e-03,
       1.39321256e-02, 2.13944330e-03, -5.11694513e-03, 4.36494127e-03,
       -4.81398962e-03, -1.03001492e-02, -2.67060846e-03, 7.55468477e-03,
       1.05490852e-02, 2.02482101e-02, 2.54334765e-03, -5.37265651e-03,
       -6.46157051e-03, 1.09831393e-02, 9.90890712e-03, 2.09762305e-02,
       1.46076288e-02, 1.86487921e-02, 2.04096772e-02, 8.64513405e-03,
       6.48245215e-03, 1.52790034e-02, -7.20936619e-03, -1.69548746e-02,
       -1.37951858e-02, -7.91212171e-03, -7.52095017e-04, 6.06045919e-03,
       -6.24282472e-03, -1.39097907e-02, -3.80116235e-03, 2.68192240e-03,
       -7.14483997e-03, -6.04563579e-03, 1.13884173e-03, 8.04577488e-03,
       -1.97204296e-03, -3.28187691e-03, -4.49338835e-03, 8.13174434e-03,
       5.70017099e-03, 1.85020119e-02, 1.94793250e-02, 8.83049611e-03,
       5.83972456e-03, -5.74717857e-03, -1.57887265e-02, -1.71145946e-02,
       -1.05923136e-04, 1.48006883e-02, 2.31178422e-02, 2.02870481e-02,
       -4.67764388e-04, 1.53590487e-02, 1.09831039e-02, 1.58791225e-02,
       1.04529932e-02, 4.01786342e-03, 6.43542595e-03, -2.09633799e-04,
       -7.92115275e-03, -4.91298328e-04, 1.05495229e-02, -1.38673009e-02,
       -1.68614946e-02, -1.82144959e-02, -5.51723875e-03, 4.14237402e-05,
       -5.49518736e-04, -6.31420175e-03, -8.14326014e-03, 1.97256655e-02,
       4.36112937e-03, -8.12774888e-05, -1.07103894e-02, 3.17635224e-03,
       2.92516616e-03, 4.63940948e-03, 6.70189410e-03, -1.57907009e-02,
       -6.07343111e-03, 2.30339672e-02, 3.25315259e-02, 2.85500344e-02,
       8.30547325e-03, -5.64140594e-03, -1.19348969e-02, -7.80590437e-03,
       -2.63625216e-02, -1.88327264e-02, 5.42426109e-03, 1.92279052e-02,
       2.20636129e-02, 6.52777962e-03, -1.84870120e-02, -9.69209522e-03,
       -1.61246303e-02, -1.79975014e-02, -4.29336401e-03, 2.79325079e-02,
       3.61703560e-02, 3.42397727e-02, 7.18490407e-03, -2.28369795e-02,
       -1.07890833e-02, -1.92198046e-02, -2.50249878e-02,
       -9.80527513e-03, 8.20903201e-03, 3.43899615e-02, 3.92958969e-02,
       8.23014602e-03, 7.01857405e-03, 5.87135833e-03, 3.15654324e-03,
       -9.12840385e-03, -2.03664228e-02, -1.34909470e-02, 1.77553156e-03,
       1.81778371e-02, 1.07341316e-02, 1.69890076e-02, 8.87187757e-03,
       5.34686958e-03, -1.70998834e-02, -8.42196308e-03, -2.30083074e-02,
       -9.75870807e-03, 5.39203081e-03, 8.28880630e-03, -9.72414576e-03,
       -7.41294178e-04, -3.26040341e-03, -1.81945525e-02,
       -2.63764095e-02, -1.99027825e-02, 1.06215840e-02, 3.42687145e-02,
       1.20759774e-02, 7.14050233e-03, 4.59787203e-03, -1.68230513e-03,
       -2.91493442e-02, -3.64237837e-02, -2.05179062e-02, 2.86482484e-03,
       2.58182231e-02, 2.59835161e-02, 7.13733723e-03, 5.78017440e-03,
       8.20302591e-03, -1.58460699e-02, -9.53273475e-03, -1.86155178e-02,
       -2.38171425e-02, 3.53311631e-03, 8.96026380e-03, 9.34733171e-03,
       1.89047400e-02, 4.21958836e-03, -1.16437050e-02, -1.63924750e-02,
       -1.63994227e-02, -2.13328656e-02, -9.44965170e-04, 9.00127739e-03,
       7.67540326e-03, 9.61406343e-03, -1.25018449e-03, -2.21807603e-02,
       -2.53635123e-02, -1.62356030e-02, -2.90540885e-03, 2.30918955e-02,
       3.18273306e-02, 1.56293046e-02, 1.62386540e-02, 3.07876943e-03,
       -2.01155283e-02, -2.61208434e-02, -2.31782589e-02,
       -1.62672605e-02, 2.45073643e-02, 2.14756280e-02, 1.38989394e-03,
       8.58959835e-03, 9.81503632e-03, 5.21935523e-03, -1.61676109e-02,
       -1.20307971e-02, -8.72221403e-03, 6.45894604e-03, -5.59042732e-04,
       -2.00280435e-02, -5.93941985e-03, 7.09571177e-03, 1.10411961e-02,
       -1.44523866e-02, -1.26481913e-02, -1.19938888e-02,
       -4.22426732e-03, -1.78681836e-02, 2.33701654e-02, 1.81781631e-02,
       8.99623055e-03, -5.26548503e-03, -3.43872234e-02, -1.83732342e-02,
       -9.56308469e-03, 2.08969600e-02, 1.60266235e-02, 2.09235847e-02,
       9.67890397e-03, 1.47201680e-02, -7.69960880e-03, -2.69402880e-02,
       -2.31188331e-02, -1.49176139e-02, 1.67719070e-02, 2.12875940e-02,
       -1.90755539e-02, -6.23988127e-03, 8.35292134e-03, 1.29149863e-02,
       2.69767432e-03, -4.73847240e-03, -7.39199342e-03, -6.04623882e-03,
       -1.90084353e-02, -2.42892522e-02, -1.61323743e-03,
       -4.85793501e-03, -5.93527127e-03, -8.93117860e-03,
       -2.81556416e-02, -1.54176876e-02, 1.53414160e-03, -1.77835673e-02,
       1.98785625e-02, 1.35940230e-02, 1.01268673e-02, -8.45019147e-03,
       -2.55898107e-02, -9.20207798e-03, 6.61531277e-03, 2.70569716e-02,
       2.20708065e-02, 1.20844310e-02, 3.90575570e-03, 3.69458064e-03,
       -1.37403244e-02, -1.35062598e-02, -2.62349714e-02, 3.92508879e-03,
       3.58511172e-02, 1.87818594e-02, -1.27305826e-02, 6.77238451e-03,
       -5.26489224e-03, -8.39513913e-03, -1.77025087e-02,
       -3.30246650e-02, -1.60580147e-02, 1.73639487e-02, 3.31122335e-03,
       -9.88101214e-03, -9.63622425e-03, -1.77409109e-02,
       -1.20622767e-02, -2.80404743e-03, -3.28250304e-02,
       -1.17123267e-02, 2.33793277e-02, 8.28246307e-03, 1.62471645e-02,
       7.72745861e-03, 6.54516323e-03, -3.81007278e-03, -1.64599232e-02,
       -3.76820639e-02, -6.36907434e-03, 2.43472103e-02, 1.99760068e-02,
       5.07034874e-03, 1.67349319e-03, -4.60152375e-03, -6.40760129e-03,
       -9.06105246e-03, -2.63001323e-02, -1.05801895e-02, 1.82468612e-02,
       1.25118168e-02, -1.12533839e-02, -9.16565768e-03, -1.47864688e-02,
       -1.60520133e-02, -7.16850674e-03, -2.54032314e-02,
       -5.10117691e-03, 3.37741412e-02, 1.35819726e-02, 7.90942553e-03,
       1.40397362e-02, -8.61927122e-03, -1.90202426e-02, -3.77960354e-02,
       -3.28460820e-02, -4.83153824e-04, 4.30025160e-02, 1.37012126e-02,
       -1.82619528e-03, 7.27269379e-03, -8.05975776e-03, -1.67684238e-02,
       -1.70011688e-02, -2.15261523e-02, -1.07518472e-02, 1.11019146e-02,
       1.06766326e-02, 1.39963836e-03, 3.00074089e-03, -8.12938716e-03,
       -2.50912104e-02, -3.40835638e-02, -2.64877100e-02, 3.26910429e-03,
       3.34205553e-02, 1.00962073e-02, 2.52207667e-02, 1.87449437e-02,
       -1.69148650e-02, -2.58523002e-02, -2.33000573e-02,
       -3.47711816e-02, -9.81259253e-03, 2.96135638e-02, 2.01907735e-02,
       2.95381080e-02, 1.47886164e-02, -1.59911085e-02, -2.30622496e-02,
       -3.40913162e-02, -3.47430594e-02, -2.12609842e-02, 1.16336402e-02,
       1.95213947e-02, 5.37302624e-03, 8.84237792e-03, -1.07568894e-02,
       -3.18201073e-02, -2.82186456e-02, -3.41870151e-02,
       -1.58508141e-02, 1.67245492e-02, 2.35261419e-03, 2.10748054e-02,
       8.91644228e-03, -1.33006750e-02, -2.33901832e-02, -3.16702724e-02,
       -2.90182941e-02, -1.84870847e-02, 1.65969878e-03, 1.41973281e-02,
       1.95669625e-02, 1.25272935e-02, -6.90889964e-03, -9.08501260e-03,
       -1.87765267e-02, -2.63027400e-02, -1.36427404e-02, 1.22035230e-02,
       1.47513235e-02, 6.42158743e-03, 7.96226040e-03, 9.18075850e-04,
       2.30770814e-03, -5.30555518e-03, -1.51271876e-02, 1.86848606e-03,
       3.21057625e-02, 1.22017683e-02, -7.82107934e-03, -4.00416972e-03,
       -2.02759132e-02, -2.53480617e-02, -2.06721630e-02,
       -2.49370486e-02, -1.09169986e-02, 8.38855375e-03, -1.83403119e-03,
       -7.49561610e-03, 3.19771608e-03, -8.43205489e-03, -2.43778434e-02,
       -1.18815433e-02, -1.15662580e-02, 5.17457444e-03, 2.54536588e-02,
       -1.49068108e-03, 1.52509296e-02, 1.93149373e-02, 1.45586552e-02,
       6.80312561e-03, -1.50512056e-02, -9.41360462e-03, 7.20505649e-03,
       3.06897983e-02, 1.63474940e-02, -1.12581607e-02, 1.73729230e-02,
       2.02013850e-02, 1.90157667e-02, 1.31731462e-02, -9.19781066e-03,
       -5.25071146e-03, 9.27793980e-03, -1.09417932e-02, -8.73495266e-03,
       1.58260874e-02, 3.92921362e-03, -6.15422428e-03, -2.25486904e-02,
       -7.65265059e-03, 9.99596342e-03, 2.30315812e-02, -1.36586735e-02,
       -1.80859361e-02, 5.42946858e-03, 1.38157150e-02, 1.31045794e-02,
       -7.75196636e-03, -9.23560280e-03, -8.38649087e-03,
       -9.98287724e-05, -3.13653983e-02, -1.36875110e-02, 8.44419654e-03,
       2.88766790e-02, 4.65563498e-02, 4.31649312e-02, 2.16339398e-02,
       1.93170831e-03, 7.22467853e-03, -6.22203806e-03, -1.85650103e-02,
       -2.10864935e-02, 1.33339243e-04, 1.20119685e-02, -5.42564504e-03,
       -1.38229029e-02, -2.00844519e-02, -3.31934355e-02,
       -2.08734851e-02, -7.69719062e-03, 8.23623408e-03, 2.44083330e-02,
       3.16757970e-02, 2.06031539e-02, 5.59899723e-03, -1.34864049e-02,
       -1.19696949e-02, -1.75067689e-02, -1.21655110e-02,
       -1.69164427e-02, 4.15054988e-03, 7.42796762e-03, -5.07638743e-03,
       -2.72329785e-02, -3.29054892e-02, -3.33604999e-02,
       -1.35881323e-02, -1.31778689e-02, -1.61338802e-02, 4.45043528e-03,
       9.00063291e-03, 4.24878625e-03, -4.71385103e-03, -1.23698274e-02,
       -3.63423377e-02, -1.97364893e-02, -2.71333614e-03,
       -1.93905961e-02, -5.47531294e-03, -4.63300524e-03,
       -1.15436902e-02, -1.15248552e-02, -1.83797125e-02,
       -3.90307195e-02, -1.37093840e-02, -7.62164406e-03,
       -1.95415411e-02, 4.20233002e-03, 1.43187838e-02, 9.19918437e-03,
       -7.34641403e-03, -2.32542660e-02, -2.85084248e-02,
       -1.87278050e-03, -1.00054573e-02, -2.19360925e-02,
       -7.74442637e-03, 7.63450749e-03, -8.72197503e-04, -6.96480647e-03,
       -2.69548837e-02, -3.65402587e-02, -8.76236614e-03,
       -8.20839126e-03, 1.51233829e-03, 1.14350384e-02, 1.26261078e-02,
       -4.94785421e-03, 7.63040781e-03, -1.25581061e-03, -4.75748535e-03,
       -1.37274349e-02, -1.92077160e-02, -9.07782000e-03, 1.02000320e-02,
       -1.00009935e-03, 3.70148744e-04, -2.86298076e-04, -8.03329237e-03,
       -9.69458558e-03, -7.36057619e-03, -1.15019912e-02, 3.68966185e-03,
       9.34952125e-03, 1.32947108e-02, 4.54129372e-03, 1.57891158e-02,
       1.15300259e-02, 6.78779930e-03, -1.46224350e-03, 1.22969849e-02,
       1.43106608e-02, 1.60187446e-02, 1.94929931e-02, 2.21944507e-03,
       1.08883027e-02, 8.38556327e-03, 1.29739416e-03, 3.42273456e-03,
       -1.54284472e-02, -1.19291516e-02, 2.54845805e-03, 4.02907562e-03,
       5.94287319e-03, -1.44878495e-03, -9.72130615e-03, -5.30543458e-03,
       -6.79456722e-03, -3.47334845e-03, -1.71811518e-03, 1.08509297e-02,
       1.59912035e-02, 9.94698517e-03, -6.19977014e-03, -1.16031636e-02,
       -1.64684514e-03, -7.18452875e-03, 7.59386085e-03, 5.94372535e-03,
       3.01673799e-03, 7.15495553e-03, 3.60941421e-03, 1.72596623e-03,
       -1.72411301e-03, -6.10327860e-03, -1.85345660e-03,
       -2.38910085e-03, 9.58617218e-03, 2.28788275e-02, 1.65470913e-02,
       2.32353038e-03, 2.75640818e-03, -4.60539293e-03, 3.97526380e-03,
       -3.22562968e-03, -1.39687327e-03, 5.56022767e-03, 3.86633282e-03,
       1.60459913e-02, 2.17957329e-02, 1.60586744e-04, -1.06747961e-02,
       -4.48858459e-03, -7.38300616e-03, -1.04028005e-02,
       -1.02788508e-02, -9.57962219e-03, 1.31091662e-03, 1.62711646e-02,
       5.81358280e-03, -8.09505396e-03, -1.43634127e-02, -6.53388631e-03,
       -1.40221296e-02, 3.87555920e-03, 1.28324414e-02, 1.84365567e-02,
       1.99094824e-02, 3.60466680e-03, -5.95622696e-03, -7.98204169e-03,
       -1.16574625e-02, -7.40485359e-03, -6.58762921e-03, 3.64820473e-03,
       -1.43615223e-04, 1.72736216e-02, 8.87405220e-03, 1.17147539e-03,
       -1.42067848e-02, -1.38360821e-02, -2.58435048e-02,
       -7.94310216e-03, -6.55645085e-03, -5.71919838e-03, 4.74608131e-03,
       1.56013733e-02, 2.60071456e-02, 2.72195749e-02, 1.24960847e-03,
       -3.21202874e-02, -1.05959149e-02, -1.13437511e-02,
       -1.32275242e-02, -3.64049827e-03, 6.04304671e-03, 3.31429541e-02,
       4.94709685e-02, 5.45281870e-03, -1.47831663e-02, -4.56931582e-03,
       -3.12106167e-05, -1.18567515e-02, -2.23613763e-03,
       -7.63124088e-03, 1.04888473e-02, -4.39380854e-03, -2.61687990e-02,
       -1.24681033e-02, -1.31577626e-03, -1.32326884e-02,
       -1.77958943e-02, -1.56950881e-03, -8.86833202e-03, 2.22039688e-02,
       2.30786186e-02, -1.26703465e-02, -1.99062489e-02, -4.42987122e-03,
       7.25376362e-04, -1.11106168e-02, -1.28965229e-02, -9.81662422e-03,
       1.57612376e-02, 4.70728204e-02, 7.00800074e-03, -4.97313496e-03,
       3.32400994e-03, 3.86478263e-03, -3.17269787e-02, -1.80178732e-02,
       -1.06427493e-02, -2.40839552e-03, 2.71522086e-02, 1.14105251e-02,
       -1.49721149e-02, 7.95056578e-03, -8.80330987e-03, -1.32866912e-02,
       -7.29147065e-03, -7.41429161e-03, 1.11368708e-02, 3.06831896e-02,
       -9.30368435e-03, 2.66971439e-03, 1.03361709e-02, -1.24174245e-02,
       -3.66460904e-02, -9.65032913e-03, -1.57249812e-02,
       -5.22431359e-03, 1.64242275e-02, 6.66397065e-03, 1.70885248e-03,
       8.99859704e-03, 2.52991071e-04, -2.30340790e-02, -2.00059880e-02,
       -5.64528769e-03, -1.35639613e-03, 1.65225677e-02, 1.13956966e-02,
       1.89244840e-03, 7.95758795e-03, 1.17323291e-03, -2.16815583e-02,
       -9.35419835e-03, -5.93213830e-03, -3.06992745e-03, 1.72175281e-02,
       1.91353692e-03, 1.04635395e-03, 1.16229290e-02, -1.52664352e-02,
       -3.11890133e-02, -2.10510623e-02, -4.37046634e-03, 2.49436311e-03,
       1.10926637e-02, 1.41374599e-02, 3.62595380e-03, 1.09236175e-02,
       -5.70929376e-04, -1.21230967e-02, -2.22078816e-05,
       -4.42070421e-03, -4.48567839e-03, -3.34849721e-03, 1.03695958e-03,
       8.89630802e-03, 1.27613666e-02, 8.03163089e-03, -7.09664589e-03,
       -9.97801498e-03, -8.09035636e-03, -1.47645986e-02, 1.40666077e-02,
       1.50991958e-02, 1.48689337e-02, 2.51143184e-02, 2.49028746e-02,
       -1.46324432e-03, -8.52243882e-03, -2.04882771e-02,
       -2.16369405e-02, 5.85508114e-03, 1.93053614e-02, 1.69916556e-03,
       1.06358714e-02, 7.52226159e-04, -3.70692485e-03, -3.14498087e-03,
       -7.09587894e-03, -1.45893330e-02, -1.76574606e-02, 4.08365997e-03,
       8.58586840e-03, 1.03265774e-02, -6.17901562e-04, -1.32882027e-02,
       5.29200258e-03, -1.64096691e-02, -2.40299832e-02, -1.58370603e-02,
       -2.85475020e-04, 8.84757843e-03, 2.14672238e-02, 1.45325391e-02,
       -4.84800059e-03, -1.69739295e-02, -1.59744415e-02,
       -2.42888555e-03, 1.35653913e-02, 1.85318794e-02, 1.08591365e-02,
       1.26969358e-02, 7.00386614e-03, -6.92242570e-03, -7.27577228e-03,
       -2.24941839e-02, -2.82309065e-03, 2.65417770e-02, 1.26857273e-02,
       1.33212171e-02, 1.58995707e-02, 7.52208615e-03, -4.65732859e-03,
       -8.80015548e-03, -9.66056343e-03, -1.90468598e-02,
       -1.55818947e-02, 2.84839887e-03, 4.90433257e-03, 6.52263453e-03,
       1.66441780e-02, 5.24509232e-03, -5.90225775e-03, -1.96247082e-02,
       -3.09614483e-02, -2.19687130e-02, -1.15449948e-03, 1.36216925e-02,
       1.21856956e-02, 9.68693849e-03, 1.53188407e-03, 1.98815775e-04,
       -2.03529969e-02, -4.67585959e-03, 2.67726760e-02, 2.28979830e-02,
       2.40848470e-03, 8.86738766e-03, 3.47743370e-03, 3.93025391e-03,
       -4.54791961e-03, -9.54961870e-03, 1.16552366e-03, 1.25458622e-02,
       8.60764086e-03, -1.16029968e-02, -2.44329800e-03, 8.83006398e-03,
       -1.20791467e-03, -5.21684764e-03, -1.98025499e-02,
       -2.19460838e-02, -9.80349258e-03, -1.86088737e-02,
       -1.44765684e-02, -8.67720321e-03, -4.92122443e-03, 1.45898608e-03,
       3.18306987e-03, -1.95843689e-02, -1.52770393e-02, -1.28219994e-02,
       -1.92257073e-02, 3.99954710e-03, 1.17093045e-02, -6.13672519e-03,
       2.63435300e-03, 2.69713323e-03, -2.85094068e-03, -2.27835798e-03,
       1.44319376e-02, 6.96143787e-03, -7.57660577e-03, 8.39105225e-04,
       -1.04935365e-02, -1.02547798e-02, -9.64562129e-03,
       -5.91208180e-03, 6.47359353e-04, 2.17976011e-02, 4.75609582e-03,
       -9.40858759e-03, 6.65650191e-03, -5.61094936e-03, 3.71319894e-03,
       -1.94625417e-03, -9.28387046e-03, -1.20612383e-02,
       -1.12232612e-02, -6.74710935e-03, -1.83111262e-02,
       -1.19899232e-02, -1.67932305e-02, -9.93974786e-03, 6.82928739e-03,
       -7.28930300e-03, -9.76806693e-03, 5.79668768e-03, -8.86366889e-03,
       6.88084960e-03, 1.40461791e-02, -3.31568881e-04, -7.43326405e-03,
       -1.86312536e-04, -4.18988196e-03, -6.08592434e-03, 1.35475537e-02,
       1.21584395e-02, 1.51248695e-02, 1.97433103e-02, 2.14437139e-04,
       -4.43143945e-04, -9.65672079e-03, 2.53619370e-03, -2.70303153e-03,
       6.51399489e-04, 1.61348786e-02, -1.32447602e-02, -3.56113003e-03,
       -9.23776720e-03, -1.10657783e-02, 4.49161103e-04, -6.91513531e-04,
       -1.35342870e-02, 2.71436712e-03, -1.33247441e-02, -1.44701935e-02,
       4.30055941e-03, -3.69869149e-03, -1.35390344e-03, -1.90389808e-02,
       1.98443909e-03, -9.60972067e-03, -3.90184089e-03, -2.02524681e-02,
       6.51544379e-03, 1.22028505e-02, -7.97343999e-03, -8.72844458e-03,
       -5.52185054e-04, -2.81499815e-03, 5.96106984e-03, 1.40079260e-02,
       1.38695911e-02, -4.93102754e-03, 2.44361367e-02, 8.34886171e-03,
       -1.29500451e-02, -8.23778287e-03, -7.78004900e-03, 1.26056196e-02,
       1.69092882e-02, 7.77583523e-03, -1.72119103e-02, 3.44130886e-03,
       -6.29679579e-03, -1.04593514e-02, -1.34516582e-02,
       -1.15295155e-02, -6.19460968e-03, 7.06644787e-04, -1.18731381e-02,
       -1.17234588e-02, 9.78767290e-04, 6.30747178e-04, -1.38489883e-02,
       -1.64606478e-02, -2.01707818e-02, 5.37175126e-03, 1.69967258e-04,
       5.42028829e-06, -1.23863562e-03, 2.30148602e-02, 1.48762856e-02,
       -4.53069602e-04, -1.02549531e-02, -1.05594308e-03, 1.44101512e-02,
       1.68121252e-02, -5.57174021e-03, -3.16442223e-03, 2.22131014e-02,
       2.05170773e-02, 1.12350835e-02, -4.74678632e-03, 7.95045227e-04,
       1.11130979e-02, 4.87736892e-03, -1.45465015e-02, -1.42464442e-02,
       6.94677746e-03, 1.02523621e-02, -3.70133528e-03, -2.09068321e-02,
       -2.50791945e-02, 3.05007957e-03, -2.82439264e-03, -3.20680533e-03,
       -8.84291437e-03, 9.58791282e-03, 1.97440349e-02, 4.51189419e-03,
       -1.38721615e-02, -8.72692000e-03, 1.68271288e-02, -7.47568114e-03,
       -1.22883972e-02, 3.23093170e-03, 1.58367660e-02, 2.03542151e-02,
       2.52494421e-02, -9.99059062e-04, 8.40771105e-03, 6.69168215e-03,
       -3.89363384e-03, -1.46077247e-03, -1.56630576e-03,
       -3.69387562e-03, 7.02725071e-03, 1.70510216e-03, -1.95855480e-02,
       -2.13139541e-02, -2.14801561e-02, -1.99034307e-02,
       -3.03771114e-03, -3.77834123e-03, 5.49348351e-03, 1.37051251e-02,
       1.30804824e-02, -6.32480066e-03, 6.07824605e-03, 2.01707315e-02,
       -4.94243810e-03, -5.90756256e-03, 5.10611292e-03, -8.57424177e-03,
       -1.00050131e-02, -8.79201852e-03, -3.15069817e-02,
       -1.74248442e-02, -2.27606576e-02, -2.53659934e-02, 3.48223257e-03,
       5.34553267e-03, -1.01116477e-02, -8.12813778e-06, 7.53673539e-03,
       -8.66967160e-03, -2.02848352e-02, -1.90431979e-02,
       -2.13503316e-02, 4.33922233e-03, -5.79148671e-03, -2.11624429e-02,
       -5.96975442e-03, 6.82947831e-03, 5.81491389e-04, -1.61381811e-02,
       -2.29508560e-02, -3.09292227e-02, -4.87351650e-03, 9.12735425e-03,
       -1.10576600e-02, -8.76444764e-03, -3.90711101e-03,
       -1.50289228e-02, -2.48934310e-02, -2.35570315e-02,
       -2.68831067e-02, 9.57524776e-03, -7.26953661e-03, -2.78409813e-02,
       -4.74015484e-03, -5.78055438e-03, -8.00306723e-03,
       -2.08324753e-02, -2.93843970e-02, -3.74048688e-02,
       -1.03439046e-02, -1.44939898e-02, -3.03141051e-03, 3.53710866e-03,
       5.69467619e-03, -1.10464524e-02, 1.95684992e-02, 4.92199324e-03,
       -8.28884542e-03, -4.63717710e-03, -2.54274253e-03,
       -9.18771897e-04, -2.07039085e-03, 6.34590397e-03, -4.02002819e-02,
       9.83230420e-04, -1.58388149e-02, -2.10873652e-02, -1.00670904e-02,
       5.01170335e-03, 1.45559311e-02, 2.93175932e-02, 2.14737318e-02,
       5.55799808e-03, 2.80605573e-02, 1.38173830e-02, -1.01936061e-03,
       4.73977439e-03, 3.62281245e-03, 9.73120052e-03, 2.46042814e-02,
       1.32221906e-02, -2.23629596e-03, 2.04743203e-02, 3.75751941e-03,
       5.50697697e-03, 3.27422051e-03, 5.31042786e-03, 8.14217143e-03,
       8.23535677e-03, 7.08887214e-03, -2.08075624e-03, 3.12751299e-03,
       -8.79099779e-03, -1.43419718e-03, 5.75977936e-03, -2.47388170e-03,
       1.06426012e-02, 1.84435584e-02, 8.13808478e-03, -5.02303289e-03,
       2.49649984e-05, -6.11261744e-03, -1.18612135e-02, -1.63492444e-03,
       6.00596191e-03, 8.27854685e-03, 1.91524886e-02, 6.28353236e-03,
       -4.95699991e-04, 1.32685546e-02, 8.49846192e-03, 2.03172974e-02,
       7.67832622e-03, 4.19823045e-04, 1.05975568e-02, 1.52699919e-02,
       1.04368273e-02, 1.06768985e-03, 1.21260749e-03, -6.73530903e-03,
       -1.66152976e-03, -4.96034184e-03, -7.78914383e-03, 8.63560289e-03,
       2.26934068e-02, 1.58935897e-02, 2.92602135e-03, 1.08045070e-02,
       -1.17770741e-02, -1.47081157e-02, -1.27456179e-02,
       -1.21396948e-02, 1.23017197e-02, 2.16305610e-02, 1.27082234e-02,
       1.66420992e-02, 1.82672571e-02, 7.09392084e-03, -1.41822118e-02,
       -2.88375393e-02, -5.50541212e-04, 9.04434919e-03, 1.57164820e-02,
       1.68223754e-02, -6.16048754e-04, 1.56853236e-02, -5.08735795e-03,
       -4.21462208e-03, -9.16935876e-03, -1.47561207e-02, 7.11382506e-03,
       1.75059792e-02, 1.09519409e-02, 1.49929086e-02, 2.05710437e-02,
       1.69927289e-03, -1.97240245e-02, -3.68394665e-02, -8.26681312e-03,
       6.84390217e-03, 1.74115989e-02, 4.18733666e-03, 1.76482629e-02,
       8.23789556e-03, 6.36545662e-03, -8.26265104e-03, -1.97086930e-02,
       8.77986022e-04, 1.60011500e-02, 1.44489743e-02, -7.33379694e-03,
       -7.62663200e-04, -7.79638579e-03, 2.36578379e-03, 1.37091626e-03,
       -1.74452811e-02, -2.00213045e-02, 7.91447703e-03, 2.54656244e-02,
       1.13633350e-02, 1.54893622e-02, 2.86683935e-04, 4.62770462e-03,
       -1.74513813e-02, -3.16321626e-02, -7.23989820e-03, 2.17131339e-02,
       3.31959948e-02, 9.05657373e-03, 7.72476196e-03, -1.50026688e-02,
       -1.78250112e-03, -1.36538148e-02, -2.93105263e-02, 1.01046003e-02,
       1.93131994e-02, 1.65209658e-02, -1.23280345e-03, -2.91436561e-03,
       -1.05515087e-03, 6.01381948e-03, 1.10911503e-02, -8.37527659e-06,
       1.89872216e-02, 1.32096596e-02, 1.35182869e-02, -1.83856487e-02,
       -1.02931000e-02, -7.84631819e-03, 2.57172436e-03, 7.99164455e-03,
       7.66599737e-03, 6.12554548e-04, 2.74012741e-02, 3.14957388e-02,
       -2.51717586e-03, 2.72462540e-03, -1.34046338e-02, 1.14898814e-03,
       -1.07840830e-02, -2.05238480e-02, 1.12776486e-02, 1.76973287e-02,
       2.85119582e-02, -1.57135334e-02, -1.02259777e-02, -1.70308501e-02,
       7.03358732e-04, -3.21773696e-03, -1.68600632e-03, 1.00341421e-02,
       1.40977642e-02, -2.80970032e-03, -1.66944340e-02, -1.70888752e-02,
       3.40220169e-03, 9.05613601e-03, 8.25722702e-03, 2.04656776e-02,
       1.40213417e-02, 1.02081737e-02, 6.11323817e-03, -2.37837736e-03,
       2.62771337e-03, 2.00809306e-03, 1.94021952e-04, 2.24552932e-03,
       9.32381861e-03, 2.11337395e-03, 2.24188101e-02, 2.07068417e-02,
       -9.40143969e-03, -2.34648008e-02, -8.26726295e-03, 4.06986848e-03,
       -1.53424602e-03, -8.35915189e-03, -3.89004732e-03, 9.40500479e-03,
       1.34941209e-02, -7.56280124e-03, 3.48217785e-03, -2.93922937e-03,
       8.88925570e-04, -5.70185017e-03, -1.11017600e-02, 1.43076675e-02,
       1.64155029e-02, 1.03705470e-02, 9.49680433e-03, 8.50356650e-03,
       3.11484886e-03, -4.09338251e-03, -8.50004423e-03, 6.12262730e-03,
       1.19248740e-02, 1.74395312e-02, -3.76258395e-03, -8.91241152e-03,
       -9.72762995e-04, -1.08924159e-03, -5.31371869e-03,
       -8.90262052e-03, -2.43908493e-03, -7.82911852e-03, 5.33822831e-03,
       1.17397895e-02, -1.89804717e-03, -4.15655959e-04, 7.27728708e-03,
       1.53490435e-03, -4.44650091e-03, -1.50008537e-02, -2.91547971e-03,
       1.70506407e-02, 1.54980747e-02, -1.31914346e-02, -1.52313141e-02,
       5.48687717e-03, -3.07324715e-03, 1.65835940e-04, -1.23336529e-02,
       1.90833565e-02, 2.49870177e-02, 1.19533418e-02, 4.46137367e-03,
       -7.34078046e-03, 3.52978124e-03, -9.11823940e-03, -1.18000368e-02,
       1.38175348e-02, 8.44378490e-03, 1.23498710e-02, 1.83563158e-02,
       3.89278121e-03, -2.11602598e-02, -4.67921840e-03, -2.28707101e-02,
       -2.42950600e-02, 6.33292692e-03, -5.03725884e-03, 2.74263062e-02,
       1.81867108e-02, -2.25439318e-03, -3.66032077e-03, 1.15592014e-02,
       3.83668835e-03, 5.31819556e-03, -9.63218417e-03, -8.27987492e-03,
       1.41730634e-02, 7.15239020e-03, -6.23701699e-03, -1.51593434e-02,
       8.24167684e-04, 2.10035895e-03, -5.66078909e-03, -8.96698423e-03,
       2.04682886e-03, 1.53156128e-02, 1.91436745e-02, 6.55126758e-03,
       4.28454764e-03, -4.45352681e-03, -1.08442688e-02, -1.86859798e-02,
       -7.08546583e-03, -7.27508822e-03, 1.17707215e-02, 8.22107960e-03,
       1.45734819e-02, 1.39428070e-02, -2.09714416e-02, -9.08943359e-03,
       -1.09526841e-02, -2.84149516e-02, -6.15543965e-03, 1.16995228e-02,
       1.02265775e-02, 6.13957061e-04, -9.83681181e-04, 2.50280811e-03,
       3.29153030e-03, -8.32103472e-03, -1.51537294e-02, -7.72853289e-03,
       6.98695378e-03, 3.63940140e-03, 6.49548694e-03, 6.19752845e-03,
       -1.01925014e-02, -3.94415949e-03, -8.80178239e-04,
       -2.18065251e-02, -6.42421981e-03, 1.13852257e-02, 7.94750825e-03,
       1.92612763e-02, 1.66167859e-02, -1.71054387e-03, 1.35353196e-03,
       -4.67498880e-03, -1.25367083e-02, -1.48347747e-02, 9.18751990e-04,
       2.34691729e-03, 4.13435930e-03, 2.19693743e-02, 5.85180242e-03,
       -6.28343318e-04, -9.27991990e-04, -1.17185730e-02,
       -1.42689105e-02, -5.23305265e-03, -1.75520149e-03, 4.99221776e-03,
       6.15586853e-03, -1.30314787e-03, 1.46542618e-03, -5.84716257e-03,
       -1.39831798e-02, -2.79835779e-02, -6.81999000e-03,
       -2.31153239e-03, -1.33982766e-03, 1.45913791e-02, -3.36452457e-03,
       -4.75316960e-03, -1.90513916e-02, -2.32673623e-02,
       -1.38727333e-02, 6.50156988e-03, 5.71646029e-03, -3.39170406e-03,
       7.76869291e-03, 9.44073312e-03, -1.06204789e-04, 8.03200062e-04,
       -7.23251095e-03, -5.81253227e-03, 1.89802069e-02, 1.32277505e-02,
       5.72126498e-03, -1.37098338e-02, 1.93915125e-02, 1.58299285e-03,
       1.49241025e-02, -6.24094158e-03, -3.58845703e-02, -3.64285777e-03,
       2.38462375e-03, 4.02750680e-03, 8.11098237e-03, 2.26096530e-03,
       -9.17187519e-03, -1.03088245e-02, -2.32606195e-02,
       -2.75627021e-02, 7.47489603e-03, 5.26656769e-03, 3.33829201e-03,
       -8.14190041e-03, 8.78206361e-03, 6.44840626e-03, 4.52214060e-03,
       -1.64898597e-02, -8.12137406e-03, 1.60585400e-02, 1.23837711e-02,
       2.76344619e-03, -1.18394103e-02, -2.48021749e-03, -7.39071425e-03,
       6.18051039e-03, -7.41736917e-03, 1.36630784e-04, 7.81160221e-03,
       1.73077285e-02, 1.87277596e-03, -6.06402708e-03, -3.17465106e-04,
       5.84360864e-03, 8.70365091e-03, 8.62591527e-03, -2.07185298e-02,
       9.66387708e-03, 3.98255838e-03, -1.36045204e-03, -1.76433772e-02,
       -1.24446768e-02, -1.52170770e-02, -1.72199998e-02,
       -2.55769212e-02, -2.32317317e-02, 4.63104993e-03, 8.14599916e-03,
       2.03160965e-03, -1.44006405e-02, -7.95161445e-03, -1.36550907e-02,
       -8.36563949e-03, -1.46324029e-02, -1.23985112e-02, 7.71407131e-03,
       1.85736828e-02, 6.75087050e-03, -2.83574453e-03, -4.61099530e-03,
       2.94387341e-03, 4.07264987e-03, 7.41811236e-03, -1.39590418e-02,
       7.01473234e-03, 1.87614877e-02, 7.21423421e-03, -2.01411359e-03,
       8.14138167e-03, 2.26009451e-02, 6.99844817e-03, -7.29595264e-03,
       -3.41607593e-02, -4.99343965e-03, 1.29362866e-02, 2.76187016e-03,
       -3.14795622e-03, -1.14302419e-03, -8.65461864e-03,
       -4.65771795e-04, -1.49195334e-02, -2.09100172e-02,
       -8.76794365e-05, 6.56568445e-03, -3.87227372e-03, 9.86552797e-03,
       2.06182408e-03, 2.85485480e-03, -1.88949902e-03, -1.27253402e-02,
       -3.11650848e-03, 1.03654200e-02, 1.76546890e-02, 1.14536872e-02,
       -2.75177037e-04, 1.72015280e-02, 2.60616019e-02, 4.71958052e-03,
       5.78672905e-03, 8.36466381e-04, -4.36197082e-03, -1.03011949e-03,
       -5.98829519e-03, -1.79919694e-02, -7.37070944e-03,
       -1.57232471e-02, -1.89410392e-02, 4.70781606e-03, -2.71593593e-03,
       1.46122063e-02, 1.53272208e-02, 2.51785177e-03, 8.64590798e-03,
       7.59733049e-03, 1.10694626e-02, 3.73935071e-03, -4.31260513e-03,
       -8.70953221e-03, -2.04111449e-02, -6.00993575e-04,
       -9.01619252e-03, -2.70668380e-02, -8.85273423e-03,
       -9.90248751e-03, -1.28338775e-02, -6.23742817e-03, 1.56647209e-02,
       -4.67462558e-03, 3.40360566e-03, -1.35167118e-03, -1.01759247e-02,
       -1.39385881e-02, -2.30113175e-02, -2.03285944e-02, 1.66645423e-02,
       1.07318640e-03, -1.87820420e-02, -2.80288077e-04, -1.02775951e-03,
       -1.14171878e-02, -1.95318945e-02, -2.17744075e-02,
       -2.46224590e-02, 6.49011834e-03, 1.02356840e-02, -2.30459571e-02,
       -4.58624912e-03, -7.88972806e-03, -2.41166241e-02,
       -1.51054543e-02, -2.75657997e-02, -2.16766801e-02, 1.33946911e-02,
       -1.89491396e-03, -2.73061171e-02, -1.66685637e-02,
       -8.44490342e-03, -2.47869734e-02, -2.97714435e-02,
       -4.36511561e-02, -3.55490074e-02, 2.44290149e-03, -2.46979222e-01 ]
