%YAML:1.0
---
myHogDector: !!opencv-object-detector-hog
   winSize: [ 64, 128 ]
   blockSize: [ 16, 16 ]
   blockStride: [ 8, 8 ]
   cellSize: [ 8, 8 ]
   nbins: 9
   derivAperture: 1
   winSigma: 4.
   histogramNormType: 0
   L2HysThreshold: 2.0000000000000001e-01
   gammaCorrection: 1
   nlevels: 64
   signedGradient: 0
   SVMDetector: [ -2.02661869e-03, -2.89811373e-06, 8.05654656e-03,
       1.04526822e-02, 2.25602463e-02, 1.60312420e-03, -2.75181606e-03,
       -7.81330280e-03, -1.46908651e-03, 1.10574579e-02, 5.44445962e-03,
       8.66496004e-03, 8.07667058e-03, 1.39492182e-02, 4.25775128e-04,
       -2.52388720e-03, -8.55361857e-03, 2.30353302e-03, 2.33771931e-03,
       1.12114788e-03, 6.27789879e-03, 1.84265971e-02, 6.50379295e-03,
       5.62306587e-03, 3.85692855e-03, -4.39705700e-03, -8.83424247e-04,
       1.86881539e-03, 2.87226262e-03, 1.18919779e-02, 1.05102202e-02,
       -1.36674028e-02, 1.64913037e-03, -1.85813033e-03, 5.27633238e-04,
       2.79397471e-03, 7.26186903e-03, 1.06311881e-03, 7.28923734e-03,
       8.21134821e-03, 1.54786333e-02, 5.01467008e-03, -3.24416091e-03,
       -5.91541128e-03, 1.18604733e-03, 9.19541530e-03, -1.27144187e-04,
       1.04016736e-02, 1.10987900e-02, 6.76212600e-03, 6.91148918e-03,
       2.54783401e-04, -9.14782286e-03, 1.10860728e-02, -1.07694580e-03,
       -2.10380577e-03, 7.13425456e-03, 8.28334410e-03, 5.76201221e-03,
       -2.08206475e-03, -6.53328467e-03, -3.79346474e-03,
       -5.32225147e-03, 2.64656451e-03, 5.31035056e-03, 1.26602277e-02,
       1.93614475e-02, 1.72686074e-02, 7.46909715e-03, 4.53056488e-03,
       3.86915199e-04, 2.05202145e-03, -3.60881584e-03, 1.61873014e-03,
       8.19290895e-03, 9.60449036e-03, 1.61567852e-02, 7.42507074e-03,
       -5.29878912e-03, -9.34196729e-03, -5.44173270e-03,
       -2.32053082e-02, -1.04083994e-03, 1.06916185e-02, 1.69783216e-02,
       1.34280194e-02, 2.07352894e-03, -1.32489577e-02, -8.34686775e-03,
       -2.98369918e-02, -9.91313998e-03, -4.28857806e-04, 5.95509959e-03,
       1.22732548e-02, 1.88492294e-02, 8.76272749e-03, 3.34089668e-03,
       1.36932137e-03, -7.69703463e-03, -1.05771692e-02, -1.81777345e-03,
       8.90727900e-03, 1.42103871e-02, 1.48319220e-02, 1.50227314e-02,
       5.35226893e-03, 9.24943108e-03, -7.77052203e-03, -1.08808270e-02,
       5.09353587e-03, 1.12828976e-02, 1.07317232e-02, 7.28828972e-03,
       3.37275583e-03, 3.91775771e-04, -2.98168277e-03, -1.87321063e-02,
       -5.37435059e-03, 3.63809778e-03, 4.53230599e-03, 1.91410119e-03,
       -6.68030977e-03, -1.15596205e-02, -1.94392900e-03,
       -1.13079632e-02, -1.16242217e-02, -3.47114052e-03, 1.20231360e-02,
       1.47721646e-02, 1.06454231e-02, 6.55068923e-03, 6.89146994e-03,
       1.04571246e-02, 1.29798856e-02, -6.39959617e-05, 3.02927406e-03,
       2.18648035e-02, 2.02421863e-02, 5.81629341e-03, -1.05828289e-02,
       -2.01665936e-03, 4.97817062e-03, 5.58025111e-03, 4.37352154e-03,
       -9.91998333e-03, 5.98803489e-03, 1.15042729e-02, 8.14496353e-03,
       -1.10230297e-02, -1.00154998e-02, -1.02848040e-04,
       -3.22595052e-03, -4.63268021e-03, -1.42891025e-02,
       -1.60506228e-03, 1.04377335e-02, -4.07104706e-03, -5.06790215e-03,
       -2.03629304e-02, -4.34790738e-03, -9.59283393e-03,
       -1.06306281e-02, 1.21865803e-02, 2.82713845e-02, 1.99969001e-02,
       1.43521018e-02, -1.31216170e-02, 1.07703521e-03, 8.90262704e-03,
       1.40257729e-02, 1.63975246e-02, 1.42211718e-02, 2.27403436e-02,
       1.47208655e-02, -4.44042636e-03, -4.40830272e-03, -1.52384099e-02,
       2.12534773e-03, 7.82544632e-03, 1.61541998e-02, -5.04356669e-03,
       9.06547811e-03, 1.16847055e-02, -4.91836295e-03, -1.17632542e-02,
       -1.33382231e-02, -6.69425167e-03, -5.26674464e-03,
       -2.86101829e-03, -1.18521799e-03, 7.91183952e-03, 1.02308122e-02,
       1.54620572e-03, -1.79465842e-02, -1.31468633e-02, -1.22516770e-02,
       6.60362013e-04, -7.05035776e-03, 1.77085232e-02, 2.55235806e-02,
       2.13561747e-02, -9.60780866e-03, -7.79082580e-03, -4.90768906e-03,
       -4.16436838e-03, 5.95460227e-03, 7.80027639e-03, 1.80906057e-02,
       2.65187807e-02, 1.78990066e-02, -5.85044501e-03, -1.01344595e-02,
       -1.43979508e-02, -1.23000983e-02, 5.49839158e-03, 1.38105536e-02,
       -7.82713108e-03, 1.44775806e-03, 6.10076683e-03, 6.49276655e-03,
       -5.13753388e-03, -8.97072349e-03, -9.33291949e-03, 2.81334389e-03,
       -8.12912080e-03, -1.65155288e-02, -9.72791668e-03, 8.23960081e-03,
       2.10665632e-02, 1.20886108e-02, -6.98811049e-03, -2.97457166e-03,
       2.99734552e-03, -9.49905626e-03, 4.36203647e-03, 9.03822854e-03,
       1.30041093e-02, 5.90986200e-03, -1.39103215e-02, -1.64235961e-02,
       -1.72508992e-02, -1.28131604e-03, 6.21951604e-03, 2.98313401e-03,
       1.40374491e-03, 9.92370863e-03, 1.73356384e-02, 8.88078753e-03,
       -8.59203096e-03, -4.40331409e-03, 1.03039388e-03, 8.16269033e-03,
       -2.66249515e-02, -8.04482866e-03, 7.53191812e-03, 1.94860455e-02,
       7.40160141e-03, -8.48298427e-03, -2.68490217e-03, 7.07329717e-03,
       -6.73881127e-03, -1.14765577e-02, -1.82839367e-03, 5.54515235e-03,
       5.23595279e-03, 4.41228598e-03, -7.54520576e-03, 3.10284179e-03,
       7.65252579e-03, -5.20246709e-03, -4.56375023e-03, -9.49337147e-03,
       3.09484871e-03, 1.67471711e-02, 5.09880623e-03, -4.97806026e-03,
       5.86905284e-03, 7.78371049e-03, 9.31573473e-03, 1.13419606e-03,
       -3.15681007e-03, 4.92187729e-03, 5.96464053e-03, 1.24487514e-02,
       4.37337533e-03, 4.06538742e-03, 1.04212295e-03, 7.27942539e-03,
       -4.16792929e-03, -4.27554455e-03, 2.13839975e-03, 2.19571474e-03,
       -1.08759043e-04, -3.38281202e-03, 5.19697648e-03, 8.44572391e-03,
       7.33438367e-03, -9.76083335e-03, -1.20251356e-02, 2.47950928e-04,
       7.51174986e-03, 1.05580082e-02, 1.15130644e-03, -3.61188053e-04,
       1.09412428e-02, 9.04254708e-03, -8.03449657e-04, -2.71865726e-03,
       6.21481286e-03, 9.49530397e-03, 7.55426986e-03, 4.33352683e-03,
       7.70517043e-04, -3.26620112e-03, 5.31519949e-03, -1.18752886e-02,
       -1.57452859e-02, -1.38975680e-03, 7.73286913e-03, 7.15452200e-03,
       -8.22619349e-03, -1.60176810e-02, -1.00553385e-03,
       -2.14949623e-03, -1.20810196e-02, -1.40250828e-02,
       -2.98079429e-03, 8.37449078e-03, 5.96861448e-03, 7.53000518e-03,
       -5.82624320e-03, 1.03824330e-03, 8.93156137e-03, -3.78594664e-03,
       -7.78567651e-03, -4.40344214e-03, 5.12197241e-03, 3.11038853e-03,
       6.98398147e-03, -7.18229124e-03, -1.60246238e-03, -7.37379247e-04,
       -5.76926768e-03, -1.72153618e-02, -5.47278626e-03, 8.06173962e-03,
       1.24202212e-02, -1.38082250e-03, -1.40365008e-02, 4.37410828e-03,
       2.07503489e-03, 4.32247482e-03, -5.08359913e-03, -5.10363420e-03,
       1.79819079e-04, 3.07069742e-03, 1.81429333e-03, -4.99629788e-03,
       5.67972427e-04, 1.83362816e-03, -7.90326204e-03, -7.03659048e-03,
       -3.87594802e-03, 1.71865604e-03, -6.93138177e-03, 3.74345062e-03,
       -5.61094377e-04, -1.08613342e-03, -4.12328262e-03,
       -1.32247899e-02, -8.07691365e-03, -9.24483035e-03,
       -6.24522159e-04, -5.88168623e-03, -1.06008956e-02,
       -1.50805041e-02, -5.10147680e-03, -1.05687734e-02, 8.27230327e-03,
       1.25943443e-05, -2.10645399e-03, 1.86275039e-03, -7.62525294e-03,
       -4.98017203e-03, -4.29152697e-03, 5.40230097e-03, 1.33349570e-02,
       8.47145263e-03, -4.90835286e-04, -6.06380776e-03, 5.05585782e-03,
       -8.99504963e-03, -7.33912829e-03, -7.82244466e-03, 3.49667935e-05,
       1.45837972e-02, -1.39613701e-02, -1.22236945e-02, -8.40959605e-03,
       -2.92389304e-03, -2.50002975e-03, -9.18268412e-03,
       -1.76003166e-02, -6.26315223e-03, -1.53155355e-02,
       -5.38822217e-03, 3.45491758e-03, -3.05440207e-03, 2.87105888e-03,
       -1.90308562e-03, -1.87420752e-02, -1.99717134e-02,
       -3.72231589e-03, -1.32753300e-02, 6.71136379e-03, -6.05879724e-03,
       -7.94431847e-03, -2.62593431e-03, 4.88260435e-03, -9.49409045e-03,
       -1.21284332e-02, -7.00820284e-03, 2.59420223e-04, 3.43788834e-03,
       7.57697923e-03, 2.75758235e-03, 6.84993248e-03, 2.30721803e-03,
       -1.09804962e-02, -1.16133401e-02, -7.09663099e-03, 1.28475821e-03,
       -1.24552462e-04, 7.25309271e-03, 2.64636357e-04, 8.25178809e-04,
       4.28848434e-03, -1.11846011e-02, -1.18035562e-02, -1.15679915e-03,
       -6.34279288e-03, 1.45701424e-03, 4.77371970e-04, 1.37809804e-03,
       2.57895351e-03, -1.21828506e-03, -6.70166267e-03, -5.58404671e-03,
       7.39722699e-03, -6.23994647e-03, 2.98841670e-03, 4.47807787e-03,
       2.83123902e-03, 8.22027039e-04, 5.97693399e-03, -4.85717040e-03,
       -4.04842570e-03, 1.07221445e-03, -1.08433655e-03, -4.47306735e-03,
       6.35148073e-03, 1.13241356e-02, 9.84026119e-03, 5.08068921e-03,
       -2.56957283e-04, -1.33861293e-04, 6.11726055e-03, -1.10928975e-02,
       2.88421102e-03, 4.82707703e-03, 9.91857983e-03, 1.94534957e-02,
       3.39233526e-03, -5.73631562e-03, -1.97975966e-03, 4.93468810e-03,
       1.17126713e-03, -5.42330509e-03, -1.30935619e-02, 5.64465532e-03,
       9.69733670e-03, -3.50239826e-03, -6.87704375e-03, -1.65853724e-02,
       -1.67193394e-02, -2.83651124e-03, -4.14920785e-03, 2.36980850e-03,
       2.08187271e-02, 2.66618077e-02, 1.98637173e-02, 9.86230280e-03,
       6.94155041e-03, 8.35527666e-03, -2.01341417e-03, -1.05074346e-02,
       -2.11689826e-02, -2.48792744e-03, 9.87343490e-03, 4.61053289e-03,
       -5.14419377e-03, -1.57094616e-02, -1.98773798e-02,
       -1.13454368e-02, 5.26510365e-03, -1.53833674e-02, -7.69136008e-04,
       1.47800148e-03, 1.05022953e-03, -6.45719483e-05, -1.09070409e-02,
       -1.69524830e-02, 8.73360410e-03, 4.79130959e-03, -2.26915907e-02,
       -1.94127895e-02, -1.07744373e-02, -1.58284698e-02,
       -6.06463244e-03, -1.81163885e-02, -1.82193462e-02, 1.32467784e-02,
       2.65260437e-03, -2.33008619e-02, -5.41244354e-03, 6.08199555e-03,
       1.04097882e-02, 1.41655924e-04, -1.34961288e-02, -2.17870474e-02,
       4.47627436e-03, -2.01482140e-03, -3.50839049e-02, -2.13368572e-02,
       -8.80167726e-03, -8.06087907e-03, -3.90266487e-03,
       -1.37525732e-02, -2.13854779e-02, 7.18593039e-03, -4.12775669e-03,
       5.50871901e-03, 9.54675116e-03, 1.70095954e-02, 8.24820809e-03,
       9.90445912e-03, 3.75768589e-03, -3.73485289e-03, -5.58710843e-03,
       4.11986373e-03, 7.95931555e-03, 8.35386664e-03, 8.25670827e-03,
       -2.51361448e-03, -1.04215811e-03, -2.37421854e-03, 2.05562613e-03,
       2.33899173e-03, -5.68899186e-03, 2.23639142e-03, 9.34949517e-03,
       1.20546110e-02, 4.10248619e-03, 7.65529182e-03, -6.50581345e-03,
       -9.55971237e-03, -7.21443212e-03, 1.23405866e-02, 1.10920826e-02,
       8.20965040e-03, 7.32184248e-03, 2.01342581e-03, -3.22781038e-03,
       -7.00265775e-03, -8.42739455e-03, -1.06210449e-04,
       -8.40101298e-03, -1.22540863e-03, 2.75914394e-03, 2.06979341e-03,
       4.63615684e-03, -2.84068636e-03, -7.84086529e-03, -7.06212083e-03,
       -1.20126484e-02, -1.14037497e-02, 2.80005130e-04, -1.46400591e-03,
       4.29226225e-03, 1.69344712e-02, 5.79494331e-03, 2.15330627e-03,
       -6.29882049e-03, -1.77577920e-02, -4.82990203e-04, 4.20075655e-03,
       2.77828309e-03, 5.80212986e-03, 1.43182073e-02, 6.48446032e-04,
       -5.50425891e-03, -7.95866176e-03, -1.22589367e-02,
       -1.22264074e-03, -1.69315236e-03, 2.73886416e-03, 2.01278061e-04,
       2.65906826e-02, 3.26132053e-03, -1.19783345e-03, -4.69366554e-03,
       -1.05480114e-02, -8.50655884e-03, -4.99738322e-04,
       -3.44912369e-05, 1.00244386e-02, 2.42386442e-02, 8.98308028e-03,
       4.66726115e-03, -2.14888039e-03, -9.58553143e-03, -1.14251897e-02,
       -5.41023538e-03, 1.13937014e-03, 6.73231529e-03, 2.33728029e-02,
       7.24581536e-03, 4.31180187e-03, 1.72384351e-03, -2.96111638e-03,
       -1.58188194e-02, -5.84774418e-03, -2.46545626e-03, 2.23885197e-03,
       1.52050080e-02, -2.86323880e-03, -4.60848445e-03, -5.37523581e-03,
       -1.92575753e-02, -9.27245244e-03, -3.28767765e-03, 9.63318441e-03,
       1.19070271e-02, 9.09560919e-03, 6.77260919e-04, 3.64327279e-04,
       -1.19011356e-02, -2.15759538e-02, -1.27576059e-02, 8.38338584e-03,
       1.29830632e-02, 2.07323022e-03, -5.33601129e-03, -1.70174253e-03,
       -6.43301103e-03, -2.09061359e-03, -5.15350606e-03,
       -3.85015900e-03, 3.81165445e-02, 2.83822007e-02, 1.82594126e-03,
       -1.29034966e-02, -7.18118111e-03, -1.47278234e-02,
       -4.98844776e-04, -1.47903385e-02, -1.05272196e-02, 1.75243542e-02,
       3.02374456e-02, 1.25632575e-02, -2.34940369e-03, -5.01827337e-03,
       -5.74956089e-03, -9.52474121e-03, -2.85522975e-02,
       -3.15039512e-03, 3.67799401e-02, 3.62262689e-02, 4.59463714e-04,
       -7.35919271e-03, -5.33647789e-03, -1.03523675e-02, 3.72368551e-04,
       -2.32257657e-02, 9.18857567e-03, 3.98849286e-02, 2.32503098e-02,
       7.31344940e-03, -1.57972816e-02, -5.98854618e-03, -4.58749151e-03,
       7.98918959e-03, -1.68588897e-03, 8.52276012e-03, 1.95047650e-02,
       5.19889127e-03, -9.53578949e-03, -1.37064308e-02, -2.07783021e-02,
       -1.30759152e-02, -5.29231562e-04, 6.54881727e-03, 1.01399617e-02,
       4.31280322e-02, 2.98724957e-02, -6.44602394e-03, -1.76946931e-02,
       -2.40445533e-03, -3.20014800e-03, 1.08740851e-03, -7.92693533e-03,
       9.55248019e-04, 1.68105233e-02, -9.73065151e-04, -1.75941698e-02,
       -2.74013299e-02, -2.09744126e-02, -1.28040267e-02,
       -8.69183149e-03, -6.58147037e-03, 1.60907339e-02, 2.04268526e-02,
       1.32268425e-02, -8.85634497e-03, -1.14705646e-02, -6.56691520e-03,
       -7.25661078e-03, 1.66045583e-03, 8.70401133e-03, 1.42473429e-02,
       1.60818454e-02, 1.41749112e-02, -6.28556358e-03, -1.75368506e-02,
       -1.22542828e-02, -1.10411914e-02, -8.92388925e-04, 4.33788542e-03,
       7.86273833e-03, 1.37511548e-02, 5.13930339e-03, -9.96890385e-03,
       -2.19835918e-02, -1.19970497e-02, -8.12435709e-03,
       -3.07967712e-04, 3.43015348e-03, 4.63120313e-03, 1.09593766e-02,
       1.02726873e-02, -4.83468128e-03, -1.63448136e-02, -9.97531693e-03,
       -6.62695104e-03, 2.75634951e-03, 4.78040287e-03, 4.74377722e-03,
       1.01416814e-03, 2.24636146e-03, -1.26498810e-03, -8.40478484e-03,
       -1.04928007e-02, -1.45529145e-02, -7.21854251e-03,
       -2.36894062e-04, 2.04332871e-03, 9.22234831e-05, 2.31588259e-03,
       1.02614872e-02, 7.07163988e-03, -4.31761425e-03, -6.50105160e-03,
       -2.17105029e-03, 4.42827586e-04, 1.21634081e-02, 6.10446511e-03,
       -3.29893595e-03, -7.20799528e-03, -9.12021939e-03,
       -1.11693293e-02, -1.09680984e-02, -1.07741235e-02, 2.58559268e-03,
       1.58538148e-02, 7.57822022e-03, 1.74662075e-03, 6.56128256e-03,
       -2.32491433e-03, -1.18338075e-02, -3.78473033e-03, 2.30492442e-03,
       7.21484935e-03, -2.50526908e-04, 4.52500128e-04, 2.61925929e-03,
       1.02187032e-02, -2.81333015e-03, -3.36715369e-04, 9.61090322e-04,
       3.37438495e-03, 5.59509173e-03, 3.18343635e-04, -4.90746787e-03,
       -2.63293716e-03, -8.52889381e-03, 7.10970536e-03, 6.74570911e-03,
       2.14002002e-03, -1.50421599e-03, 1.02304248e-02, 8.71410873e-03,
       1.88598386e-03, 3.05026653e-03, 4.32600966e-03, -3.98304826e-03,
       -7.73052126e-03, -6.68477034e-04, 1.04587497e-02, 4.00641281e-03,
       8.39190371e-03, -7.14719645e-04, -2.04111473e-03, -1.40578616e-02,
       9.65492276e-04, -1.04001700e-03, 6.47652848e-03, 1.17795821e-02,
       1.77031532e-02, -5.84352063e-04, -4.51516034e-03, -2.28024647e-03,
       -5.66362264e-03, -4.86994581e-03, -4.92783904e-04,
       -6.53433381e-03, -6.24380726e-03, 6.73881918e-03, -8.55588820e-03,
       -6.31971192e-03, -4.43974882e-03, 4.22302913e-03, -2.62965704e-03,
       -1.63592696e-02, -2.37978250e-02, -1.40857054e-02, 3.72823677e-03,
       1.52641656e-02, 3.29419645e-03, -4.03079903e-03, -1.66879166e-02,
       -1.40839852e-02, 1.47211109e-03, 2.92321085e-03, 1.52087398e-02,
       2.15671435e-02, 6.72185887e-03, 1.05452165e-02, 6.33171003e-05,
       -1.31521896e-02, -1.31286178e-02, -4.95350081e-03,
       -2.97921360e-03, 5.42392954e-03, 1.28541188e-02, -4.24282998e-03,
       -1.29252709e-02, -1.20772589e-02, -1.65232850e-04, 1.14756934e-02,
       -9.72749386e-03, -2.17179414e-02, -4.76017548e-03, 6.80167740e-03,
       5.80386398e-03, -6.37042522e-03, -1.11085782e-02, -7.93952402e-03,
       1.72416773e-03, -9.97972488e-03, -1.83607060e-02, -4.99636121e-03,
       1.05258925e-02, 1.08968718e-02, 1.06621571e-02, -3.18431505e-03,
       -9.40684695e-03, 8.47138872e-04, -7.53387716e-03, -1.63815226e-02,
       -5.78777108e-04, 1.28708715e-02, 1.20329792e-02, 9.23431758e-03,
       -2.37291417e-04, -7.19009154e-03, -5.23559935e-03,
       -1.33090215e-02, -1.99743938e-02, -8.62727500e-03, 9.00240242e-03,
       1.00426180e-02, -1.32480622e-04, -1.14776520e-02, -8.21828842e-03,
       -1.27614615e-02, -1.54079311e-02, -1.88856684e-02, 1.75809767e-03,
       2.73760036e-02, 7.71132717e-03, -3.84326768e-03, -1.66804995e-02,
       -8.14859103e-03, -1.33450925e-02, -1.41037386e-02,
       -1.33132348e-02, -1.03787764e-03, 1.49023142e-02, 1.24393245e-02,
       8.10196064e-03, -2.38431501e-03, -1.07809082e-02, -1.16204498e-02,
       -1.78323183e-02, -1.60192251e-02, -3.78307712e-04, 2.06524711e-02,
       4.67497855e-03, -1.81377959e-03, -1.01277269e-02, -6.62278710e-03,
       -1.33108636e-02, -1.91628281e-02, -2.29047332e-02, 2.10436527e-03,
       1.37288291e-02, 6.79757260e-03, -6.56323787e-03, -7.87151605e-03,
       -8.07714462e-03, -7.94378202e-03, -1.40821431e-02,
       -1.66080613e-02, -7.46655883e-03, -2.99385982e-04, 3.92199261e-03,
       1.48758350e-03, 1.62241724e-03, -6.58050319e-03, -3.23396013e-03,
       -1.31466892e-02, -1.89075209e-02, -6.47735037e-03,
       -2.54418794e-03, 5.82452351e-03, 1.77229103e-03, -4.14322689e-03,
       1.30225474e-03, -1.68796405e-02, -2.04432774e-02, -2.61089150e-02,
       2.06223805e-03, 1.12471040e-02, 3.04806570e-04, 2.59376178e-03,
       5.04187634e-03, 5.79732098e-03, -8.09088256e-03, -1.52785247e-02,
       -2.09911410e-02, 7.72231072e-03, 8.21547583e-03, -3.49502894e-03,
       2.10490800e-03, 3.37752094e-03, -2.87783390e-04, -2.87044095e-03,
       -7.49063538e-03, -1.22920219e-02, 4.01839410e-04, -4.02666349e-03,
       -5.61858946e-03, 7.54691719e-04, 1.25804357e-02, 9.29979235e-03,
       2.89033703e-03, -8.71017389e-03, -9.33857448e-03, -6.57300977e-03,
       -6.83220988e-03, -2.24680058e-03, 7.28420680e-03, 9.09976941e-03,
       1.27413273e-02, 1.69686624e-03, 4.29918669e-04, -4.90072556e-03,
       7.50909699e-03, 4.30058641e-03, -4.75919340e-03, 3.56161967e-03,
       7.21751014e-03, 1.33368913e-02, 6.60371454e-03, 9.13831056e-04,
       -1.04321400e-03, -3.63949849e-03, 2.16368539e-03, -4.00237320e-03,
       6.53176103e-03, 2.19023023e-02, 2.37103496e-02, 2.00858396e-02,
       6.32871687e-03, -6.73571252e-04, -6.06346456e-03, -3.00970115e-03,
       -5.15375147e-03, -1.19536053e-02, -6.79004646e-04, 7.21660303e-03,
       -1.34291511e-03, -3.52929137e-03, -1.60111170e-02,
       -1.67250447e-02, -1.10168825e-03, -4.90780827e-03, 4.33435477e-03,
       9.87543445e-03, 2.82347873e-02, 2.53550857e-02, 1.44111151e-02,
       1.09054346e-03, -1.07892016e-02, -2.10220949e-03, -2.44012475e-02,
       -2.23361757e-02, -1.42206578e-02, 2.45643896e-03, -1.22865045e-03,
       -9.76629648e-03, -1.76730994e-02, -2.71854363e-02,
       -1.51506364e-02, 1.14394501e-02, -1.26785617e-02, -3.03782779e-03,
       4.46518231e-03, 2.01867726e-02, 1.08314294e-03, -1.40034761e-02,
       -1.51674422e-02, 8.25705659e-03, 7.01015722e-03, -2.70853229e-02,
       -2.20971312e-02, -9.03390069e-03, 8.52338132e-03, -5.29247243e-03,
       -1.46714458e-02, -2.01176554e-02, 8.54137540e-03, -4.47510835e-03,
       -2.76673865e-02, -1.74271334e-02, -1.30180153e-03, 9.96262953e-03,
       -7.57737365e-03, -1.52368955e-02, -2.59243231e-02,
       -1.57746987e-03, -9.12831165e-03, -3.56787592e-02,
       -3.44891399e-02, -9.88681708e-03, -3.25167086e-03,
       -1.30312759e-02, -2.52114907e-02, -3.39271054e-02,
       -5.97373489e-03, -4.15224442e-03, 2.19066767e-03, 7.85581395e-03,
       1.20741678e-02, 2.92809866e-03, 4.89748223e-03, -3.27188871e-03,
       -7.48434011e-03, -3.86167620e-03, 1.94812333e-03, 1.00615108e-02,
       1.11425212e-02, 1.22269951e-02, 1.38534408e-03, 4.37132607e-04,
       3.75486864e-03, -2.04184977e-03, -5.97629603e-03, -4.99713281e-03,
       3.46598594e-04, 2.78459140e-03, 7.42057292e-03, -1.75184326e-03,
       4.18105954e-03, -6.73574954e-03, -1.76320449e-02, -8.29818565e-03,
       -7.11771613e-03, 1.04224822e-02, 1.66514311e-02, 2.48419680e-02,
       2.56060925e-03, 4.76604700e-03, -5.75830694e-03, -6.87284349e-03,
       -5.27059194e-03, -2.44738534e-03, 3.23037966e-03, -1.23183848e-03,
       -3.07033514e-03, -5.72400633e-04, -3.36358440e-03,
       -4.82854899e-03, -5.97106153e-03, -1.21984659e-02, 8.85456859e-04,
       3.71453166e-03, 1.26054720e-03, -9.20701679e-03, -4.88476083e-03,
       -6.01239409e-03, -8.49706412e-04, -4.26892377e-03,
       -7.38840876e-03, -7.91429915e-03, 1.79505292e-02, 1.42219812e-02,
       1.08832903e-02, 8.25651921e-04, -3.98959732e-04, -8.69759172e-03,
       -1.35173537e-02, -1.61171611e-02, 1.23815835e-02, 2.73109060e-02,
       1.66507997e-02, 8.19274224e-03, 3.22692189e-03, 1.42651098e-03,
       3.71326320e-03, -3.79322749e-03, 8.19183514e-03, -7.34067336e-03,
       1.69730873e-03, 1.07023458e-03, -4.05135518e-03, -2.64141103e-03,
       -7.45063275e-03, -1.47834362e-03, -1.87178131e-03,
       -5.42432768e-03, -1.19648622e-02, 6.24070736e-03, 1.67829189e-02,
       1.20731229e-02, -1.54485554e-03, -1.08235823e-02, -5.52634103e-03,
       -8.14066827e-03, -1.90160945e-02, 3.30248824e-03, 2.28348859e-02,
       1.74054913e-02, 1.11989165e-02, 3.04922345e-03, -3.56126786e-03,
       5.83402067e-03, 6.34630071e-03, 8.60769488e-03, -1.11355372e-02,
       1.85480975e-02, 2.83345636e-02, 1.80312339e-02, -2.27831258e-03,
       -3.16010881e-03, 3.65628838e-03, -1.53970940e-03, -9.62726027e-03,
       -9.00056865e-03, 2.40659881e-02, 3.76685075e-02, 2.40973551e-02,
       3.16444994e-03, -8.88973009e-03, -2.85313791e-03, -2.10742746e-03,
       -1.29134106e-02, -7.16609973e-03, 3.02830860e-02, 3.10951341e-02,
       3.20439367e-03, 2.50059064e-04, -8.13159533e-03, -6.87019492e-05,
       1.69400941e-03, -1.36526907e-02, -1.08399494e-02, 2.57162713e-02,
       3.89447138e-02, 1.80848334e-02, -6.00195955e-03, -4.18328075e-03,
       8.37906729e-03, -5.72182063e-04, -1.55531354e-02, -2.34147087e-02,
       7.45435059e-03, 1.74579490e-02, -5.02014905e-03, -1.74122490e-02,
       -7.77537888e-03, -3.82463657e-03, -7.45318830e-03,
       -1.84270125e-02, 1.02383737e-02, 3.50449905e-02, 2.68769562e-02,
       -1.11820537e-03, -8.88152234e-03, -1.50196929e-03, 7.78883044e-03,
       6.47911290e-03, 4.33090748e-03, 1.70386080e-02, 1.29707605e-02,
       -5.80678345e-04, -1.99970398e-02, -2.78298743e-02,
       -1.73190013e-02, -7.20071979e-03, 4.46508685e-03, 1.11109912e-02,
       -7.35633867e-03, 1.12476265e-02, 1.31232236e-02, -1.66691549e-03,
       -9.87643190e-03, 6.39947783e-03, 6.50599087e-03, 8.07589665e-03,
       5.62515634e-04, -4.93101124e-03, -1.13660982e-03, -4.96505387e-03,
       -1.68994348e-02, -1.91737395e-02, -6.79590320e-03, 2.90434837e-04,
       5.24057820e-03, 4.64850524e-03, 2.57911645e-02, 1.20196398e-02,
       -6.03356340e-04, -1.22439833e-02, -2.75119282e-02,
       -1.35793416e-02, -5.04212640e-03, 6.10292377e-03, 1.95689034e-02,
       2.57920418e-02, 1.53430738e-02, 3.46968416e-03, -1.02195628e-02,
       -1.66665018e-02, -8.38506222e-03, -8.37393384e-03, 1.84744329e-03,
       1.77098494e-02, 3.71942995e-03, 3.70795047e-03, -7.43755791e-03,
       -1.23950215e-02, -2.42105033e-02, -1.06959706e-02, 9.66119813e-04,
       3.10485135e-03, 7.27799209e-03, -3.85543186e-04, 3.92834470e-03,
       -9.50750522e-03, -2.00858694e-02, -2.60780156e-02,
       -1.69021338e-02, -4.75525903e-03, 5.33845322e-03, 6.14080578e-03,
       2.14141756e-02, 1.43290590e-02, 3.97212105e-03, -9.21395235e-03,
       -1.36373574e-02, -4.73592291e-03, -6.50040107e-04, 1.06764876e-03,
       2.13183202e-02, 2.28787530e-02, 1.18165426e-02, 3.96242039e-03,
       3.50153743e-04, -1.10533303e-02, -1.31969424e-02, 4.52410150e-03,
       8.86211544e-03, 2.02115569e-02, -5.90666663e-03, -2.08994141e-03,
       -8.30596406e-03, -1.50422715e-02, -2.04239562e-02,
       -1.02948090e-02, -3.27918236e-03, -4.53978032e-03,
       -5.82927791e-03, -1.52197545e-02, -1.34144966e-02,
       -1.36447782e-02, -7.79252080e-03, -8.49793479e-03,
       -7.72658037e-03, -4.70843771e-03, -9.57962126e-03,
       -1.71471853e-02, 1.31196985e-02, 8.11536144e-03, 6.30226731e-03,
       9.99769755e-03, -4.26317146e-03, -8.88283923e-03, 3.61918705e-04,
       1.52205359e-02, 1.67762339e-02, 1.62215699e-02, 1.42033799e-02,
       3.86543758e-03, -1.19432237e-03, 6.06021087e-04, -3.78849683e-03,
       6.57750387e-03, 1.87409669e-02, 2.36225519e-02, -2.13040952e-02,
       -8.12130328e-03, -9.28444881e-03, 1.04636967e-03, -1.20917093e-02,
       -1.18810320e-02, -8.63217283e-03, -1.00219399e-02,
       -2.14122310e-02, -1.03644086e-02, 4.46331361e-03, -8.87695001e-04,
       3.51859932e-03, -5.12284553e-03, -6.13150652e-03, -3.57250986e-03,
       4.71651275e-03, -2.46581552e-03, 6.16580853e-03, 4.48755501e-03,
       -5.53643284e-03, -1.38023114e-02, -1.74649451e-02,
       -4.66960575e-03, -1.58777711e-05, 1.42536424e-02, 2.24787369e-02,
       5.35485800e-03, 1.05425706e-02, -7.96643831e-03, -1.27797760e-02,
       -1.69200990e-02, -3.92379658e-03, 1.96900684e-03, 1.63314007e-02,
       1.93988830e-02, -8.49976949e-03, 5.39865624e-03, -6.09876588e-03,
       -7.37012457e-03, -1.97163690e-02, -1.67464819e-02,
       -1.01668425e-02, 6.68791821e-03, 7.79152731e-04, -3.28538963e-03,
       1.31091969e-02, -6.24638982e-03, -2.86640879e-03, -1.89985670e-02,
       -1.80741493e-02, -9.49743204e-03, 5.73519478e-03, 1.36748335e-04,
       7.13135628e-03, 6.83172792e-03, -6.39849249e-03, -1.27693722e-02,
       -2.03638412e-02, -1.07737081e-02, -9.60618816e-03, 9.65518784e-03,
       1.11631509e-02, 8.94301012e-03, 1.11706788e-02, 1.33747724e-03,
       -1.41191399e-02, -2.25907378e-02, -1.79534424e-02,
       -1.43373162e-02, -4.90518101e-03, 1.07463989e-02, 6.70421217e-03,
       2.08936911e-02, -4.06981586e-03, -9.41400696e-03, -2.44978666e-02,
       -1.80815291e-02, -1.09647634e-02, 3.80851887e-03, -1.20555027e-03,
       1.77058727e-02, 2.80961320e-02, 4.07980708e-03, -1.74990483e-02,
       -2.49493103e-02, -1.59548391e-02, -1.17436526e-02, 6.15290878e-03,
       1.20245311e-02, -1.07525953e-03, 3.40595678e-03, -4.63987049e-03,
       -1.41598452e-02, -1.31652188e-02, -2.05387566e-02,
       -1.73407719e-02, -7.64024071e-03, 1.17140226e-02, 5.47644857e-04,
       -6.00855937e-03, -8.22174270e-03, -6.96482463e-03,
       -1.49307214e-02, -2.21622456e-02, -2.01767273e-02,
       -8.02978501e-03, 1.00861490e-02, 1.97923277e-02, 1.59178823e-02,
       -4.23376402e-03, -1.62132978e-02, -1.61502212e-02,
       -1.67879891e-02, -1.50099741e-02, 2.91369087e-03, 2.54165754e-02,
       1.01979123e-02, 6.99100667e-04, -1.43175684e-02, -1.43153537e-02,
       -2.22351495e-02, -1.97723862e-02, -1.69365574e-02,
       -1.78687309e-03, 1.98224783e-02, -2.50551943e-03, -6.07688562e-04,
       -4.63511283e-03, -8.63034860e-04, -1.53639251e-02,
       -2.30042823e-02, -1.94839984e-02, -6.22470351e-03,
       -2.57726246e-03, -1.27873775e-02, 4.05825349e-03, 3.21965874e-03,
       4.90857661e-03, 2.07123841e-04, -1.01620862e-02, -1.14181144e-02,
       5.82196144e-03, -3.70133814e-04, -6.86638581e-04, -1.52335840e-03,
       -1.32388016e-02, -1.12433927e-02, -2.24894565e-02,
       -1.40922619e-02, -8.45515728e-03, 2.30563642e-03, 1.05360206e-02,
       -2.41367752e-03, 2.43577315e-03, -2.02489435e-03, -3.06150905e-04,
       -2.70051998e-03, 1.14219474e-05, 1.46241090e-03, 1.60918627e-02,
       6.99351728e-03, -1.43955573e-02, 3.96034820e-03, 5.47728268e-03,
       6.60564657e-03, 2.49639573e-03, 2.34521413e-03, -3.74109112e-03,
       7.18593411e-03, -1.36026507e-03, -1.87571198e-02, -3.89633002e-03,
       6.08743576e-04, 2.66103400e-03, -1.82248870e-04, -1.77197310e-03,
       -9.19203914e-04, -8.40619486e-03, -1.46988546e-02, 1.24434324e-03,
       7.06120394e-03, 3.33822588e-03, 4.90684574e-03, -1.80684763e-03,
       6.84606563e-03, 9.69809294e-03, 2.46545393e-02, 1.42697068e-02,
       -4.00175201e-03, 9.53343697e-03, 5.68500673e-03, 6.82282494e-03,
       -6.27514441e-03, 7.29181292e-03, 2.50224024e-03, 1.29419304e-02,
       -2.24506622e-03, -7.01950584e-03, 3.07584903e-03, 9.77342762e-03,
       2.34631896e-02, 3.34387161e-02, 2.01314334e-02, 5.76952426e-03,
       -5.70497802e-03, -7.16546876e-03, -2.20998079e-02,
       -2.43215598e-02, -1.26557173e-02, -2.47818138e-03, 1.31666672e-03,
       -1.08796926e-02, -1.71872564e-02, -2.53418256e-02,
       -2.32688077e-02, 1.34733331e-04, 1.45204449e-02, 1.79706253e-02,
       2.30059046e-02, 3.63287404e-02, 4.11398709e-02, 1.61135178e-02,
       1.41645679e-02, -7.14326045e-03, -2.66964342e-02, -2.02759281e-02,
       -1.34954853e-02, -9.26466007e-03, 1.12854247e-03, -7.01716781e-05,
       -1.28706330e-02, -1.92396380e-02, -2.34831199e-02,
       -1.31905370e-03, -1.90530140e-02, -8.04288406e-03, 1.13152387e-02,
       1.89026725e-02, -1.09586315e-02, -1.05036115e-02, -1.81656759e-02,
       -2.59502837e-03, 3.74676601e-04, -2.35387385e-02, -1.50134545e-02,
       8.26047827e-03, 6.82009663e-03, -1.79945230e-02, -2.56840661e-02,
       -2.90427934e-02, 2.91440822e-03, -5.82922809e-03, -2.07682438e-02,
       -1.30544333e-02, 4.92560025e-03, 1.39011666e-02, -9.13102832e-03,
       -1.39491530e-02, -2.09858418e-02, 3.64534557e-03, 7.49856466e-04,
       -2.03151889e-02, -7.54762348e-03, 5.92699181e-03, 2.68104044e-03,
       -2.04575229e-02, -2.84904428e-02, -3.43361162e-02, 1.37630757e-03,
       -9.34153050e-03, -1.44565490e-03, 6.55286619e-03, 2.23772228e-03,
       1.21945823e-02, 1.75264245e-03, -1.21651459e-02, -2.18681097e-02,
       -1.34490151e-02, -1.32093038e-02, 2.65498995e-03, 1.37368822e-02,
       1.49600944e-02, 1.88141782e-02, 7.41755124e-03, -1.08752279e-02,
       -1.20890047e-02, -1.14093404e-02, -5.65639418e-03,
       -5.32624952e-04, 1.19730234e-02, 8.35143588e-03, 1.54736722e-02,
       1.50279724e-03, -9.25131701e-03, -1.76841989e-02, -4.96841082e-03,
       -8.05638451e-03, 1.13865465e-03, 1.52816577e-02, 1.67215485e-02,
       2.02725716e-02, 1.73473712e-02, -5.57607738e-03, -1.06308414e-02,
       -1.14004314e-02, -1.90601815e-02, 4.91553731e-03, 9.95365251e-03,
       1.33303329e-02, 2.96758185e-03, 2.14438373e-03, -9.70823877e-03,
       -1.52491098e-02, -2.72162743e-02, 4.59997682e-03, 2.43256576e-02,
       1.62106939e-02, 1.57435946e-02, 4.31496743e-03, 6.00830978e-03,
       1.69677357e-03, 1.50199921e-03, -3.90767033e-04, -1.83118172e-02,
       -1.07720238e-03, 2.71872524e-03, 3.90794687e-03, 5.81423705e-03,
       1.15649020e-02, -3.04884929e-03, -9.04150400e-03, -1.98320579e-02,
       1.82154484e-03, 1.79739166e-02, 1.91731639e-02, 8.03696364e-03,
       -1.18852349e-03, 7.95893092e-03, -1.54821004e-03, 4.31457721e-03,
       3.56038054e-03, -1.67068443e-03, 9.67408065e-03, 1.64156631e-02,
       6.62711542e-03, -9.80181270e-04, 4.46233433e-04, 1.87469542e-03,
       3.13443854e-03, 1.65689609e-03, -1.79784242e-02, 2.85682036e-03,
       2.14001145e-02, 8.20776913e-03, 5.41292597e-03, 8.67240597e-04,
       9.41893086e-03, -8.66111775e-04, -1.84897482e-02, 8.74639300e-05,
       1.30267115e-02, 1.94122009e-02, 7.53962155e-03, 9.44365631e-04,
       -1.77179358e-03, 5.19904715e-04, 9.48071247e-04, -4.36655199e-03,
       -1.02308188e-02, 8.82392097e-03, 1.73265580e-02, 1.32270344e-03,
       1.20394062e-02, 8.60419124e-03, 1.41723705e-02, 7.79332733e-03,
       -1.36775384e-02, -1.54968807e-02, 1.51173770e-02, 2.82716732e-02,
       1.36490883e-02, 4.14189836e-03, 8.38587340e-03, 1.72393695e-02,
       3.76929552e-03, -1.45400679e-02, -1.48775792e-02, 1.58727402e-03,
       1.00364136e-02, -5.51156607e-03, -6.33468060e-03, -8.72126839e-04,
       1.42535544e-03, -2.87204841e-03, -1.35069508e-02, -1.15468334e-02,
       1.46121746e-02, 2.35903934e-02, 1.35098500e-02, 9.02224332e-03,
       1.79895777e-02, 2.05722116e-02, 1.27855940e-02, -1.10123195e-02,
       -8.98475945e-03, -1.18337630e-03, 2.59441393e-03, 4.21946228e-04,
       -6.19397825e-03, -1.20197784e-03, 5.52380407e-05, -6.36036089e-03,
       -1.54976426e-02, -1.92330405e-03, 5.39061241e-03, 1.05965864e-02,
       6.82233600e-03, 1.82811491e-04, 1.52091272e-02, 6.04445394e-03,
       3.65352421e-03, 5.01296367e-04, -9.25838854e-03, -6.42227460e-05,
       3.48571967e-03, 3.45205015e-04, -5.21175284e-03, 7.88204779e-04,
       -4.58848663e-03, -4.82816761e-03, -8.97695776e-03, 7.00206822e-03,
       6.84777880e-03, 9.05064773e-03, 1.26888016e-02, -7.35365960e-04,
       8.02120287e-03, 2.13546818e-03, -7.33718916e-04, -2.25027371e-03,
       1.30404148e-03, 3.42627661e-03, 5.24293678e-03, 1.99934759e-04,
       2.15851862e-04, -7.35064317e-03, -2.02364028e-02, -1.53520340e-02,
       -9.85150412e-03, 4.60735289e-03, 8.81152228e-03, 3.54612479e-03,
       3.13493609e-03, 2.52343481e-03, -3.97028262e-03, -3.31664365e-03,
       6.08106656e-03, 9.20149777e-03, -5.79382945e-03, 1.17758242e-02,
       -3.12960846e-03, -8.30193888e-03, -1.39908670e-02,
       -1.28556900e-02, -6.91100629e-03, 1.29853440e-02, -1.06701849e-03,
       1.39208743e-02, 1.54374931e-02, 1.28363343e-02, -6.22326275e-04,
       4.43475461e-03, -6.43635355e-03, -2.01409403e-02, -4.54484625e-03,
       5.89079410e-03, -3.10316309e-03, 1.30848074e-02, -3.54142132e-04,
       -1.63630936e-02, -9.02184378e-03, -1.52191389e-02,
       -1.96657870e-02, 3.74415948e-04, -7.69016892e-03, -1.06626162e-02,
       8.45624600e-03, 2.68604467e-03, -1.27913861e-03, -1.15320347e-02,
       -3.34003917e-03, 9.75067669e-04, 7.63664488e-03, -9.82133206e-03,
       -2.02487726e-02, 9.60189936e-05, -4.00105228e-06, 1.10423993e-02,
       1.77695770e-02, 1.23179378e-02, 2.95431120e-03, -1.44731207e-03,
       -1.54665597e-02, -9.43044201e-03, 1.22629497e-02, 8.44409969e-03,
       -5.46504231e-03, -1.18759396e-02, -9.47845355e-03,
       -7.95160141e-03, 7.74887949e-03, -8.80620535e-03, -1.12460321e-02,
       7.09510222e-03, 5.83669078e-03, 1.19711738e-02, 1.19084530e-02,
       4.85941814e-03, -6.63874950e-03, 2.92730401e-04, -1.53844608e-02,
       -2.53779814e-02, -3.80545086e-03, -1.87749811e-03, 1.59052387e-02,
       1.07659539e-02, 5.82000799e-03, -5.24134515e-03, -8.45927186e-03,
       -2.59629246e-02, -6.25312515e-03, 4.44926508e-03, 7.14770239e-03,
       1.83766149e-02, 1.29329925e-02, 2.89483787e-03, 2.98378756e-03,
       9.93297528e-03, -5.22437971e-03, -2.28875075e-02, -7.42701301e-03,
       -1.22140173e-03, 1.39171435e-02, 4.21719020e-03, 8.10824614e-03,
       -8.40571150e-03, -7.53765693e-03, -2.40109731e-02,
       -1.30067738e-02, 7.16915540e-03, 1.11553809e-02, 1.25019513e-02,
       1.52091486e-02, 8.40550102e-03, -4.49399697e-04, 1.45457161e-03,
       -1.00538479e-02, -8.09548050e-03, 1.03825368e-02, -3.23161890e-04,
       1.76520657e-03, -3.21322144e-03, -1.18987691e-02, -3.50780482e-03,
       8.93622823e-03, -1.03843794e-03, -3.04892240e-03, 2.54741888e-02,
       7.17942556e-03, -1.87915016e-03, -1.00824768e-02, -1.81010105e-02,
       -4.66545252e-03, 9.09945555e-03, -2.16369913e-03, -4.11536032e-03,
       1.50380610e-02, 4.65463847e-03, 6.17861922e-04, -5.12500666e-03,
       -1.02596991e-02, -9.70198214e-03, 8.16795416e-03, -3.81404394e-03,
       -5.58334775e-03, 1.82004739e-02, 7.38917477e-03, 2.39593512e-03,
       -5.80724375e-03, -1.51390461e-02, -6.26892876e-03, 1.83690861e-02,
       -3.92410532e-03, 2.38656811e-03, 1.92023031e-02, -6.43696636e-04,
       -4.01097257e-03, -1.64960846e-02, -1.39567470e-02,
       -9.27573629e-03, 5.40648447e-03, -8.13226798e-04, 1.86621323e-02,
       2.52296142e-02, -1.64138281e-03, -8.71660002e-03, -1.06668370e-02,
       -5.34267025e-03, -4.64925962e-03, 1.53542561e-02, 1.75518356e-02,
       -4.53795027e-03, 3.94099113e-03, -6.04787748e-03, -3.11941229e-04,
       -1.56008629e-02, -1.81713123e-02, -1.04809599e-02, 1.17393509e-02,
       -8.82977387e-04, 5.09462180e-03, -6.65802567e-04, -1.48013672e-02,
       -8.89560301e-03, -1.69929154e-02, -1.31037775e-02,
       -5.30626299e-03, 1.84886027e-02, 6.86265202e-03, 1.83794945e-02,
       1.57208107e-02, -2.54329084e-03, -9.20989178e-03, -1.26066534e-02,
       -9.36619937e-03, -8.82484205e-03, 7.55670713e-03, 2.50970609e-02,
       3.45577043e-03, 2.41647544e-03, -1.45001812e-02, -1.34976124e-02,
       -2.09971815e-02, -1.47320936e-02, -1.46581950e-02, 2.73471582e-03,
       1.45187061e-02, 1.08587090e-02, -3.30394413e-03, -1.74762402e-02,
       -1.58165712e-02, -1.89474504e-02, -1.58982612e-02,
       -6.85356231e-03, 1.55287609e-02, 1.55849028e-02, 9.48534627e-03,
       -2.28253705e-03, -1.19012753e-02, -1.12173585e-02,
       -2.05228757e-02, -2.14163754e-02, -1.85221191e-02,
       -3.64835351e-03, 2.70279264e-03, -6.71722321e-03, -1.85806886e-03,
       -1.25693502e-02, -9.10782255e-03, -1.36371963e-02,
       -1.13517670e-02, -1.46467937e-02, -1.40111474e-03, 6.05547009e-03,
       9.83292586e-04, 2.54208664e-03, -2.80573941e-03, 2.47565657e-03,
       -7.85101671e-03, 2.75044673e-04, -4.64836508e-03, 1.25495028e-02,
       9.49344505e-03, 9.11929365e-03, 2.60977121e-03, -9.30748042e-03,
       -1.40970049e-03, -1.46417338e-02, -2.09472589e-02,
       -2.52197348e-02, -3.77619173e-03, -2.03101692e-04, 1.17303645e-02,
       7.40033062e-03, 1.47140550e-03, 1.08072683e-02, -6.04953384e-03,
       -1.30273579e-02, -1.31594455e-02, 1.02207894e-02, 9.04687401e-03,
       -3.67871206e-03, 3.76972370e-03, 2.49511213e-03, 6.32570405e-03,
       -8.97816196e-03, 4.09623003e-03, 4.82469378e-03, 1.63021274e-02,
       9.63045750e-03, -4.16475581e-03, 1.39211491e-03, 4.68287244e-03,
       8.79954919e-03, 1.77491980e-03, 3.76049546e-03, -2.20041932e-03,
       5.61028952e-03, 2.86764116e-03, 1.51261257e-03, 5.33013092e-03,
       4.13906574e-03, 8.45417287e-03, -8.43765959e-03, -5.15059987e-03,
       2.22317642e-03, 1.55245177e-02, 7.36899395e-03, -5.88633493e-03,
       -2.46263808e-03, 3.68873589e-03, 1.33577259e-02, 9.02105961e-03,
       7.91362312e-04, -1.05287426e-03, 6.26706099e-03, 4.15620347e-03,
       -7.80235883e-03, 1.28817570e-03, 1.08536407e-02, 2.22056024e-02,
       3.59999724e-02, 3.46998014e-02, 5.72273927e-03, 3.20586259e-03,
       -3.34789068e-03, -3.24543156e-02, -2.43837349e-02,
       -2.14570556e-02, -1.23853441e-02, 1.94806475e-04, -2.82258494e-03,
       -1.75103061e-02, -2.03761272e-02, -2.25968752e-02,
       -5.19010983e-03, -2.44518416e-03, 1.17063364e-02, 3.98441590e-02,
       4.15621847e-02, 1.97018255e-02, 7.08258769e-04, 6.96812011e-03,
       5.60580147e-03, -1.91232990e-02, -1.95877552e-02, -1.37437731e-02,
       4.57477942e-03, 1.00553473e-02, -8.59458186e-03, -2.03914382e-02,
       -2.51678973e-02, -1.90291740e-02, -5.64689003e-03,
       -2.04655807e-02, -1.61665995e-02, 2.20248941e-03, 1.37692876e-02,
       -2.99630174e-03, -1.71846263e-02, -1.98997445e-02, 2.64430628e-03,
       -1.30430551e-03, -2.42677014e-02, -1.54626807e-02, 6.54074529e-06,
       1.18920975e-03, -1.79455429e-02, -2.64383666e-02, -2.96416786e-02,
       -2.01545205e-04, 1.12484870e-02, -8.98015779e-03, -3.19288741e-03,
       6.34567719e-03, 1.80609375e-02, 2.40048417e-03, -1.86883174e-02,
       -2.49156710e-02, 5.47294226e-03, 7.05881417e-03, -2.61803474e-02,
       -1.53655363e-02, -8.75492953e-03, 2.63372756e-04, -1.67431682e-02,
       -3.15772928e-02, -3.20500396e-02, 2.81496323e-03, -3.33525683e-03,
       1.57266180e-03, 7.68281147e-03, 6.53774850e-03, 7.18369149e-03,
       7.39201764e-03, -1.01946965e-02, -1.51279364e-02, -7.97095941e-04,
       -5.81380120e-03, 5.12105296e-04, 2.45397701e-03, 8.56896862e-03,
       4.00084013e-04, 1.84632540e-02, -3.72121367e-03, -1.05102221e-03,
       -4.83191246e-03, -3.43644922e-03, 4.23125131e-03, 1.07094394e-02,
       5.16121229e-03, -3.77008528e-03, 1.65852122e-02, -6.04851963e-03,
       -1.05709843e-02, -4.20730980e-03, -3.48039740e-03,
       -5.68121206e-03, 4.04202426e-03, -5.32687595e-03, 2.66445568e-03,
       1.46505833e-02, -1.68664241e-03, -7.66257523e-04, 8.25371780e-03,
       -1.92485494e-03, -1.90019305e-03, 3.31008108e-03, 2.37241760e-03,
       9.65030026e-03, 1.36192534e-02, 4.12179244e-04, 3.13574681e-03,
       -2.15756125e-03, 1.82918981e-02, 1.81568544e-02, 1.81295592e-02,
       4.25458699e-03, 3.24431108e-03, 3.31564830e-03, -3.38395708e-03,
       8.26184079e-03, 1.27960294e-02, -6.76354393e-03, -6.99269865e-03,
       2.04538601e-03, -1.06514781e-03, 4.51499363e-03, 4.77319118e-04,
       -1.11583276e-02, -7.20185321e-03, -1.68382400e-03, 9.06129892e-04,
       6.25933520e-03, 7.36832758e-03, 3.92040564e-03, -9.74918343e-03,
       -1.52068995e-02, -1.23734567e-02, -8.00075755e-03, 1.11086178e-03,
       7.93422293e-03, 1.65468156e-02, 1.24335922e-02, 4.70223464e-03,
       7.71797169e-03, -3.60911409e-03, -8.35848600e-03, -1.99821289e-03,
       1.47728703e-03, 1.11085107e-03, 1.09806610e-02, 1.21929729e-02,
       2.09410791e-03, 8.55559669e-03, 1.82932727e-02, 1.86373144e-02,
       1.61222536e-02, -9.61801037e-04, -1.17059925e-03, 5.70589490e-03,
       1.46032151e-04, 3.53686232e-03, 1.47134601e-03, -8.72483663e-03,
       -1.33561101e-02, -1.43385669e-02, -8.06475244e-03,
       -1.39418421e-02, -7.23848678e-03, -8.18712637e-03,
       -4.83202655e-03, 1.40208062e-02, 1.10604977e-02, 1.36320293e-03,
       -7.83222076e-03, -1.06148832e-02, -4.69211396e-03, 7.98339676e-03,
       1.07824802e-02, -2.76544481e-03, 2.08186638e-03, 2.64759641e-02,
       2.56783925e-02, 1.64390001e-02, -3.02419066e-04, -9.54235531e-03,
       -5.86387469e-03, -6.57622796e-03, -9.93318483e-03,
       -1.01550575e-02, 1.23618776e-02, 5.93656395e-03, 1.30601646e-03,
       -1.39688328e-02, -1.68881714e-02, -5.54409670e-03,
       -9.81864426e-03, -7.11224275e-03, 4.03165398e-03, 2.89120320e-02,
       2.17762347e-02, 1.62395928e-02, -4.99098143e-03, -2.30770279e-02,
       -6.16112957e-03, -1.36801209e-02, -1.17354142e-02,
       -9.59360797e-04, 1.31261144e-02, 2.38856971e-02, 1.92649812e-02,
       -9.24769510e-03, 9.58338351e-05, 5.05028246e-03, -2.77288374e-03,
       -6.90942106e-04, -5.81142586e-03, 4.32594772e-03, 5.53928374e-04,
       2.80108792e-03, -6.29315572e-03, 1.04503175e-02, 1.01532899e-02,
       7.35874334e-03, -9.93117038e-03, -6.23717159e-03, -1.11013623e-02,
       -1.67866424e-02, -8.86497367e-03, 1.60459534e-03, -1.20105110e-02,
       6.27833942e-04, -3.07985931e-03, -1.24277817e-02, -8.57004896e-03,
       -5.35840029e-03, 1.62135251e-02, 2.51596533e-02, 5.53172966e-03,
       1.13356030e-02, 6.32905681e-03, -1.41273416e-03, -2.35552397e-02,
       -1.96504202e-02, -1.79999694e-02, -1.16964784e-02, 7.49778654e-03,
       1.84117556e-02, 1.25386510e-02, 5.47509873e-03, 4.05958854e-03,
       -1.34893646e-02, -1.12886578e-02, -1.17200958e-02,
       -2.25932375e-02, -6.67378213e-03, 8.63000099e-03, 1.26056727e-02,
       5.47587639e-03, -7.81872310e-03, -2.60433685e-02, -2.63395961e-02,
       -1.82285998e-02, -2.46275607e-02, -3.62355052e-03, 7.90622085e-03,
       2.26953998e-02, 8.94823298e-03, -2.31608655e-03, -1.81651916e-02,
       -2.03250125e-02, -1.22158993e-02, -1.11667290e-02, 7.67364912e-03,
       2.86175739e-02, 2.55369227e-02, 1.10496031e-02, 1.29462976e-03,
       -1.04146786e-02, -1.97647382e-02, -1.57124326e-02,
       -1.51662678e-02, 1.49979340e-02, 2.54992656e-02, -1.07424764e-03,
       -8.28858698e-04, -4.59586037e-03, -1.71935670e-02,
       -2.53275763e-02, -2.00253129e-02, -1.64509155e-02,
       -7.19081072e-05, -2.33295141e-03, -1.10284062e-02,
       -5.85063500e-03, -1.75160996e-03, -7.83978216e-03,
       -1.52347842e-02, -1.52705684e-02, -1.58675350e-02,
       -7.05673685e-03, -7.99042452e-03, 1.85491703e-02, 7.22356141e-03,
       -4.28404397e-04, -5.62907010e-03, -2.13689413e-02,
       -1.62257794e-02, -9.64255445e-03, 1.57318097e-02, 1.54737132e-02,
       2.24200226e-02, 9.60664265e-03, 1.16379075e-02, -5.37206791e-03,
       -1.50648849e-02, -2.41879257e-03, 8.77297833e-04, 1.47015136e-02,
       2.92637125e-02, -1.77613106e-02, -1.11094303e-02, -3.16497916e-03,
       -3.18077020e-03, -1.02371415e-02, -5.23664430e-03,
       -8.08051229e-03, -9.67007689e-03, -1.62962377e-02,
       -2.01367736e-02, -2.05654604e-03, 4.72559081e-03, -1.63403817e-03,
       -6.05299836e-03, -1.01968618e-02, -7.88848475e-03,
       -1.11529123e-04, -1.78123210e-02, 1.57482550e-02, 1.17266765e-02,
       9.27900989e-03, -4.13663825e-03, -1.25996275e-02, 1.61498995e-03,
       8.33389349e-03, 1.14886612e-02, 1.87183116e-02, 1.03727048e-02,
       1.05249584e-02, 1.55072790e-02, 1.46306679e-03, -2.20374065e-03,
       -1.27902720e-02, 4.23647184e-03, 1.75202433e-02, 1.13429949e-02,
       -1.46088218e-02, 7.48899765e-03, 2.39528902e-03, -7.57005438e-03,
       -1.76676642e-02, -2.03246213e-02, -1.45461541e-02, 5.11102937e-03,
       -7.38873053e-03, -4.41046245e-03, 7.62427505e-03, -4.38341638e-03,
       -3.44859343e-03, -9.80075821e-03, -1.92727204e-02,
       -9.84562282e-03, 9.46385413e-03, -3.76519281e-03, 1.03024505e-02,
       1.74854640e-02, 8.05481244e-03, 3.15087591e-03, -1.58436261e-02,
       -2.84401197e-02, -6.23279205e-03, 1.07952813e-02, 5.11867646e-03,
       6.21632906e-03, 1.57643519e-02, 1.10608735e-03, 5.51215746e-03,
       -8.25270824e-03, -2.10492518e-02, -5.93372574e-03, 9.97656211e-03,
       2.38079764e-03, -7.61927990e-03, 1.58157526e-03, -8.17016512e-03,
       -4.38501872e-03, -1.18701300e-02, -1.57471970e-02,
       -2.53126165e-03, 1.69495158e-02, 2.55491864e-03, -4.80957283e-03,
       -2.84084468e-03, -1.48590207e-02, -1.31644718e-02,
       -2.26528160e-02, -1.91174652e-02, 8.33078928e-04, 2.40723770e-02,
       6.88930508e-03, 2.72928691e-03, 1.24063799e-02, -3.94459115e-03,
       -3.89188901e-03, -8.21160804e-03, -1.20689431e-02,
       -4.85190452e-04, 8.62820074e-03, 1.21482499e-02, 6.71328790e-03,
       -2.45836098e-03, -8.21614917e-03, -1.25235235e-02,
       -2.11594496e-02, -1.08654546e-02, 6.92266179e-03, 1.98487118e-02,
       1.09047946e-02, 9.99906939e-03, 2.10873224e-03, -1.84779875e-02,
       -1.69368777e-02, -2.06045695e-02, -2.03243643e-02,
       -5.73259173e-03, 1.62636265e-02, 1.39059955e-02, 1.92359537e-02,
       4.15440835e-03, -9.46248136e-03, -1.17760943e-02, -2.61455849e-02,
       -2.41970625e-02, -1.61202475e-02, 7.27424689e-04, 9.39416979e-03,
       9.66991298e-03, 2.45398667e-04, -8.57232697e-03, -1.52193103e-02,
       -2.33164877e-02, -1.58496611e-02, -2.33642268e-03, 1.02667809e-02,
       7.27139274e-03, 1.49255600e-02, 4.20544122e-04, -9.63995606e-03,
       -4.78220638e-03, -1.94814969e-02, -1.41833508e-02,
       -1.03702527e-02, 1.26615248e-03, 3.81630752e-03, 1.70006249e-02,
       9.52204689e-03, -2.15331947e-05, -2.93647032e-03, -2.57353950e-02,
       -2.39037294e-02, -2.11964082e-02, 2.95883091e-03, 8.96454044e-03,
       1.12831546e-02, 9.58161149e-03, 2.16522370e-03, 9.03557241e-03,
       -1.33577920e-02, -1.76126510e-02, -1.14803268e-02, 1.38195958e-02,
       1.38318986e-02, 1.86875602e-03, -1.11742027e-03, -1.30687021e-02,
       -6.56068977e-03, -1.49079477e-02, -1.16751743e-02,
       -8.09347816e-03, 1.14170974e-02, -2.82023847e-03, -2.13869894e-03,
       6.76460518e-03, -1.17641622e-02, -1.12818209e-02, -1.11095896e-02,
       -7.57861743e-03, -4.27384977e-04, 1.84869431e-02, -7.40539702e-03,
       6.74240850e-03, 1.49926394e-02, 7.09705660e-03, 7.49814417e-03,
       -9.40334331e-03, -9.11173224e-03, -3.07008065e-03, 1.32788150e-02,
       1.34021565e-02, -7.72960903e-03, 9.73087456e-03, 9.81423259e-03,
       1.64566804e-02, 5.23989974e-03, -1.11035584e-03, -4.20594681e-03,
       1.25981960e-02, 5.60126221e-03, -3.32170166e-03, 9.30494908e-03,
       -2.13880255e-03, 1.42560853e-03, -9.63390339e-03, -5.39473305e-03,
       1.83391874e-03, 1.17889894e-02, -8.59602541e-03, -1.31149041e-02,
       3.98738496e-03, 8.91328044e-03, 1.86809003e-02, 8.29823606e-04,
       -4.74573579e-03, -8.98728613e-03, -6.97070907e-04,
       -1.94705501e-02, -1.31681357e-02, 2.33932002e-03, 1.51119037e-02,
       3.68421450e-02, 3.45255435e-02, 1.01316525e-02, -3.30611714e-03,
       8.95041786e-03, 1.44664699e-03, -1.43578565e-02, -1.56300049e-02,
       -4.19133157e-03, 1.15221459e-02, 1.23666949e-03, -1.12071838e-02,
       -1.72417127e-02, -2.27754489e-02, -1.08291404e-02,
       -5.10652130e-03, 2.71496363e-03, 1.16977384e-02, 3.07183228e-02,
       3.04700863e-02, 6.87129982e-03, -1.26880063e-02, -3.89618939e-03,
       -9.59371123e-03, -1.24248024e-02, -1.57021396e-02,
       -4.56015673e-03, 7.32191838e-03, 2.67219590e-03, -1.15940589e-02,
       -2.30619311e-02, -2.64842808e-02, -1.30401785e-02, 2.21122266e-03,
       -1.34956557e-02, -1.08435447e-03, 7.40269478e-03, 2.01871116e-02,
       1.85848854e-03, -1.64777916e-02, -2.76997872e-02, -3.01040855e-04,
       6.36212155e-03, -2.53391080e-02, -1.94413327e-02, -1.46273356e-02,
       -4.27248934e-03, -1.26693575e-02, -2.81636026e-02,
       -3.38224098e-02, 1.74847746e-03, 1.74676196e-03, -1.43479137e-02,
       -7.29230582e-04, 8.06319062e-03, 2.39066407e-02, 4.59760521e-03,
       -1.52461883e-02, -2.56414451e-02, 6.11714739e-03, -1.52211101e-03,
       -2.89168637e-02, -2.50056889e-02, -1.29222311e-02,
       -5.70818409e-03, -1.20630702e-02, -2.63500400e-02,
       -3.64318602e-02, -2.48676562e-03, -7.04332022e-03, 3.37048457e-03,
       9.07511916e-03, 1.12307090e-02, -7.09751714e-03, 1.74286831e-02,
       4.89847222e-03, -2.92051304e-03, -1.43812457e-02, -5.19489637e-03,
       -8.08860350e-05, 8.40992853e-03, -1.80894195e-03, 3.14747216e-03,
       5.74538810e-03, -3.36869014e-03, -1.64925342e-03, 4.63385135e-03,
       -1.07980371e-02, 7.14976981e-04, 4.70613362e-03, 6.33691298e-03,
       1.14034247e-02, 1.80768650e-02, 7.74850976e-03, -9.54760908e-05,
       -1.10127954e-02, 7.07489252e-03, 6.03303127e-03, 6.86253002e-03,
       5.14352135e-03, 4.65009641e-03, 6.83811447e-03, 2.15588510e-03,
       -6.99632452e-04, 1.97950285e-03, -8.34566820e-03, -1.02914195e-03,
       8.30436498e-03, 1.08430823e-02, 1.73367914e-02, 4.20362834e-04,
       -6.65565673e-03, -1.01970288e-03, -4.04244801e-03,
       -7.71049690e-03, 5.45031019e-03, 1.47395702e-02, 1.81625299e-02,
       8.80548544e-03, -1.09860850e-02, -1.11498907e-02, -7.35837407e-03,
       -5.88717777e-03, -3.73052229e-04, -1.44221063e-03, 3.42356885e-04,
       4.96869814e-03, 1.26705775e-02, 3.89043288e-03, 1.48873462e-03,
       -5.06994454e-03, -4.13704012e-03, -1.34024573e-02, 6.25430723e-04,
       1.26060992e-02, 1.11016156e-02, 1.09179011e-02, 6.76444673e-04,
       -2.59934156e-03, -2.66666152e-03, -1.52857685e-02,
       -5.83800767e-03, 5.56179555e-03, 1.07102189e-03, 1.47674801e-02,
       1.11351674e-02, -5.59753156e-04, -1.21474722e-02, -1.02524040e-02,
       -9.15765669e-03, -1.54486466e-02, -1.19463690e-02,
       -1.23237949e-02, 3.43468343e-03, 2.22255755e-02, 1.22047439e-02,
       -6.38615433e-03, -9.77439992e-03, -5.94115071e-03,
       -1.24152182e-02, 2.68624979e-03, 8.45083874e-03, 1.75517555e-02,
       2.05449257e-02, 5.61295450e-03, -6.45377068e-03, -6.44111075e-03,
       -1.49000566e-02, -9.06592980e-03, -9.17604310e-04, 2.38342956e-03,
       7.38515798e-03, 2.35207733e-02, 1.14931539e-02, -3.25349835e-03,
       -1.10296523e-02, -1.71635970e-02, -2.24447455e-02,
       -6.71604229e-03, -1.02614770e-02, -2.41598138e-03, 2.07448425e-03,
       1.09498603e-02, 1.75800771e-02, 1.60818510e-02, -4.22419468e-03,
       -2.02510562e-02, -3.85387149e-03, -1.41183790e-02,
       -1.03485277e-02, -6.44909777e-03, 3.85267567e-03, 3.04446481e-02,
       3.58331241e-02, 7.43184704e-04, -1.30193457e-02, 2.42329249e-03,
       -1.95573014e-03, -1.89878244e-03, 8.25975090e-03, -4.25542792e-04,
       6.20852550e-03, 6.18636236e-03, -2.15045121e-02, -1.62134860e-02,
       8.09284486e-03, -7.46569363e-03, -1.18383346e-02, 1.14065839e-03,
       -3.90702859e-03, 1.83155835e-02, 2.58525237e-02, -1.61325186e-02,
       -9.17882659e-03, -6.08658011e-04, -3.49803804e-03,
       -1.22011369e-02, -1.52538251e-02, -9.64679662e-03, 1.59005933e-02,
       2.78796107e-02, 7.17608351e-03, 6.63737068e-03, -1.26367540e-03,
       -4.35499614e-03, -2.09213439e-02, -1.58107802e-02,
       -8.60002451e-03, -7.09442794e-03, 7.80513510e-03, 9.88584477e-03,
       -5.88812493e-03, 1.59609634e-02, -8.96962883e-04, -1.38262780e-02,
       -1.06516397e-02, -1.34129415e-03, 6.39747549e-03, 2.35848334e-02,
       -5.37770381e-03, 2.96982122e-03, 1.06596183e-02, 1.95843182e-04,
       -1.70982350e-02, -3.10444244e-04, -2.01879209e-03,
       -2.38839397e-03, 1.17421933e-02, 1.52606587e-03, 1.34308618e-02,
       1.38991210e-03, -5.50173596e-03, -1.45540759e-02, -1.68480203e-02,
       -4.80640633e-03, -1.65937352e-03, 7.25299120e-03, 1.56716276e-02,
       7.01289205e-03, 1.93737727e-03, 1.00180251e-03, -7.78024225e-03,
       -7.50215910e-03, -4.93379636e-03, -6.09963434e-03, 5.87265193e-03,
       2.31109001e-03, 3.75261740e-03, 3.96354031e-03, -5.87776769e-03,
       -1.28064966e-02, -8.25225469e-03, 2.23865011e-03, 8.76304880e-03,
       1.39721539e-02, 8.00944492e-03, 1.59746304e-03, 1.42513588e-03,
       -3.98887601e-03, -4.88474360e-03, -1.53046288e-03,
       -4.39688517e-03, -4.33152076e-03, 1.79285696e-03, -2.00826442e-03,
       6.33092225e-03, -2.51697982e-03, 8.50856421e-04, -5.31858299e-04,
       8.82832799e-04, -2.51201377e-03, -7.27574993e-03, 7.79465493e-03,
       1.27158090e-02, 1.09395962e-02, 9.62633360e-03, 1.10192541e-02,
       1.67224114e-03, -2.73174560e-03, 4.18565609e-03, 5.87717397e-04,
       1.04854228e-02, 2.22905986e-02, -5.78996819e-03, -1.71023095e-03,
       -3.92626785e-03, -1.54500816e-03, 2.04934902e-03, -7.79901445e-03,
       -1.49425156e-02, -1.44248167e-02, -5.35476347e-03,
       -3.95760173e-03, 1.69586390e-03, -1.26318634e-03, -3.40830511e-03,
       4.48173471e-03, -1.32100773e-03, -9.04793106e-03, -1.05642295e-02,
       -2.21821922e-03, 8.83546192e-03, 1.46547295e-02, 1.20784147e-02,
       3.34727229e-03, -9.61525086e-03, -2.24174978e-03, 2.15913961e-03,
       4.86506848e-03, 1.72180925e-02, 8.18160176e-03, 9.93932597e-03,
       1.19364215e-02, 4.71788924e-03, -5.79676218e-03, -1.70464814e-02,
       -2.84360000e-03, 8.66493210e-03, 8.80615693e-03, 1.71715906e-03,
       5.64849656e-03, 5.57939755e-03, -2.45064870e-03, -7.21605076e-03,
       -6.25990855e-04, -1.18574360e-02, -1.14909792e-02,
       -2.49939319e-03, 2.02134531e-03, -2.52182130e-04, 1.11810835e-02,
       2.04109796e-03, -8.61263834e-03, -1.59229673e-02, -1.88883599e-02,
       -1.25439093e-02, -1.85262191e-03, 1.22463405e-02, 1.31511213e-02,
       7.58951157e-03, 4.69633332e-03, -5.12229884e-03, -1.99057702e-02,
       -1.74944126e-03, 1.32296178e-02, 1.61373876e-02, 8.42729304e-03,
       8.44751392e-03, 3.02296272e-03, 7.18378741e-03, -7.71128247e-03,
       -1.35129234e-02, 1.77975418e-03, 8.73639435e-03, 6.96807820e-03,
       -4.63315705e-03, -8.10348336e-03, 1.56868901e-03, -7.19477842e-03,
       -1.02680139e-02, -1.66101418e-02, -1.65619384e-02,
       -4.34340397e-03, -6.22205529e-03, -1.44637991e-02,
       -1.19050601e-02, -7.41813425e-03, -2.82100495e-03,
       -3.40014370e-03, -1.39111094e-02, -1.24439094e-02,
       -1.00301653e-02, -1.41512062e-02, 7.13901222e-03, 8.70415848e-03,
       -4.78080893e-03, 1.80537812e-03, 1.17910595e-03, -2.78594764e-03,
       1.93232147e-03, 1.02417106e-02, 1.32796625e-02, 5.89397829e-03,
       1.54544818e-04, -9.54372715e-03, -6.46585366e-03, -1.06256374e-03,
       -2.90911319e-03, -8.77361686e-04, 9.42752697e-03, 1.27660073e-02,
       -7.67198205e-03, 3.40418494e-03, -6.83814939e-03, 4.93201613e-03,
       -9.73248214e-04, -4.73686401e-03, -9.53629334e-03,
       -1.03848940e-02, -1.03816669e-02, -6.81766495e-03,
       -4.20311419e-03, -1.20968642e-02, -1.65262097e-03, 9.62556899e-03,
       -9.40469839e-03, -1.25784921e-02, -9.16284625e-04,
       -5.78992488e-03, 1.51324021e-02, 1.08213173e-02, -9.83813778e-04,
       -5.91043709e-03, -1.09659620e-02, -5.29737351e-03,
       -1.91245647e-03, 5.84079372e-03, 1.69275347e-02, 1.44188162e-02,
       1.23123759e-02, -5.07775042e-03, -2.41674157e-03, -1.21580763e-02,
       -1.10056484e-03, -4.99119656e-03, -2.71240249e-04, 7.08359340e-03,
       6.22890249e-04, 4.48363693e-03, -9.56797134e-03, -7.36341393e-03,
       -2.78382050e-03, -8.68487731e-03, -1.32644698e-02, 7.58546405e-04,
       -5.21774776e-03, -2.98871356e-03, 6.17682515e-03, -7.52992230e-03,
       -6.50032330e-03, -1.07324710e-02, 7.81348062e-05, -6.04579877e-03,
       -8.43458518e-04, -9.67724063e-03, 9.81923100e-03, 8.20006244e-03,
       -1.31603014e-02, -6.73950138e-03, -4.86839702e-03, 4.83081094e-04,
       4.60526766e-03, 1.51678165e-02, 1.00755002e-02, 4.06696042e-03,
       1.51511133e-02, -7.23242201e-03, -1.14719123e-02, -8.98594409e-03,
       -3.87826143e-03, 8.32277909e-03, 1.54859861e-02, 3.71356076e-03,
       -6.14443887e-03, 2.97157653e-03, -6.67026313e-03, -1.38355782e-02,
       -1.66960433e-02, -7.31052086e-03, 2.56218831e-03, 2.31818552e-03,
       -4.43833633e-05, -2.53818952e-03, -3.95724410e-03,
       -7.29708839e-03, -1.39639638e-02, -2.34625749e-02,
       -2.13937350e-02, 4.83104633e-03, 3.79610574e-03, 6.31163409e-03,
       4.85141901e-03, 1.24060856e-02, 1.24432810e-03, -7.51756714e-04,
       -2.37637665e-03, 3.96428956e-03, 1.07375123e-02, 1.48161333e-02,
       2.89905723e-03, -4.23783145e-04, 8.47411901e-03, 1.00595448e-02,
       1.73620768e-02, 1.23781748e-02, 1.25091467e-02, 5.66278258e-03,
       4.31822799e-03, -4.36943676e-03, -2.34299316e-03, 1.13812229e-03,
       -3.88548523e-03, -8.55234917e-03, -1.51851140e-02,
       -1.74245648e-02, 4.66243364e-03, 6.29062019e-03, 5.79272117e-03,
       -1.21750068e-02, -4.59680893e-03, 3.91720608e-03, -3.12115764e-04,
       2.70347390e-03, -4.32772271e-04, 1.37585690e-02, 3.87185556e-03,
       -5.63729368e-03, 1.16591749e-03, 1.60728383e-03, 9.63515602e-03,
       2.65579615e-02, 2.99681090e-02, 1.73409227e-02, 1.27208477e-03,
       -2.20500748e-03, 2.12278846e-03, -3.51632945e-03, -1.10965958e-02,
       -4.80220281e-03, 6.61440426e-03, 1.64819788e-03, -7.63185369e-03,
       -2.07966976e-02, -2.05747467e-02, -5.08415094e-03,
       -1.41465357e-02, -7.95386080e-03, 1.87741895e-03, 1.04625383e-02,
       2.28437856e-02, 1.40339704e-02, 1.06610199e-02, -3.34890257e-03,
       -7.95389246e-03, -8.49962700e-03, -1.93780921e-02,
       -1.55372731e-02, -1.82408013e-03, -9.26117692e-03,
       -4.24248679e-03, -2.28733011e-02, -2.88409851e-02,
       -1.50975194e-02, 1.03238821e-02, -1.11007253e-02, -3.38225043e-03,
       7.12617394e-03, 1.51040191e-02, -8.12404696e-03, -1.38264326e-02,
       -1.92872547e-02, 7.40265939e-03, 1.80283946e-03, -2.35184729e-02,
       -1.99737381e-02, -1.01468824e-02, -8.34529009e-03,
       -2.45017409e-02, -2.31558047e-02, -2.99410429e-02, 4.07702336e-03,
       2.76928511e-03, -1.77678671e-02, -1.19455289e-02, -6.21668820e-04,
       5.90141304e-03, -1.00844279e-02, -1.17106605e-02, -2.16647182e-02,
       3.28952307e-03, 2.99035618e-03, -2.74490211e-02, -1.25860926e-02,
       -1.49687808e-02, -6.57480443e-03, -2.76984386e-02,
       -2.36318577e-02, -3.16911563e-02, 2.09966535e-03, -1.53772682e-02,
       -2.95114517e-03, -7.55872403e-04, 2.11855723e-03, 5.41398162e-03,
       1.55841010e-02, -7.85517797e-04, -8.17777496e-03, -9.57805943e-03,
       -7.36500369e-04, 3.11700604e-03, -1.70858100e-03, 1.15541648e-03,
       -1.74836237e-02, 5.03499247e-03, -7.67418835e-03, -1.15057481e-02,
       -4.81310207e-03, -1.07968263e-02, 3.91432084e-03, 1.35972165e-02,
       1.55845955e-02, 1.63725633e-02, 2.05212161e-02, 7.21634785e-03,
       -3.20133171e-03, -3.38938693e-03, -5.50022116e-03, 6.84281206e-03,
       1.24912411e-02, 1.67554058e-02, 1.15887327e-02, 2.02580858e-02,
       5.15653426e-03, 8.07793532e-03, 5.48322080e-03, 8.17757682e-04,
       1.26731431e-03, 2.28285106e-04, 4.31811810e-03, 1.53200503e-03,
       2.32483526e-05, -4.12397925e-03, -6.49441034e-03, -3.66935099e-04,
       4.59795934e-04, -5.25739451e-04, 8.01553577e-03, 4.89964103e-03,
       -1.50935608e-03, -3.56167392e-03, -5.14337141e-03,
       -8.54420848e-03, -7.15690712e-03, 5.20332018e-03, 6.87287049e-03,
       9.52344015e-03, 1.11464523e-02, 5.70107019e-03, 1.28748929e-02,
       9.10832733e-03, 1.15234125e-02, 8.64076428e-03, 7.73883611e-03,
       9.66503192e-03, 1.35854427e-02, 1.40933245e-02, 1.65584181e-02,
       4.26224340e-03, 4.44036303e-03, -3.32266884e-03, -5.00817411e-03,
       -7.33368471e-03, 7.48320541e-04, 1.21645341e-02, 1.44164590e-02,
       9.92269907e-03, 3.19043873e-03, -9.77971312e-03, -1.03989169e-02,
       -1.85484122e-02, -1.08237350e-02, 7.54635688e-03, 1.14592370e-02,
       1.43228024e-02, 2.46330053e-02, 9.42544173e-03, -1.42025482e-03,
       -1.44490246e-02, -2.51559895e-02, -3.39475955e-04, 6.51577394e-03,
       8.07990879e-03, 1.98405031e-02, 8.46360903e-03, 8.46622046e-03,
       -9.65333951e-04, -6.90109981e-03, -1.34404162e-02,
       -1.23776225e-02, 6.11369777e-03, 1.30472425e-02, 1.91703476e-02,
       2.20433678e-02, 1.91160273e-02, 4.24888125e-03, -7.00028986e-03,
       -2.61246618e-02, -4.92605940e-03, 1.04871579e-02, 1.32718617e-02,
       8.18910543e-03, 1.87485069e-02, 5.70444902e-03, 1.85826197e-04,
       -4.49013384e-03, -1.76801234e-02, -3.52188991e-03, 1.44495349e-02,
       1.31359976e-02, -7.47295702e-03, 5.36912121e-03, -6.44022273e-03,
       -5.17801801e-03, 7.46884034e-04, -1.91270988e-02, -7.02338060e-03,
       9.38141812e-03, 1.69497933e-02, 1.61483828e-02, 2.32428350e-02,
       6.53393846e-03, 7.87705556e-03, 1.02601852e-03, -1.41705405e-02,
       -6.35311380e-03, 1.21467719e-02, 1.83862876e-02, -1.18276163e-03,
       8.32185708e-03, -9.06129275e-03, -6.53271156e-04, -1.73740170e-03,
       -1.65087879e-02, 8.97570141e-03, 2.18273457e-02, 1.53769888e-02,
       -2.02601674e-04, 1.44075835e-03, 1.99080259e-03, 1.65580946e-03,
       1.10625401e-02, -2.75551341e-03, 1.12917777e-02, 9.87047236e-03,
       1.11872805e-02, -1.34727918e-02, 3.77944089e-03, -4.80170501e-03,
       -4.34131548e-03, 6.54631155e-03, 4.47608577e-03, -2.93377176e-04,
       1.32453619e-02, 2.11111568e-02, -1.87927426e-03, 1.54361609e-04,
       -6.40201429e-03, 2.14450690e-03, -1.19458120e-04, -8.23324919e-03,
       7.13003520e-03, 5.64528396e-03, 1.64437555e-02, -9.49134585e-03,
       -5.32034738e-03, -9.27919615e-03, -2.93988152e-03,
       -4.24472103e-03, -3.54050309e-03, 7.70681724e-03, 7.46724987e-03,
       1.06596400e-03, -9.69350152e-03, -7.31871370e-03, 2.98061874e-03,
       9.94231924e-03, 1.18039334e-02, 9.39445198e-03, 1.20137474e-02,
       3.18637467e-03, 4.83210024e-04, -3.41724791e-03, -5.00049500e-04,
       -5.50476694e-03, -2.38731480e-03, 8.49386398e-03, 5.90024749e-03,
       9.48873255e-03, 1.23184510e-02, 1.37816956e-02, -5.72766596e-03,
       -1.51000908e-02, -1.54064421e-03, 9.27513093e-03, 5.97963948e-03,
       -2.77270353e-03, 1.62258698e-03, 9.27397236e-03, 8.00331030e-03,
       -8.77020136e-03, -6.10694056e-03, -4.22992650e-03, 5.13453223e-03,
       4.93787322e-03, -9.32414271e-03, 1.22630438e-02, 9.28459596e-03,
       7.70371640e-03, 6.59385463e-03, 8.13390501e-03, -9.44681873e-04,
       -8.01519677e-03, -5.62311150e-03, 5.97188668e-03, 1.15717975e-02,
       1.21144550e-02, 2.79018888e-03, -6.30061934e-03, 6.65368186e-03,
       -1.30468758e-03, -5.93679911e-03, -4.12222324e-03, 5.99552505e-03,
       -8.36444902e-04, 5.86298527e-03, 6.09145081e-03, -4.91540274e-03,
       -4.93603293e-03, -1.93109573e-03, -1.75810233e-03,
       -6.50320994e-03, -9.29187052e-03, -1.76990451e-03, 1.26185929e-02,
       7.40728294e-03, -1.21618584e-02, -1.16509786e-02, -9.73151065e-03,
       -1.39133316e-02, -7.40992697e-03, -1.00331148e-02, 1.67060290e-02,
       1.38207190e-02, 6.13691006e-03, -3.01774940e-03, -3.20236012e-03,
       5.63080050e-03, -4.47199401e-03, -7.84572307e-03, 8.29840731e-03,
       1.15336310e-02, 4.98803845e-03, 6.40327530e-03, -1.02005922e-03,
       -1.21546267e-02, 2.03137752e-03, -1.22855352e-02, -4.96833818e-03,
       8.17198958e-03, -5.68506634e-03, 1.65591408e-02, 1.87590823e-03,
       -1.16103422e-02, -1.26754241e-02, -4.40086005e-03,
       -1.01000518e-02, -4.25790064e-03, -1.38623947e-02, 1.07666804e-03,
       5.22149401e-03, 1.34528358e-03, -8.02414678e-03, -1.94215234e-02,
       9.24812572e-04, -4.23974125e-03, -2.26524798e-03, -2.94130435e-03,
       9.21795797e-03, 3.54599580e-03, 5.14337374e-03, 2.03087344e-03,
       1.11787615e-03, -2.15900247e-03, -9.89664253e-03, -5.23115322e-03,
       2.30168388e-03, 1.17238937e-03, 7.75915338e-03, -2.83505768e-03,
       2.26797722e-03, 7.36331521e-03, -9.80349164e-03, -1.37749324e-02,
       -8.33723322e-03, -1.16623128e-02, 8.12291633e-03, 7.42146652e-03,
       3.06642195e-03, -4.89242841e-03, -5.23213949e-03, -5.78402542e-03,
       -9.96384490e-03, -8.02146923e-03, -5.03377616e-03, 1.72901095e-03,
       6.15430577e-03, -6.73483172e-03, -9.00836755e-03, 3.76672531e-03,
       -9.54541843e-03, -1.36451945e-02, -6.72591524e-03,
       -1.38779264e-02, -9.15006211e-04, 1.03032906e-02, -1.66252523e-03,
       1.11065954e-02, 9.80100967e-03, 9.12807300e-04, -2.99655600e-03,
       -6.14024512e-03, -7.69441482e-03, -3.44580063e-03, 2.66666943e-03,
       -2.31997855e-03, 8.20268691e-03, 1.75582990e-02, -5.34208678e-03,
       -7.43430387e-03, -5.15740074e-04, -6.82347966e-03,
       -5.05851302e-03, -4.59507760e-03, -1.40465591e-02,
       -3.15918867e-03, -8.37120577e-04, -6.23409124e-03,
       -8.69092718e-03, -1.12963030e-02, -1.49149271e-02,
       -1.16437199e-02, -5.37913758e-03, -9.88995936e-03, 3.66095616e-03,
       1.28992684e-02, -5.61574008e-03, -1.32975932e-02, -2.32357457e-02,
       -1.96763240e-02, 2.91127642e-03, 3.67746688e-03, -3.63179762e-03,
       -4.01220191e-03, 9.38215293e-04, 1.67588727e-03, -3.41951963e-03,
       3.08413873e-03, 2.59323488e-03, 1.14511466e-02, 9.62084997e-03,
       -3.48463561e-03, -6.23208564e-03, -1.09210787e-02, 1.15281390e-02,
       4.03563865e-03, 1.28110275e-02, 1.02360155e-02, -9.63307545e-03,
       -2.19554594e-03, -1.00081367e-02, 1.42227960e-04, -8.16131011e-03,
       -5.87696396e-03, -9.94692557e-03, -1.12949787e-02,
       -1.26930261e-02, -1.54772103e-02, -2.20045820e-03,
       -1.61720682e-02, -1.43329138e-02, -2.06737425e-02,
       -4.27645538e-03, -9.31173470e-03, -8.11576785e-04,
       -5.90155739e-03, 9.33937263e-03, 1.00945579e-02, 1.37692189e-03,
       -4.74392250e-03, -1.74915530e-02, 7.51569925e-04, 3.38907330e-03,
       7.80593883e-03, 1.36455270e-02, 6.81187212e-03, -2.05575561e-04,
       7.52579188e-04, -5.00556780e-03, -1.47711122e-02, -4.82008047e-03,
       6.47469144e-03, 1.10133309e-02, 1.74545590e-02, -7.04630231e-03,
       4.09717788e-04, -8.52740277e-03, -8.07780586e-03, -2.54832674e-02,
       -1.28700435e-02, -1.33463843e-02, -7.96621665e-03,
       -5.13177970e-03, -1.69085059e-02, -6.48293085e-03,
       -1.00674983e-02, -4.64254105e-03, -1.54838711e-02,
       -9.55799408e-03, -1.31840287e-02, -1.20183942e-03,
       -4.51582158e-03, 2.02571996e-03, 5.56928804e-03, 5.96528500e-03,
       -1.76493812e-03, -3.73349711e-03, -6.34580152e-03, 7.50889955e-03,
       1.13347769e-02, 1.43890399e-02, -8.88082106e-03, 3.65664205e-03,
       7.06243236e-03, 4.02594591e-03, 8.63256119e-03, 5.70384413e-03,
       1.97118446e-02, 1.32569969e-02, -4.68174476e-05, -1.43421954e-02,
       -3.95890512e-03, -4.79407748e-03, -4.33410704e-03,
       -9.92440153e-04, -4.87882458e-03, -3.15474952e-03, 5.09672472e-03,
       -5.31251822e-03, -8.86790268e-03, 1.34478929e-03, -4.24812501e-03,
       -7.21216341e-03, 2.37874873e-03, -6.91566756e-03, -8.70768272e-04,
       -1.90618448e-04, -2.00355495e-03, -4.49219672e-03, 4.13341727e-03,
       1.09485481e-02, 1.36549873e-02, 2.03554612e-02, 1.66317038e-02,
       1.96406841e-02, 4.43030335e-03, 2.41771131e-03, -5.32065332e-03,
       -1.56203778e-02, -7.38925068e-03, -4.27148817e-03,
       -2.04682932e-03, -4.46369639e-03, -1.20687801e-02,
       -1.90637950e-02, -7.90320337e-03, 2.10822094e-03, 3.72514664e-03,
       6.64966553e-03, 3.80058656e-03, 6.87277084e-03, 5.82857244e-03,
       8.80522747e-03, 2.61287531e-03, 4.24228888e-03, -6.15814375e-03,
       -2.19808295e-02, -9.05404799e-03, -7.66927004e-03,
       -1.14959590e-02, -8.31943844e-03, -8.41794629e-03,
       -7.88169727e-03, -7.25804735e-03, 7.66295474e-03, -1.62780173e-02,
       -7.68464478e-03, -1.19605633e-04, 6.21471368e-03, -9.05929506e-03,
       -1.25601366e-02, -1.84269901e-02, 6.29756227e-03, 6.27635792e-03,
       -2.34907530e-02, -7.41887139e-03, -3.72718927e-03,
       -4.78829117e-03, -2.39468850e-02, -2.34849248e-02,
       -2.54687704e-02, 1.09770875e-02, 1.36801451e-02, -2.13926621e-02,
       -1.02281077e-02, -3.68474470e-03, -2.51628575e-03,
       -1.39007661e-02, -1.52034909e-02, -1.38876541e-02, 7.97896273e-03,
       9.57947783e-03, -2.46388558e-02, -1.41870957e-02, -9.18912422e-03,
       -1.11179184e-02, -3.38368379e-02, -3.90297882e-02,
       -3.47127356e-02, 3.16441501e-03, -2.23926157e-01 ]
